-3.672492504119873047e-02 1.442253030836582184e-02 -3.377317218109965324e-03 2.799600362777709961e-02 -2.675288915634155273e-02 3.027268871665000916e-02 -3.087653219699859619e-02 -3.266261890530586243e-02 -2.397365123033523560e-02 2.931944327428936958e-03 -2.016963064670562744e-02 2.228551357984542847e-02 -3.393822908401489258e-02 1.361086033284664154e-02 -1.779818267095834017e-04 -2.451553195714950562e-02 -1.528816297650337219e-02 -3.142627701163291931e-02 -1.579295657575130463e-02 2.434088662266731262e-02 -4.177816212177276611e-03 -8.613293059170246124e-03 1.797633618116378784e-02 1.302006654441356659e-02 -3.000055998563766479e-02 -5.732290446758270264e-03 -7.427665870636701584e-03 1.424301601946353912e-02 1.705794781446456909e-02 -2.858761325478553772e-02 1.625271746888756752e-03 1.041478477418422699e-03 1.049043051898479462e-02 1.715728268027305603e-02 -3.078270703554153442e-03 -3.416942059993743896e-02 -2.671894244849681854e-02 6.752186920493841171e-03 -4.156482219696044922e-02 -3.218619897961616516e-02 2.396332472562789917e-02 -2.523368410766124725e-02 -3.561629354953765869e-02 -3.299309313297271729e-02 -1.466643530875444412e-02 2.521902136504650116e-02 -2.438735030591487885e-02 -2.088651619851589203e-02 1.658440940082073212e-02 -5.945785902440547943e-03 -2.234887704253196716e-02 1.731031760573387146e-02 -2.771739673335105181e-04 1.727015897631645203e-02 -2.303808555006980896e-02 -1.885223388671875000e-02 -2.291194722056388855e-02 1.557390112429857254e-02 -1.494230702519416809e-02 -1.507965847849845886e-02 -5.725088529288768768e-03 6.961076054722070694e-03 1.276967301964759827e-02 -3.466304019093513489e-02 -3.412902122363448143e-03 -2.281497418880462646e-02 -1.178361475467681885e-02 -8.158205077052116394e-03 5.328492261469364166e-05 -1.241823285818099976e-01 -6.989733129739761353e-02 -3.650191053748130798e-02 1.404182985424995422e-02 1.658970676362514496e-02 -4.318087920546531677e-02 1.617293618619441986e-02 2.410225942730903625e-02 -3.770104050636291504e-02 1.819333061575889587e-02 -2.809510007500648499e-02 3.141296654939651489e-02 -2.241424843668937683e-02 1.841776818037033081e-02 -1.495629362761974335e-02 -2.147283405065536499e-02 2.818595990538597107e-02 8.691319380886852741e-04 -7.843737490475177765e-03 1.904617622494697571e-02 -2.982658520340919495e-02 -2.791276946663856506e-02 1.628958852961659431e-04 4.416151717305183411e-02 5.406375601887702942e-02 3.834750875830650330e-02 -4.199730977416038513e-02 -1.046712547540664673e-01 -1.039377674460411072e-01 -1.159390211105346680e-01 -5.783321335911750793e-02 -6.457901000976562500e-02 -8.165886998176574707e-02 -5.563588067889213562e-02 -4.600702971220016479e-02 -5.657149478793144226e-02 -4.731399565935134888e-02 -3.368448093533515930e-02 4.061163868755102158e-03 -2.808753401041030884e-02 -1.175644900649785995e-02 1.288152672350406647e-02 -7.829850539565086365e-03 -1.384811941534280777e-03 3.044222667813301086e-02 2.507233247160911560e-02 3.596795350313186646e-02 3.628591075539588928e-02 4.104106687009334564e-03 2.888022176921367645e-02 8.665937185287475586e-02 1.114683970808982849e-01 1.288559138774871826e-01 9.090914577245712280e-02 3.294121706858277321e-04 -1.292054057121276855e-01 -3.354945480823516846e-01 -3.988211154937744141e-01 -2.288395017385482788e-01 -1.216072440147399902e-01 -4.458606615662574768e-02 -9.867017716169357300e-02 -8.531684428453445435e-02 -4.838725924491882324e-02 -7.212261110544204712e-02 -3.155913576483726501e-02 -3.718566894531250000e-02 -3.968962654471397400e-02 4.995877854526042938e-03 6.554939318448305130e-03 1.307237334549427032e-02 1.095557212829589844e-02 1.671020314097404480e-02 1.296021603047847748e-02 4.276820644736289978e-02 3.678391128778457642e-02 4.938689619302749634e-02 1.560599207878112793e-01 2.279494404792785645e-01 2.063380181789398193e-01 2.096436023712158203e-01 6.628331542015075684e-02 -1.335722506046295166e-01 -4.956950843334197998e-01 -4.923920631408691406e-01 -3.946310281753540039e-01 -3.901390433311462402e-01 -2.278304845094680786e-01 -1.879889070987701416e-01 -1.504393815994262695e-01 -2.524921856820583344e-02 -3.648951277136802673e-02 -1.278088092803955078e-01 -9.251550585031509399e-02 -8.058685809373855591e-02 -3.591006994247436523e-02 -1.480092201381921768e-02 2.301114983856678009e-02 3.328726859763264656e-03 -3.271830454468727112e-02 2.251187339425086975e-02 1.830555498600006104e-02 4.912618547677993774e-02 1.305238157510757446e-01 6.279256194829940796e-02 1.983713358640670776e-01 2.671224176883697510e-01 2.449627965688705444e-01 4.994420707225799561e-01 2.790039777755737305e-01 -1.682376116514205933e-02 -1.545470654964447021e-01 -3.403391242027282715e-01 -2.931552529335021973e-01 -1.684078574180603027e-01 -1.970225721597671509e-01 -2.464751712977886200e-02 -6.649789866060018539e-03 -8.221489377319812775e-03 3.553532809019088745e-02 -1.508209016174077988e-02 -8.469586819410324097e-02 -1.261090189218521118e-01 -4.632069170475006104e-02 -2.911286195740103722e-03 8.583309128880500793e-03 -1.176203507930040359e-02 2.830047905445098877e-02 -6.361704319715499878e-03 -1.708763092756271362e-02 1.071665138006210327e-01 1.787638664245605469e-01 1.311569511890411377e-01 2.959165573120117188e-01 2.854003906250000000e-01 4.183172583580017090e-01 3.702800273895263672e-01 2.809350788593292236e-01 9.472034126520156860e-02 2.780352830886840820e-01 6.198252439498901367e-01 3.430843949317932129e-01 1.254066675901412964e-01 -1.211558803915977478e-01 -1.450714319944381714e-01 -9.654874354600906372e-02 -1.091592833399772644e-01 -6.216438859701156616e-02 -6.905198842287063599e-02 -1.457101255655288696e-01 -1.766196936368942261e-01 -1.463006883859634399e-01 -7.396562397480010986e-02 -4.891779646277427673e-02 -2.808746509253978729e-02 1.624125242233276367e-02 2.919268980622291565e-02 2.771868743002414703e-02 9.245334565639495850e-02 2.444452941417694092e-01 1.343004852533340454e-01 7.721433788537979126e-02 2.016334235668182373e-01 2.602943480014801025e-01 2.263150364160537720e-01 5.635917782783508301e-01 5.487829446792602539e-01 8.227360248565673828e-01 9.709916710853576660e-01 8.010826706886291504e-01 3.612132370471954346e-01 1.747407913208007812e-01 -1.054479703307151794e-01 -1.120732426643371582e-01 1.077231112867593765e-02 -1.426503248512744904e-02 -8.868259936571121216e-02 9.317268431186676025e-02 -1.530502736568450928e-01 -1.958294510841369629e-01 -1.199007034301757812e-01 2.332631312310695648e-02 -3.013410791754722595e-02 -1.870748773217201233e-02 2.438795007765293121e-02 -1.664884202182292938e-02 9.902486205101013184e-02 2.280007153749465942e-01 1.877684891223907471e-01 8.734230697154998779e-02 1.606500446796417236e-01 1.460365653038024902e-01 3.280516862869262695e-01 5.246150493621826172e-01 4.692243337631225586e-01 7.827444076538085938e-01 8.168467879295349121e-01 5.886644721031188965e-01 2.925379574298858643e-01 1.560215950012207031e-01 5.538468062877655029e-02 -2.312539815902709961e-01 -8.253344893455505371e-02 3.678703308105468750e-02 -8.571801334619522095e-02 1.194725632667541504e-01 -4.780438542366027832e-02 -1.831358522176742554e-01 -5.781197175383567810e-02 4.350042715668678284e-02 4.804953932762145996e-02 1.063038595020771027e-02 -6.516586989164352417e-03 -9.841202758252620697e-03 1.060984656214714050e-01 1.151688024401664734e-01 2.001945972442626953e-01 8.866006135940551758e-02 3.186969831585884094e-02 -1.919275522232055664e-02 7.337290793657302856e-02 9.733317792415618896e-02 7.910003513097763062e-02 -2.019612491130828857e-01 1.963823139667510986e-01 4.526535794138908386e-02 1.881804466247558594e-01 1.263880431652069092e-01 3.159853816032409668e-02 -1.182265952229499817e-01 -1.427065581083297729e-01 -3.081681579351425171e-02 -1.425103545188903809e-01 -2.757365349680185318e-03 9.393113106489181519e-02 -3.011323697865009308e-02 2.191838808357715607e-03 9.164174087345600128e-03 7.913470268249511719e-03 -2.367219701409339905e-02 2.311000041663646698e-02 1.557264849543571472e-02 5.393898114562034607e-02 1.065188571810722351e-01 7.128474861383438110e-02 -4.630882292985916138e-02 -2.502637803554534912e-01 -1.573117375373840332e-01 -1.555897444486618042e-01 -3.947615623474121094e-01 -9.178251028060913086e-02 -3.707699179649353027e-01 -3.022642731666564941e-01 -3.918684422969818115e-01 7.220160961151123047e-02 1.015711128711700439e-01 9.595392644405364990e-02 6.976222991943359375e-02 -8.589538931846618652e-02 -3.930475190281867981e-02 -2.472418695688247681e-01 -8.313899161294102669e-04 2.104210108518600464e-02 2.777956798672676086e-02 -2.463228884153068066e-05 4.173956438899040222e-02 9.451089426875114441e-03 -5.435032770037651062e-03 7.105485536158084869e-03 2.074398845434188843e-02 5.987577605992555618e-03 -8.392129093408584595e-02 -9.126070886850357056e-02 -2.506336569786071777e-01 -2.646429836750030518e-01 -1.963914334774017334e-01 -3.792889416217803955e-01 -5.086073279380798340e-01 -5.288144350051879883e-01 -5.044635534286499023e-01 -3.596645295619964600e-01 -1.341513991355895996e-01 1.687008291482925415e-01 1.378821581602096558e-01 1.984019428491592407e-01 1.485286206007003784e-01 -4.217540845274925232e-02 -1.155614256858825684e-01 -1.476335674524307251e-01 -6.868117488920688629e-03 -8.629826456308364868e-02 -9.418730624020099640e-04 7.274053245782852173e-02 2.764242142438888550e-02 1.637493446469306946e-02 6.606166251003742218e-03 -3.555480390787124634e-02 -2.832327596843242645e-02 -5.117256939411163330e-02 -2.403224557638168335e-01 -2.699203491210937500e-01 -1.909929066896438599e-01 -2.679621577262878418e-01 -1.497223526239395142e-01 -3.168815970420837402e-01 -1.942465603351593018e-01 -7.689926028251647949e-02 -2.293859720230102539e-01 -4.078269749879837036e-02 -3.534226119518280029e-02 -9.379097074270248413e-02 -3.611830249428749084e-02 2.028241157531738281e-01 1.653035879135131836e-01 -1.123294159770011902e-01 -1.127500310540199280e-01 -6.371301412582397461e-02 -7.669868320226669312e-02 -7.097567617893218994e-02 5.424118041992187500e-02 9.372244030237197876e-02 -2.133990451693534851e-02 -6.937440484762191772e-03 -1.293825171887874603e-02 8.032013662159442902e-03 -2.612492442131042480e-02 -6.131844967603683472e-02 -2.098192125558853149e-01 -3.396195173263549805e-01 -2.952657639980316162e-01 -2.183725684881210327e-01 -1.764673590660095215e-01 -7.820606231689453125e-02 -6.020142138004302979e-02 1.551363710314035416e-02 6.845382601022720337e-02 -1.274950429797172546e-02 -1.085633188486099243e-01 1.278091073036193848e-01 -2.626072764396667480e-01 9.282830357551574707e-02 3.964516893029212952e-02 8.781460672616958618e-02 -2.084657363593578339e-02 -2.186433598399162292e-02 -1.631470322608947754e-01 2.185009978711605072e-02 1.183965653181076050e-01 3.120714612305164337e-02 4.745135083794593811e-03 -8.438388817012310028e-03 -1.381089724600315094e-02 1.147455349564552307e-02 -2.164002694189548492e-02 -1.984626241028308868e-02 -1.420481950044631958e-01 -2.410022914409637451e-01 -2.449643760919570923e-01 -6.699872761964797974e-02 1.062833219766616821e-01 7.295139599591493607e-03 -4.408169537782669067e-02 8.045361191034317017e-02 5.444779247045516968e-02 -6.413989514112472534e-02 7.183030247688293457e-02 2.364020943641662598e-01 -2.258511334657669067e-01 2.106467336416244507e-01 1.910175010561943054e-02 1.734061390161514282e-01 2.386148571968078613e-01 1.162990108132362366e-01 1.079218685626983643e-01 9.721557050943374634e-02 1.342567056417465210e-01 4.273337777704000473e-03 -1.038590632379055023e-02 5.649205297231674194e-03 1.591747254133224487e-02 2.641728892922401428e-02 1.967613399028778076e-02 -8.965140208601951599e-03 -7.159418612718582153e-02 -1.810898035764694214e-01 -1.966417878866195679e-01 1.369293034076690674e-01 3.385545313358306885e-02 -7.173192501068115234e-02 -4.753168672323226929e-02 -6.837014853954315186e-02 3.809574060142040253e-03 1.433072686195373535e-01 -1.545678079128265381e-01 -2.709227502346038818e-01 -3.451479375362396240e-01 -6.114359572529792786e-02 7.071474194526672363e-02 1.849362850189208984e-01 1.864215880632400513e-01 9.367650747299194336e-02 7.691992074251174927e-02 6.803917139768600464e-02 6.848419457674026489e-02 -1.508228201419115067e-02 3.700481727719306946e-02 1.570647582411766052e-02 -3.755664080381393433e-02 -2.201939560472965240e-02 1.349097397178411484e-02 3.669576346874237061e-02 -4.306806996464729309e-02 -1.185293421149253845e-01 -2.055924683809280396e-01 9.787747263908386230e-02 4.057415574789047241e-02 -9.274120628833770752e-02 -1.468849033117294312e-01 3.990669175982475281e-02 1.071420162916183472e-01 4.582403227686882019e-02 -1.279290169477462769e-01 -2.750731110572814941e-01 -4.778478443622589111e-01 -2.187525331974029541e-01 -2.399432212114334106e-01 1.857736855745315552e-01 2.004791051149368286e-01 -2.553796954452991486e-02 3.897254541516304016e-02 5.410994589328765869e-02 7.026227563619613647e-02 3.827464208006858826e-02 1.328621525317430496e-02 2.348912693560123444e-02 3.068330930545926094e-03 -8.056704886257648468e-03 -1.177899911999702454e-02 6.256305426359176636e-02 3.000793978571891785e-02 3.396233078092336655e-03 -3.304373472929000854e-02 -1.239923108369112015e-02 -1.135529205203056335e-02 -4.541391134262084961e-02 4.102385416626930237e-02 2.208634763956069946e-01 1.350378543138504028e-01 -7.697317749261856079e-02 -3.284967541694641113e-01 -1.196473836898803711e-01 -1.905340887606143951e-02 6.195336207747459412e-02 -5.667351186275482178e-02 1.350757926702499390e-01 5.104875564575195312e-02 1.951767131686210632e-03 1.602002829313278198e-01 5.899129062891006470e-02 4.243856295943260193e-02 -6.625354755669832230e-03 4.281129688024520874e-02 1.271801162511110306e-02 2.850762009620666504e-02 -2.072209864854812622e-02 -3.620444564148783684e-03 -3.017533163074404001e-04 2.834374457597732544e-02 4.683106020092964172e-02 -1.538767218589782715e-01 -1.565527468919754028e-01 -2.566805854439735413e-02 3.503849357366561890e-02 3.049452975392341614e-02 -9.684587130323052406e-04 1.132539808750152588e-01 -1.955803036689758301e-01 -6.385705620050430298e-02 1.743015795946121216e-01 2.641218006610870361e-01 -8.811943978071212769e-02 -6.812324374914169312e-02 9.715719521045684814e-02 5.117703974246978760e-02 9.296143800020217896e-02 1.640370637178421021e-01 -7.396319508552551270e-02 -1.180796325206756592e-01 -5.153287574648857117e-02 -2.657820843160152435e-02 1.423056330531835556e-02 1.939780637621879578e-02 2.056730352342128754e-02 2.148548513650894165e-02 7.056757062673568726e-02 2.074836567044258118e-02 -3.053392656147480011e-02 -7.177989184856414795e-02 1.131382435560226440e-01 1.146762594580650330e-01 3.870872408151626587e-02 9.050539880990982056e-02 -1.437106635421514511e-03 -1.978301852941513062e-01 -2.847075760364532471e-01 1.019133999943733215e-01 1.848625093698501587e-01 7.643613219261169434e-02 -2.704814970493316650e-01 -1.138678118586540222e-01 2.168863452970981598e-02 4.360091686248779297e-02 3.877827525138854980e-02 8.104765787720680237e-03 -1.446921192109584808e-02 -8.221684396266937256e-02 1.149389892816543579e-02 -2.466929703950881958e-02 -3.755732206627726555e-03 -1.029003970324993134e-02 -1.226556487381458282e-02 2.442596293985843658e-02 4.039089381694793701e-02 -8.200789801776409149e-03 -1.428183168172836304e-02 5.983107909560203552e-02 1.798769235610961914e-01 4.240963608026504517e-03 -9.268151968717575073e-02 1.227277666330337524e-01 -3.636523708701133728e-02 -1.412338763475418091e-01 -1.663833260536193848e-01 3.351201117038726807e-02 1.293562650680541992e-01 2.275727391242980957e-01 -1.106254830956459045e-01 2.272659912705421448e-02 2.315153181552886963e-02 -2.131324708461761475e-01 -1.407579481601715088e-01 2.842657640576362610e-02 -2.372621372342109680e-02 -4.841560870409011841e-02 -1.405811123549938202e-02 -1.059457892552018166e-03 -3.356273984536528587e-03 1.633421704173088074e-02 -1.007773913443088531e-02 -2.261863090097904205e-03 -2.572507597506046295e-02 4.373263940215110779e-02 8.222299069166183472e-02 9.276286512613296509e-02 9.993386268615722656e-02 -3.370196372270584106e-02 -1.266054213047027588e-01 -6.499315798282623291e-02 2.262491546571254730e-02 8.626304566860198975e-02 -1.240774337202310562e-02 -1.668956875801086426e-01 -3.098740242421627045e-03 1.172500178217887878e-01 4.835410416126251221e-02 4.566445574164390564e-02 4.811865463852882385e-02 -1.051348596811294556e-01 -6.507418304681777954e-02 3.260855376720428467e-02 -3.404198214411735535e-02 -2.021947130560874939e-02 -4.057727754116058350e-02 2.487410604953765869e-02 -2.381231635808944702e-02 -2.865782007575035095e-02 1.139339618384838104e-02 2.637484110891819000e-03 -1.634040847420692444e-02 6.762208789587020874e-02 1.524604111909866333e-01 2.329894304275512695e-01 1.642166972160339355e-01 -1.537708938121795654e-01 -1.653628945350646973e-01 -1.036499515175819397e-01 9.111990034580230713e-02 7.619089633226394653e-02 1.711694449186325073e-01 6.346046924591064453e-03 6.428181380033493042e-02 -2.522337948903441429e-03 -1.274061650037765503e-01 -2.237324789166450500e-02 -1.227209642529487610e-01 -1.443610936403274536e-01 -8.494913578033447266e-02 -6.759989261627197266e-02 -2.190768718719482422e-02 6.059185601770877838e-03 -1.547718700021505356e-02 -3.532592579722404480e-02 -1.801859587430953979e-02 1.809375733137130737e-02 -9.984539821743965149e-03 2.357459440827369690e-02 1.360130682587623596e-02 1.331264823675155640e-01 1.752171069383621216e-01 1.789177507162094116e-01 -2.447369694709777832e-02 -9.457319229841232300e-02 -7.228394597768783569e-02 6.346039474010467529e-02 6.628980487585067749e-02 8.566182106733322144e-02 1.735628396272659302e-01 9.816499054431915283e-02 5.741047114133834839e-02 -3.102139336988329887e-03 -7.795725017786026001e-03 -1.105127856135368347e-01 3.059919178485870361e-02 -1.142936497926712036e-01 -7.496871799230575562e-02 -5.978897586464881897e-02 1.001543947495520115e-03 -1.998123526573181152e-02 1.992556639015674591e-02 4.904109053313732147e-03 1.417554449290037155e-03 3.244638070464134216e-02 -2.990771830081939697e-02 2.579185739159584045e-02 -2.407954260706901550e-02 7.723455131053924561e-02 1.378488447517156601e-02 5.673625692725181580e-02 7.630639523267745972e-02 1.602361202239990234e-01 1.661716103553771973e-01 2.810437381267547607e-01 1.437294334173202515e-01 2.874990403652191162e-01 6.416665017604827881e-02 -8.184809237718582153e-03 2.212398648262023926e-01 2.286133021116256714e-01 9.587281942367553711e-02 7.951853424310684204e-02 1.306075304746627808e-01 -6.464123725891113281e-02 -1.420995891094207764e-01 -9.526748955249786377e-02 -5.172249674797058105e-02 2.368226880207657814e-03 2.381781116127967834e-02 -3.405049815773963928e-02 -1.253099413588643074e-03 -1.055906526744365692e-02 1.578352972865104675e-02 -2.624788135290145874e-02 -1.182726956903934479e-02 -6.910119950771331787e-02 -1.796871870756149292e-01 -1.388864815235137939e-01 2.340007200837135315e-02 8.944594115018844604e-02 4.492079466581344604e-02 8.956564962863922119e-02 2.550532110035419464e-02 1.385615114122629166e-02 1.387218087911605835e-01 1.533451974391937256e-01 9.248496592044830322e-02 1.019193157553672791e-01 7.620584964752197266e-02 1.119151189923286438e-01 1.083320975303649902e-01 4.968687146902084351e-02 -3.229917213320732117e-02 1.018126308917999268e-02 -1.296184211969375610e-02 -2.238464541733264923e-02 2.005740627646446228e-02 -3.026612475514411926e-02 2.680215239524841309e-02 -3.729142993688583374e-02 -1.303610764443874359e-02 -3.175751492381095886e-02 3.282588720321655273e-02 3.459441009908914566e-03 -3.656790032982826233e-02 -2.020766958594322205e-02 -5.996930412948131561e-03 2.919626887887716293e-03 -4.853434860706329346e-03 8.585767820477485657e-03 -9.175239130854606628e-03 1.421711873263120651e-02 4.894021898508071899e-02 -2.794122323393821716e-02 -3.467977792024612427e-02 2.984296903014183044e-02 4.597994312644004822e-02 5.634239874780178070e-03 1.960363797843456268e-02 -1.778644509613513947e-02 -1.966807292774319649e-03 -6.697851233184337616e-03 -1.356725394725799561e-02 -1.590009965002536774e-02 -1.150293834507465363e-02 -1.114585995674133301e-02 -8.612463250756263733e-03
5.571515485644340515e-02 1.171588432043790817e-03 4.258613660931587219e-02 5.579498037695884705e-02 1.372940465807914734e-02 2.449494553729891777e-03 6.415288150310516357e-02 1.623486052267253399e-03 1.832371577620506287e-02 6.703948602080345154e-04 3.383269533514976501e-02 3.615984693169593811e-02 3.092403709888458252e-02 5.237233266234397888e-02 4.925739392638206482e-02 6.822014600038528442e-02 6.900110840797424316e-02 6.560604274272918701e-02 6.980805844068527222e-02 2.522259578108787537e-02 1.817324012517929077e-02 4.085490480065345764e-02 5.084073916077613831e-02 6.535284221172332764e-02 3.503695130348205566e-02 6.918735802173614502e-02 3.924398496747016907e-02 5.556173995137214661e-02 2.353142201900482178e-02 6.978919357061386108e-02 2.332130447030067444e-02 3.365306183695793152e-02 6.533555686473846436e-02 5.086693540215492249e-02 3.115551732480525970e-02 5.560111626982688904e-02 4.186010733246803284e-02 2.747401408851146698e-02 4.727113619446754456e-02 5.252608656883239746e-02 7.376768440008163452e-02 6.896758079528808594e-02 5.313612893223762512e-02 2.931561321020126343e-02 9.404349327087402344e-02 7.507546991109848022e-02 6.810279190540313721e-02 6.677790731191635132e-02 6.293069571256637573e-02 3.448342159390449524e-02 3.138713166117668152e-02 1.742140203714370728e-02 2.728053554892539978e-02 8.660567924380302429e-03 1.337957940995693207e-02 3.332676365971565247e-02 5.050527676939964294e-02 6.665275990962982178e-02 4.970053210854530334e-02 8.411186747252941132e-03 5.829004198312759399e-02 3.396955085918307304e-03 6.662152241915464401e-03 6.618033349514007568e-02 7.030127197504043579e-02 6.593867391347885132e-02 8.177939802408218384e-02 7.514076679944992065e-02 6.271214038133621216e-02 -3.618833795189857483e-02 5.478733777999877930e-02 5.979490652680397034e-02 8.207408338785171509e-02 6.049653887748718262e-02 2.386682480573654175e-02 3.980967774987220764e-02 2.395251765847206116e-03 5.152476951479911804e-02 4.477430507540702820e-02 4.089674726128578186e-02 5.099475756287574768e-02 1.733372360467910767e-02 3.127448633313179016e-02 1.490231882780790329e-02 3.947173431515693665e-02 2.187528461217880249e-02 3.240239247679710388e-02 -1.130985911004245281e-04 4.496354609727859497e-03 3.071776591241359711e-02 3.360885381698608398e-02 2.616587840020656586e-02 2.237986959517002106e-02 4.102166369557380676e-02 -1.260555442422628403e-02 6.142403930425643921e-02 4.816742986440658569e-02 3.118066862225532532e-02 5.812638998031616211e-02 -2.437773533165454865e-02 -2.100501023232936859e-02 -2.179196476936340332e-02 -1.099129095673561096e-01 -1.023219823837280273e-01 -9.611460566520690918e-02 -2.413421683013439178e-02 2.223861031234264374e-02 -6.362589076161384583e-03 5.284237861633300781e-02 2.789069339632987976e-02 6.343266926705837250e-03 5.698104575276374817e-02 2.923025190830230713e-02 5.020642653107643127e-02 6.540915369987487793e-02 6.919162720441818237e-02 4.497697576880455017e-02 5.600750818848609924e-02 1.447594724595546722e-02 2.529684081673622131e-02 -5.947273457422852516e-04 4.916084185242652893e-02 -1.234106067568063736e-02 -8.393641561269760132e-02 -1.325975358486175537e-02 1.978558284463360906e-04 1.375035103410482407e-02 3.187928721308708191e-02 5.632264167070388794e-02 1.533749848604202271e-01 1.689183861017227173e-01 -8.675648272037506104e-02 -8.361744135618209839e-02 -1.166265979409217834e-01 -6.966398656368255615e-02 -4.236394166946411133e-02 -1.509591657668352127e-02 3.401463851332664490e-02 2.134498767554759979e-02 5.911189690232276917e-02 4.436953738331794739e-02 5.807883664965629578e-02 9.764501824975013733e-03 2.367526292800903320e-02 7.743594236671924591e-03 8.658759295940399170e-03 6.875015329569578171e-03 5.532172042876482010e-03 6.151275336742401123e-02 -5.315153300762176514e-02 -1.904062032699584961e-01 -5.306411907076835632e-02 -2.390995435416698456e-02 1.247587949037551880e-01 2.578320205211639404e-01 2.845115661621093750e-01 2.800261974334716797e-01 1.377326548099517822e-01 8.106928318738937378e-03 -2.217289954423904419e-01 -2.619394361972808838e-01 -2.243390679359436035e-01 -1.309455484151840210e-01 3.088252991437911987e-02 -1.223285309970378876e-02 3.887393698096275330e-02 2.887574210762977600e-02 7.135372608900070190e-02 3.326397389173507690e-02 2.738945186138153076e-02 3.709081932902336121e-02 4.570506140589714050e-02 3.441726043820381165e-02 -9.650292806327342987e-03 -1.641351170837879181e-02 3.908108174800872803e-02 -1.116581410169601440e-01 -2.048891782760620117e-01 -2.187803387641906738e-01 8.255893737077713013e-02 2.453292012214660645e-01 2.988699376583099365e-01 3.354750275611877441e-01 3.109489083290100098e-01 2.507158815860748291e-01 1.584138907492160797e-02 -7.618645578622817993e-02 -1.882302612066268921e-01 -3.765608370304107666e-01 -1.520059108734130859e-01 -4.626791458576917648e-03 -6.704460084438323975e-02 -5.432135611772537231e-02 2.372091636061668396e-02 3.955614194273948669e-02 6.844297051429748535e-02 6.270550936460494995e-02 8.696631528437137604e-03 6.298477947711944580e-02 1.127351913601160049e-02 -2.084349468350410461e-02 -5.473177134990692139e-02 2.432784624397754669e-02 -7.379996776580810547e-02 -2.738962769508361816e-01 -2.916550338268280029e-01 -1.734919399023056030e-01 3.404387831687927246e-01 3.118726313114166260e-01 2.398312389850616455e-01 3.808644041419029236e-02 9.358509629964828491e-02 -7.236436009407043457e-02 -2.165396958589553833e-01 -1.135516539216041565e-01 -1.186281889677047729e-01 -1.146568357944488525e-01 -1.170107200741767883e-01 -1.066100895404815674e-01 -5.660382285714149475e-02 9.796222299337387085e-02 -2.244882751256227493e-03 2.949720947071909904e-04 6.365564465522766113e-02 5.750079452991485596e-02 2.095928415656089783e-02 1.406164467334747314e-02 9.226804599165916443e-03 -2.084743045270442963e-02 -6.751219183206558228e-02 2.972730435431003571e-03 -2.431680560111999512e-01 -2.184598445892333984e-01 -2.291643172502517700e-01 1.366861909627914429e-01 3.471295833587646484e-01 1.774203181266784668e-01 6.913103163242340088e-02 -1.687606722116470337e-01 -1.878277808427810669e-01 -2.081568092107772827e-01 -3.667630255222320557e-01 2.310550399124622345e-02 8.332457393407821655e-02 -2.408311814069747925e-01 -2.435419857501983643e-01 -2.953115403652191162e-01 -1.235072836279869080e-01 6.404712796211242676e-02 3.190412826370447874e-04 3.191079571843147278e-02 5.058503895998001099e-02 1.197908859467133880e-04 6.749363988637924194e-02 5.974367633461952209e-02 -2.162264846265316010e-02 -5.184667557477951050e-02 -5.345704406499862671e-02 -1.013371199369430542e-01 -2.269790321588516235e-01 -2.287494838237762451e-01 -1.894765347242355347e-01 1.533638983964920044e-01 2.726216018199920654e-01 -1.752666383981704712e-02 -1.743227243423461914e-02 -3.450241088867187500e-01 -3.452373445034027100e-01 -2.650009989738464355e-01 -6.316912919282913208e-02 2.711688876152038574e-01 1.974993944168090820e-01 -5.790758132934570312e-02 -1.304454505443572998e-01 -2.975848913192749023e-01 -1.655720621347427368e-01 -6.484127044677734375e-02 -6.027826666831970215e-02 3.860325086861848831e-03 8.404070511460304260e-03 2.480832114815711975e-02 9.819185361266136169e-03 5.496020242571830750e-02 2.713795751333236694e-02 -1.480333972722291946e-02 1.022494491189718246e-02 -2.450616471469402313e-02 -1.272762268781661987e-01 -1.434750258922576904e-01 -1.080349385738372803e-01 1.284231990575790405e-01 2.175843119621276855e-01 -1.618884354829788208e-01 -1.705126315355300903e-01 -2.181477397680282593e-01 -3.690760433673858643e-01 -2.453700453042984009e-01 3.689692318439483643e-01 5.233562588691711426e-01 1.688605099916458130e-01 -1.031697466969490051e-01 -1.230023726820945740e-01 -2.625043392181396484e-01 -2.060595005750656128e-01 -1.267015337944030762e-01 -6.013545766472816467e-02 1.659180782735347748e-02 4.289451986551284790e-02 4.684895649552345276e-02 3.057953156530857086e-02 1.486578024923801422e-02 -1.638011075556278229e-02 -1.080501452088356018e-01 -7.359160482883453369e-02 -1.504313573241233826e-02 -1.001099646091461182e-01 -2.359860688447952271e-01 -1.226460784673690796e-01 2.519962787628173828e-01 5.771428346633911133e-02 -1.792358816601336002e-03 -1.379603594541549683e-01 -1.111235767602920532e-01 -1.856273263692855835e-01 8.782346546649932861e-02 2.707137465476989746e-01 2.556909918785095215e-01 2.093061059713363647e-01 1.082637086510658264e-01 2.810456044971942902e-02 -2.197875827550888062e-01 -2.040810883045196533e-01 -1.126177534461021423e-01 -3.850452229380607605e-02 3.839919110760092735e-03 6.691187620162963867e-02 4.850187979172915220e-04 6.634825840592384338e-03 2.434819377958774567e-02 4.183990880846977234e-02 -1.182222738862037659e-01 -7.519742101430892944e-02 -1.034971103072166443e-01 -2.319223880767822266e-01 -1.797088384628295898e-01 -2.298377826809883118e-02 1.770539581775665283e-01 2.238713055849075317e-01 -2.542848885059356689e-02 -1.949764043092727661e-01 -2.477389723062515259e-01 -3.139378428459167480e-01 1.536370664834976196e-01 2.654821872711181641e-01 1.521138250827789307e-01 3.191998600959777832e-01 1.967591792345046997e-01 6.905469298362731934e-02 -5.099327117204666138e-02 -9.101302176713943481e-02 -3.399590030312538147e-02 -1.317104324698448181e-02 -6.053290329873561859e-03 -1.133356010541319847e-03 2.579063177108764648e-02 2.475740946829319000e-02 5.132710561156272888e-02 3.023768775165081024e-02 -1.036011651158332825e-01 -5.409288778901100159e-02 -7.174798846244812012e-02 -7.146108895540237427e-02 -2.086850628256797791e-02 3.265756415203213692e-03 1.558155417442321777e-01 1.069717947393655777e-02 -2.514438331127166748e-01 -4.424590468406677246e-01 -3.860263526439666748e-01 -9.972745180130004883e-02 2.931132316589355469e-01 1.043618991971015930e-01 6.728123128414154053e-02 3.118005990982055664e-01 1.182980239391326904e-01 9.729367494583129883e-02 -2.609699964523315430e-02 2.743304707109928131e-02 3.336322680115699768e-02 -1.120112743228673935e-02 2.533283270895481110e-02 3.266867995262145996e-02 5.090053658932447433e-03 2.706476114690303802e-02 -4.917243961244821548e-03 2.652024384588003159e-03 -3.940095752477645874e-02 -8.216166752390563488e-04 -4.265414550900459290e-02 8.697956800460815430e-02 3.480137884616851807e-02 1.279113888740539551e-01 1.654202491044998169e-01 8.528001606464385986e-02 -2.291310429573059082e-01 -4.593381285667419434e-01 -1.116414964199066162e-01 1.069052070379257202e-01 1.689202189445495605e-01 3.978552669286727905e-02 3.653098642826080322e-01 3.171290755271911621e-01 1.086824759840965271e-01 2.270231768488883972e-02 -5.647995322942733765e-02 -6.532295048236846924e-02 9.046036750078201294e-03 7.940802723169326782e-02 2.544241724535822868e-03 1.822470803745090961e-03 1.522326841950416565e-03 1.822986640036106110e-02 3.573088441044092178e-03 3.634185716509819031e-02 8.580125868320465088e-03 2.097781561315059662e-02 3.521971404552459717e-02 5.666120722889900208e-02 9.450469911098480225e-02 2.438597381114959717e-01 1.595574766397476196e-01 -5.100339651107788086e-02 -2.409074455499649048e-01 -2.664166390895843506e-01 1.309389714151620865e-02 2.164479047060012817e-01 2.643218934535980225e-01 1.453805416822433472e-01 7.468974590301513672e-02 1.435468345880508423e-01 -1.419712752103805542e-01 -6.503713876008987427e-02 -8.085051923990249634e-02 -1.207841560244560242e-01 -2.809815481305122375e-02 6.580764800310134888e-02 1.545238401740789413e-02 7.254263386130332947e-03 4.646510258316993713e-02 6.583458185195922852e-02 -2.087347395718097687e-02 1.785912737250328064e-02 -4.305655136704444885e-02 1.537449657917022705e-02 6.337388604879379272e-02 6.334644556045532227e-02 1.733562797307968140e-01 2.493656873703002930e-01 -5.560326203703880310e-02 -1.799320280551910400e-01 -2.329284548759460449e-01 -8.941345731727778912e-04 1.734424531459808350e-01 7.931686937808990479e-02 4.935308992862701416e-01 3.267984986305236816e-01 -8.298779278993606567e-02 -2.403517216444015503e-01 -1.640597581863403320e-01 -2.142129465937614441e-02 -1.248566210269927979e-01 -2.956984750926494598e-02 2.047818712890148163e-02 9.905025362968444824e-02 8.354465663433074951e-02 7.300136983394622803e-02 4.527182504534721375e-02 7.020330522209405899e-03 6.028782576322555542e-03 -3.984818235039710999e-02 -4.213981330394744873e-02 -6.332483142614364624e-02 1.276895403861999512e-01 9.541840851306915283e-02 3.521934151649475098e-01 2.850899696350097656e-01 -5.037716031074523926e-02 -2.525234520435333252e-01 -1.575695127248764038e-01 2.143149822950363159e-01 -1.786847040057182312e-02 7.060244679450988770e-02 2.605561017990112305e-01 1.874478757381439209e-01 -1.764050722122192383e-01 -4.065434336662292480e-01 -1.065902933478355408e-01 -6.501402705907821655e-02 -6.380548328161239624e-02 -1.112546026706695557e-01 5.131844058632850647e-02 1.037828549742698669e-01 2.784952893853187561e-02 1.155975181609392166e-02 2.960156090557575226e-02 1.476972829550504684e-02 2.567753382027149200e-02 3.354850050527602434e-04 -1.474994118325412273e-03 -2.851780317723751068e-02 1.217509061098098755e-01 2.372114062309265137e-01 3.553124368190765381e-01 2.174496650695800781e-01 -1.976572209969162941e-03 -1.937191933393478394e-01 -5.500422790646553040e-02 1.218609884381294250e-01 -1.295771636068820953e-02 -5.046850815415382385e-02 1.422853171825408936e-01 6.773760169744491577e-02 -5.610426142811775208e-02 -1.771843582391738892e-01 -1.941337287425994873e-01 -1.940910518169403076e-02 -5.930425599217414856e-02 -6.870743632316589355e-02 -1.366643421351909637e-02 9.350893646478652954e-02 7.231891155242919922e-02 5.031498149037361145e-02 1.708742976188659668e-02 2.172847092151641846e-02 4.490008577704429626e-02 -2.736927196383476257e-02 -3.548653796315193176e-02 -6.926281005144119263e-02 -4.213797673583030701e-02 4.663686826825141907e-02 1.657123118638992310e-01 2.132043689489364624e-01 1.069308668375015259e-01 -1.153384074568748474e-01 -6.945867836475372314e-02 2.364272810518741608e-02 -8.057903498411178589e-02 -1.910630613565444946e-01 -2.631123661994934082e-01 -2.272939682006835938e-01 -1.852131634950637817e-01 -1.879159957170486450e-01 -1.792916208505630493e-01 -5.340312048792839050e-02 -3.376746177673339844e-02 -3.214364126324653625e-02 7.089614868164062500e-03 2.057195827364921570e-02 5.116979405283927917e-02 4.585948586463928223e-02 1.298929564654827118e-02 4.923323635011911392e-03 2.560379356145858765e-02 2.536855079233646393e-02 -5.681565031409263611e-02 -1.051699668169021606e-01 -2.093354463577270508e-01 -2.160035371780395508e-01 -6.443474441766738892e-03 3.194992542266845703e-01 1.934477090835571289e-01 1.689136773347854614e-02 7.597254216670989990e-02 1.172155365347862244e-01 -4.938161075115203857e-01 -5.074287652969360352e-01 -3.932234644889831543e-01 -2.212243676185607910e-01 -1.260033696889877319e-01 -1.678059697151184082e-01 -1.743240803480148315e-01 -7.250349223613739014e-02 -8.456282317638397217e-02 -1.009415686130523682e-01 7.144482340663671494e-03 3.131049498915672302e-02 4.857701063156127930e-02 4.635509476065635681e-02 3.532642126083374023e-02 5.435221642255783081e-02 1.717411167919635773e-02 3.163785859942436218e-02 5.111896432936191559e-03 3.785767778754234314e-02 -2.011663764715194702e-01 -2.506294846534729004e-01 1.572718918323516846e-01 4.792083203792572021e-01 2.259383648633956909e-01 9.889177232980728149e-02 2.946189343929290771e-01 1.233052983880043030e-01 -3.831804096698760986e-01 -2.642679810523986816e-01 -1.670477390289306641e-01 -9.148448705673217773e-02 -1.392093747854232788e-01 -2.175394445657730103e-01 -1.860541403293609619e-01 -6.396492570638656616e-02 -4.130234569311141968e-02 -3.895651921629905701e-02 1.208392623811960220e-02 8.615422993898391724e-03 3.410327481105923653e-03 2.835946530103683472e-02 4.000485315918922424e-02 5.397838726639747620e-02 3.618131205439567566e-02 4.684291779994964600e-02 -2.543135546147823334e-02 -1.121619045734405518e-01 -1.262261420488357544e-01 2.527870610356330872e-02 1.994944661855697632e-01 2.492130398750305176e-01 3.835047185420989990e-01 2.252582013607025146e-01 1.826588362455368042e-01 -1.819810569286346436e-01 -2.892784476280212402e-01 -1.219875440001487732e-01 -1.549112796783447266e-01 -2.719901204109191895e-01 -6.727441400289535522e-02 -1.862406581640243530e-01 -6.157736480236053467e-02 -9.425582247786223888e-04 -2.728017605841159821e-02 -3.065445274114608765e-02 -5.832439754158258438e-03 -1.123137120157480240e-02 4.370872676372528076e-02 7.606060709804296494e-03 2.650507912039756775e-02 1.290759257972240448e-02 2.182136848568916321e-02 -2.598116546869277954e-02 -6.071636453270912170e-02 -1.949370801448822021e-01 -1.235958263278007507e-01 2.182046696543693542e-02 2.125250548124313354e-01 8.080013841390609741e-02 1.763231307268142700e-01 2.942296564579010010e-01 2.102300822734832764e-01 -1.258208751678466797e-01 -1.256963461637496948e-01 -1.357001811265945435e-01 -2.045074552297592163e-01 -1.799520552158355713e-01 -1.406366676092147827e-01 -5.661413073539733887e-02 -1.093129999935626984e-02 2.015461772680282593e-02 -3.180464729666709900e-02 -1.823426783084869385e-02 -2.441229112446308136e-02 -1.649853028357028961e-02 1.218163967132568359e-02 3.367998078465461731e-02 6.012299284338951111e-02 1.645053923130035400e-02 5.635868012905120850e-02 -7.102024275809526443e-03 -3.499821200966835022e-02 -5.422705039381980896e-02 -9.157459437847137451e-02 -1.142528727650642395e-01 -2.765348553657531738e-02 -9.508982300758361816e-02 -2.458905056118965149e-02 9.244890511035919189e-02 2.091296203434467316e-02 -1.465252786874771118e-01 -2.325511425733566284e-01 -2.268389612436294556e-01 -7.391850650310516357e-02 -1.319464445114135742e-01 -4.790501296520233154e-02 2.026716247200965881e-02 5.112626776099205017e-02 2.536947652697563171e-02 6.410618126392364502e-02 4.862257838249206543e-02 1.860938966274261475e-02 2.876949682831764221e-02 8.990531787276268005e-03 3.948361147195100784e-03 1.925861835479736328e-02 3.727934136986732483e-02 4.833305627107620239e-02 3.796126320958137512e-02 7.618270814418792725e-02 4.884511977434158325e-02 5.640133470296859741e-02 6.898328661918640137e-02 -8.911090344190597534e-02 -1.304034590721130371e-01 7.109206169843673706e-02 1.208799704909324646e-01 -6.635098904371261597e-02 -8.812341839075088501e-02 1.617217063903808594e-02 -1.955261826515197754e-02 4.658897593617439270e-02 -2.318411320447921753e-02 -1.417178381234407425e-02 5.081838741898536682e-02 5.626742914319038391e-02 7.506019622087478638e-02 4.373257234692573547e-02 1.049683988094329834e-02 4.661292955279350281e-02 6.447040475904941559e-03 6.529287993907928467e-02 2.939342707395553589e-02 2.618404105305671692e-02 5.205704644322395325e-02 1.582487672567367554e-02 2.416463568806648254e-02 7.392548769712448120e-02 8.817129582166671753e-02 1.181526035070419312e-01 6.517390906810760498e-02 6.565070152282714844e-02 4.041109606623649597e-02 5.565568804740905762e-02 2.031563594937324524e-02 4.194188863039016724e-02 2.652896754443645477e-02 3.560806438326835632e-02 2.245972678065299988e-02 4.862523451447486877e-02 -5.172663368284702301e-04 3.292106837034225464e-02 3.924740478396415710e-02 8.563209325075149536e-02 6.168948113918304443e-02 1.025720871984958649e-02 6.046994822099804878e-04 1.788653805851936340e-02 5.861587449908256531e-02 5.617835745215415955e-02 5.103446170687675476e-02 5.899745598435401917e-02 9.074890986084938049e-03 2.401342242956161499e-02 2.562693133950233459e-02 2.214838191866874695e-02 1.210276596248149872e-02 4.756189882755279541e-02 5.947333201766014099e-02 4.685587063431739807e-02 5.074604414403438568e-03 4.456977918744087219e-02 2.931271865963935852e-02 5.472218617796897888e-02 -1.717098057270050049e-03 7.392290979623794556e-02 4.140236601233482361e-02 4.836195707321166992e-02 5.774989351630210876e-02 3.842956945300102234e-02 2.844192273914813995e-02 4.143136739730834961e-02 5.176812410354614258e-02 1.607808470726013184e-02 6.336081773042678833e-02 3.151509910821914673e-02 6.350044161081314087e-02 9.431744692847132683e-04 6.127457600086927414e-03
1.173143647611141205e-02 -1.508362218737602234e-02 7.469666656106710434e-03 7.904278114438056946e-03 1.547116879373788834e-02 3.393842140212655067e-03 4.156902059912681580e-02 2.269080840051174164e-02 -1.737331785261631012e-02 -8.788765408098697662e-04 -3.659743117168545723e-03 -5.326354410499334335e-03 4.240718111395835876e-02 1.190462522208690643e-02 -9.003135375678539276e-03 6.324463989585638046e-03 4.030388221144676208e-02 8.938051760196685791e-03 4.084186628460884094e-02 3.188065066933631897e-02 -1.649841107428073883e-02 3.450352326035499573e-02 -1.840522699058055878e-02 -9.512914344668388367e-03 2.585425041615962982e-02 2.553685568273067474e-02 8.462569676339626312e-04 4.063064977526664734e-02 1.303912047296762466e-02 -7.653368636965751648e-03 1.347582880407571793e-02 -1.305457763373851776e-02 2.879609726369380951e-02 9.172222577035427094e-03 2.801371924579143524e-02 3.338411450386047363e-02 3.121129982173442841e-02 4.089588299393653870e-02 4.251241043675690889e-04 3.583167865872383118e-02 -2.756677381694316864e-02 3.367578983306884766e-02 4.273667559027671814e-02 -1.541272271424531937e-02 2.223630435764789581e-02 2.188290469348430634e-02 -2.356095798313617706e-02 2.521860413253307343e-02 -1.890681125223636627e-02 8.334870450198650360e-03 1.236588321626186371e-02 3.973173722624778748e-02 -1.559305656701326370e-02 1.310442853718996048e-02 -2.565052919089794159e-02 2.780771441757678986e-02 -1.755358092486858368e-02 -1.161345280706882477e-02 8.232364431023597717e-03 3.662752220407128334e-03 2.092565991915762424e-04 2.612061612308025360e-02 2.624467201530933380e-02 -2.622334472835063934e-02 9.120977483689785004e-04 2.050883835181593895e-03 2.520964853465557098e-02 -1.997903920710086823e-02 2.690236829221248627e-02 2.000467292964458466e-02 -2.276156656444072723e-02 2.418706752359867096e-02 2.268476039171218872e-02 4.088757559657096863e-02 4.210215806961059570e-02 2.319091930985450745e-03 3.564702346920967102e-02 1.360173616558313370e-02 -1.618474535644054413e-02 -1.683480851352214813e-02 1.160651259124279022e-02 1.078118663281202316e-02 -2.122918330132961273e-02 2.105910517275333405e-02 -4.427091684192419052e-03 -2.338367281481623650e-03 -2.501769177615642548e-02 4.050167277455329895e-02 3.048135200515389442e-03 2.755978517234325409e-02 2.839754335582256317e-02 2.769956178963184357e-02 -1.180221699178218842e-02 3.551695868372917175e-02 9.848669171333312988e-03 2.782940678298473358e-02 -1.920946873724460602e-02 6.094643031246960163e-04 2.129159681499004364e-02 -3.330897772684693336e-03 1.819690130650997162e-02 -7.154166087275370955e-05 1.811506925150752068e-03 1.351871900260448456e-02 -1.294066756963729858e-02 3.200908377766609192e-02 1.213132776319980621e-02 -2.231072448194026947e-02 1.290505472570657730e-02 -2.297249389812350273e-03 3.630333766341209412e-02 -1.489606406539678574e-02 -1.923484168946743011e-02 1.371331606060266495e-02 2.882786653935909271e-02 3.922250494360923767e-02 3.932616487145423889e-02 2.861970104277133942e-02 2.912437776103615761e-03 2.105156518518924713e-02 2.117620408535003662e-02 3.571436554193496704e-02 3.385474905371665955e-02 3.158874437212944031e-02 1.000043776002712548e-04 -1.906850188970565796e-02 1.234772522002458572e-02 -2.639847621321678162e-02 1.179442554712295532e-02 -2.251928299665451050e-02 9.648021310567855835e-03 -8.852345868945121765e-03 -2.209708560258150101e-03 -1.812870800495147705e-02 3.536897525191307068e-02 4.144489392638206482e-02 2.417119219899177551e-03 -2.359115891158580780e-02 2.019109763205051422e-02 1.989996992051601410e-02 2.450509555637836456e-02 -1.534809637814760208e-02 3.319085016846656799e-02 3.429399803280830383e-02 -9.207352064549922943e-03 6.994442548602819443e-03 1.118666399270296097e-02 3.754843771457672119e-02 4.249386489391326904e-02 2.987454459071159363e-02 3.608274087309837341e-02 -2.283242344856262207e-02 -1.397950947284698486e-02 2.716931700706481934e-02 -2.171714976429939270e-02 -2.746438421308994293e-02 3.234656900167465210e-02 3.047532215714454651e-02 -2.147080004215240479e-02 2.702957391738891602e-02 -2.582847140729427338e-02 3.329731151461601257e-02 -5.815877113491296768e-03 3.644851967692375183e-02 3.094047866761684418e-02 -4.348737129475921392e-04 -1.193505618721246719e-02 3.255409374833106995e-02 -8.697410114109516144e-03 -1.011897437274456024e-02 -1.195907685905694962e-02 1.827354170382022858e-02 -1.160106738097965717e-03 1.290959585458040237e-02 2.165566198527812958e-02 -2.394079975783824921e-02 1.239395979791879654e-02 -1.254564337432384491e-02 1.405163016170263290e-02 2.312647923827171326e-02 3.783680871129035950e-02 -8.668182417750358582e-03 9.480793960392475128e-04 -2.673084475100040436e-02 -2.226493880152702332e-02 -1.929224282503128052e-02 2.362478151917457581e-02 -1.240148209035396576e-02 -2.834496088325977325e-02 -9.629663079977035522e-03 3.299157321453094482e-02 3.906735032796859741e-02 1.247894600965082645e-03 1.062517520040273666e-02 3.152271360158920288e-02 -1.192968431860208511e-02 -8.601530455052852631e-03 4.262500442564487457e-03 4.730013199150562286e-03 4.290850088000297546e-02 4.067054763436317444e-02 -1.724243746139109135e-03 -1.456587016582489014e-02 -2.163261361420154572e-02 3.687529265880584717e-02 -1.813131012022495270e-02 -1.857277378439903259e-02 2.489025518298149109e-02 -2.179311774671077728e-02 1.522690523415803909e-02 -4.123166576027870178e-02 2.955362666398286819e-03 1.238315948285162449e-03 1.289395987987518311e-02 -1.340027782134711742e-03 -1.591424271464347839e-02 5.471691954880952835e-03 2.937633916735649109e-02 -1.648152060806751251e-02 -2.484782785177230835e-02 -1.273826323449611664e-02 -1.833114959299564362e-02 2.750153653323650360e-02 2.901036478579044342e-02 -2.752857469022274017e-02 -1.985017023980617523e-02 2.090850286185741425e-02 -9.713198989629745483e-03 -1.375975925475358963e-02 2.169423550367355347e-02 3.873835504055023193e-02 -2.695332281291484833e-02 8.135195821523666382e-03 -3.806979954242706299e-02 -8.071339689195156097e-03 -1.152625773102045059e-02 2.628119662404060364e-02 -8.694996125996112823e-03 1.566425524652004242e-02 -2.465145289897918701e-02 1.549488806631416082e-04 -1.578127034008502960e-02 -1.351606287062168121e-02 -2.140471711754798889e-02 3.554168716073036194e-02 -2.613889053463935852e-02 -2.100937627255916595e-02 -2.322737313807010651e-02 2.827118150889873505e-02 2.214641682803630829e-02 3.944208100438117981e-02 1.592676714062690735e-02 3.600674495100975037e-02 -2.202641777694225311e-02 1.307613123208284378e-02 1.309176255017518997e-02 -1.021679118275642395e-02 3.439269587397575378e-02 3.108594752848148346e-02 -7.048680912703275681e-03 1.379066379740834236e-03 1.205536257475614548e-02 -7.614541333168745041e-03 1.331857126206159592e-02 2.209978923201560974e-02 4.638839978724718094e-03 -2.359873242676258087e-02 -1.254098489880561829e-02 -9.280678816139698029e-03 8.307982236146926880e-03 -2.523194067180156708e-02 3.818738507106900215e-03 6.530603859573602676e-03 1.052833069115877151e-02 2.082732878625392914e-02 9.160522371530532837e-03 -1.220718584954738617e-02 1.880659162998199463e-02 3.157404437661170959e-02 -5.490548443049192429e-03 -2.444583363831043243e-02 3.618337586522102356e-02 4.004960879683494568e-02 3.962357994168996811e-03 2.230811305344104767e-02 1.403850503265857697e-03 1.587853021919727325e-02 3.051828406751155853e-02 1.560355816036462784e-02 2.652592770755290985e-02 -2.450435794889926910e-02 -1.366465236060321331e-03 -2.476233430206775665e-02 -2.067105658352375031e-02 3.696019574999809265e-02 -9.307311847805976868e-03 1.202070713043212891e-02 -5.862934631295502186e-04 2.052460052073001862e-02 -2.348393760621547699e-02 -3.245031088590621948e-02 -6.661104038357734680e-03 2.300317212939262390e-02 -1.378542650490999222e-02 4.200693685561418533e-03 2.277735434472560883e-02 2.709184028208255768e-02 8.519823662936687469e-03 -3.900027077179402113e-04 1.702191866934299469e-02 -2.690340019762516022e-02 2.716135047376155853e-02 2.428583614528179169e-02 2.764000557363033295e-02 1.217545662075281143e-02 -1.498998142778873444e-02 5.577940493822097778e-03 -9.369874373078346252e-03 -1.666363887488842010e-02 1.331192627549171448e-02 1.188038103282451630e-02 1.523671206086874008e-03 3.244496509432792664e-02 1.557976473122835159e-02 1.459703128784894943e-02 -1.546998042613267899e-02 3.977452963590621948e-02 2.148548699915409088e-02 -6.540203001350164413e-03 -3.481627255678176880e-02 -4.055649507790803909e-03 1.507362257689237595e-02 -6.945372093468904495e-03 -1.535236183553934097e-02 4.061986878514289856e-02 3.600850328803062439e-02 3.689725324511528015e-02 -2.044413425028324127e-02 -3.848729538731276989e-04 -7.468773052096366882e-03 -2.213470451533794403e-02 -5.402269307523965836e-03 -1.146344467997550964e-02 -2.923676185309886932e-02 -1.565712317824363708e-02 -2.675343118607997894e-02 -1.008914224803447723e-02 5.079644266515970230e-03 -5.692311562597751617e-03 -1.880354806780815125e-02 -7.906379178166389465e-03 2.115023136138916016e-02 -5.348978098481893539e-03 2.246634289622306824e-02 -9.143549948930740356e-03 3.477836772799491882e-02 3.384354710578918457e-02 -3.716679988428950310e-03 -3.681593015789985657e-02 1.436380203813314438e-02 1.820853911340236664e-02 2.154132118448615074e-03 -3.291796427220106125e-03 3.473950782790780067e-03 2.774403430521488190e-02 -1.093505299650132656e-03 -8.313692174851894379e-03 2.006268687546253204e-02 1.098762731999158859e-02 -4.446858074516057968e-03 -3.252924978733062744e-02 2.473902329802513123e-02 -4.001897573471069336e-02 3.888122970238327980e-03 -1.998832449316978455e-02 2.036305889487266541e-02 1.880544982850551605e-02 -1.513648033142089844e-02 2.222950011491775513e-02 -1.374842692166566849e-02 -2.615568973124027252e-02 -6.978054065257310867e-03 -1.355695538222789764e-02 3.076870925724506378e-02 4.398922622203826904e-02 -1.670290715992450714e-02 -3.660149127244949341e-02 1.461333129554986954e-02 -8.638491854071617126e-03 2.912418171763420105e-02 -2.364419028162956238e-02 -1.081868889741599560e-03 -2.090216986835002899e-02 -1.664413698017597198e-02 -2.083667553961277008e-02 2.015816606581211090e-02 3.983905073255300522e-03 1.647638529539108276e-02 8.824992924928665161e-03 -1.987027470022439957e-03 -3.605448827147483826e-02 -1.117375493049621582e-02 4.293986596167087555e-03 1.691680954536423087e-04 1.767861656844615936e-02 -4.448658786714076996e-03 -2.179690077900886536e-02 2.112414315342903137e-02 -8.675568737089633942e-03 1.109891384840011597e-02 5.395689979195594788e-03 1.759906671941280365e-02 -3.880671458318829536e-03 -8.286129683256149292e-03 1.352649088948965073e-02 -2.086450345814228058e-02 2.238686382770538330e-02 3.811256960034370422e-02 2.691064588725566864e-02 1.603087410330772400e-02 2.597124688327312469e-02 -1.764650829136371613e-02 -2.498943917453289032e-02 9.180113673210144043e-03 -6.828441284596920013e-03 2.773100323975086212e-02 -1.297404710203409195e-02 -3.580337762832641602e-02 1.367510948330163956e-02 7.645742967724800110e-03 1.317005045711994171e-02 3.382592275738716125e-02 1.289950497448444366e-02 -6.139278411865234375e-03 1.135962549597024918e-02 3.505591768771409988e-03 -2.828617952764034271e-02 -7.612944114953279495e-03 1.591082103550434113e-02 -1.990946754813194275e-02 2.459831163287162781e-02 -1.695702783763408661e-02 -2.714414894580841064e-02 -1.285470742732286453e-02 2.453676797449588776e-02 6.374621298164129257e-03 3.596616908907890320e-02 2.865087799727916718e-02 2.902371995151042938e-02 2.999744005501270294e-02 3.346472978591918945e-02 -1.649031788110733032e-02 -7.658378686755895615e-03 -2.857595682144165039e-02 -2.395151928067207336e-02 -5.261972080916166306e-03 1.188456080853939056e-02 2.749232575297355652e-02 3.694347664713859558e-02 1.088056061416864395e-02 -2.674266509711742401e-02 -1.225409470498561859e-02 -7.019924465566873550e-03 -8.043671026825904846e-03 2.487546205520629883e-02 -1.725600287318229675e-02 -1.737389527261257172e-02 3.849398717284202576e-02 2.248045615851879120e-02 -8.146845735609531403e-03 -1.360264793038368225e-02 -3.739846125245094299e-02 -1.477041933685541153e-02 3.468523547053337097e-02 1.297474373131990433e-02 3.958954289555549622e-02 -1.410014368593692780e-02 -1.196551416069269180e-02 -1.902498118579387665e-02 2.746088057756423950e-02 -2.500116080045700073e-02 -2.083198912441730499e-02 -1.162583241239190102e-03 2.724433317780494690e-02 3.679019957780838013e-02 1.270922925323247910e-02 2.881065011024475098e-02 3.737072274088859558e-02 1.678334199823439121e-03 -1.802962459623813629e-02 -1.447287667542695999e-02 -2.611503005027770996e-02 2.638391405344009399e-02 2.153725922107696533e-02 -1.145289838314056396e-02 3.399792825803160667e-03 -1.686781272292137146e-02 -5.599384661763906479e-03 -2.670493535697460175e-02 -1.208914630115032196e-02 3.894544765353202820e-02 6.581221241503953934e-04 -3.547819796949625015e-04 7.662591990083456039e-03 -1.134759164415299892e-03 -2.490730397403240204e-02 1.930147036910057068e-02 3.738690540194511414e-02 -3.120079869404435158e-03 1.823024079203605652e-02 -1.009180955588817596e-02 8.207428269088268280e-03 1.193239539861679077e-02 2.601698786020278931e-02 -8.841946510074194521e-06 -1.643311977386474609e-02 -1.895993016660213470e-02 1.361778285354375839e-02 1.015616022050380707e-02 -2.247068844735622406e-02 2.419145219027996063e-02 -1.947065070271492004e-02 2.426736243069171906e-02 -2.351278252899646759e-02 -6.907769944518804550e-03 3.640080988407135010e-02 2.041025273501873016e-02 3.688288852572441101e-02 2.350869029760360718e-02 1.534952688962221146e-02 7.292707916349172592e-03 2.925251238048076630e-02 -2.001654170453548431e-02 2.215356566011905670e-02 2.794118598103523254e-03 1.779492199420928955e-02 1.024162769317626953e-02 2.703510597348213196e-02 2.403438463807106018e-02 -2.582076005637645721e-02 8.284857496619224548e-03 1.878926157951354980e-02 1.693528331816196442e-02 3.696754947304725647e-02 1.367136184126138687e-02 1.356460154056549072e-02 8.598223212175071239e-04 -1.611743494868278503e-02 3.637513518333435059e-02 -2.930711722001433372e-03 -1.958732493221759796e-02 5.554017261601984501e-04 1.823999546468257904e-02 2.314307168126106262e-02 3.141657263040542603e-02 -1.391371153295040131e-02 7.516500190831720829e-04 3.372836508788168430e-04 3.675332292914390564e-02 3.467744961380958557e-02 8.037772029638290405e-03 -2.198387123644351959e-02 -1.016693934798240662e-02 9.882309474050998688e-03 2.704786136746406555e-02 2.739413641393184662e-03 -2.777674468234181404e-03 4.301996435970067978e-03 2.391961589455604553e-02 6.682172417640686035e-03 1.960665360093116760e-02 -1.657877676188945770e-02 -2.228350006043910980e-02 7.278264034539461136e-03 1.193963363766670227e-02 1.989131607115268707e-02 -2.179525792598724365e-02 -3.201675415039062500e-02 1.788035780191421509e-02 -2.159690950065851212e-03 2.423839876428246498e-03 1.197929866611957550e-02 -2.684171125292778015e-02 -1.004511583596467972e-02 1.879217103123664856e-02 -2.022194303572177887e-02 3.049034811556339264e-02 -6.772072054445743561e-03 4.134098812937736511e-02 -1.305638230405747890e-03 2.578409388661384583e-03 -1.666573248803615570e-02 3.791470080614089966e-02 -1.098291599191725254e-03 3.076274879276752472e-02 2.777870045974850655e-03 2.027247287333011627e-02 2.474720031023025513e-02 -3.276453819125890732e-03 -2.303566224873065948e-02 -1.169241778552532196e-02 -1.630083657801151276e-02 2.651253947988152504e-03 -3.571746405214071274e-03 -4.114503785967826843e-02 1.885347627103328705e-02 -3.897968446835875511e-03 -2.765838801860809326e-02 -1.123131439089775085e-02 -4.788274876773357391e-03 1.505980268120765686e-02 1.440772879868745804e-02 7.733213249593973160e-03 -2.367519028484821320e-02 3.388910368084907532e-02 -2.584994770586490631e-02 -1.924204267561435699e-02 1.170028559863567352e-02 4.030911251902580261e-02 -2.685358747839927673e-02 1.129110693000257015e-03 1.644022762775421143e-02 3.138104826211929321e-02 1.619404181838035583e-02 -3.732395544648170471e-02 1.415784005075693130e-03 -3.467468544840812683e-02 6.591663230210542679e-03 -3.461521863937377930e-02 -1.506622973829507828e-02 1.873168163001537323e-02 6.346816662698984146e-03 2.705232053995132446e-02 -2.387596759945154190e-03 -3.045904822647571564e-02 -2.483482100069522858e-02 -8.419510908424854279e-03 5.315992515534162521e-03 -1.719095977023243904e-03 -4.513896536082029343e-03 3.051787801086902618e-02 1.640824414789676666e-02 2.483527176082134247e-02 3.767835721373558044e-02 -1.234083715826272964e-02 1.683960668742656708e-03 4.277990385890007019e-02 2.052505966275930405e-03 -1.042998861521482468e-02 -2.321471692994236946e-03 1.991126500070095062e-02 5.122780334204435349e-03 1.361112389713525772e-02 3.168389201164245605e-02 9.415911510586738586e-03 1.802624762058258057e-02 -9.737879037857055664e-03 -8.475972339510917664e-03 -1.557029876857995987e-02 1.725697703659534454e-02 -1.041259709745645523e-02 -1.277372706681489944e-02 -1.015099417418241501e-02 3.972307220101356506e-02 2.739003859460353851e-02 2.414568699896335602e-02 -1.222936529666185379e-02 -4.260301124304533005e-03 1.945202052593231201e-02 -1.573334820568561554e-02 3.419978544116020203e-02 2.572564408183097839e-03 1.184837333858013153e-02 -1.532542798668146133e-02 -2.803012356162071228e-02 8.597634732723236084e-03 2.981392899528145790e-03 2.130888216197490692e-02 2.845290862023830414e-02 -1.652450533583760262e-03 -8.506361395120620728e-03 1.625291421078145504e-03 -7.529777009040117264e-03 2.284264750778675079e-02 -2.070406638085842133e-02 1.478228950873017311e-03 7.516032201237976551e-04 2.264199405908584595e-02 3.041375055909156799e-02 -7.163609378039836884e-03 -9.201522916555404663e-03 -1.914610527455806732e-02 2.066170610487461090e-02 1.157005783170461655e-03 2.298956923186779022e-02 -6.395850330591201782e-03 -1.971004344522953033e-02 -1.162876375019550323e-02 -2.689681388437747955e-02 1.226105727255344391e-02 3.320922702550888062e-02 -9.836789220571517944e-03 6.327291484922170639e-03 3.209802880883216858e-02 2.357427589595317841e-02 -2.824519015848636627e-02 2.634350396692752838e-02 1.431240234524011612e-02 -1.074232906103134155e-02 1.196245290338993073e-02 -1.246901578269898891e-03 4.114981368184089661e-02 -1.979006640613079071e-02 -2.778081782162189484e-02 -5.180604290217161179e-03 -2.844252996146678925e-02 2.880397252738475800e-02 3.106507472693920135e-02 -9.992349892854690552e-03 -2.748367376625537872e-02 2.294418774545192719e-02 -1.945837400853633881e-02 -1.251185033470392227e-02 -8.088774047791957855e-03 -6.232018116861581802e-03 8.081161417067050934e-03 -2.508881501853466034e-02 3.401190787553787231e-02 -7.685906253755092621e-03 8.415575139224529266e-03 1.376504544168710709e-02 3.218153491616249084e-02 -1.646080054342746735e-02 -1.002142019569873810e-02 1.888991519808769226e-02 4.231329634785652161e-02 -1.670274697244167328e-02 3.337229043245315552e-02 2.150348760187625885e-02 1.920382305979728699e-02 1.797494292259216309e-02 2.586760930716991425e-02 -8.166809566318988800e-03 1.976615935564041138e-02 -6.029597017914056778e-03 -2.748269028961658478e-02 7.962300442159175873e-03 2.163567952811717987e-02 -4.233125131577253342e-03 -2.200756408274173737e-02 2.278981916606426239e-02 2.657045237720012665e-02 -2.845303528010845184e-02 -2.082743681967258453e-02 3.725441917777061462e-02 -2.573225460946559906e-02 1.161452941596508026e-02 -2.474366314709186554e-02 -6.545542273670434952e-04 -1.231713686138391495e-02 3.358479961752891541e-02 -7.312311325222253799e-03 -1.600255630910396576e-02 -1.478386577218770981e-02 -1.120672281831502914e-02 -2.278818748891353607e-02 -1.517337653785943985e-02 -1.472202129662036896e-02 1.433006394654512405e-02 -1.623516716063022614e-02 2.772035077214241028e-03 -1.916660927236080170e-02 -2.524328790605068207e-02 2.873992780223488808e-03 1.980063319206237793e-02 -1.640704832971096039e-02 1.442637015134096146e-02 4.187555238604545593e-02 3.448550030589103699e-02 2.238473156467080116e-03 3.289154917001724243e-02 -5.802304367534816265e-04 -5.064166150987148285e-03 4.924898967146873474e-03
3.315921872854232788e-02 -4.359808750450611115e-03 3.240554826334118843e-03 -1.209400407969951630e-02 -1.875290274620056152e-02 2.705707587301731110e-02 1.584758982062339783e-02 3.044095635414123535e-02 -1.747527532279491425e-02 3.825112478807568550e-03 -3.319723531603813171e-02 -1.365493237972259521e-02 -3.066556761041283607e-03 2.813891135156154633e-02 -2.356750704348087311e-02 -3.216357203200459480e-03 -3.164639696478843689e-02 2.118586562573909760e-02 -2.086293138563632965e-02 -2.587007917463779449e-02 2.656818181276321411e-02 -2.914028987288475037e-02 1.491755619645118713e-02 3.205019608139991760e-02 -1.878499239683151245e-02 2.554735913872718811e-02 1.091772504150867462e-02 3.570891544222831726e-02 9.133108891546726227e-03 7.599677890539169312e-03 -2.024259231984615326e-02 4.850025754421949387e-03 -3.236855193972587585e-02 2.664974331855773926e-02 2.562846615910530090e-02 -1.531511824578046799e-02 2.461584657430648804e-02 -2.506040222942829132e-02 1.236888859421014786e-02 1.638631150126457214e-02 -1.523395907133817673e-02 3.627743944525718689e-02 2.251376630738377571e-03 4.296787455677986145e-02 7.053286302834749222e-03 -1.620445214211940765e-02 6.189024075865745544e-03 -5.696777720004320145e-03 1.273370534181594849e-02 -2.614055015146732330e-02 -1.193251460790634155e-02 3.019500710070133209e-02 -2.053726837038993835e-02 1.766454987227916718e-02 3.386402735486626625e-03 -1.577040366828441620e-02 -8.549878373742103577e-03 -6.848829798400402069e-03 -1.687910035252571106e-02 3.304477781057357788e-02 -2.099531516432762146e-02 -9.801357984542846680e-03 1.919776760041713715e-02 3.194490913301706314e-03 -1.024667639285326004e-03 4.716474097222089767e-03 2.728774212300777435e-02 1.043150667101144791e-02 -1.620005443692207336e-02 8.337732404470443726e-03 -2.031229250133037567e-02 5.218521505594253540e-02 2.166669070720672607e-02 -3.214799240231513977e-02 1.455434015952050686e-03 1.856753975152969360e-02 2.034154161810874939e-02 -1.856851018965244293e-02 2.158918045461177826e-02 1.314144674688577652e-02 -2.231849916279315948e-02 -1.049477793276309967e-02 -2.042518369853496552e-02 -2.133596129715442657e-02 -2.265340648591518402e-02 1.338975131511688232e-02 -1.758721657097339630e-02 2.606734074652194977e-02 1.731192320585250854e-02 2.607903629541397095e-02 -1.537800673395395279e-02 2.944441512227058411e-02 1.001025363802909851e-02 3.166253678500652313e-03 -1.502925809472799301e-02 3.547330200672149658e-02 7.795076817274093628e-03 4.034303128719329834e-02 7.951994426548480988e-03 -2.470064908266067505e-03 -7.419637404382228851e-05 6.571296602487564087e-02 4.123289510607719421e-02 2.359869144856929779e-02 -8.638594299554824829e-04 -3.471193462610244751e-02 -4.349693283438682556e-02 7.577558048069477081e-03 2.515661530196666718e-02 2.801868505775928497e-02 -1.333388220518827438e-02 7.099123671650886536e-03 3.328382968902587891e-02 4.148146603256464005e-03 3.405322134494781494e-02 3.027279488742351532e-02 3.547916188836097717e-02 4.719441384077072144e-02 4.036408662796020508e-02 2.829272858798503876e-02 9.882154315710067749e-02 1.742603033781051636e-01 2.407821118831634521e-01 2.190392166376113892e-01 2.580380439758300781e-01 2.142615616321563721e-01 2.325636744499206543e-01 1.284881085157394409e-01 1.350881904363632202e-01 8.424777537584304810e-03 5.697564035654067993e-02 1.427270323038101196e-01 1.192700639367103577e-01 -2.368487976491451263e-02 -9.023476392030715942e-02 -9.074512124061584473e-02 1.042182836681604385e-02 -2.382571436464786530e-02 1.255162898451089859e-02 1.887098886072635651e-02 1.669293083250522614e-02 -1.168321445584297180e-02 2.797451429069042206e-02 -6.027075462043285370e-03 1.745181716978549957e-02 9.378870576620101929e-02 1.333530247211456299e-01 1.127724796533584595e-01 -3.314860537648200989e-02 2.671702206134796143e-02 4.539217427372932434e-02 7.447903603315353394e-02 2.673251926898956299e-01 8.311171829700469971e-02 1.969020813703536987e-02 1.921747773885726929e-01 3.131972253322601318e-02 1.123339757323265076e-01 1.043650731444358826e-01 2.557686269283294678e-01 2.823396921157836914e-01 8.521846681833267212e-02 -1.158141791820526123e-01 -1.325869411230087280e-01 -3.074346482753753662e-02 -2.887259796261787415e-02 1.321976538747549057e-02 1.263839658349752426e-02 -1.047388464212417603e-02 -1.600440777838230133e-02 -2.194665186107158661e-02 4.398187249898910522e-02 1.661872304975986481e-02 -3.326746635138988495e-03 4.039150848984718323e-02 -4.120299126952886581e-03 4.331066459417343140e-02 9.060583263635635376e-02 1.183125451207160950e-01 3.038459718227386475e-01 2.657977044582366943e-01 3.010272085666656494e-01 9.084771573543548584e-02 1.398854553699493408e-01 7.674130797386169434e-02 9.289335459470748901e-02 -1.718071848154067993e-01 -1.585119068622589111e-01 9.803964197635650635e-02 -3.649608045816421509e-02 -1.887949854135513306e-01 -8.874222636222839355e-02 -6.673488765954971313e-02 -3.018156811594963074e-02 2.259383909404277802e-02 -3.228811174631118774e-02 2.013090811669826508e-02 -2.119256369769573212e-02 3.363303840160369873e-02 2.019363082945346832e-02 9.356626868247985840e-02 -6.107779964804649353e-02 -5.966313928365707397e-02 -1.959231942892074585e-01 8.739002048969268799e-02 2.012761086225509644e-01 2.416694909334182739e-01 -2.393013797700405121e-02 8.266342431306838989e-02 7.613424677401781082e-03 -1.379155963659286499e-01 2.020539641380310059e-01 6.064619123935699463e-02 -7.248119264841079712e-02 -1.885816156864166260e-01 -2.520220577716827393e-01 -1.160901635885238647e-01 -1.635216623544692993e-01 -8.377487212419509888e-02 -9.889808297157287598e-02 -5.956593155860900879e-02 2.834044583141803741e-02 -2.255569025874137878e-02 -3.548749536275863647e-02 2.361002750694751740e-02 -8.200636133551597595e-03 2.075882628560066223e-02 1.574267074465751648e-02 3.557445108890533447e-02 -5.883045122027397156e-02 -7.025717757642269135e-03 1.985348761081695557e-02 1.647357493638992310e-01 1.809712350368499756e-01 2.699297666549682617e-01 -2.275833934545516968e-01 -1.600763648748397827e-01 1.236264482140541077e-01 -1.405975669622421265e-01 1.221588999032974243e-02 -9.058818686753511429e-04 2.062268555164337158e-02 1.197640448808670044e-01 6.077596917748451233e-04 -5.131284520030021667e-02 -5.796422064304351807e-02 -3.258117288351058960e-02 -1.024271994829177856e-01 -3.665061667561531067e-02 -3.210552409291267395e-02 -3.732777014374732971e-02 -2.400114573538303375e-02 2.206773869693279266e-02 2.617087587714195251e-02 1.693296805024147034e-02 2.328087203204631805e-02 2.940449491143226624e-02 3.927028924226760864e-02 1.542574465274810791e-01 1.194460690021514893e-01 1.911866366863250732e-01 -4.114891868084669113e-03 2.702690474689006805e-02 -5.272609367966651917e-02 -1.298158615827560425e-01 6.950257718563079834e-02 1.497390717267990112e-01 2.459669858217239380e-01 2.110045254230499268e-01 3.451123535633087158e-01 1.437130123376846313e-01 1.583797782659530640e-01 7.489642500877380371e-02 7.175923138856887817e-02 -1.084609925746917725e-01 -1.512170433998107910e-01 -1.154517829418182373e-01 -4.006117954850196838e-02 3.297097608447074890e-02 6.927207112312316895e-03 -1.142845582216978073e-02 1.833611913025379181e-02 -1.470171101391315460e-02 -2.561872359365224838e-03 5.458977073431015015e-02 1.417249739170074463e-01 2.398656867444515228e-02 -1.706697233021259308e-02 -1.271257847547531128e-01 -2.646543681621551514e-01 -3.476929292082786560e-02 3.406578674912452698e-02 9.119010716676712036e-02 2.188422828912734985e-01 2.061515301465988159e-01 -2.674159407615661621e-01 1.438806951045989990e-01 4.615317881107330322e-01 4.259837567806243896e-01 2.043593823909759521e-01 1.328204125165939331e-01 -1.106320619583129883e-01 -2.029974460601806641e-01 -1.822244226932525635e-01 -1.657392531633377075e-01 -8.435101807117462158e-02 1.956767030060291290e-02 5.382036790251731873e-03 6.351800169795751572e-03 1.580754853785037994e-02 2.653414197266101837e-02 9.671838581562042236e-02 1.633302271366119385e-01 4.992980509996414185e-02 -1.153624206781387329e-01 -1.861886233091354370e-01 -3.343079984188079834e-01 -4.050085544586181641e-01 -2.338856905698776245e-01 2.356929145753383636e-02 3.522504866123199463e-01 3.105982244014739990e-01 3.138479292392730713e-01 7.731734961271286011e-02 2.955912649631500244e-01 6.107860803604125977e-01 3.521590530872344971e-01 5.086208134889602661e-02 -2.409138157963752747e-02 -3.187820017337799072e-01 -2.669087648391723633e-01 -1.873080283403396606e-01 -1.524067372083663940e-01 6.561579648405313492e-03 1.565142348408699036e-02 2.451681159436702728e-02 8.652543649077415466e-03 1.870681531727313995e-02 2.913875039666891098e-03 8.805446326732635498e-02 1.217316687107086182e-01 1.893655210733413696e-02 -1.876632124185562134e-01 -2.019869685173034668e-01 -3.179675936698913574e-01 -3.559925556182861328e-01 -3.660408854484558105e-01 1.115028411149978638e-01 2.623476982116699219e-01 3.835492730140686035e-01 5.766538977622985840e-01 4.446868896484375000e-01 2.309577167034149170e-01 2.868207693099975586e-01 -2.020315676927566528e-01 -2.725464403629302979e-01 -3.837999403476715088e-01 -4.017583727836608887e-01 -2.798885107040405273e-01 -1.683872938156127930e-01 -5.573972314596176147e-02 -1.815947704017162323e-03 -1.336725149303674698e-02 3.645172715187072754e-02 2.419828064739704132e-02 -6.838303525000810623e-03 8.681235834956169128e-03 4.278637096285820007e-02 1.648566871881484985e-02 -4.303382243961095810e-03 -6.021688133478164673e-02 -4.859280958771705627e-02 -1.601141691207885742e-01 -3.660574555397033691e-01 -6.563191413879394531e-01 -3.221030905842781067e-02 1.355707198381423950e-01 4.288227558135986328e-01 4.954519569873809814e-01 2.485927939414978027e-01 1.056013032793998718e-01 -2.812315821647644043e-01 -3.736864328384399414e-01 -3.585763573646545410e-01 -2.765083312988281250e-01 -3.925281763076782227e-01 -2.717740833759307861e-01 -1.706500947475433350e-01 -9.059676900506019592e-03 -2.728025196120142937e-03 -2.838090434670448303e-02 1.407017465680837631e-03 2.098448388278484344e-02 -2.659129723906517029e-02 2.575596049427986145e-02 -7.321201264858245850e-03 -7.216741889715194702e-02 -1.353299617767333984e-01 -8.905775099992752075e-02 2.448340319097042084e-02 -3.343031182885169983e-02 -2.764877974987030029e-01 -3.386607766151428223e-01 -1.417115330696105957e-01 -5.769863352179527283e-02 2.322480231523513794e-01 2.382738292217254639e-01 -9.395407140254974365e-02 -2.227884083986282349e-01 -3.549800217151641846e-01 -3.905981779098510742e-01 -3.322897851467132568e-01 -2.672711312770843506e-01 -1.901014000177383423e-01 -1.344866901636123657e-01 -9.824515879154205322e-02 -2.988742105662822723e-02 1.417840830981731415e-03 7.182128261774778366e-03 -3.731333883479237556e-03 1.866966299712657928e-02 5.399675574153661728e-03 -2.311263605952262878e-02 -5.177769809961318970e-03 -5.347932502627372742e-02 -1.762160360813140869e-01 -9.322237968444824219e-02 6.248624250292778015e-02 1.470334678888320923e-01 4.041740670800209045e-02 -6.159530952572822571e-02 -1.487137377262115479e-01 -1.904237419366836548e-01 2.011429369449615479e-01 3.543145060539245605e-01 -2.920535802841186523e-01 -2.047687619924545288e-01 -2.959390282630920410e-01 -2.627800405025482178e-01 -1.196867823600769043e-01 -1.149400770664215088e-01 -5.705108121037483215e-02 -1.176880206912755966e-02 -3.048968315124511719e-02 -8.172315545380115509e-03 -1.785821223165839911e-04 2.157213166356086731e-02 -3.051383607089519501e-02 2.474028430879116058e-02 -3.204441070556640625e-02 5.423114448785781860e-02 1.129978708922863007e-02 -1.039393022656440735e-01 -1.957702189683914185e-01 2.240461111068725586e-02 1.046184077858924866e-01 6.289528310298919678e-02 2.197146117687225342e-01 2.155708521604537964e-01 1.908149197697639465e-02 -2.972805798053741455e-01 -1.291770488023757935e-01 7.400435209274291992e-02 -2.593181729316711426e-01 -1.567080765962600708e-01 -7.525981962680816650e-02 7.322717458009719849e-02 9.843572974205017090e-03 -8.041613548994064331e-02 -2.052743546664714813e-02 5.218516662716865540e-02 2.558897994458675385e-02 1.799191348254680634e-02 1.225501578301191330e-02 1.274032238870859146e-02 3.112243115901947021e-02 -3.112432919442653656e-02 3.065834939479827881e-02 2.000744082033634186e-02 4.227202758193016052e-02 -3.831008076667785645e-02 -8.507855236530303955e-02 -2.240253426134586334e-02 -2.390334848314523697e-03 1.683552712202072144e-01 6.007486954331398010e-02 -9.511326998472213745e-02 -1.999180316925048828e-01 -3.495790958404541016e-01 -1.215890273451805115e-01 -1.186825111508369446e-01 -2.350340485572814941e-01 -3.722037374973297119e-02 4.482993111014366150e-02 4.288619384169578552e-02 6.430887430906295776e-02 -1.145469918847084045e-01 3.056543692946434021e-02 3.229791671037673950e-02 7.791092991828918457e-02 1.934206229634582996e-03 -3.716547787189483643e-02 1.918630488216876984e-02 -1.673138141632080078e-02 2.807508781552314758e-02 -3.203097730875015259e-02 -1.068346016108989716e-02 6.696452945470809937e-02 -1.620925776660442352e-02 7.053920626640319824e-02 8.063564449548721313e-02 2.184676378965377808e-02 2.009348943829536438e-03 -1.640999764204025269e-01 -2.065297663211822510e-01 -2.567891180515289307e-01 -4.474437534809112549e-01 -6.869018077850341797e-02 -2.949226461350917816e-02 -2.660558521747589111e-01 -5.488803610205650330e-02 -7.351028919219970703e-02 -1.524572521448135376e-01 1.240910440683364868e-01 1.179172191768884659e-02 -6.926456093788146973e-02 3.816171362996101379e-02 4.995979368686676025e-03 -1.834765635430812836e-02 3.651300072669982910e-02 2.558605745434761047e-03 -3.007582016289234161e-02 2.500499971210956573e-02 -2.591486088931560516e-02 -2.787699550390243530e-02 1.117100566625595093e-02 1.896376349031925201e-02 1.848959550261497498e-02 4.473339021205902100e-02 8.119204640388488770e-02 -1.007308438420295715e-01 -2.451641708612442017e-01 -1.450065225362777710e-01 -4.814937114715576172e-01 -5.032454133033752441e-01 -2.377475798130035400e-01 -2.340906113386154175e-01 -3.180826604366302490e-01 -1.669614911079406738e-01 -1.577732563018798828e-01 -7.277701050043106079e-02 1.479447185993194580e-01 3.996165841817855835e-02 7.192056626081466675e-02 1.242077276110649109e-01 5.181356146931648254e-02 -4.402515292167663574e-02 -2.616595663130283356e-02 2.259189635515213013e-02 3.817313350737094879e-03 2.307856269180774689e-02 5.947132129222154617e-03 -2.946214005351066589e-02 4.820897430181503296e-02 8.551793545484542847e-02 4.751960933208465576e-02 6.829044967889785767e-02 9.524649381637573242e-02 -6.912106275558471680e-02 -1.827498227357864380e-01 -1.034228205680847168e-01 -1.842400729656219482e-01 -1.786968111991882324e-01 -2.676556706428527832e-01 -1.678891032934188843e-01 -2.320243269205093384e-01 -1.465089470148086548e-01 -3.394974768161773682e-01 -6.511966884136199951e-02 1.658542454242706299e-01 2.068353295326232910e-01 1.110601201653480530e-01 1.178344562649726868e-01 9.786734730005264282e-02 -4.753055796027183533e-02 1.138780731707811356e-02 -8.798346854746341705e-03 2.411998994648456573e-02 2.048128657042980194e-02 2.881968952715396881e-02 2.729820553213357925e-04 6.186845712363719940e-03 9.326247125864028931e-02 3.060892224311828613e-02 1.139259934425354004e-01 8.751982450485229492e-02 -1.063988655805587769e-01 -1.411056518554687500e-01 -2.656143605709075928e-01 -2.740055620670318604e-01 -1.617712378501892090e-01 3.017409145832061768e-02 9.936213493347167969e-02 9.223969280719757080e-02 4.019785206764936447e-03 -1.471656560897827148e-01 1.983023583889007568e-01 2.614160478115081787e-01 2.383157163858413696e-01 4.878297820687294006e-02 7.121964544057846069e-02 -1.469224039465188980e-02 -4.319558665156364441e-02 3.720840066671371460e-02 -2.418345585465431213e-02 -3.421701118350028992e-02 3.442673757672309875e-02 -2.806084975600242615e-02 2.372367493808269501e-02 4.262028262019157410e-02 1.027413532137870789e-01 4.168525338172912598e-02 1.146508380770683289e-01 1.412939280271530151e-01 -1.714480668306350708e-02 -8.329316973686218262e-02 -1.092309355735778809e-01 -1.227699741721153259e-01 -2.601173520088195801e-01 -1.876553893089294434e-02 2.175536006689071655e-01 8.905589580535888672e-02 -1.064389571547508240e-02 1.054762154817581177e-01 2.110467702150344849e-01 4.080308601260185242e-02 2.119446992874145508e-01 1.940019056200981140e-02 4.214762523770332336e-02 2.307840622961521149e-05 -2.740047872066497803e-02 3.110910765826702118e-02 2.043435815721750259e-03 3.403917187824845314e-03 -1.047800481319427490e-02 -2.542960457503795624e-02 -1.787500269711017609e-02 3.311224281787872314e-02 4.528358951210975647e-02 2.995650097727775574e-02 4.740673303604125977e-02 1.356126815080642700e-01 8.503928780555725098e-02 1.470468342304229736e-01 -8.600682765245437622e-02 -5.084463208913803101e-02 -1.291746199131011963e-01 9.468528628349304199e-02 -8.492139726877212524e-02 1.239888146519660950e-01 8.034075796604156494e-02 1.038964837789535522e-01 2.177184373140335083e-01 1.157515048980712891e-01 2.122881412506103516e-01 4.276445880532264709e-02 2.316027507185935974e-02 -8.097149431705474854e-03 -3.315555676817893982e-02 -2.596081700176000595e-03 -3.893560031428933144e-03 -3.119009546935558319e-02 -2.734332578256726265e-03 -3.235416114330291748e-02 8.693851530551910400e-03 -3.961638081818819046e-03 1.210234127938747406e-02 1.478808559477329254e-02 5.969846993684768677e-02 3.061870485544204712e-02 1.146452575922012329e-01 1.124205216765403748e-01 -3.471236675977706909e-02 -1.068969294428825378e-01 -1.776970326900482178e-01 -2.866999208927154541e-01 -3.605863749980926514e-01 -1.671879440546035767e-01 -4.410960525274276733e-02 -3.947268426418304443e-02 2.941234223544597626e-02 6.377130001783370972e-02 9.561261534690856934e-02 1.011603698134422302e-02 -2.400267682969570160e-02 1.457473076879978180e-02 -2.516516670584678650e-02 -6.056941580027341843e-03 -2.399673685431480408e-02 2.495997212827205658e-02 -1.659778691828250885e-02 7.901977747678756714e-03 5.559122655540704727e-03 -2.586566470563411713e-02 -1.568121276795864105e-02 -1.629135571420192719e-02 3.265608102083206177e-02 1.305153593420982361e-02 8.245111256837844849e-02 1.402380913496017456e-01 6.911115348339080811e-02 -4.720274358987808228e-02 -5.536784976720809937e-02 -1.084932163357734680e-01 -5.425973609089851379e-02 -6.389551609754562378e-02 7.641500979661941528e-02 8.971750736236572266e-02 7.160754501819610596e-02 4.613331332802772522e-02 1.929090730845928192e-02 -2.404908649623394012e-02 -5.770932510495185852e-02 -2.769114263355731964e-02 -7.308534346520900726e-03 -3.017543442547321320e-02 3.502077236771583557e-02 3.403181210160255432e-02 -2.429904974997043610e-02 -5.596249364316463470e-03 9.015963412821292877e-03 1.124975830316543579e-02 8.183648809790611267e-03 -2.692420780658721924e-02 3.169547021389007568e-02 -3.978603705763816833e-02 1.514217350631952286e-02 1.287076901644468307e-02 3.199870884418487549e-02 -3.531404957175254822e-02 -8.116070926189422607e-02 -1.833802834153175354e-02 2.435481548309326172e-02 5.967314355075359344e-03 -1.000654534436762333e-03 6.585293263196945190e-02 2.657622098922729492e-02 -1.340495236217975616e-02 1.899294182658195496e-02 5.809232965111732483e-02 -3.291421383619308472e-02 -2.274762652814388275e-02 -5.222508218139410019e-03 6.509833037853240967e-03 2.028564549982547760e-02 -1.295325532555580139e-02 -4.821760114282369614e-03 3.359535709023475647e-02 -5.765697453171014786e-03 -7.856993004679679871e-03 -1.918433606624603271e-02 -2.069728448987007141e-02 -3.255880670621991158e-03 -1.342302188277244568e-02 1.093951519578695297e-02 2.052590064704418182e-02 -3.087755478918552399e-02 -1.859701611101627350e-02 2.269205870106816292e-03 1.487992890179157257e-02 3.156042471528053284e-02 2.051697485148906708e-02 2.658684551715850830e-02 7.292374502867460251e-04 -1.237972825765609741e-02 2.402484789490699768e-02 -1.970601268112659454e-02 -1.457276172004640102e-03 -1.610350050032138824e-02 -5.645600613206624985e-03 -4.585329908877611160e-03 -2.746922150254249573e-02 -2.637223340570926666e-03 -3.053554520010948181e-02
-5.072570964694023132e-02 -7.079693675041198730e-02 -1.645663380622863770e-02 -3.805888816714286804e-02 -1.636057905852794647e-02 -1.770072989165782928e-02 -7.471080124378204346e-02 -6.575930863618850708e-02 -5.260459706187248230e-02 -7.269971072673797607e-02 -7.806642353534698486e-02 -5.484321340918540955e-02 -4.196190088987350464e-02 -4.629473388195037842e-02 -3.076884150505065918e-02 -7.024198025465011597e-02 -4.809147492051124573e-02 -8.616775274276733398e-02 -5.119277909398078918e-02 -2.541327103972434998e-02 -5.811444297432899475e-02 -7.449266314506530762e-02 -6.049042567610740662e-02 -7.291033864021301270e-02 -8.279559016227722168e-02 -5.715942755341529846e-02 -5.247950926423072815e-02 -7.587367296218872070e-02 -7.857556641101837158e-02 -6.346645206212997437e-02 -8.588866889476776123e-02 -7.131817936897277832e-02 -2.515098825097084045e-02 -2.452680468559265137e-02 -2.954125776886940002e-02 -2.964988909661769867e-02 -2.241438813507556915e-02 -3.473181277513504028e-02 -2.962541207671165466e-02 -6.387186795473098755e-02 -4.469189792871475220e-02 -6.983330845832824707e-02 -1.789144426584243774e-02 -3.903536126017570496e-02 -7.867524772882461548e-02 -4.485478997230529785e-02 -3.768347576260566711e-02 -7.489921897649765015e-02 -4.445766285061836243e-02 -6.235220283269882202e-02 -1.787815056741237640e-02 -8.614763617515563965e-02 -3.159152716398239136e-02 -2.571580559015274048e-02 -7.842887938022613525e-02 -2.504780888557434082e-02 -7.843393087387084961e-02 -7.510642707347869873e-02 -6.522393971681594849e-02 -5.897681415081024170e-02 -4.180317744612693787e-02 -4.784841835498809814e-02 -7.728198915719985962e-02 -9.533842653036117554e-02 -7.552705705165863037e-02 -9.860038012266159058e-02 -1.054662764072418213e-01 -1.013641655445098877e-01 -1.182760819792747498e-01 -1.441933363676071167e-01 -1.550068408250808716e-01 -1.092207580804824829e-01 -1.490008085966110229e-01 -1.051883101463317871e-01 -6.161392480134963989e-02 -6.656111776828765869e-02 -9.161680191755294800e-02 -7.946397364139556885e-02 -6.668145954608917236e-02 -2.430165186524391174e-02 -2.735112421214580536e-02 -7.870066165924072266e-02 -7.883574068546295166e-02 -2.017697319388389587e-02 -2.912703529000282288e-02 -7.311762869358062744e-02 -4.732862859964370728e-02 -4.094189405441284180e-02 -1.984740979969501495e-02 -6.479278951883316040e-02 -4.788015782833099365e-02 -7.372721284627914429e-02 -8.055364340543746948e-02 -8.677889406681060791e-02 -7.766032963991165161e-02 -7.550739496946334839e-02 -6.322807073593139648e-02 -5.585274845361709595e-02 -2.886173315346240997e-02 -9.590214118361473083e-03 -3.804607689380645752e-02 -4.752124845981597900e-02 1.407370087690651417e-03 -9.703126549720764160e-02 2.028609439730644226e-02 4.999714903533458710e-03 -5.632333084940910339e-02 -6.205194443464279175e-02 -6.622406095266342163e-02 -9.589374996721744537e-03 -3.254804760217666626e-02 -3.739790990948677063e-02 -5.285471305251121521e-02 -4.643100872635841370e-02 -2.425350621342658997e-02 -2.988487482070922852e-02 -5.211542546749114990e-02 -7.370314747095108032e-02 -1.311218291521072388e-01 -1.043938696384429932e-01 -1.502228826284408569e-01 -9.525847434997558594e-02 -9.382629394531250000e-02 -5.611827224493026733e-02 -2.379248663783073425e-02 -6.914351135492324829e-02 5.780049785971641541e-02 1.823327839374542236e-01 1.290738284587860107e-01 3.748440369963645935e-02 -3.832134976983070374e-02 -2.234945259988307953e-02 -3.856428712606430054e-02 1.035654097795486450e-01 4.108500480651855469e-02 8.867008984088897705e-02 7.873899489641189575e-02 -8.964112028479576111e-03 -5.409300327301025391e-02 -2.062198892235755920e-02 -4.656160995364189148e-02 -3.935410454869270325e-02 -5.775380879640579224e-02 -8.070578426122665405e-02 -1.041436493396759033e-01 -1.397350877523422241e-01 -1.342746615409851074e-01 -1.050882190465927124e-01 -1.070073693990707397e-01 1.011101994663476944e-02 1.626501977443695068e-02 1.717301607131958008e-01 1.591299176216125488e-01 1.122516617178916931e-01 4.295753538608551025e-01 1.453394442796707153e-01 1.301717907190322876e-01 2.329729348421096802e-01 -1.515534669160842896e-01 -1.310455948114395142e-01 5.552968382835388184e-02 -1.406374201178550720e-02 -2.875742688775062561e-02 -6.105634942650794983e-02 4.905184358358383179e-02 2.037693373858928680e-02 -1.138763967901468277e-02 -8.169831335544586182e-02 -1.902514696121215820e-02 -5.351028591394424438e-02 -5.802739411592483521e-02 -4.009380191564559937e-02 -1.028286144137382507e-01 -4.022911936044692993e-02 -5.194674432277679443e-02 3.495110943913459778e-02 1.428592950105667114e-01 1.588864438235759735e-02 5.737658124417066574e-03 1.794737018644809723e-02 1.076273098587989807e-01 2.220749855041503906e-01 2.063760161399841309e-01 2.088372260332107544e-01 2.731767296791076660e-01 1.963400989770889282e-01 -1.580335199832916260e-02 5.166527628898620605e-02 4.276827722787857056e-02 -7.493354845792055130e-03 1.210435032844543457e-01 1.013015806674957275e-01 7.936804741621017456e-02 1.990856789052486420e-02 -1.428467687219381332e-02 -5.723609402775764465e-02 -7.541643083095550537e-02 -4.594215378165245056e-02 -6.757012754678726196e-02 -8.483864367008209229e-02 -8.635529875755310059e-02 -3.099208325147628784e-02 -2.927851118147373199e-02 9.869570843875408173e-03 1.208327189087867737e-01 4.511121660470962524e-02 9.201119840145111084e-02 9.442029893398284912e-02 6.534880399703979492e-02 1.803829148411750793e-02 -2.088199555873870850e-01 1.313525140285491943e-01 7.925853133201599121e-02 1.580920219421386719e-01 1.445648670196533203e-01 1.516072638332843781e-02 -4.675844684243202209e-02 -5.600535869598388672e-02 1.474000513553619385e-01 2.328791171312332153e-01 4.539607837796211243e-02 1.875908812507987022e-03 -5.894492939114570618e-02 -4.426030814647674561e-02 -3.027426451444625854e-02 -4.589741677045822144e-02 -7.556648552417755127e-02 -7.146612554788589478e-02 -1.265590190887451172e-01 -5.400605872273445129e-02 9.795711189508438110e-02 3.618733212351799011e-02 4.827926307916641235e-02 7.206494361162185669e-02 3.796844929456710815e-02 1.110178753733634949e-01 9.669949859380722046e-02 6.760675460100173950e-02 -1.356666348874568939e-02 1.810693740844726562e-02 1.542242020368576050e-01 4.455040022730827332e-02 1.774981021881103516e-01 -2.157083004713058472e-01 -1.297300774604082108e-02 3.032958880066871643e-02 6.418048590421676636e-02 1.651679277420043945e-01 2.473467588424682617e-01 1.121590211987495422e-01 1.041552424430847168e-02 -4.392926022410392761e-02 -3.434459865093231201e-02 -8.804916590452194214e-02 -6.270599365234375000e-02 -4.039848223328590393e-02 -1.056454777717590332e-01 -6.899507343769073486e-02 6.076800078153610229e-02 -1.203354448080062866e-01 -5.540775135159492493e-02 6.561105698347091675e-02 6.711334735155105591e-02 6.222653388977050781e-02 3.143737837672233582e-02 1.382276117801666260e-01 1.180496737360954285e-01 -8.433549851179122925e-02 -7.199366111308336258e-03 1.188802123069763184e-01 -1.337773501873016357e-01 -1.208898946642875671e-01 -4.636745434254407883e-03 1.638012826442718506e-01 -3.823344409465789795e-02 1.873380690813064575e-01 3.135442137718200684e-01 8.622068166732788086e-02 -1.809613965451717377e-02 -4.105187207460403442e-02 -2.406740747392177582e-02 -7.039627432823181152e-02 -4.389559477567672729e-02 -1.003822088241577148e-01 -2.303890651091933250e-03 -4.151647910475730896e-02 -8.050559088587760925e-03 -7.254887372255325317e-03 8.469069749116897583e-02 1.506105214357376099e-01 8.391998708248138428e-02 7.244132924824953079e-03 1.585035771131515503e-01 1.790417283773422241e-01 3.205613493919372559e-01 -8.947215974330902100e-02 -1.464296597987413406e-02 1.093526482582092285e-01 -6.833644956350326538e-02 -2.351313829421997070e-01 4.169553890824317932e-02 2.312279306352138519e-02 1.511960178613662720e-01 1.983811110258102417e-01 2.312071621417999268e-01 7.171524316072463989e-02 -3.998074308037757874e-02 -3.271394222974777222e-02 -7.787024229764938354e-02 -8.290482312440872192e-02 -3.546873852610588074e-02 -7.009023427963256836e-02 3.923539537936449051e-03 -1.310297101736068726e-02 1.041541397571563721e-01 1.336343586444854736e-01 8.384218066930770874e-02 -5.531583912670612335e-03 -2.025276049971580505e-02 8.543279021978378296e-02 2.378594279289245605e-01 1.967876106500625610e-01 1.009789854288101196e-01 6.191276013851165771e-03 8.271037787199020386e-02 2.791681885719299316e-01 3.486207872629165649e-02 -5.474261939525604248e-02 1.331242825835943222e-02 4.222678393125534058e-02 4.373334720730781555e-02 1.561415344476699829e-01 2.565781772136688232e-01 1.002950742840766907e-01 -1.502344035543501377e-03 -7.251399755477905273e-02 -4.498617723584175110e-02 -1.998003013432025909e-02 -6.861875951290130615e-02 -3.276870399713516235e-02 4.019295051693916321e-02 1.099778339266777039e-01 1.608075648546218872e-01 5.966043844819068909e-02 -1.067913696169853210e-01 -1.778578013181686401e-01 -2.203325778245925903e-01 2.257622592151165009e-02 5.560198426246643066e-02 2.271808236837387085e-01 -2.504377067089080811e-01 -5.212059617042541504e-02 -1.581490784883499146e-02 2.480612099170684814e-01 7.279811799526214600e-02 1.380876898765563965e-01 5.874357745051383972e-02 6.532759219408035278e-02 -1.323141157627105713e-02 8.976591378450393677e-02 3.747903928160667419e-02 -6.027645990252494812e-02 -3.289281576871871948e-02 -7.574301213026046753e-02 -3.338624909520149231e-02 -5.646414309740066528e-02 -6.190519034862518311e-02 -3.780169412493705750e-02 4.993921518325805664e-02 7.530559599399566650e-02 5.964043736457824707e-02 9.146215766668319702e-02 -2.159562706947326660e-02 3.822172060608863831e-02 -7.234333455562591553e-02 5.571598932147026062e-02 1.577815711498260498e-01 -6.618224829435348511e-02 -1.853380948305130005e-01 -1.101281214505434036e-02 -6.106577441096305847e-02 9.962645918130874634e-02 7.445716112852096558e-02 1.280658692121505737e-01 7.446039468050003052e-02 -7.882026024162769318e-03 6.738168746232986450e-02 -6.457463651895523071e-02 -1.258164197206497192e-01 -8.364669978618621826e-02 -3.856768086552619934e-02 -6.701496243476867676e-02 -2.651285938918590546e-02 -2.090423554182052612e-02 -4.668260738253593445e-02 -8.509900420904159546e-02 1.561619620770215988e-02 8.474827557802200317e-02 6.751478463411331177e-02 1.045752018690109253e-01 -1.083199027925729752e-02 -8.484473824501037598e-02 3.585436195135116577e-02 1.608550399541854858e-01 5.398479476571083069e-02 -1.484011951833963394e-02 -7.529411464929580688e-02 -9.196888655424118042e-02 -2.525220215320587158e-01 5.815144628286361694e-02 1.102959662675857544e-01 -5.240676924586296082e-02 -1.155188493430614471e-02 6.188037246465682983e-02 -2.390701696276664734e-02 -6.439588218927383423e-02 -7.836617529392242432e-02 -1.264302879571914673e-01 -5.480365082621574402e-02 -6.005726009607315063e-02 -5.017276480793952942e-02 -4.523163661360740662e-02 -8.438511937856674194e-02 -9.508002549409866333e-02 6.494237482547760010e-02 4.649422317743301392e-02 1.202882677316665649e-01 1.397959142923355103e-01 9.031355381011962891e-02 3.894562274217605591e-02 1.460403800010681152e-01 6.910160183906555176e-02 1.390701383352279663e-01 -1.240648850798606873e-01 -2.514368295669555664e-02 -2.557768821716308594e-01 -7.160495966672897339e-02 -6.559833139181137085e-02 5.057444330304861069e-03 -8.299878984689712524e-02 6.490508466958999634e-02 -2.318387269042432308e-04 -6.173766031861305237e-02 -4.266135394573211670e-03 -8.796513825654983521e-02 -1.279262900352478027e-01 -5.842677503824234009e-02 -4.661149159073829651e-02 -1.928688585758209229e-02 -2.126155421137809753e-02 -7.106543332338333130e-02 -7.345768809318542480e-02 -1.386801805347204208e-02 -5.515843629837036133e-02 7.849318534135818481e-02 -3.837420791387557983e-02 -1.181462220847606659e-02 -6.887461245059967041e-02 1.018598675727844238e-01 9.858758002519607544e-02 1.620723605155944824e-01 -7.893794029951095581e-02 -2.420670837163925171e-01 -1.480689346790313721e-01 -8.072584122419357300e-02 7.563961297273635864e-02 -8.849627524614334106e-02 -1.554263830184936523e-01 7.064871490001678467e-02 -7.709650695323944092e-02 -4.368570446968078613e-02 -6.257790140807628632e-03 -1.278382837772369385e-01 -1.745208352804183960e-01 -1.277401149272918701e-01 -4.507692158222198486e-02 -6.073017790913581848e-02 -4.490535706281661987e-02 -2.038076147437095642e-02 -9.572979807853698730e-02 3.002257272601127625e-02 7.947038859128952026e-02 5.182958766818046570e-02 -1.410753902746364474e-04 -1.319584697484970093e-01 7.003648579120635986e-02 6.831756979227066040e-02 2.249179482460021973e-01 -1.383007969707250595e-02 -1.432711482048034668e-01 -1.632077842950820923e-01 -7.110631465911865234e-02 5.417467281222343445e-02 1.728338748216629028e-01 -1.657818108797073364e-01 -8.920111507177352905e-02 2.564671263098716736e-02 -1.746350675821304321e-01 -4.231975972652435303e-02 3.622103109955787659e-02 -3.944468125700950623e-02 -1.433065682649612427e-01 -8.517039567232131958e-02 -3.478617593646049500e-02 -4.741823673248291016e-02 -6.715083122253417969e-02 -6.937538087368011475e-02 -3.811667487025260925e-02 -3.575306385755538940e-02 1.067614033818244934e-01 1.565653532743453979e-01 -1.462125126272439957e-02 8.481212425976991653e-04 -5.891549214720726013e-02 6.003506854176521301e-02 2.045103311538696289e-01 1.889558695256710052e-02 -1.177818402647972107e-01 -8.466444164514541626e-02 -1.133215203881263733e-01 3.680699504911899567e-03 -2.130847126245498657e-01 -3.613879084587097168e-01 -1.326428353786468506e-01 -3.257643431425094604e-02 -9.886759519577026367e-02 -1.017311662435531616e-01 -5.834915861487388611e-02 -1.163810342550277710e-01 -1.514593660831451416e-01 -2.838861756026744843e-02 -7.174813747406005859e-02 -4.008205607533454895e-02 -1.959094405174255371e-02 -1.095243915915489197e-02 -4.846683144569396973e-02 -5.106227099895477295e-02 -4.080562293529510498e-02 -3.754603210836648941e-03 -1.058246642351150513e-01 1.192300841212272644e-01 -9.575667232275009155e-02 -7.300172001123428345e-02 -1.853079199790954590e-01 -7.181991823017597198e-03 -5.135209113359451294e-02 -1.813388913869857788e-01 -2.528809905052185059e-01 -2.715072035789489746e-01 -1.621934622526168823e-01 -4.979068413376808167e-02 -4.297336935997009277e-02 -5.052619427442550659e-02 -4.910214804112911224e-03 -7.871096581220626831e-02 -1.212967708706855774e-01 -5.718371644616127014e-02 -1.246721297502517700e-01 -9.660989791154861450e-02 -5.953997746109962463e-02 -7.670803368091583252e-02 -1.948876492679119110e-02 -8.611001074314117432e-03 -7.534709572792053223e-02 -4.757820069789886475e-02 1.410277001559734344e-02 -7.046505063772201538e-02 -1.336402148008346558e-01 8.604555577039718628e-02 1.048680245876312256e-01 2.191312424838542938e-02 -1.268881857395172119e-01 -5.323880165815353394e-02 -2.211168408393859863e-02 -3.418502807617187500e-01 -1.402956694364547729e-01 -1.835760176181793213e-01 -9.700302034616470337e-02 -1.194300502538681030e-01 -1.053211092948913574e-01 -1.430542469024658203e-01 -1.721438467502593994e-01 -6.892525404691696167e-02 -7.556442916393280029e-02 -1.033216342329978943e-01 -3.802755475044250488e-02 -8.995174616575241089e-02 -5.891789123415946960e-02 -1.969453692436218262e-02 -2.177846431732177734e-02 -4.917126148939132690e-02 -9.607915580272674561e-02 -4.560073092579841614e-02 1.969467662274837494e-02 1.450980901718139648e-01 5.140980705618858337e-02 -9.120428934693336487e-03 1.750757992267608643e-01 -1.097977682948112488e-01 1.343074589967727661e-01 -5.010442435741424561e-02 -1.334314793348312378e-01 -1.853878796100616455e-01 5.742178112268447876e-02 -1.561202406883239746e-01 -1.100955307483673096e-01 -2.666586041450500488e-01 -1.816587597131729126e-01 -1.865338832139968872e-01 -1.361716836690902710e-01 -8.499746210873126984e-03 -1.255897730588912964e-01 -7.986783981323242188e-02 -4.991350695490837097e-02 -8.243663609027862549e-02 -6.508859992027282715e-02 -6.912461668252944946e-02 -4.388037696480751038e-02 -2.548709884285926819e-02 -1.666061207652091980e-02 -7.196438312530517578e-02 -6.307184696197509766e-02 2.317281812429428101e-02 8.976898342370986938e-02 -3.496905788779258728e-02 4.184173047542572021e-02 9.142275899648666382e-02 9.052473306655883789e-02 2.716997638344764709e-02 -7.642522105015814304e-04 6.042294204235076904e-02 -8.898601680994033813e-02 -8.124390989542007446e-02 -1.229213923215866089e-01 -1.222588941454887390e-01 -7.734562456607818604e-02 -1.556328237056732178e-01 -1.344341635704040527e-01 -5.799277126789093018e-02 -4.806858673691749573e-02 -2.734109573066234589e-02 -5.368331447243690491e-02 -6.749185919761657715e-02 -7.530109584331512451e-02 -5.758610740303993225e-02 -2.735207229852676392e-02 -6.061726063489913940e-02 -5.591013003140687943e-03 2.425852790474891663e-02 -1.038313657045364380e-02 -1.314439326524734497e-01 -1.084907799959182739e-01 1.830119267106056213e-02 -8.988571353256702423e-03 2.448710240423679352e-02 -3.679167479276657104e-02 -5.905665457248687744e-02 1.136335358023643494e-01 5.733321979641914368e-02 -3.759515285491943359e-02 2.966486103832721710e-02 -5.259137228131294250e-02 -2.167985774576663971e-02 -7.525369524955749512e-02 -8.056133240461349487e-02 -3.499168902635574341e-02 -2.677584066987037659e-02 -1.396091002970933914e-02 -2.617258764803409576e-02 -3.127502650022506714e-02 -4.643845930695533752e-02 -6.773434579372406006e-02 -1.779348030686378479e-02 -5.319814756512641907e-02 -2.826117165386676788e-02 -2.397167496383190155e-02 -8.489898592233657837e-02 -1.695539918728172779e-03 -7.146110385656356812e-02 -3.253308683633804321e-02 4.313362017273902893e-02 3.225871920585632324e-02 2.650698646903038025e-02 2.875649370253086090e-02 1.946047395467758179e-01 2.852247357368469238e-01 7.933502644300460815e-02 3.921590000391006470e-02 -2.279748581349849701e-02 -2.246899157762527466e-01 -3.865236788988113403e-02 9.980155155062675476e-03 -9.417925029993057251e-03 -1.003415361046791077e-01 -4.001431912183761597e-02 -4.558185487985610962e-02 -8.569706231355667114e-02 -4.653368517756462097e-02 -2.109289355576038361e-02 -1.648909412324428558e-02 -3.424897417426109314e-02 -7.117591798305511475e-02 -8.252060413360595703e-02 -8.406867086887359619e-02 -7.257468253374099731e-02 -9.192650020122528076e-02 -4.959436878561973572e-02 -8.897408843040466309e-02 -1.399159580469131470e-01 -5.552497878670692444e-02 3.012386336922645569e-02 6.583938747644424438e-02 -6.631553918123245239e-02 6.798663735389709473e-02 -8.613751083612442017e-02 1.930414885282516479e-02 4.897149279713630676e-02 1.632291264832019806e-02 5.651251226663589478e-02 -2.939191646873950958e-03 -4.989249259233474731e-02 -1.264982484281063080e-02 8.509354665875434875e-03 -4.007569700479507446e-02 -7.148914039134979248e-02 -2.553243935108184814e-02 -6.560595333576202393e-02 -2.352309599518775940e-02 -4.143900051712989807e-02 -6.778793036937713623e-02 -6.662452220916748047e-02 -4.192965105175971985e-02 -3.864947706460952759e-02 -4.856757819652557373e-02 -3.715886920690536499e-02 -8.042024075984954834e-02 -8.911830186843872070e-02 -4.410615190863609314e-02 -4.857618361711502075e-02 -3.029571287333965302e-02 5.667469277977943420e-02 -5.177572742104530334e-02 -9.540400654077529907e-02 -8.689548075199127197e-02 -6.204795464873313904e-02 3.943460993468761444e-03 -9.300082921981811523e-02 -7.932588458061218262e-02 -9.951086342334747314e-02 -4.115772992372512817e-02 -9.367525577545166016e-02 -6.550496071577072144e-02 -6.578096747398376465e-02 -2.238347381353378296e-02 -1.608137600123882294e-02 -7.700011134147644043e-02 -8.019007742404937744e-02 -8.276151120662689209e-02 -1.686157286167144775e-02 -2.115298062562942505e-02 -7.938927412033081055e-02 -3.198967128992080688e-02 -7.056522369384765625e-02 -2.807286940515041351e-02 -7.061911374330520630e-02 -6.327949464321136475e-02 -7.817821949720382690e-02 -5.033088475465774536e-02 -7.940620183944702148e-02 -6.903725117444992065e-02 -2.030202560126781464e-02 -3.325553238391876221e-02 -7.027713954448699951e-02 -8.312780410051345825e-02 -6.672962009906768799e-02 -2.270592935383319855e-02 -5.946319550275802612e-02 -7.970847189426422119e-02 -8.783373981714248657e-02 -5.922349169850349426e-02 -5.928489938378334045e-02 -6.761539727449417114e-02 -3.762593120336532593e-02 -3.219601884484291077e-02
