5.927887931466102600e-02
8.431044407188892365e-03
-7.094204192981123924e-04
-1.194236800074577332e-02
-2.165115671232342720e-03
3.030891716480255127e-02
7.296773605048656464e-03
1.314112637192010880e-02
-1.098239235579967499e-02
7.426708005368709564e-03
2.351644821465015411e-02
-2.713756449520587921e-02
1.503002550452947617e-02
-8.908727206289768219e-03
-5.828449968248605728e-03
-1.188100781291723251e-02
4.819744452834129333e-02
-1.780083216726779938e-02
9.674488566815853119e-03
-3.421346470713615417e-02
-3.813340514898300171e-02
4.628282971680164337e-03
3.218510653823614120e-03
-2.053957618772983551e-02
2.300695888698101044e-02
-2.241705358028411865e-02
1.520157326012849808e-02
-4.765241220593452454e-02
2.417378872632980347e-02
-1.979354582726955414e-02
-1.332015637308359146e-02
1.774803362786769867e-02
-5.219231545925140381e-02
6.450877524912357330e-03
2.621642872691154480e-02
6.444221735000610352e-02
-4.310875758528709412e-02
2.046919893473386765e-03
2.283666096627712250e-02
-3.525727987289428711e-02
8.050840348005294800e-03
1.789619913324713707e-03
-1.462257094681262970e-02
-5.079650320112705231e-03
-2.790213562548160553e-02
-3.875587508082389832e-02
2.702117152512073517e-02
-2.245820872485637665e-02
-1.474092621356248856e-02
-3.367108106613159180e-02
-1.445697247982025146e-02
-2.389647532254457474e-03
-2.391074597835540771e-02
-3.956697136163711548e-02
8.912947960197925568e-03
1.617921632714569569e-03
2.283638156950473785e-02
3.718747571110725403e-02
-1.926035061478614807e-02
-2.598569495603442192e-03
2.944686566479504108e-04
1.977272517979145050e-02
2.846970595419406891e-02
-7.157970685511827469e-03
