8.121557533740997314e-03
-4.758821800351142883e-02
-2.715352363884449005e-02
-4.279421176761388779e-03
5.362816527485847473e-02
2.567472681403160095e-02
2.502219867892563343e-04
-2.247338369488716125e-02
2.510249847546219826e-03
2.332983724772930145e-02
2.215486252680420876e-03
7.323319558054208755e-03
-4.674327000975608826e-02
-2.519582957029342651e-02
9.224933572113513947e-03
-3.004290396347641945e-03
-3.648095950484275818e-02
1.630000025033950806e-02
-2.830547280609607697e-02
-3.434749692678451538e-02
-3.219110146164894104e-02
1.252590306103229523e-02
-3.058192506432533264e-02
1.141194626688957214e-02
-5.551382154226303101e-02
-4.579865373671054840e-03
1.140777580440044403e-02
2.610820578411221504e-03
2.718516066670417786e-02
-2.760234847664833069e-02
-2.459049224853515625e-02
-2.078259922564029694e-02
-2.012692205607891083e-02
4.434870183467864990e-02
-3.644825890660285950e-02
-7.665076758712530136e-03
-3.595241159200668335e-02
-2.543100854381918907e-03
1.406285446137189865e-05
4.535403847694396973e-02
-4.945009015500545502e-03
-1.492628641426563263e-02
1.602416113018989563e-02
-5.925152823328971863e-02
-6.672819610685110092e-03
1.077497657388448715e-02
2.436748892068862915e-02
-1.098311226814985275e-02
-2.957748016342520714e-03
3.763557225465774536e-02
-1.875849999487400055e-02
-4.242211207747459412e-02
1.614853367209434509e-02
-3.765946999192237854e-02
-3.103652410209178925e-02
2.033811761066317558e-03
-5.845573544502258301e-02
-1.082284841686487198e-02
7.967182435095310211e-03
-1.073750481009483337e-02
1.866567693650722504e-02
2.124700881540775299e-02
3.820002824068069458e-02
-1.695191673934459686e-02
-3.092372044920921326e-02
-1.265911036171019077e-03
1.346821896731853485e-02
-4.011175781488418579e-02
-3.932435810565948486e-02
1.135368365794420242e-02
-1.112237200140953064e-02
8.130744099617004395e-03
-1.395687088370323181e-02
2.244083955883979797e-02
-3.144988417625427246e-02
2.213781699538230896e-02
-2.032620459794998169e-02
-4.650861490517854691e-03
-1.014476083219051361e-02
-3.579612821340560913e-02
3.814103454351425171e-02
4.589798860251903534e-03
-2.416812814772129059e-02
9.825692512094974518e-03
-8.363149827346205711e-04
-5.724911391735076904e-02
-1.820418797433376312e-02
-3.446911647915840149e-02
-2.808201126754283905e-02
2.553143166005611420e-02
1.889262907207012177e-02
-1.232436671853065491e-02
-3.834858164191246033e-02
-3.684612363576889038e-02
-2.669638022780418396e-03
-1.412843912839889526e-02
-2.818244136869907379e-02
-6.339679658412933350e-02
-2.530953660607337952e-02
-6.987885385751724243e-02
-8.507056161761283875e-03
-5.164039321243762970e-03
-6.435680668801069260e-03
1.684473454952239990e-02
-2.651695162057876587e-02
-3.671514615416526794e-02
1.513808406889438629e-02
-2.118881605565547943e-02
8.979189209640026093e-03
-1.032750681042671204e-02
2.240219712257385254e-02
2.377546858042478561e-03
-1.745001063682138920e-03
-2.092622965574264526e-02
9.827025234699249268e-03
-2.584739401936531067e-02
-2.575918659567832947e-02
-3.436454385519027710e-02
-2.082735113799571991e-02
2.518557012081146240e-02
-2.550196368247270584e-03
-1.470023952424526215e-02
-4.953412339091300964e-02
-1.934269815683364868e-02
-3.086753748357295990e-02
-9.129159152507781982e-03
-9.681010269559919834e-04
-4.394210409373044968e-03
