-3.910455852746963501e-03
-1.653718575835227966e-02
6.309300661087036133e-03
-2.208691090345382690e-02
-3.214205428957939148e-02
-3.084530867636203766e-02
-2.540507726371288300e-02
1.188175193965435028e-02
3.386372467502951622e-03
-1.971157034859061241e-03
1.012341771274805069e-02
-7.308109104633331299e-02
2.954429946839809418e-02
1.243776292540132999e-03
1.327572204172611237e-02
1.146002905443310738e-03
-1.176217384636402130e-02
-4.059562087059020996e-02
2.197726070880889893e-02
-7.042510807514190674e-02
1.248521357774734497e-02
-4.214532300829887390e-02
-1.588615961372852325e-02
1.533605158329010010e-02
-2.605922520160675049e-03
-2.144487015902996063e-02
2.779709920287132263e-02
8.108776994049549103e-03
-5.943165719509124756e-02
-4.365763068199157715e-02
-2.245950885117053986e-02
2.644128352403640747e-02
-5.171624198555946350e-02
8.526860736310482025e-03
-5.782462656497955322e-02
-3.139806911349296570e-02
-2.749552763998508453e-02
-8.523066341876983643e-02
-3.743704780936241150e-02
8.253961801528930664e-03
-1.041078753769397736e-02
8.508585393428802490e-02
-3.833275660872459412e-02
-2.876224368810653687e-02
3.900612518191337585e-02
4.749667271971702576e-02
-1.375858765095472336e-02
-3.031887859106063843e-02
-1.441423408687114716e-02
-4.765585809946060181e-02
1.605680584907531738e-02
-3.010433167219161987e-02
-4.426570981740951538e-02
-3.344390541315078735e-02
-2.467899397015571594e-02
-3.808420849964022636e-03
-2.766415849328041077e-02
5.037300288677215576e-03
-2.797039784491062164e-02
-4.426176473498344421e-02
-4.072162881493568420e-02
-2.201912365853786469e-02
-3.377185761928558350e-02
-2.291590161621570587e-02
1.614631898701190948e-02
-6.051890924572944641e-02
2.103938721120357513e-02
-3.632217645645141602e-02
-5.004397593438625336e-03
2.899793209508061409e-03
-2.368078567087650299e-02
-5.515209399163722992e-03
-3.109136223793029785e-02
-2.188395708799362183e-02
-5.158178973942995071e-03
1.642620563507080078e-02
1.195919606834650040e-02
3.951719403266906738e-02
-2.098741568624973297e-02
-4.825233947485685349e-03
-1.239890512079000473e-02
-2.176058851182460785e-02
2.133456990122795105e-02
-7.025297731161117554e-02
-2.726340666413307190e-02
-4.764055775012820959e-04
-1.546453684568405151e-02
-1.522765122354030609e-02
3.125769784674048424e-03
4.886244609951972961e-02
-2.197751961648464203e-02
3.400424867868423462e-02
-3.361680358648300171e-02
-3.225360438227653503e-02
3.710292279720306396e-03
1.746368966996669769e-02
-1.069630775600671768e-02
1.621179468929767609e-02
1.632738485932350159e-02
-4.242564551532268524e-03
-7.878333330154418945e-02
-7.447733543813228607e-03
2.829266712069511414e-02
2.630817703902721405e-02
-2.708528377115726471e-02
-1.063852198421955109e-02
2.595913363620638847e-03
-4.197804257273674011e-03
-3.114420175552368164e-02
-2.777126990258693695e-02
-5.695605278015136719e-02
-1.532609760761260986e-02
-2.698686905205249786e-03
4.612212628126144409e-02
2.633765339851379395e-02
5.900297313928604126e-03
1.284297206439077854e-03
-3.889377415180206299e-02
-3.047683835029602051e-02
-4.187449067831039429e-02
-8.914908394217491150e-03
-1.025514397770166397e-02
1.105539733543992043e-03
-3.575770929455757141e-02
2.506683580577373505e-03
-3.723734989762306213e-02
-3.674503043293952942e-02
-2.905442379415035248e-02
