1.812686957418918610e-02 1.616397406905889511e-03 5.098812747746706009e-03 -1.864950545132160187e-02 2.982873097062110901e-02 2.731713000684976578e-03 -2.835394255816936493e-02 8.053807541728019714e-04 2.898163162171840668e-02 -8.939093095250427723e-04 1.301573310047388077e-02 2.883293898776173592e-03 3.268428146839141846e-02 1.437464635819196701e-02 -1.084448862820863724e-02 -2.925834245979785919e-02 2.051697485148906708e-02 2.834253199398517609e-02 -2.669168403372168541e-03 -2.965375967323780060e-02 2.720395661890506744e-02 -1.743938960134983063e-02 6.270412821322679520e-03 -2.008209563791751862e-02 -2.815445326268672943e-02 -5.463982466608285904e-03 -1.311979535967111588e-02 4.036899656057357788e-02 1.936220936477184296e-02 -1.578316465020179749e-02 3.618967533111572266e-02 1.786144264042377472e-02 1.634799502789974213e-02 -2.515600062906742096e-02 3.817479312419891357e-02 -1.352383848279714584e-02 2.822166308760643005e-03 -1.348444540053606033e-02 3.185098618268966675e-02 3.372896462678909302e-02 -2.139083668589591980e-02 -4.189639352262020111e-03 3.041381575167179108e-02 -2.981553785502910614e-02 -2.406080998480319977e-02 -1.178725343197584152e-02 5.809659603983163834e-03 -3.058335930109024048e-02 1.648916630074381828e-03 2.601435594260692596e-02 9.842903818935155869e-04 -1.159224379807710648e-02 -8.434320800006389618e-03 2.421641908586025238e-02 -2.209232933819293976e-02 1.249524857848882675e-02 -1.820091716945171356e-02 1.743331365287303925e-02 2.195380441844463348e-02 1.995901390910148621e-02 -1.358579192310571671e-02 -3.007777594029903412e-02 -1.568904519081115723e-02 -1.010690163820981979e-02 -1.783931069076061249e-02 5.423500388860702515e-02 -4.771169740706682205e-03 1.855191215872764587e-02 8.197882212698459625e-03 -1.128420978784561157e-02 3.173498064279556274e-02 -3.710879012942314148e-02 -7.436383515596389771e-02 -3.952573053538799286e-03 -4.906188230961561203e-03 -2.122014015913009644e-02 1.451305299997329712e-02 -1.577654294669628143e-02 1.698336377739906311e-02 3.795700892806053162e-02 1.641514897346496582e-02 2.088755182921886444e-02 -2.283654920756816864e-02 4.372550640255212784e-03 -7.741338107734918594e-03 -1.608020247658714652e-04 -8.113023824989795685e-03 -8.341828361153602600e-03 7.707461249083280563e-03 1.917098066769540310e-03 3.105606697499752045e-02 -1.274070143699645996e-02 -7.160966284573078156e-03 4.663668200373649597e-02 8.639264851808547974e-02 6.562520563602447510e-02 4.228296503424644470e-02 1.662934124469757080e-01 1.756564527750015259e-01 1.550636291503906250e-01 1.943183243274688721e-01 1.820748597383499146e-01 8.693060278892517090e-02 4.248678311705589294e-02 -2.389498800039291382e-02 -5.952420085668563843e-02 -7.145597040653228760e-02 -9.075527638196945190e-02 -1.726919226348400116e-02 1.641942374408245087e-02 1.462770346552133560e-02 3.623729944229125977e-02 -1.905866153538227081e-02 -1.265581976622343063e-02 -7.127854041755199432e-03 -4.314426332712173462e-04 -3.328553587198257446e-02 2.209871774539351463e-03 8.122595399618148804e-02 6.645360589027404785e-02 1.581552997231483459e-02 1.411500126123428345e-01 1.154328435659408569e-01 1.634716540575027466e-01 8.973868936300277710e-02 1.258437037467956543e-01 9.690721333026885986e-02 3.458710610866546631e-01 3.923927247524261475e-01 3.615140020847320557e-01 3.865307569503784180e-01 1.879066526889801025e-01 -2.931741066277027130e-02 -1.359318196773529053e-01 2.578323893249034882e-02 4.309524223208427429e-02 2.356995828449726105e-02 5.436440557241439819e-02 -2.971490472555160522e-02 -4.190703481435775757e-02 -3.034914098680019379e-02 2.668313868343830109e-02 -2.022914355620741844e-03 -6.512425374239683151e-03 1.884560473263263702e-02 2.307654730975627899e-02 5.120763182640075684e-02 1.675805263221263885e-02 1.762683838605880737e-01 2.117141336202621460e-01 2.445304244756698608e-01 1.944304555654525757e-01 4.977815970778465271e-02 2.138942629098892212e-01 3.216189797967672348e-03 -3.007899820804595947e-01 -7.568405568599700928e-02 -1.112748831510543823e-01 7.439534366130828857e-02 2.454653829336166382e-01 1.557222157716751099e-01 3.734185546636581421e-02 7.512056827545166016e-02 1.107652485370635986e-01 5.219456925988197327e-02 -9.530799463391304016e-03 -1.570081338286399841e-02 -2.637041173875331879e-02 -1.753525994718074799e-02 1.205766107887029648e-02 1.792186987586319447e-03 2.292698062956333160e-02 -1.051643583923578262e-02 4.608493670821189880e-02 7.733147591352462769e-02 -1.949095353484153748e-02 3.971382509917020798e-03 9.447200223803520203e-03 1.856433749198913574e-01 3.950041905045509338e-02 1.186233386397361755e-01 8.793856203556060791e-02 -2.398310229182243347e-02 -2.445228546857833862e-01 -4.763868451118469238e-02 1.485709398984909058e-01 -3.174153715372085571e-02 2.540927231311798096e-01 2.745558321475982666e-01 2.080823034048080444e-01 8.039364963769912720e-02 -4.943896085023880005e-03 6.336867064237594604e-02 9.571614861488342285e-02 3.190611675381660461e-02 -1.651292853057384491e-02 -2.998731471598148346e-02 -1.573525741696357727e-02 -2.094888500869274139e-02 3.388481587171554565e-02 2.198999002575874329e-02 -3.458074107766151428e-02 -3.468721173703670502e-03 -3.825821354985237122e-02 -5.623204261064529419e-02 1.200112998485565186e-01 1.864630728960037231e-01 1.669869422912597656e-01 2.262433916330337524e-01 3.713931739330291748e-01 3.752462267875671387e-01 -1.534459441900253296e-01 2.326010614633560181e-01 2.732810974121093750e-01 5.382487773895263672e-01 3.550073504447937012e-01 2.656194865703582764e-01 2.308476716279983521e-01 9.570518881082534790e-02 -3.136460483074188232e-02 2.875152975320816040e-03 4.416709765791893005e-02 1.614542864263057709e-02 9.492186829447746277e-03 2.182328887283802032e-02 -8.443438448011875153e-03 2.099701017141342163e-02 2.495345287024974823e-02 -5.748203955590724945e-03 -4.188568796962499619e-03 -5.005950108170509338e-03 8.811355219222605228e-04 -7.434748113155364990e-02 -3.226185739040374756e-01 1.103129014372825623e-01 2.353190779685974121e-01 3.109169900417327881e-01 1.040553748607635498e-01 4.369831681251525879e-01 4.063532054424285889e-01 7.198375463485717773e-02 2.065831124782562256e-01 5.020505785942077637e-01 2.693673074245452881e-01 3.520913124084472656e-01 2.568760216236114502e-01 1.471626460552215576e-01 1.246131137013435364e-01 -2.244236506521701813e-02 -3.804122656583786011e-02 -1.284781564027070999e-02 3.210154920816421509e-02 1.320983748883008957e-02 -2.858146838843822479e-02 -8.282762952148914337e-03 1.309670787304639816e-02 1.350347138941287994e-02 1.018436625599861145e-01 1.230520382523536682e-01 1.448984444141387939e-01 -6.815371662378311157e-02 -3.142535388469696045e-01 -1.813596487045288086e-02 -2.329661250114440918e-01 -2.233756631612777710e-01 -3.897818326950073242e-01 -2.158548980951309204e-01 -1.419006288051605225e-01 -5.767784267663955688e-02 3.758917376399040222e-02 1.776286661624908447e-01 -1.002298318780958652e-03 -7.377471774816513062e-02 8.840279653668403625e-03 1.792535334825515747e-01 1.651226729154586792e-01 -3.329292312264442444e-02 -9.030605666339397430e-03 1.322104688733816147e-02 1.613895967602729797e-02 -2.839005552232265472e-02 3.178358078002929688e-02 -1.172642409801483154e-02 1.882735081017017365e-02 1.804946921765804291e-02 1.375600844621658325e-01 6.097722053527832031e-02 3.084442764520645142e-02 9.760908782482147217e-03 -2.889985442161560059e-01 -2.509322166442871094e-01 -5.448037385940551758e-01 -3.339047133922576904e-01 -1.922499537467956543e-01 -4.883256554603576660e-01 -4.233366549015045166e-01 -2.765097618103027344e-01 -1.280267685651779175e-01 -1.077798008918762207e-01 -3.237802386283874512e-01 -2.462582439184188843e-01 -8.399968594312667847e-02 1.654579490423202515e-01 -1.731834933161735535e-02 -2.080392278730869293e-02 2.378049679100513458e-02 3.903597220778465271e-02 2.779274713248014450e-03 1.913132332265377045e-02 2.790300548076629639e-02 3.156204149127006531e-02 -3.727314621210098267e-02 -7.279389072209596634e-03 1.239210069179534912e-01 -4.492419585585594177e-02 -9.194092452526092529e-02 -3.285971581935882568e-01 -2.967317700386047363e-01 -3.444173336029052734e-01 -1.191315203905105591e-01 2.453397586941719055e-02 -2.699472308158874512e-01 -4.612274467945098877e-01 -6.917047500610351562e-01 -8.637301325798034668e-01 -2.563347220420837402e-01 -1.059475690126419067e-01 -2.149091362953186035e-01 -1.693094521760940552e-01 -1.853372901678085327e-01 -5.673270672559738159e-02 -9.242365509271621704e-02 -3.706823289394378662e-02 -2.776628546416759491e-02 3.457316383719444275e-02 3.877048613503575325e-03 3.751380741596221924e-02 -2.200779970735311508e-03 4.010576754808425903e-02 -3.125453367829322815e-02 1.126887160353362560e-03 -1.565087959170341492e-02 -1.285728514194488525e-01 -1.758628785610198975e-01 -2.642276585102081299e-01 -3.211422264575958252e-01 -1.883710771799087524e-01 -3.424150943756103516e-01 4.710897058248519897e-02 -4.099717736244201660e-01 -5.554520487785339355e-01 -7.497795224189758301e-01 -7.066425085067749023e-01 -3.529109060764312744e-01 -1.494759768247604370e-01 -2.950253188610076904e-01 -1.141800731420516968e-01 -2.511374056339263916e-01 -3.666441142559051514e-01 -1.654327213764190674e-01 -6.240079924464225769e-02 -2.845117636024951935e-02 3.027510270476341248e-02 2.707668766379356384e-02 -5.410813260823488235e-03 -2.956436015665531158e-02 1.869160123169422150e-02 -2.881296165287494659e-02 -2.365311235189437866e-02 -1.521352529525756836e-01 -1.704524159431457520e-01 -2.540948688983917236e-01 -3.646560311317443848e-01 -3.021226227283477783e-01 -1.950303278863430023e-02 1.820016652345657349e-02 7.086352258920669556e-02 -1.599427163600921631e-01 -3.049939572811126709e-01 -5.377175807952880859e-01 -3.839465677738189697e-01 -3.589152395725250244e-01 -1.914445012807846069e-01 -2.236514389514923096e-01 -2.902327179908752441e-01 -4.013477563858032227e-01 -3.528508245944976807e-01 -2.006293237209320068e-01 -1.069183722138404846e-01 -3.520399332046508789e-03 -2.189081907272338867e-02 -1.057776715606451035e-02 -3.005472570657730103e-02 3.330026520416140556e-04 -9.358049370348453522e-03 -2.046620473265647888e-02 5.305664241313934326e-02 -1.377761960029602051e-01 -2.288973480463027954e-01 -1.397933959960937500e-01 -2.760820984840393066e-01 -2.299280464649200439e-01 -1.461174339056015015e-02 -2.663785219192504883e-01 -1.228326335549354553e-01 -2.990943491458892822e-01 -2.020820975303649902e-01 -2.638573646545410156e-01 -2.224185168743133545e-01 -7.566636800765991211e-02 -1.473153531551361084e-01 -2.079606056213378906e-01 -2.892326712608337402e-01 -1.616139709949493408e-01 -1.748543530702590942e-01 -1.285558789968490601e-01 -5.822026170790195465e-03 -3.667472675442695618e-02 2.535016089677810669e-02 3.519185632467269897e-02 1.776997558772563934e-02 2.330520562827587128e-02 -2.114605717360973358e-02 -3.427259996533393860e-02 -6.512397527694702148e-02 -1.616491079330444336e-01 -2.369370609521865845e-01 -1.714985668659210205e-01 -1.808893382549285889e-01 -1.057252064347267151e-01 -9.943851083517074585e-02 -5.057363510131835938e-01 -2.699272036552429199e-01 -1.661097854375839233e-01 -5.857923626899719238e-01 -3.880613744258880615e-01 -4.514478519558906555e-02 -9.008122235536575317e-02 -7.875671237707138062e-02 -2.532821595668792725e-01 -1.838402748107910156e-01 -4.163161665201187134e-02 -2.324304580688476562e-01 -1.174406781792640686e-01 4.110787063837051392e-02 3.217164799571037292e-02 6.483349949121475220e-02 3.231883421540260315e-02 3.785734297707676888e-04 3.474882990121841431e-02 -1.879886537790298462e-02 1.907090656459331512e-02 -8.732865005731582642e-02 -9.585442394018173218e-02 -2.321663349866867065e-01 -3.987058103084564209e-01 -2.427467405796051025e-01 -2.011201083660125732e-01 -1.457946598529815674e-01 -2.395332455635070801e-01 -9.071168303489685059e-02 -1.623357236385345459e-01 -5.502758026123046875e-01 -3.420459032058715820e-01 -1.188861057162284851e-01 1.442147511988878250e-02 -1.837820559740066528e-01 -1.438479572534561157e-01 -1.347061842679977417e-01 -3.587406501173973083e-02 -2.099611461162567139e-01 -1.863397508859634399e-01 -3.699484659591689706e-05 4.123292863368988037e-02 8.747684210538864136e-02 2.792815677821636200e-02 2.768826670944690704e-02 -1.215438544750213623e-02 -2.143056318163871765e-02 3.362881392240524292e-02 2.834205515682697296e-02 -5.697679147124290466e-02 -2.879899442195892334e-01 -4.134377539157867432e-01 -2.758610844612121582e-01 -1.977279335260391235e-01 3.537480160593986511e-02 5.789931491017341614e-02 -2.738152146339416504e-01 -3.956026136875152588e-01 -6.025426387786865234e-01 -6.919867992401123047e-01 -3.828023076057434082e-01 -5.141261592507362366e-02 -1.277157515287399292e-01 -1.758453100919723511e-01 -1.303786039352416992e-01 -5.986928939819335938e-02 -1.548615843057632446e-01 -1.812191307544708252e-01 7.736189663410186768e-02 1.648686230182647705e-01 1.708201132714748383e-02 2.441297471523284912e-02 -3.447112860158085823e-03 -1.756992004811763763e-02 2.552969614043831825e-03 3.184679895639419556e-02 4.185520485043525696e-02 -2.557281032204627991e-02 -2.011293768882751465e-01 -2.013690620660781860e-01 -3.163000047206878662e-01 -2.299151271581649780e-01 -1.305120736360549927e-01 -1.061686724424362183e-01 -2.147800326347351074e-01 -4.488743543624877930e-01 -6.987736821174621582e-01 -7.045672535896301270e-01 -2.522847652435302734e-01 -7.595655322074890137e-02 -5.729847401380538940e-02 -1.283148974180221558e-01 -7.230301201343536377e-02 1.552829444408416748e-01 1.531842947006225586e-01 1.088728457689285278e-01 1.453590542078018188e-01 6.542497128248214722e-02 5.646922811865806580e-02 6.577841006219387054e-03 3.508938848972320557e-02 3.745795041322708130e-02 -7.581352256238460541e-03 4.243313521146774292e-02 3.474922478199005127e-02 1.351753771305084229e-01 1.364721953868865967e-01 -4.493029415607452393e-02 -7.585354149341583252e-02 -1.666896790266036987e-01 -1.509175747632980347e-01 -2.946709468960762024e-02 8.556125313043594360e-02 1.671810746192932129e-01 -1.599218100309371948e-01 -2.933074533939361572e-02 1.644032448530197144e-02 6.392554938793182373e-02 -2.441541058942675591e-03 -4.592733457684516907e-02 8.136317133903503418e-02 1.297375708818435669e-01 1.583084315061569214e-01 1.102000102400779724e-01 3.642404079437255859e-02 4.861519485712051392e-02 2.282312139868736267e-02 3.776219114661216736e-02 -7.746881339699029922e-03 -1.360062789171934128e-02 2.727874368429183960e-02 1.305714994668960571e-01 1.035693213343620300e-01 1.655178219079971313e-01 1.086242049932479858e-01 -1.365824230015277863e-02 1.856176555156707764e-01 6.234005093574523926e-02 1.564801186323165894e-01 3.690901100635528564e-01 3.174370229244232178e-01 2.044578194618225098e-01 3.098740279674530029e-01 3.439717888832092285e-01 1.548219323158264160e-01 -5.814632400870323181e-02 -1.185481995344161987e-01 -8.762064576148986816e-02 4.962439183145761490e-03 1.388950794935226440e-01 1.476338505744934082e-01 2.674200758337974548e-02 2.482832781970500946e-02 2.475345507264137268e-02 -1.895642280578613281e-02 1.596703566610813141e-02 3.879152983427047729e-02 -5.945606622844934464e-03 7.199946790933609009e-03 1.215926185250282288e-01 2.903109416365623474e-02 9.760195761919021606e-02 -1.224664226174354553e-02 -3.161856532096862793e-02 1.013748198747634888e-01 2.160174548625946045e-01 2.072257548570632935e-02 4.003132283687591553e-01 4.900843203067779541e-01 2.479289621114730835e-01 5.979354977607727051e-01 3.120418488979339600e-01 2.030644379556179047e-02 -1.333096474409103394e-01 3.917095437645912170e-02 6.616658717393875122e-02 8.772248774766921997e-02 1.925368756055831909e-01 1.801069080829620361e-01 1.022524535655975342e-01 5.568146333098411560e-02 2.501494949683547020e-03 2.713243244215846062e-03 -1.328174676746129990e-02 3.883843123912811279e-02 2.310687862336635590e-02 2.334860712289810181e-02 3.667685016989707947e-02 1.244614459574222565e-02 5.860719829797744751e-02 -3.475529327988624573e-02 -1.670970954000949860e-02 7.215736433863639832e-03 9.359363466501235962e-02 -8.846241235733032227e-02 2.111693322658538818e-01 -3.572165593504905701e-02 1.717780530452728271e-01 1.102133765816688538e-01 9.557474404573440552e-02 8.369331480935215950e-04 9.945592284202575684e-02 1.412604749202728271e-01 1.770146936178207397e-01 1.786279976367950439e-01 1.279216259717941284e-01 1.696000546216964722e-01 6.027065217494964600e-02 1.493114046752452850e-03 -1.069912250386551023e-04 2.623097412288188934e-02 3.527440130710601807e-02 6.977458018809556961e-03 8.261164650321006775e-03 -1.098996493965387344e-02 2.979536727070808411e-02 1.201324313879013062e-01 9.650463610887527466e-02 1.294960975646972656e-01 1.937504559755325317e-01 -5.429614335298538208e-02 1.197631061077117920e-01 1.691685430705547333e-02 1.632085591554641724e-01 1.009188890457153320e-01 -2.909475006163120270e-02 -2.072415053844451904e-01 4.437628760933876038e-02 3.407646343111991882e-02 4.776760563254356384e-02 2.860938012599945068e-02 1.972089149057865143e-02 9.034968912601470947e-02 9.539925307035446167e-02 9.738720953464508057e-02 7.060710340738296509e-02 1.551293767988681793e-02 4.002352058887481689e-02 -2.463054843246936798e-02 3.623098880052566528e-02 3.867930918931961060e-02 3.953290730714797974e-02 -6.926312111318111420e-03 -1.516639627516269684e-02 3.890343010425567627e-02 7.545103877782821655e-02 1.258387118577957153e-01 1.880409568548202515e-01 2.032812237739562988e-01 1.868749409914016724e-01 9.222865104675292969e-02 1.019392535090446472e-01 2.658313512802124023e-01 3.163003921508789062e-02 1.151813380420207977e-02 1.014760509133338928e-01 2.570546790957450867e-02 2.043863832950592041e-01 1.651134900748729706e-02 6.554505228996276855e-02 -3.866021987050771713e-03 2.988778520375490189e-03 -1.986960414797067642e-03 -2.752025984227657318e-02 -7.228951435536146164e-03 1.017224788665771484e-02 -2.479949779808521271e-02 2.188512869179248810e-02 -2.833198569715023041e-02 8.423238992691040039e-03 -1.701250672340393066e-03 3.457593172788619995e-02 -1.328494492918252945e-02 -1.226781532168388367e-01 -4.865759983658790588e-03 1.533638387918472290e-01 1.536317765712738037e-01 3.105092644691467285e-01 1.695087552070617676e-01 2.244482934474945068e-01 2.282070964574813843e-01 1.208164319396018982e-01 -1.781848404789343476e-04 8.856836706399917603e-02 1.910705417394638062e-01 3.031204454600811005e-02 -1.077221184968948364e-01 4.875236004590988159e-02 -3.480133414268493652e-02 -7.825370132923126221e-02 -2.380825206637382507e-02 -2.497214637696743011e-02 -9.146117605268955231e-03 7.508900016546249390e-03 1.407586131244897842e-02 7.128637749701738358e-03 2.701166458427906036e-02 7.601155084557831287e-04 1.625397801399230957e-02 -2.425865503028035164e-03 -2.908077649772167206e-02 -1.717198491096496582e-01 -1.252375394105911255e-01 -2.294499613344669342e-02 -3.505077958106994629e-02 -7.480943202972412109e-02 -5.064907670021057129e-02 -1.165982708334922791e-01 -6.840265542268753052e-02 7.332294434309005737e-02 6.259694695472717285e-02 1.368659883737564087e-01 1.145260483026504517e-01 1.067115552723407745e-02 -3.061168640851974487e-02 5.960293114185333252e-02 -2.196631208062171936e-02 -2.659321017563343048e-02 -2.367018721997737885e-02 1.863128691911697388e-02 6.224895361810922623e-03 -3.384684910997748375e-03 -1.922509633004665375e-02 1.134876068681478500e-02 2.653898857533931732e-02 1.276382710784673691e-02 -2.532840333878993988e-02 3.502527624368667603e-02 1.924384618178009987e-03 -1.929051056504249573e-02 1.140671875327825546e-02 3.027506731450557709e-02 -2.745865657925605774e-02 4.050074145197868347e-02 4.490522295236587524e-02 4.646724462509155273e-02 -2.190674282610416412e-02 1.830356195569038391e-02 2.730021439492702484e-02 6.325413472950458527e-03 3.594312816858291626e-02 3.495261445641517639e-02 -2.196660451591014862e-02 1.398245990276336670e-02 2.864309400320053101e-02 -5.029690451920032501e-03 7.701037451624870300e-03 1.582405343651771545e-02 2.619244158267974854e-02 5.082239862531423569e-03 -1.180370990186929703e-02 1.546052657067775726e-02
3.624452510848641396e-04 1.497893501073122025e-02 5.814314819872379303e-03 1.152256503701210022e-02 1.314423326402902603e-02 -2.397380955517292023e-02 -1.905416510999202728e-02 1.469527278095483780e-02 -4.235369153320789337e-03 -2.414650982245802879e-03 1.105222478508949280e-02 3.293633833527565002e-02 8.037677034735679626e-04 -1.501354668289422989e-02 -3.556674346327781677e-02 -3.664533421397209167e-02 -3.348059579730033875e-02 8.298469707369804382e-03 2.392213977873325348e-02 -1.627630367875099182e-02 -2.346826903522014618e-02 1.343077886849641800e-02 -3.450642153620719910e-02 -3.066615201532840729e-02 -5.736266262829303741e-03 -6.078065373003482819e-03 -1.124060433357954025e-02 2.212007902562618256e-02 2.791926451027393341e-02 -2.667283080518245697e-02 3.100586682558059692e-02 6.820771843194961548e-03 -1.158169843256473541e-02 -3.070263378322124481e-02 2.684686705470085144e-02 2.320979535579681396e-02 -2.584238164126873016e-02 1.217121817171573639e-02 -2.681961469352245331e-02 -1.055341958999633789e-02 7.240296341478824615e-03 -1.275562588125467300e-02 -8.529272861778736115e-03 4.829299822449684143e-02 -1.339983893558382988e-03 7.134264335036277771e-03 -2.645255811512470245e-02 8.422774262726306915e-03 -4.284191410988569260e-03 2.941823378205299377e-02 4.458547569811344147e-03 -4.074040800333023071e-03 3.108103526756167412e-03 2.197835128754377365e-03 -1.965078152716159821e-02 -1.960202120244503021e-02 8.805754594504833221e-03 1.617509871721267700e-02 4.642878193408250809e-03 3.365961089730262756e-02 1.094687730073928833e-02 -3.020016849040985107e-02 -9.898531250655651093e-03 -1.295371446758508682e-02 2.679936401546001434e-02 7.167513947933912277e-03 3.498800471425056458e-02 -5.019204691052436829e-03 -4.586923867464065552e-02 -9.028581529855728149e-02 -7.901796698570251465e-02 -6.230321899056434631e-02 3.925733268260955811e-02 7.168450951576232910e-02 7.538476586341857910e-02 1.731286346912384033e-01 1.054724231362342834e-01 7.063850760459899902e-02 2.683821506798267365e-02 -7.848662324249744415e-03 5.181690678000450134e-03 1.564177311956882477e-02 1.006710808724164963e-02 2.723904885351657867e-02 2.642898075282573700e-02 2.296319417655467987e-02 1.037320122122764587e-02 -1.894748024642467499e-02 -2.711714990437030792e-02 -5.520437844097614288e-03 7.689858786761760712e-03 1.472988910973072052e-02 1.516463328152894974e-02 -3.338981792330741882e-02 -6.270561367273330688e-03 -2.235433757305145264e-01 -2.580941617488861084e-01 -3.924905061721801758e-01 -3.984502553939819336e-01 -1.911375969648361206e-01 -4.012036696076393127e-02 1.045719459652900696e-01 2.122680395841598511e-01 1.814842671155929565e-01 7.604509592056274414e-02 5.634319782257080078e-02 8.657162077724933624e-03 -7.508954033255577087e-03 -7.091094739735126495e-03 1.633786410093307495e-02 -5.466903559863567352e-03 -3.008808568120002747e-02 -2.399325557053089142e-02 -3.492887318134307861e-02 -2.132684923708438873e-02 2.119757421314716339e-02 -1.062915101647377014e-02 -7.313572801649570465e-03 1.742891594767570496e-02 -1.686722226440906525e-02 1.325936317443847656e-01 1.605615466833114624e-01 9.549236297607421875e-02 -1.601900607347488403e-01 -3.824751079082489014e-01 -4.746324419975280762e-01 -4.456293880939483643e-01 -1.635496616363525391e-01 1.579020470380783081e-01 3.202764987945556641e-01 3.515727818012237549e-01 2.773010730743408203e-01 1.769872158765792847e-01 2.471745386719703674e-02 -5.789291858673095703e-02 -7.203877717256546021e-02 -1.412331610918045044e-01 -7.209373265504837036e-02 3.932567778974771500e-03 2.806872501969337463e-02 2.927003242075443268e-02 9.214251302182674408e-03 1.733634807169437408e-02 -2.155528590083122253e-02 -5.241396278142929077e-02 1.161452233791351318e-01 1.683482527732849121e-01 2.631399929523468018e-01 3.943690657615661621e-01 3.791190683841705322e-01 2.321033179759979248e-01 -1.935364156961441040e-01 -5.889689922332763672e-01 -6.786254644393920898e-01 -7.186869531869888306e-02 -3.770904615521430969e-02 8.929306268692016602e-02 4.132746458053588867e-01 3.939439356327056885e-01 3.459228277206420898e-01 1.675153821706771851e-01 -5.573935434222221375e-02 -2.217707484960556030e-01 -1.709800064563751221e-01 -1.554824411869049072e-01 -9.746050834655761719e-02 2.419790998101234436e-02 -1.172379869967699051e-02 3.208975074812769890e-03 -7.409095764160156250e-03 -3.377873077988624573e-02 -5.579501762986183167e-02 -2.498571574687957764e-02 9.380306303501129150e-02 2.143532931804656982e-01 4.418615996837615967e-01 3.248313069343566895e-01 9.089223295450210571e-02 -3.135354071855545044e-02 -1.987830847501754761e-01 -3.368466794490814209e-01 -5.349155068397521973e-01 -3.961327970027923584e-01 3.202410936355590820e-01 5.198063254356384277e-01 5.070931911468505859e-01 3.044161200523376465e-01 1.468833088874816895e-01 -1.211223453283309937e-01 -1.587796658277511597e-01 -8.792771399021148682e-02 -1.641955971717834473e-01 -1.655400991439819336e-01 -2.000209130346775055e-02 -3.135365247726440430e-02 -8.035008795559406281e-03 1.361901406198740005e-02 3.015054948627948761e-02 -2.984857931733131409e-02 -3.452235832810401917e-02 -7.203595340251922607e-02 5.421044677495956421e-02 1.978743374347686768e-01 2.605212628841400146e-01 -3.315912932157516479e-02 -1.940375007688999176e-02 1.458620429039001465e-01 -1.145704016089439392e-01 -3.057817220687866211e-01 -5.189025402069091797e-01 -9.444311261177062988e-02 5.009202957153320312e-01 8.059557676315307617e-01 7.566877007484436035e-01 2.342945486307144165e-01 3.452062010765075684e-01 -1.560059636831283569e-01 -2.766510546207427979e-01 3.239328740164637566e-03 -5.256222188472747803e-02 -1.369818747043609619e-01 -8.544038236141204834e-02 -5.551739409565925598e-02 1.388870831578969955e-02 1.054131891578435898e-02 -6.525452248752117157e-03 5.439420230686664581e-03 -1.786472089588642120e-02 -7.246972620487213135e-02 1.070789545774459839e-01 6.526210159063339233e-02 1.582536101341247559e-01 1.154807806015014648e-01 2.966033518314361572e-01 -7.887520641088485718e-02 -3.821931183338165283e-01 -4.978822469711303711e-01 -4.355930984020233154e-01 2.189874202013015747e-01 6.368307471275329590e-01 7.970570325851440430e-01 4.220556318759918213e-01 -1.619060486555099487e-01 -1.908677965402603149e-01 -2.431881725788116455e-01 -2.772477567195892334e-01 -7.221300899982452393e-02 -4.943705163896083832e-03 -1.318292170763015747e-01 -7.972963154315948486e-02 2.081227255985140800e-03 6.338880630210042000e-04 3.094909340143203735e-02 -1.141582056879997253e-02 -4.360684752464294434e-02 -2.447803691029548645e-02 -2.698015794157981873e-02 -3.446500375866889954e-02 1.502781212329864502e-01 1.913630217313766479e-01 1.669743061065673828e-01 4.210085868835449219e-01 2.138919830322265625e-01 -3.129163682460784912e-01 -5.031121969223022461e-01 -3.437802791595458984e-01 7.079043984413146973e-02 4.203290641307830811e-01 5.040293931961059570e-01 -1.096403375267982483e-01 -2.903681993484497070e-01 -2.941704988479614258e-01 -1.661416888236999512e-01 -2.355030030012130737e-01 -1.784167885780334473e-01 4.647725075483322144e-02 -6.144979223608970642e-02 -8.275309950113296509e-02 -2.372750267386436462e-02 1.446875557303428650e-02 -2.154246158897876740e-02 2.569136582314968109e-02 7.475882768630981445e-03 2.935764379799365997e-03 -4.611714556813240051e-02 3.150601685047149658e-02 5.853838473558425903e-02 -1.984484493732452393e-02 6.052835658192634583e-02 3.861975669860839844e-01 2.748232483863830566e-01 -2.509845495223999023e-01 -3.561378121376037598e-01 -4.322798252105712891e-01 -2.163387089967727661e-02 3.127447366714477539e-01 1.770386993885040283e-01 4.370421171188354492e-02 -3.173088133335113525e-01 -3.208093941211700439e-01 -4.106680452823638916e-01 -1.817066520452499390e-01 -7.523116469383239746e-02 -1.580513082444667816e-02 6.570885307155549526e-04 -2.695220522582530975e-02 -4.096962884068489075e-02 -2.763843350112438202e-02 -1.631775498390197754e-02 -5.164289847016334534e-03 3.215340152382850647e-02 -1.832584291696548462e-02 -1.034988611936569214e-01 -5.525436997413635254e-02 1.138336062431335449e-01 1.745614409446716309e-02 4.032917693257331848e-02 5.279940366744995117e-01 1.612594872713088989e-01 -5.640327334403991699e-01 -6.938723921775817871e-01 -4.321650862693786621e-01 -2.367689609527587891e-01 -7.129858713597059250e-03 2.167766392230987549e-01 -8.727468550205230713e-03 -1.376156359910964966e-01 -4.013915061950683594e-01 -2.677531242370605469e-01 -7.796690613031387329e-02 -5.743960663676261902e-02 2.393927611410617828e-02 3.475298359990119934e-02 -9.431724250316619873e-02 -9.215663187205791473e-03 1.098806620575487614e-03 -5.110172554850578308e-03 -5.591466091573238373e-03 -1.586204580962657928e-02 2.392020635306835175e-02 -1.137851104140281677e-01 -5.945676937699317932e-02 2.794551849365234375e-01 -5.742195993661880493e-03 1.766125261783599854e-01 3.303264677524566650e-01 1.379407793283462524e-01 -3.145352900028228760e-01 -2.629135251045227051e-01 -1.266038417816162109e-01 -5.099561214447021484e-01 -9.975694864988327026e-02 3.968512713909149170e-01 1.459656208753585815e-01 -1.148653328418731689e-01 -3.757404386997222900e-01 -1.881545782089233398e-01 1.629729755222797394e-02 -1.529481960460543633e-03 1.518658548593521118e-01 1.758517920970916748e-01 1.478669419884681702e-02 -3.776483982801437378e-02 -3.266150876879692078e-02 -2.273260988295078278e-02 -1.270838174968957901e-02 3.091621957719326019e-02 1.774690859019756317e-02 6.396735459566116333e-02 -8.197643607854843140e-02 1.898717284202575684e-01 2.683607488870620728e-02 7.763892412185668945e-02 5.775991827249526978e-02 -1.096246987581253052e-01 -2.180265635251998901e-01 -2.013566493988037109e-01 -4.478127658367156982e-01 -7.738656550645828247e-02 1.046608760952949524e-01 3.395373001694679260e-02 7.515158504247665405e-02 -2.521606683731079102e-01 -3.804630637168884277e-01 -3.453850150108337402e-01 8.278003334999084473e-02 1.584936380386352539e-01 2.351597100496292114e-01 2.341299951076507568e-01 7.473243027925491333e-02 7.320556323975324631e-03 1.121210772544145584e-02 -3.545394539833068848e-02 2.069781161844730377e-02 -6.615718826651573181e-03 8.689104579389095306e-03 1.418230086565017700e-01 1.760424822568893433e-01 2.300385236740112305e-01 2.613414525985717773e-01 1.566237062215805054e-01 2.090787887573242188e-02 -2.448195517063140869e-01 -6.150577589869499207e-02 -2.169807106256484985e-01 -4.184807240962982178e-01 1.665905565023422241e-01 2.310582995414733887e-01 4.526960477232933044e-02 1.079303622245788574e-01 -2.535586059093475342e-01 -1.671839654445648193e-01 -6.130377575755119324e-02 6.106576323509216309e-02 1.501120328903198242e-01 2.339140921831130981e-01 2.403848320245742798e-01 1.811644434928894043e-02 1.361073926091194153e-02 -3.553448989987373352e-02 -2.753356657922267914e-02 -4.419229924678802490e-03 -2.908488176763057709e-02 2.300722524523735046e-02 6.081333756446838379e-02 2.413379848003387451e-01 6.191286072134971619e-02 2.456855475902557373e-01 1.959156095981597900e-01 3.965536504983901978e-02 -2.025405615568161011e-01 -7.528248429298400879e-02 -7.870981842279434204e-02 -6.687273085117340088e-02 -6.135274469852447510e-02 1.187080964446067810e-01 1.107245963066816330e-02 6.406800821423530579e-03 -2.057717442512512207e-01 -2.817886769771575928e-01 5.859897285699844360e-02 2.710904479026794434e-01 3.210062384605407715e-01 2.274167388677597046e-01 1.238755062222480774e-01 2.187903039157390594e-02 2.201427146792411804e-02 1.368752680718898773e-02 2.644054405391216278e-02 2.711572311818599701e-02 2.606517635285854340e-02 1.460824720561504364e-02 1.535976827144622803e-01 2.511466443538665771e-01 -6.310847401618957520e-02 9.912860393524169922e-02 1.513034701347351074e-01 -6.761766225099563599e-02 -3.476848602294921875e-01 -2.075006067752838135e-01 -3.053315281867980957e-01 -2.139710634946823120e-01 -2.094840854406356812e-01 3.515188694000244141e-01 7.946107536554336548e-02 -2.863685488700866699e-01 -3.229141235351562500e-01 -1.274770647287368774e-01 3.013207912445068359e-01 3.589062392711639404e-01 2.506919205188751221e-01 1.536704897880554199e-01 1.566887199878692627e-01 8.674366772174835205e-02 5.196536891162395477e-03 -3.516083955764770508e-02 -2.333307079970836639e-02 2.887087129056453705e-02 -1.479402836412191391e-02 2.997780591249465942e-02 1.650930345058441162e-01 2.747789323329925537e-01 9.026204794645309448e-02 -2.864726819097995758e-02 -6.671327352523803711e-02 -1.064648106694221497e-01 7.904990762472152710e-02 -2.126199603080749512e-01 -3.817091882228851318e-01 -2.799058258533477783e-01 -3.067354261875152588e-01 1.921911388635635376e-01 1.074849963188171387e-01 -4.206004142761230469e-01 -4.959348142147064209e-01 -1.452760100364685059e-01 1.734566688537597656e-01 3.599043488502502441e-01 3.371122181415557861e-01 1.519289463758468628e-01 1.137772426009178162e-01 3.482337296009063721e-02 -2.621709182858467102e-02 -3.625432774424552917e-02 -3.231494501233100891e-02 2.476090798154473305e-03 -2.306622453033924103e-02 -3.093249909579753876e-02 -9.698391892015933990e-03 7.967872917652130127e-02 -5.420509725809097290e-02 2.750856615602970123e-02 -3.316341340541839600e-02 3.162516355514526367e-01 1.676156073808670044e-01 -1.472080796957015991e-01 -3.619700074195861816e-01 -2.082518339157104492e-01 -1.837560832500457764e-01 4.371343553066253662e-02 -2.983133792877197266e-01 -5.507316589355468750e-01 -2.004547119140625000e-01 -3.085457682609558105e-01 -6.633967161178588867e-02 1.937217414379119873e-01 9.407476335763931274e-02 -2.204899676144123077e-02 1.111879292875528336e-02 6.828631460666656494e-02 9.957597358152270317e-04 -2.629958465695381165e-02 -1.419778633862733841e-02 2.100439369678497314e-02 -2.614584006369113922e-02 -1.168344076722860336e-02 7.742021989542990923e-05 -5.625735037028789520e-03 1.288354303687810898e-02 4.040608182549476624e-02 7.940822839736938477e-02 4.615871310234069824e-01 1.125768795609474182e-01 1.264836732298135757e-02 -5.675937235355377197e-02 -1.065541133284568787e-01 -5.995579063892364502e-02 1.208070069551467896e-01 7.360080257058143616e-03 -5.999858840368688107e-04 1.495361626148223877e-01 -7.692713290452957153e-02 1.576232314109802246e-01 3.415343165397644043e-01 2.488387823104858398e-01 -8.076120167970657349e-02 -1.555267255753278732e-03 1.753998547792434692e-02 2.302782610058784485e-02 -3.245605900883674622e-02 -1.305705681443214417e-02 2.687138877809047699e-02 8.097398676909506321e-05 4.600609652698040009e-03 9.513863176107406616e-02 -5.539061129093170166e-02 1.693053357303142548e-02 -7.194554060697555542e-02 1.024034470319747925e-01 2.746497392654418945e-01 6.987409293651580811e-02 -3.124566189944744110e-02 9.026167541742324829e-02 -3.488611802458763123e-02 8.182522654533386230e-02 1.181266233325004578e-01 2.503048777580261230e-01 2.179341763257980347e-01 3.444421887397766113e-01 8.566614240407943726e-02 7.712452113628387451e-02 2.114762961864471436e-01 2.356919199228286743e-01 -6.836957484483718872e-02 1.902759261429309845e-02 5.756167694926261902e-02 -2.779799327254295349e-02 2.363013289868831635e-02 -3.622192889451980591e-03 -2.471342124044895172e-02 2.324962988495826721e-02 3.532600775361061096e-02 1.532647609710693359e-01 4.089883714914321899e-02 8.351525291800498962e-03 -1.858059875667095184e-02 1.072072908282279968e-01 -8.380154520273208618e-02 1.706463396549224854e-01 2.109544277191162109e-01 2.190252766013145447e-02 1.276969164609909058e-01 1.864647716283798218e-01 2.145813405513763428e-01 2.832552194595336914e-01 1.558919530361890793e-02 -2.334388494491577148e-01 -1.107548102736473083e-01 4.130014404654502869e-02 2.010089159011840820e-01 1.445477735251188278e-02 -8.942677825689315796e-02 1.259289495646953583e-02 8.363256230950355530e-03 2.476284466683864594e-02 -9.237467311322689056e-03 -2.115852199494838715e-02 9.776909835636615753e-03 2.771343290805816650e-02 -3.442801907658576965e-02 9.168836474418640137e-02 1.763405501842498779e-01 3.851830586791038513e-02 -2.262370884418487549e-01 5.584887042641639709e-02 8.066135644912719727e-02 -1.253594160079956055e-01 4.090927913784980774e-02 -3.899464756250381470e-02 2.251012474298477173e-01 1.915716379880905151e-01 4.089225530624389648e-01 1.751042902469635010e-01 3.539457172155380249e-02 -5.967147275805473328e-02 7.707838714122772217e-02 9.942600876092910767e-02 1.608426421880722046e-01 6.970410700887441635e-03 -8.177165687084197998e-02 -6.239209696650505066e-02 1.735629513859748840e-02 -3.694238141179084778e-03 -2.472378127276897430e-02 -9.658228955231606960e-04 6.659927777945995331e-03 3.392195701599121094e-02 1.418155711144208908e-02 -6.571290642023086548e-02 -4.087835922837257385e-02 4.797621071338653564e-02 -1.747434139251708984e-01 -1.786183118820190430e-01 -8.673153817653656006e-02 -1.199638172984123230e-01 -7.630045711994171143e-02 1.156580373644828796e-01 3.368571996688842773e-01 2.044052928686141968e-01 2.135472148656845093e-01 3.477807343006134033e-02 4.224780574440956116e-02 -1.941096335649490356e-01 -6.414950825273990631e-03 7.284030434675514698e-04 -1.214132159948348999e-01 -1.553828418254852295e-01 -1.063556596636772156e-01 -6.576861441135406494e-02 -1.922898925840854645e-02 1.117540709674358368e-02 -2.934477292001247406e-02 2.030522190034389496e-02 1.605230197310447693e-02 -2.573242969810962677e-02 -3.430232033133506775e-02 -1.994138583540916443e-02 -7.146744430065155029e-02 -1.422244906425476074e-01 -1.553695201873779297e-01 -1.897650063037872314e-01 -1.693736314773559570e-01 -1.932867318391799927e-01 -2.511187791824340820e-01 -6.796158105134963989e-02 -4.175530374050140381e-02 -7.929152995347976685e-02 1.303370743989944458e-01 -2.182784117758274078e-02 -3.339495137333869934e-02 -1.456349045038223267e-01 -1.633843034505844116e-01 -6.589800864458084106e-02 6.812528520822525024e-02 -2.984417416155338287e-02 -1.873092539608478546e-02 3.739773528650403023e-03 2.516704984009265900e-02 -4.469105973839759827e-03 -1.012085471302270889e-03 2.413486130535602570e-02 3.404385969042778015e-02 1.527123991400003433e-02 1.086416468024253845e-02 -2.820812165737152100e-02 -7.050399482250213623e-02 -7.059427350759506226e-02 -6.282129138708114624e-02 -6.651959568262100220e-02 -1.006741728633642197e-02 -2.739159762859344482e-01 -2.119187861680984497e-01 -9.824717044830322266e-02 2.195317670702934265e-02 2.805553376674652100e-02 -1.572631150484085083e-01 -1.652083992958068848e-01 -1.270263344049453735e-01 -1.562705039978027344e-01 -1.525130867958068848e-01 -1.385506093502044678e-01 -1.323668360710144043e-01 -4.776923358440399170e-02 4.090917296707630157e-03 3.593264892697334290e-02 2.580583654344081879e-02 -1.394548453390598297e-03 3.293765708804130554e-02 9.627676568925380707e-03 2.554123289883136749e-02 -3.615275025367736816e-02 4.947762936353683472e-03 -1.633615046739578247e-02 3.182879416272044182e-03 1.316862273961305618e-02 -3.479057177901268005e-02 -4.686810076236724854e-03 2.442080341279506683e-02 -2.552769333124160767e-02 -9.809924662113189697e-02 -7.999883592128753662e-02 -6.769874691963195801e-02 -1.032459735870361328e-01 -7.114619016647338867e-03 -3.880111873149871826e-02 2.598645351827144623e-02 2.993335714563727379e-03 -1.617181859910488129e-02 -2.050472423434257507e-02 -7.348747551441192627e-02 2.739910967648029327e-02 1.908870227634906769e-02 1.855156384408473969e-02 -2.443394996225833893e-02 2.131730876863002777e-02 -8.093958720564842224e-03 9.493059478700160980e-03 4.951260983943939209e-03 3.002268029376864433e-03 1.256982050836086273e-02 3.183263167738914490e-02 3.427180275321006775e-02 1.837908988818526268e-03 9.768811054527759552e-03 3.370765224099159241e-02 -2.162207104265689850e-02 3.530305996537208557e-02 8.348152972757816315e-03 -3.556185588240623474e-02 -1.896370388567447662e-02 -7.123363320715725422e-04 -4.916297271847724915e-02 -3.586634248495101929e-02 1.446066610515117645e-02 -2.788911806419491768e-04 -1.717090234160423279e-02 5.354612600058317184e-03 9.297234006226062775e-03 -2.180345356464385986e-03 1.192146632820367813e-02 -1.673127710819244385e-02 4.906154237687587738e-03 2.904711104929447174e-02 -3.983303904533386230e-03
-6.842610426247119904e-03 -8.251524530351161957e-03 -2.551040798425674438e-02 1.954218745231628418e-02 1.325313234701752663e-03 -3.018491901457309723e-02 5.448078271001577377e-03 1.552809728309512138e-03 1.667198166251182556e-02 -1.532763801515102386e-02 -1.758015155792236328e-02 2.183283120393753052e-02 -1.774271950125694275e-02 -1.723856106400489807e-02 1.389813981950283051e-02 3.439495048951357603e-04 -3.364966809749603271e-02 4.745901562273502350e-03 -3.921216726303100586e-02 1.069897692650556564e-02 -8.050619624555110931e-03 2.911481261253356934e-02 1.586293568834662437e-03 8.287114091217517853e-03 1.983476802706718445e-02 1.684843562543392181e-02 1.464806497097015381e-02 -8.658721111714839935e-03 -3.469179570674896240e-02 -1.550031173974275589e-02 -1.912228181026875973e-03 -6.449074018746614456e-03 5.483147688210010529e-03 -1.918974146246910095e-02 2.489594917278736830e-04 -3.349120169878005981e-02 7.927709957584738731e-04 -1.552249677479267120e-02 -1.687026233412325382e-03 7.788107730448246002e-03 2.903009951114654541e-02 -3.987349197268486023e-02 9.343632496893405914e-03 -2.999131195247173309e-02 -3.437690436840057373e-02 1.884499937295913696e-02 1.456308178603649139e-02 2.947619557380676270e-02 -3.723781183362007141e-02 1.526666432619094849e-02 -2.999041043221950531e-02 1.652131555601954460e-03 1.783820986747741699e-02 -1.188499666750431061e-02 -2.959986403584480286e-02 2.677746582776308060e-03 4.731644876301288605e-03 -1.259888615459203720e-02 -5.229120142757892609e-04 1.189765334129333496e-02 1.635440438985824585e-02 -1.190486364066600800e-02 1.339627802371978760e-02 3.001456148922443390e-02 -2.040151134133338928e-02 -3.976579755544662476e-03 2.407032996416091919e-02 1.145637128502130508e-02 4.295969381928443909e-02 3.286727517843246460e-02 4.143105447292327881e-02 1.282409578561782837e-02 1.627681404352188110e-02 2.148140780627727509e-02 -3.527610003948211670e-02 -6.929468363523483276e-03 -2.956568077206611633e-02 -1.972500234842300415e-03 -2.503854036331176758e-02 -1.967122033238410950e-02 -3.873031586408615112e-02 1.408098498359322548e-03 2.411237731575965881e-02 7.269965019077062607e-03 6.934017408639192581e-03 -2.683999389410018921e-02 -6.233649328351020813e-03 -3.290281817317008972e-02 -1.048913784325122833e-02 1.095253683160990477e-04 -2.272589504718780518e-02 3.524949774146080017e-02 2.644979953765869141e-02 4.870958626270294189e-02 5.807428434491157532e-02 3.548882529139518738e-02 4.989270493388175964e-02 1.115133091807365417e-01 2.646990120410919189e-01 2.089237272739410400e-01 1.054673790931701660e-01 2.753259614109992981e-02 -2.962538227438926697e-02 -7.580433040857315063e-02 5.504970625042915344e-02 1.515279710292816162e-02 3.076264820992946625e-02 3.887392953038215637e-02 -3.753883019089698792e-02 -1.821271143853664398e-02 -1.337664946913719177e-02 -3.003681264817714691e-02 1.376367546617984772e-02 -9.411941282451152802e-03 -3.929478675127029419e-02 5.864124745130538940e-03 -1.140936557203531265e-02 -3.848173096776008606e-02 1.250875182449817657e-02 4.284198582172393799e-02 7.210991531610488892e-02 4.164573550224304199e-02 1.637007445096969604e-01 1.903786212205886841e-01 8.777023106813430786e-02 9.495988488197326660e-02 -1.064066141843795776e-01 -1.140147969126701355e-01 -6.720047444105148315e-02 -1.154176071286201477e-01 -1.246790885925292969e-01 9.903184138238430023e-03 -6.887252908200025558e-03 -5.075713247060775757e-02 -6.011950224637985229e-02 -5.425932258367538452e-02 1.396282296627759933e-02 -3.421755507588386536e-02 -1.793332025408744812e-02 -1.264958735555410385e-02 9.677681140601634979e-03 -1.613974198698997498e-02 2.440547570586204529e-02 -2.970268949866294861e-02 9.972760453820228577e-03 -7.991901040077209473e-02 -4.905098304152488708e-02 1.308521535247564316e-02 -5.289576575160026550e-02 4.086147621273994446e-02 9.552941471338272095e-02 -1.495668143033981323e-01 -3.220684230327606201e-01 -2.640456557273864746e-01 -5.077028870582580566e-01 -2.628382444381713867e-01 -6.721653044223785400e-02 -1.905033737421035767e-01 -1.957462579011917114e-01 -1.469706296920776367e-01 -1.308511346578598022e-01 -4.719903692603111267e-02 -8.027460426092147827e-02 -4.130562394857406616e-02 -4.696610197424888611e-02 1.698970235884189606e-02 4.593636840581893921e-03 -4.089766647666692734e-03 -3.222618717700242996e-03 1.273544412106275558e-02 3.957108128815889359e-03 2.787278592586517334e-02 -2.643217518925666809e-02 -5.631857365369796753e-02 3.694275021553039551e-02 3.224014490842819214e-02 -8.584313094615936279e-02 -1.409468352794647217e-01 -7.735618203878402710e-02 -4.218554794788360596e-01 -3.485496938228607178e-01 -2.147288471460342407e-01 -4.194483458995819092e-01 1.966569386422634125e-02 3.714259266853332520e-01 3.748592138290405273e-01 3.422066867351531982e-01 -8.692190796136856079e-02 -1.407019644975662231e-01 -6.713338196277618408e-02 -7.433119416236877441e-02 -8.799540996551513672e-02 -1.999430060386657715e-01 -4.850946366786956787e-02 1.265590358525514603e-02 1.366758812218904495e-02 -3.885706514120101929e-02 -3.445346653461456299e-02 4.764363635331392288e-03 1.188465952873229980e-02 1.349290739744901657e-02 3.694742172956466675e-02 4.441089183092117310e-02 -1.928153261542320251e-02 -1.596966981887817383e-01 -6.443288326263427734e-01 -4.842521250247955322e-01 -2.717020511627197266e-01 -1.097353100776672363e-01 -1.515132337808609009e-01 1.393427047878503799e-02 2.127399295568466187e-01 1.465257257223129272e-01 -8.274710923433303833e-02 8.237997442483901978e-02 1.321807205677032471e-01 9.499850124120712280e-02 5.274792388081550598e-02 -3.764148801565170288e-02 -1.560001671314239502e-01 -1.331317722797393799e-01 -1.744448393583297729e-01 -1.583819650113582611e-02 2.857825718820095062e-02 8.621176704764366150e-03 -2.138017863035202026e-02 -1.620366051793098450e-02 3.361981362104415894e-02 4.511414095759391785e-02 -4.417710751295089722e-02 4.780806973576545715e-02 5.177328363060951233e-02 -1.046312972903251648e-01 -4.256964325904846191e-01 1.672672331333160400e-01 2.280638217926025391e-01 -3.263011202216148376e-02 1.576921343803405762e-01 2.326715290546417236e-01 1.519874632358551025e-01 -1.223592832684516907e-02 -1.781082302331924438e-01 2.810090966522693634e-02 1.941617429256439209e-01 8.805762231349945068e-02 4.309676289558410645e-01 2.992599010467529297e-01 -2.385284453630447388e-01 -3.022339046001434326e-01 -4.571525007486343384e-02 2.909483201801776886e-02 2.813938632607460022e-02 -2.594572305679321289e-02 -3.478356823325157166e-02 1.900147087872028351e-02 1.175354141741991043e-02 3.662752360105514526e-02 4.592562559992074966e-03 1.138076782226562500e-01 5.223464593291282654e-02 8.470599353313446045e-02 2.722587883472442627e-01 4.712027609348297119e-01 1.022654324769973755e-01 -6.983134150505065918e-02 1.992769837379455566e-01 1.080537065863609314e-01 1.611813604831695557e-01 -1.246640011668205261e-01 -2.517041563987731934e-01 -4.073596894741058350e-01 -4.599021002650260925e-02 3.577072322368621826e-01 3.806940913200378418e-01 3.928329944610595703e-01 1.821644008159637451e-01 -2.366130650043487549e-01 2.951886877417564392e-02 -4.799549654126167297e-02 2.240034751594066620e-02 -1.556575950235128403e-02 -9.087391197681427002e-03 -1.307145971804857254e-02 1.022074148058891296e-01 9.041867405176162720e-02 7.266563177108764648e-02 1.251724511384963989e-01 1.793380230665206909e-01 1.142819374799728394e-01 3.697932958602905273e-01 2.588062882423400879e-01 1.620497256517410278e-01 2.692925035953521729e-01 1.210251897573471069e-01 -4.284686446189880371e-01 -3.324109613895416260e-01 -3.719068765640258789e-01 -3.296791911125183105e-01 -1.446827501058578491e-01 2.306969612836837769e-01 4.153712689876556396e-01 3.209373354911804199e-01 3.534426093101501465e-01 1.113897785544395447e-01 -2.075236141681671143e-01 -1.719594895839691162e-01 -4.428917914628982544e-02 -5.859273485839366913e-03 1.561666745692491531e-02 -3.173143835738301277e-03 2.042618766427040100e-02 6.484724581241607666e-02 1.843292713165283203e-01 2.306009680032730103e-01 1.124331727623939514e-01 2.296639829874038696e-01 3.054810762405395508e-01 3.548726737499237061e-01 3.466986119747161865e-02 -6.066449731588363647e-02 -2.117516398429870605e-01 -5.067541599273681641e-01 -7.258680462837219238e-01 -3.590996563434600830e-01 -3.719072639942169189e-01 -9.135784953832626343e-02 3.151268959045410156e-01 5.810905098915100098e-01 7.279909253120422363e-01 4.177818000316619873e-01 2.053464800119400024e-01 -2.108189016580581665e-01 -2.556263804435729980e-01 -5.319871753454208374e-02 -5.796693265438079834e-02 -1.293034385889768600e-02 1.069719623774290085e-02 3.027696907520294189e-02 1.603488251566886902e-02 1.211750227957963943e-02 2.725408077239990234e-01 3.362384438514709473e-01 1.670225411653518677e-01 -9.832162410020828247e-02 -2.071529328823089600e-01 -3.411052823066711426e-01 -2.992261052131652832e-01 -6.460100412368774414e-01 -5.004748702049255371e-01 -8.130379915237426758e-01 -4.040140807628631592e-01 8.465559035539627075e-02 3.960192501544952393e-01 6.427447795867919922e-01 5.768734812736511230e-01 6.644912958145141602e-01 5.034303665161132812e-01 2.395621091127395630e-01 9.739939123392105103e-02 -5.041877552866935730e-02 -1.810985803604125977e-01 -5.672525241971015930e-02 -1.171206682920455933e-02 -2.249108627438545227e-02 -1.815492659807205200e-02 -3.048560768365859985e-02 2.434878796339035034e-02 -3.474187478423118591e-02 1.312813758850097656e-01 2.426638752222061157e-01 -7.638279348611831665e-02 -1.088429018855094910e-01 -6.149005144834518433e-02 -1.946858912706375122e-01 -4.361066818237304688e-01 -2.767850458621978760e-01 -5.569429397583007812e-01 -3.448839485645294189e-01 2.232200503349304199e-01 3.684342801570892334e-01 8.533762693405151367e-01 6.740459203720092773e-01 4.193392693996429443e-01 5.468246340751647949e-01 2.985159456729888916e-01 1.986020803451538086e-01 1.168350055813789368e-01 -1.795383989810943604e-01 -2.267469167709350586e-01 -3.941914439201354980e-02 1.378287281841039658e-02 -1.097402628511190414e-02 2.687770873308181763e-02 -1.043685991317033768e-02 -2.372130937874317169e-02 3.355256095528602600e-02 5.902560800313949585e-02 -1.157620549201965332e-01 -1.956990510225296021e-01 -1.489109992980957031e-01 -1.659306734800338745e-01 -2.946786582469940186e-01 -3.779057860374450684e-01 -1.695957630872726440e-01 -4.083309322595596313e-02 1.141927093267440796e-01 1.976840198040008545e-01 4.376052916049957275e-01 6.735125780105590820e-01 5.919271707534790039e-01 1.166440173983573914e-01 4.349743481725454330e-03 6.447359174489974976e-02 -1.338373422622680664e-01 -1.477695405483245850e-01 -2.092894464731216431e-01 -1.676918864250183105e-01 -8.010512683540582657e-04 3.351660445332527161e-02 -2.007015794515609741e-02 2.400286868214607239e-02 2.565812133252620697e-02 -3.656636551022529602e-02 -1.760705187916755676e-02 4.654590412974357605e-02 -1.071129068732261658e-01 -2.668907940387725830e-01 -2.887459099292755127e-01 -2.027934342622756958e-01 -2.898963391780853271e-01 -3.903400301933288574e-01 -1.557401418685913086e-01 -9.231811016798019409e-02 4.907830953598022461e-01 5.008984208106994629e-01 3.293455541133880615e-01 4.013036787509918213e-01 8.416942507028579712e-02 -1.104668229818344116e-01 -1.447546929121017456e-01 3.332031145691871643e-02 -6.397811323404312134e-02 -6.005459651350975037e-02 -3.007846176624298096e-01 -1.421457380056381226e-01 -1.567984931170940399e-02 3.218695893883705139e-02 -2.694118395447731018e-02 2.268964424729347229e-02 1.976976543664932251e-02 4.421446099877357483e-02 5.395926535129547119e-02 1.185654997825622559e-01 8.274996653199195862e-03 -1.824749410152435303e-01 -9.087942540645599365e-02 -7.581259310245513916e-02 -1.249781921505928040e-01 -1.739176213741302490e-01 -2.899722894653677940e-04 5.939548369497060776e-03 5.369896292686462402e-01 4.618367254734039307e-01 2.075671106576919556e-01 3.744441643357276917e-02 -7.360854744911193848e-02 -3.697822615504264832e-02 -9.314989298582077026e-02 -2.726100981235504150e-01 -1.708155497908592224e-03 -1.286805421113967896e-01 -1.918550580739974976e-01 -1.287083178758621216e-01 -6.890257354825735092e-03 3.358608111739158630e-02 5.372043233364820480e-03 2.426990494132041931e-02 2.425158768892288208e-02 -1.748985028825700283e-03 1.609197109937667847e-01 1.437234133481979370e-01 -2.067044079303741455e-01 -3.864199519157409668e-01 4.374448210000991821e-02 -1.118377521634101868e-01 -2.385226935148239136e-01 -1.056905984878540039e-01 1.031042337417602539e-01 3.663474023342132568e-01 3.926565647125244141e-01 2.180576138198375702e-02 -8.327553421258926392e-02 -1.297428011894226074e-01 -9.132562577724456787e-02 -1.885320246219635010e-01 7.276918739080429077e-02 -3.463946282863616943e-01 -7.095926254987716675e-02 -2.184173166751861572e-01 -1.876686662435531616e-01 -1.377455294132232666e-01 5.777366459369659424e-02 2.277289459016174078e-04 -6.755341310054063797e-04 1.903083175420761108e-02 1.810517907142639160e-02 -1.821549609303474426e-02 1.897851675748825073e-01 1.542772352695465088e-01 -2.607487142086029053e-01 -2.192372232675552368e-01 -4.741444066166877747e-02 -2.474206089973449707e-01 -3.241949677467346191e-01 -2.264352887868881226e-02 -1.654354110360145569e-02 2.271675020456314087e-01 2.934145331382751465e-01 3.992421552538871765e-03 1.707950234413146973e-01 -1.597820520401000977e-01 -4.041213169693946838e-02 3.290343284606933594e-02 7.650760561227798462e-02 -3.735591769218444824e-01 -2.459546551108360291e-02 -1.461106836795806885e-01 -1.848362684249877930e-01 -1.208214238286018372e-01 -2.912158891558647156e-02 -2.829491533339023590e-02 2.559544146060943604e-02 3.021043166518211365e-02 1.427823863923549652e-02 -1.225493010133504868e-02 5.181400850415229797e-02 9.349739551544189453e-02 -7.385462522506713867e-02 -9.389439225196838379e-02 -9.786798618733882904e-04 -9.294027835130691528e-02 -1.501338779926300049e-01 -1.553048789501190186e-01 -9.336530417203903198e-02 -2.542078681290149689e-02 1.888155639171600342e-01 8.996201306581497192e-02 2.266231328248977661e-01 1.337736994028091431e-01 5.271352082490921021e-02 1.424309015274047852e-01 1.531124413013458252e-01 -2.008525431156158447e-01 8.088539540767669678e-02 9.641901403665542603e-02 -1.823673546314239502e-01 -1.293273717164993286e-01 -3.150777146220207214e-02 1.711495220661163330e-03 -8.900118060410022736e-03 -6.649096030741930008e-04 -2.664297819137573242e-02 1.436010282486677170e-02 1.416347362101078033e-02 8.730785548686981201e-02 -5.237842723727226257e-02 -1.960051655769348145e-01 7.685184478759765625e-02 -1.052511855959892273e-01 -1.681529730558395386e-01 -2.977432310581207275e-01 -1.905552595853805542e-01 -1.297673285007476807e-01 2.825403399765491486e-02 3.684785962104797363e-01 8.864261209964752197e-02 7.637089490890502930e-02 1.430303007364273071e-01 1.213236674666404724e-01 -1.277408096939325333e-02 9.294441901147365570e-03 1.010793223977088928e-01 1.419121474027633667e-01 -1.212322488427162170e-01 -1.570956557989120483e-01 -8.638336509466171265e-02 -2.058494091033935547e-02 -3.713037818670272827e-02 -1.134017389267683029e-02 2.885165251791477203e-02 -2.932041510939598083e-02 4.426302015781402588e-02 6.014490500092506409e-02 -5.108822882175445557e-02 -5.404687672853469849e-02 1.081593409180641174e-01 1.195109486579895020e-01 -4.978822916746139526e-02 1.350987553596496582e-01 -4.270755127072334290e-02 -8.862448483705520630e-02 1.648270934820175171e-01 2.520658075809478760e-01 2.305979654192924500e-02 1.315355002880096436e-01 -5.571012943983078003e-02 5.317940562963485718e-02 5.142251774668693542e-02 1.036840863525867462e-02 1.038871407508850098e-01 2.806665003299713135e-02 -1.181909963488578796e-01 -1.462453454732894897e-01 -1.339430660009384155e-01 -2.103929035365581512e-02 -3.061774000525474548e-02 -1.579920062795281410e-03 -2.164833620190620422e-02 2.063225954771041870e-02 -6.261108070611953735e-02 -3.137252852320671082e-02 7.235442101955413818e-02 -7.591632008552551270e-02 -5.994820594787597656e-02 8.243460953235626221e-02 8.901361376047134399e-02 3.718697130680084229e-01 4.354915395379066467e-02 -2.420520931482315063e-01 -9.183138608932495117e-02 9.735220228321850300e-04 7.366360723972320557e-02 -9.967510402202606201e-02 1.502602398395538330e-01 3.238211851567029953e-03 -3.696171566843986511e-02 -1.571580953896045685e-02 1.107003539800643921e-02 6.683127023279666901e-03 -4.422379285097122192e-02 -6.855327636003494263e-02 -5.310573801398277283e-02 -1.484564412385225296e-02 1.373178046196699142e-02 -2.944339811801910400e-02 -1.993009820580482483e-02 -3.092914074659347534e-02 -3.277819231152534485e-02 -1.351425945758819580e-01 -3.846348077058792114e-02 5.754552409052848816e-02 9.768418222665786743e-02 5.837901309132575989e-02 -1.339086145162582397e-01 -5.366380792111158371e-03 5.681034922599792480e-02 -2.054107785224914551e-01 -1.958785653114318848e-01 -7.144133746623992920e-02 2.845636382699012756e-02 -1.958324015140533447e-02 1.338449120521545410e-01 1.738163679838180542e-01 -9.376992285251617432e-02 6.102647632360458374e-02 1.136643737554550171e-01 9.281309694051742554e-02 2.492967247962951660e-02 1.902437768876552582e-02 -4.202588647603988647e-02 2.272036671638488770e-02 -1.673309877514839172e-02 1.652515493333339691e-02 2.712369710206985474e-02 8.535469882190227509e-03 6.151786446571350098e-02 7.667903602123260498e-02 4.351773858070373535e-02 2.165627628564834595e-01 2.391178160905838013e-02 1.390983462333679199e-01 1.133586168289184570e-01 -4.024077672511339188e-03 3.018100187182426453e-02 -1.251418739557266235e-01 -8.715850114822387695e-02 -8.209960907697677612e-02 8.944099396467208862e-02 1.907706707715988159e-01 2.033786922693252563e-01 5.114776082336902618e-03 -1.633561402559280396e-02 6.059942767024040222e-02 9.042050689458847046e-02 7.237160950899124146e-02 4.492292180657386780e-02 1.795402960851788521e-03 -2.144178934395313263e-02 -2.543185651302337646e-02 3.107533417642116547e-02 -3.248850628733634949e-02 -2.929524332284927368e-02 -2.010222990065813065e-03 1.507530361413955688e-02 -2.744593285024166107e-02 7.747301459312438965e-02 2.109190225601196289e-01 1.520049124956130981e-01 2.522059082984924316e-01 2.265439480543136597e-01 2.968506515026092529e-01 -1.619702787138521671e-03 1.413169801235198975e-01 -1.116527095437049866e-01 1.535643041133880615e-01 1.126334816217422485e-01 1.612626910209655762e-01 2.063483744859695435e-02 -2.089272718876600266e-03 6.439328938722610474e-02 2.791296131908893585e-02 -2.893197350203990936e-02 -7.608859986066818237e-02 -2.565804310142993927e-02 -1.409835368394851685e-02 1.236397679895162582e-02 -3.508377075195312500e-02 -2.773236948996782303e-03 -2.090243995189666748e-02 -2.032824233174324036e-02 2.081034332513809204e-02 -2.885665372014045715e-02 -8.428574539721012115e-03 1.853861100971698761e-02 6.570385396480560303e-02 1.215969473123550415e-01 9.746000915765762329e-02 1.051998436450958252e-01 1.759306341409683228e-01 1.054816916584968567e-01 2.468476630747318268e-02 4.668336734175682068e-02 1.638304144144058228e-01 1.007933989167213440e-01 8.531320840120315552e-02 6.490972638130187988e-02 1.049895063042640686e-01 7.184790074825286865e-02 8.572158217430114746e-02 1.378813106566667557e-02 -1.567325182259082794e-02 -1.247736904770135880e-02 -3.055241331458091736e-02 2.378516644239425659e-02 -1.758538931608200073e-02 -3.475979715585708618e-02 -3.691700100898742676e-02 2.942976728081703186e-02 -3.633506596088409424e-03 -1.514686550945043564e-02 -1.556649524718523026e-02 2.096196264028549194e-02 1.269015949219465256e-02 1.843972504138946533e-02 3.521321713924407959e-02 -3.875665366649627686e-02 -3.201156109571456909e-02 -1.959837973117828369e-02 1.415172312408685684e-02 -3.304230421781539917e-02 3.148578479886054993e-02 -1.123732049018144608e-02 -2.171269431710243225e-02 3.236534446477890015e-02 4.662451799958944321e-03 -3.730331780388951302e-03 2.396637760102748871e-02 -1.436964794993400574e-02 3.435624763369560242e-02 2.921118587255477905e-02 -1.724562235176563263e-02 -2.299108356237411499e-02 5.107930628582835197e-04 3.376559587195515633e-03
6.429069675505161285e-03 4.465240053832530975e-03 3.574059344828128815e-03 3.373165964148938656e-05 2.789449319243431091e-02 -3.732316428795456886e-03 -1.301100850105285645e-02 2.621082589030265808e-02 2.688580565154552460e-02 1.848566345870494843e-03 3.783179074525833130e-02 1.375003159046173096e-02 3.157122433185577393e-02 4.571749828755855560e-03 3.891026973724365234e-02 2.477698028087615967e-02 1.690187118947505951e-02 -1.945150829851627350e-02 -1.584571599960327148e-02 3.238137066364288330e-02 1.226510107517242432e-02 -6.153751164674758911e-03 4.145032167434692383e-02 -1.166849490255117416e-02 2.913304790854454041e-02 2.258644439280033112e-03 -1.427108608186244965e-02 -1.476120017468929291e-02 1.563903130590915680e-02 5.204933695495128632e-03 1.931405160576105118e-03 1.724807545542716980e-03 1.341466885060071945e-02 3.651981055736541748e-02 2.025116793811321259e-02 -1.745100319385528564e-02 -5.842332728207111359e-03 3.833118081092834473e-02 -3.521353239193558693e-03 -1.895193383097648621e-02 9.085642173886299133e-03 1.170551870018243790e-03 3.255200386047363281e-02 -1.775011047720909119e-02 1.110643986612558365e-02 1.812548376619815826e-02 1.761467137839645147e-04 -1.431677024811506271e-02 -1.304385531693696976e-02 3.217735327780246735e-03 2.757755853235721588e-02 1.522806007415056229e-02 -2.167478576302528381e-02 -1.284760190173983574e-03 -2.577887382358312607e-03 -2.869890816509723663e-02 -1.946535147726535797e-02 9.558534249663352966e-03 3.091759979724884033e-02 -1.049969810992479324e-02 -1.602433249354362488e-02 -6.082582287490367889e-03 2.220009453594684601e-02 1.973599009215831757e-02 -2.724076621234416962e-03 2.395257540047168732e-02 -6.581999361515045166e-03 4.042764380574226379e-02 7.492016069591045380e-03 4.509985819458961487e-02 -2.436768263578414917e-02 -1.252510026097297668e-02 -1.260662637650966644e-02 -8.298153989017009735e-03 1.415662653744220734e-02 2.116108685731887817e-02 -2.370023168623447418e-02 1.652556657791137695e-02 -1.790892519056797028e-02 3.438269719481468201e-02 3.985795751214027405e-02 -7.635752204805612564e-03 4.823418566957116127e-04 3.712242841720581055e-02 2.437129057943820953e-02 -1.839794218540191650e-02 8.316419087350368500e-03 4.335398226976394653e-02 -1.514823827892541885e-02 -2.162549411877989769e-03 9.038590826094150543e-03 -3.536210954189300537e-02 1.872685924172401428e-02 -3.694524057209491730e-03 -1.951145008206367493e-02 -2.420323714613914490e-02 -9.239589795470237732e-03 7.153657078742980957e-02 1.037705317139625549e-01 3.430146723985671997e-02 5.227135494351387024e-02 -3.979009762406349182e-02 -8.857233077287673950e-02 -1.972000151872634888e-01 -1.553481370210647583e-01 -1.227388158440589905e-01 -4.774817824363708496e-02 -6.109778303653001785e-03 2.136380644515156746e-03 -1.579837687313556671e-02 1.309489179402589798e-02 1.321936864405870438e-02 2.863089181482791901e-02 4.006217420101165771e-02 -2.456755749881267548e-02 -1.479905657470226288e-02 -7.185446447692811489e-04 -3.216149285435676575e-03 1.294706948101520538e-02 -4.154656082391738892e-02 -2.757571451365947723e-02 -2.038582460954785347e-04 -2.642940264195203781e-03 -1.604885049164295197e-02 8.449045568704605103e-02 1.687092632055282593e-01 1.718117743730545044e-01 2.362780421972274780e-01 4.144660755991935730e-02 6.581982225179672241e-02 4.150725528597831726e-02 -8.205903321504592896e-02 -9.513593465089797974e-02 -1.539969146251678467e-01 -5.930844694375991821e-02 -1.018850356340408325e-01 -7.267739623785018921e-02 -4.847565200179815292e-03 -2.203813940286636353e-02 2.239276655018329620e-02 -7.930112071335315704e-03 -2.463077940046787262e-02 -2.549737133085727692e-02 -2.851364761590957642e-02 2.603787695989012718e-03 4.913973156362771988e-03 -3.208524361252784729e-02 9.932256303727626801e-03 5.971810594201087952e-02 7.765690982341766357e-02 1.051039397716522217e-01 9.320637583732604980e-02 1.079608947038650513e-01 2.357839196920394897e-01 1.765975058078765869e-01 7.891754806041717529e-02 -1.354001760482788086e-01 1.240264344960451126e-02 -6.227976642549037933e-03 9.224317222833633423e-02 1.504568150267004967e-03 -4.590528085827827454e-02 -1.453808546066284180e-01 -2.757473886013031006e-01 -1.598967611789703369e-01 -2.433387376368045807e-02 8.173765614628791809e-03 2.280874736607074738e-02 2.250804193317890167e-02 -1.747748441994190216e-02 1.044451724737882614e-02 -3.173174336552619934e-02 -1.729961857199668884e-02 2.562294341623783112e-02 3.346314653754234314e-02 -3.018784336745738983e-02 2.489331737160682678e-02 -1.196306012570858002e-02 1.599344760179519653e-01 2.073463052511215210e-01 1.540514528751373291e-01 1.506771594285964966e-01 2.868245244026184082e-01 2.065186649560928345e-01 1.509280055761337280e-01 3.617429733276367188e-01 4.260450601577758789e-01 4.605485796928405762e-01 2.789596617221832275e-01 2.448298931121826172e-01 -8.101408369839191437e-03 -2.240204066038131714e-01 -2.213300615549087524e-01 -7.289156317710876465e-02 -5.652170628309249878e-03 4.017441347241401672e-02 1.334530021995306015e-02 -2.149581350386142731e-02 -1.157496124505996704e-03 1.651298627257347107e-02 -1.124808005988597870e-02 -4.577510431408882141e-02 -5.837624892592430115e-02 -1.313546299934387207e-01 1.201152428984642029e-02 1.795565523207187653e-02 1.433368027210235596e-01 -3.024267777800559998e-02 1.247325725853443146e-02 -6.800614297389984131e-02 -9.566575288772583008e-02 2.717128992080688477e-01 2.340191602706909180e-01 6.372014284133911133e-01 7.351220846176147461e-01 4.511603713035583496e-01 1.322728395462036133e-01 2.418041080236434937e-01 3.756707161664962769e-02 -5.978680774569511414e-02 2.804069407284259796e-02 -6.054397672414779663e-02 7.353818509727716446e-04 2.305677719414234161e-02 3.742419555783271790e-02 1.802565064281225204e-03 -1.796809956431388855e-02 3.421893715858459473e-02 -2.084853872656822205e-02 -5.513998121023178101e-02 -8.956330269575119019e-02 -1.055831387639045715e-01 8.170812390744686127e-03 -8.088060468435287476e-02 -1.597669273614883423e-01 -2.771356105804443359e-01 2.307444624602794647e-02 2.043253779411315918e-01 3.976104855537414551e-01 1.626022160053253174e-01 4.341796934604644775e-01 5.019097328186035156e-01 4.855109155178070068e-01 1.299670040607452393e-01 4.439924359321594238e-01 1.008777692914009094e-01 4.472421482205390930e-02 1.922396570444107056e-01 6.282612681388854980e-02 -4.857436940073966980e-02 1.800509355962276459e-02 1.912832073867321014e-02 2.441142126917839050e-02 -9.868953377008438110e-03 3.388109058141708374e-02 -2.413285430520772934e-03 -7.585538923740386963e-02 -7.909625768661499023e-02 -4.934472963213920593e-02 5.451139062643051147e-02 -4.749622568488121033e-02 -1.568894982337951660e-01 -2.529835104942321777e-01 -2.718829214572906494e-01 2.203476577997207642e-01 5.108357071876525879e-01 4.470538198947906494e-01 8.359757065773010254e-02 -5.492965877056121826e-02 -1.859850436449050903e-02 -9.151704609394073486e-02 2.878239452838897705e-01 7.667204737663269043e-01 4.082320928573608398e-01 7.999593019485473633e-02 2.195338755846023560e-01 2.667531184852123260e-02 -7.069338113069534302e-02 1.171228662133216858e-02 -2.265550382435321808e-02 -2.371862903237342834e-02 -1.684425957500934601e-02 -1.717283576726913452e-02 6.523056421428918839e-03 -4.538204148411750793e-02 -2.417004480957984924e-02 2.605275623500347137e-02 6.711086630821228027e-02 -1.032680869102478027e-01 -1.574915349483489990e-01 -2.280317097902297974e-01 5.755414254963397980e-03 1.153933908790349960e-02 1.280156970024108887e-01 1.696792840957641602e-01 1.557368487119674683e-01 -2.127973139286041260e-01 -1.143786162137985229e-01 5.155714973807334900e-02 3.206780925393104553e-02 5.087133646011352539e-01 3.886197209358215332e-01 2.614304125308990479e-01 3.801544010639190674e-01 1.934233605861663818e-01 -4.532881826162338257e-02 -3.068299777805805206e-02 3.948409855365753174e-02 -2.528464235365390778e-02 4.006356932222843170e-03 -7.784585468471050262e-03 3.415207564830780029e-02 -8.456321060657501221e-02 -1.757699698209762573e-01 -8.134652674198150635e-02 1.965193450450897217e-01 6.996859796345233917e-03 -7.073616981506347656e-02 2.636034041643142700e-02 1.904222816228866577e-01 -1.673765480518341064e-01 4.455062747001647949e-02 2.283035218715667725e-01 -2.822372615337371826e-01 -3.033690452575683594e-01 -3.001139163970947266e-01 -2.341403365135192871e-01 -9.448697417974472046e-02 5.348854064941406250e-01 4.914253577589988708e-02 1.210157200694084167e-01 3.881262242794036865e-01 4.021354913711547852e-01 8.479610085487365723e-02 4.459578543901443481e-02 3.828205913305282593e-02 1.179878506809473038e-02 -2.022789977490901947e-02 3.707123175263404846e-02 -3.887460008263587952e-02 -1.419277936220169067e-01 -2.481432706117630005e-01 -4.296617954969406128e-02 1.361337006092071533e-01 -2.298714825883507729e-03 1.256644427776336670e-01 8.654949814081192017e-02 4.870743677020072937e-02 -2.376866638660430908e-01 -2.043284922838211060e-01 -2.589831948280334473e-01 -4.469562470912933350e-01 -1.540373563766479492e-01 6.320879608392715454e-02 -2.836946956813335419e-02 2.291566878557205200e-01 1.060757935047149658e-01 -1.576513797044754028e-02 1.120759472250938416e-01 2.959612905979156494e-01 2.695318758487701416e-01 1.005255803465843201e-01 7.383865863084793091e-02 4.197573661804199219e-02 -2.437893114984035492e-02 -2.760885469615459442e-02 3.444142639636993408e-02 -4.790884256362915039e-02 -1.431291103363037109e-01 -2.340173721313476562e-01 -2.549089118838310242e-02 1.814558058977127075e-01 3.446086943149566650e-01 2.318576872348785400e-01 2.025873661041259766e-01 -1.084515526890754700e-01 -2.074451446533203125e-01 -2.606996297836303711e-01 -2.621126174926757812e-01 -7.387559115886688232e-02 -2.303839288651943207e-02 -1.071903929114341736e-01 -1.651163771748542786e-02 2.850386202335357666e-01 -4.367727413773536682e-02 7.453019171953201294e-02 3.124448284506797791e-02 1.025434285402297974e-01 1.794215142726898193e-01 6.143869459629058838e-02 3.302916139364242554e-02 -1.233993377536535263e-02 -1.818637363612651825e-02 4.078835248947143555e-02 3.425710648298263550e-02 -8.845786564052104950e-03 -1.902509033679962158e-01 -8.691610395908355713e-02 4.204234108328819275e-02 4.573498666286468506e-01 1.737955361604690552e-01 -8.630213886499404907e-02 -1.029436588287353516e-01 -2.976435720920562744e-01 -2.693816423416137695e-01 -1.514098346233367920e-01 1.167512089014053345e-01 3.173555731773376465e-01 -3.966664373874664307e-01 -3.117084875702857971e-02 9.440922737121582031e-02 7.130786776542663574e-02 3.817951539531350136e-03 1.058738380670547485e-01 9.691057354211807251e-02 1.036433354020118713e-01 1.210242956876754761e-01 -2.146307751536369324e-02 1.208678632974624634e-02 -2.395478077232837677e-02 2.376571856439113617e-02 -5.962803028523921967e-03 1.665911823511123657e-02 -4.177090153098106384e-02 -1.485261172056198120e-01 -8.717006444931030273e-02 -1.275071594864130020e-02 2.252525389194488525e-01 -7.717511802911758423e-02 -4.107279330492019653e-02 -2.845216691493988037e-01 -4.691177606582641602e-01 -1.664575785398483276e-01 -6.001626607030630112e-03 -1.318882592022418976e-02 5.567753221839666367e-03 -2.801637053489685059e-01 -1.570938527584075928e-01 1.537704188376665115e-02 4.902159795165061951e-02 4.536680281162261963e-01 2.586342394351959229e-01 1.598874330520629883e-01 6.726018339395523071e-02 1.729748100042343140e-01 6.688417866826057434e-03 2.606397680938243866e-02 -2.766530378721654415e-04 -1.597376354038715363e-02 1.757389865815639496e-02 3.346333280205726624e-02 -1.165097504854202271e-01 -1.528724730014801025e-01 -8.823038637638092041e-02 1.300342679023742676e-01 1.839805394411087036e-01 1.121645942330360413e-01 4.903379455208778381e-02 -2.547450661659240723e-01 -1.031200736761093140e-01 -8.904059976339340210e-02 -2.374592721462249756e-01 -1.117392852902412415e-01 -1.670424491167068481e-01 -1.782587617635726929e-01 2.627203464508056641e-01 -1.090821027755737305e-01 -6.475329399108886719e-02 1.360340714454650879e-01 8.724912256002426147e-02 3.925024718046188354e-02 -8.146194368600845337e-02 6.750071048736572266e-02 -2.015336044132709503e-02 1.720982254482805729e-04 4.025728255510330200e-02 1.100630033761262894e-03 1.774606667459011078e-02 -1.220147777348756790e-02 -1.179271414875984192e-01 -2.231442928314208984e-01 -8.285867422819137573e-02 1.237597689032554626e-01 5.995032563805580139e-02 2.255656719207763672e-01 3.864326775074005127e-01 -2.742766588926315308e-02 8.254505693912506104e-02 -2.951608598232269287e-01 -1.512854397296905518e-01 -5.639953911304473877e-02 -4.444312751293182373e-01 -1.068369522690773010e-01 1.452093720436096191e-01 -1.913032680749893188e-01 -1.193351391702890396e-02 5.817140638828277588e-02 -5.041298270225524902e-02 -1.166861131787300110e-01 -8.355981111526489258e-02 2.819957397878170013e-02 -2.693116292357444763e-02 -1.216162275522947311e-02 -8.519162423908710480e-03 -1.019570883363485336e-02 3.247833251953125000e-02 -4.966016486287117004e-02 -1.553355902433395386e-01 -3.396617472171783447e-01 -1.074497252702713013e-01 8.121956884860992432e-02 8.708201348781585693e-02 3.336238861083984375e-01 4.353829920291900635e-01 3.421330153942108154e-01 -1.014498323202133179e-01 -5.544774532318115234e-01 -6.782388091087341309e-01 -5.422664880752563477e-01 -3.955400288105010986e-01 6.786186993122100830e-02 2.932872474193572998e-01 7.903677225112915039e-02 -2.202784568071365356e-01 3.156851977109909058e-02 1.668172143399715424e-02 2.200105413794517517e-02 7.072004955261945724e-04 -1.153006870299577713e-02 -4.125958308577537537e-02 3.814392955973744392e-03 3.796555101871490479e-02 -2.377079799771308899e-02 2.351343072950839996e-02 -2.235341817140579224e-03 -1.980806291103363037e-01 -2.070686519145965576e-01 -1.100278720259666443e-01 1.328879445791244507e-01 -6.546862423419952393e-02 4.201985001564025879e-01 7.060167789459228516e-01 2.177194803953170776e-01 -1.910831481218338013e-01 -4.962546527385711670e-01 -4.848522841930389404e-01 -2.821365371346473694e-02 1.018358245491981506e-01 1.357818990945816040e-01 1.598550975322723389e-01 -2.628872096538543701e-01 -1.437363326549530029e-01 -1.480545848608016968e-01 -1.095906347036361694e-01 -9.951345622539520264e-02 -2.508765831589698792e-02 -1.184501126408576965e-02 -3.698147088289260864e-02 -1.866613328456878662e-02 4.782450385391712189e-03 -1.586952060461044312e-02 3.056180477142333984e-02 4.719468206167221069e-02 -5.358172580599784851e-02 -2.311020046472549438e-01 9.909370541572570801e-02 1.516215801239013672e-01 1.407949030399322510e-01 3.844398856163024902e-01 1.267602741718292236e-01 -1.230823099613189697e-01 -2.220418900251388550e-01 -2.038663178682327271e-01 -1.533611565828323364e-01 -2.971222437918186188e-02 1.239041239023208618e-01 -7.611658424139022827e-02 -2.181538492441177368e-01 -3.342418670654296875e-01 -1.775254607200622559e-01 -3.180318772792816162e-01 -2.309416681528091431e-01 -2.415230125188827515e-01 -7.693319767713546753e-02 -7.989497482776641846e-02 -4.020350798964500427e-02 2.898769825696945190e-02 -5.351457744836807251e-03 -7.392609957605600357e-03 -1.069503650069236755e-02 4.992443695664405823e-02 7.321471720933914185e-02 -4.425590485334396362e-02 1.559799611568450928e-01 4.250395894050598145e-01 3.073894083499908447e-01 4.315270483493804932e-02 3.918818384408950806e-02 -4.727283120155334473e-02 -1.329069435596466064e-01 -1.300881206989288330e-01 -1.669523715972900391e-01 -2.002412527799606323e-01 3.998799622058868408e-02 -2.875139713287353516e-01 -3.384299576282501221e-01 -1.196981593966484070e-01 -2.024738341569900513e-01 -4.276876449584960938e-01 -2.935657501220703125e-01 -1.612736731767654419e-01 -4.987185448408126831e-02 -4.081612452864646912e-02 -6.433367263525724411e-03 3.159918263554573059e-02 -1.091610756702721119e-04 3.287372738122940063e-02 3.217166662216186523e-02 2.140415087342262268e-02 1.247152872383594513e-02 4.465974494814872742e-02 1.152735874056816101e-01 5.289344191551208496e-01 4.993904232978820801e-01 2.909213602542877197e-01 5.486980453133583069e-02 3.076577559113502502e-02 -2.320588678121566772e-01 -5.310305394232273102e-03 -1.544761955738067627e-01 -3.529979288578033447e-01 -4.830707609653472900e-01 -4.238646328449249268e-01 -1.076452136039733887e-01 -3.180513530969619751e-02 -1.962424367666244507e-01 -3.337409198284149170e-01 -2.749772369861602783e-01 -9.642645716667175293e-02 -1.816564239561557770e-02 -3.570256009697914124e-02 -6.224822252988815308e-03 -1.494619646109640598e-03 3.316191583871841431e-02 8.332769386470317841e-03 8.220044896006584167e-03 1.769828423857688904e-02 -4.082878679037094116e-02 -3.125610062852501869e-03 5.746518820524215698e-02 2.531064152717590332e-01 3.332901000976562500e-01 2.199994176626205444e-01 -2.772277221083641052e-02 8.563235402107238770e-02 1.273116767406463623e-01 -3.912997618317604065e-02 -2.693772912025451660e-01 -3.726201951503753662e-01 -2.119933366775512695e-01 4.662582278251647949e-02 7.323165982961654663e-02 -1.354518234729766846e-01 -2.064571380615234375e-01 -3.366501927375793457e-01 -1.676974594593048096e-01 -9.720159694552421570e-03 -5.140791460871696472e-02 -1.671457290649414062e-02 -3.146211057901382446e-02 2.696841023862361908e-02 1.853005029261112213e-03 1.674022339284420013e-02 2.267399989068508148e-02 1.283695176243782043e-02 -1.140628568828105927e-02 -1.776565425097942352e-02 8.796018362045288086e-02 -1.658300124108791351e-02 -2.014466188848018646e-02 5.207761004567146301e-02 7.750938087701797485e-02 2.884626984596252441e-01 3.251687288284301758e-01 2.939364016056060791e-01 5.254255980253219604e-02 -1.705884933471679688e-01 -1.720225960016250610e-01 -1.653432846069335938e-02 6.734444946050643921e-02 1.485608331859111786e-02 -6.455647945404052734e-02 -9.638351202011108398e-02 -2.495517954230308533e-02 1.992966420948505402e-02 -1.582148112356662750e-02 -6.200476083904504776e-03 -4.685606807470321655e-03 7.437259191647171974e-04 6.882295943796634674e-03 2.944522537291049957e-02 1.301945094019174576e-02 4.185015335679054260e-03 4.981452226638793945e-02 3.517603501677513123e-02 -9.237600862979888916e-02 -1.153680980205535889e-01 -2.981861308217048645e-02 -1.488611549139022827e-01 3.596986830234527588e-02 1.886867582798004150e-01 1.279762834310531616e-01 5.831824988126754761e-02 -9.490744210779666901e-03 2.847937308251857758e-02 -5.797021556645631790e-03 1.576681286096572876e-01 8.893351256847381592e-02 4.192135483026504517e-02 -1.050723716616630554e-02 -1.092959288507699966e-02 4.679447971284389496e-03 -4.195411503314971924e-02 -1.227295491844415665e-02 4.001386836171150208e-02 4.119495302438735962e-02 2.385104820132255554e-02 3.696135431528091431e-02 1.212085969746112823e-02 -5.230848677456378937e-03 3.833881765604019165e-02 -5.687348544597625732e-03 -7.500310242176055908e-02 -1.715859472751617432e-01 -2.118256092071533203e-01 4.275337979197502136e-02 1.229456514120101929e-01 1.627994924783706665e-01 1.315053105354309082e-01 1.206189617514610291e-01 1.072710845619440079e-02 6.096959859132766724e-02 7.887314260005950928e-02 7.745382189750671387e-02 6.376071274280548096e-02 3.268741816282272339e-02 5.221130326390266418e-02 3.417736664414405823e-02 1.577955856919288635e-02 -2.536910213530063629e-02 -1.083908881992101669e-02 2.996229380369186401e-02 -1.390956901013851166e-02 -8.272421546280384064e-03 2.027258835732936859e-02 1.273992564529180527e-02 -2.598106674849987030e-02 4.571071825921535492e-03 1.875873131211847067e-04 8.668947964906692505e-03 1.042474526911973953e-03 2.549423277378082275e-02 -1.557634118944406509e-02 2.745341323316097260e-02 6.290090084075927734e-02 3.320800140500068665e-02 -9.859546087682247162e-03 2.467944473028182983e-02 4.369330778717994690e-02 6.124624051153659821e-03 5.407906323671340942e-02 1.919714733958244324e-02 -1.771973818540573120e-02 9.187337011098861694e-03 2.736220508813858032e-02 3.940438106656074524e-02 5.259703844785690308e-03 1.560154370963573456e-02 3.057496435940265656e-02 -1.214306801557540894e-02 -1.024971436709165573e-02 4.670593887567520142e-03 -1.670133206062018871e-04 3.664939105510711670e-02
6.425110157579183578e-03 -1.704169251024723053e-02 -2.230713702738285065e-02 -9.146068245172500610e-03 2.711091656237840652e-03 -8.794108405709266663e-03 -3.580843284726142883e-02 -2.141943434253334999e-03 6.467227358371019363e-03 1.773648895323276520e-02 -2.689373912289738655e-03 -2.476450614631175995e-02 -8.247857913374900818e-03 3.090928681194782257e-02 8.983538486063480377e-03 -2.235803194344043732e-02 2.534680254757404327e-02 1.367777492851018906e-02 -1.664599217474460602e-02 -6.800317671149969101e-03 -1.944957487285137177e-02 2.287785150110721588e-02 -1.376204937696456909e-02 2.632800303399562836e-02 -2.470191102474927902e-03 3.487571328878402710e-02 3.406459838151931763e-02 3.008238971233367920e-02 1.431097369641065598e-02 1.944391988217830658e-02 -1.887940056622028351e-02 2.809973619878292084e-02 -7.757343817502260208e-03 -6.395999807864427567e-03 -1.301668956875801086e-02 -2.322063408792018890e-02 1.840680837631225586e-02 -2.714299224317073822e-02 1.869401894509792328e-02 -6.563349161297082901e-03 3.046092949807643890e-02 -2.753194421529769897e-02 2.739790640771389008e-02 8.318248204886913300e-03 -7.339668925851583481e-03 -1.778283156454563141e-02 3.238391503691673279e-02 -3.893523477017879486e-03 2.771613560616970062e-02 -1.000782847404479980e-02 -7.480925880372524261e-03 8.269292884506285191e-04 -7.180211134254932404e-03 -2.491202391684055328e-02 1.348370965570211411e-02 3.196459263563156128e-03 3.107422962784767151e-03 -1.878811605274677277e-02 3.401172906160354614e-02 2.789130993187427521e-02 9.756710380315780640e-03 -1.452486775815486908e-02 -2.331116981804370880e-02 -3.349424153566360474e-02 9.141487069427967072e-03 3.561773151159286499e-02 2.785582840442657471e-02 5.514240264892578125e-02 3.550051525235176086e-02 2.492012828588485718e-02 1.558517850935459137e-02 8.213796652853488922e-03 1.965944841504096985e-02 3.379618376493453979e-02 -5.044905096292495728e-02 2.751726657152175903e-02 3.286648774519562721e-03 2.806401066482067108e-02 2.202709391713142395e-02 3.575779497623443604e-02 -1.283023227006196976e-02 -2.711898833513259888e-02 1.654794253408908844e-02 -2.657281421124935150e-02 1.115586049854755402e-02 1.013998314738273621e-02 4.179113078862428665e-03 2.552113309502601624e-02 -1.151417498476803303e-03 -2.716233395040035248e-02 2.405633404850959778e-02 3.637908399105072021e-02 2.120082080364227295e-02 -1.158547354862093925e-03 3.011056035757064819e-02 3.899835282936692238e-04 1.396505720913410187e-02 3.106564655900001526e-02 1.979681290686130524e-02 -1.994320377707481384e-02 -4.880057275295257568e-02 4.204986244440078735e-02 -1.356323529034852982e-02 3.966609947383403778e-03 4.032577574253082275e-02 9.324969723820686340e-03 8.453229814767837524e-02 4.360767081379890442e-03 4.017875343561172485e-02 -3.732939483597874641e-03 -1.342835929244756699e-02 2.265284769237041473e-02 -3.276556730270385742e-02 -3.568036109209060669e-02 3.130476921796798706e-02 -5.102284252643585205e-03 2.076862007379531860e-02 7.801952213048934937e-02 5.812487006187438965e-02 2.675840817391872406e-02 1.444387584924697876e-01 4.755454510450363159e-02 6.422882527112960815e-02 5.115238949656486511e-02 1.680828817188739777e-02 -5.130937322974205017e-02 -2.002353966236114502e-01 -2.341185957193374634e-01 -9.136546403169631958e-02 -7.052887976169586182e-02 1.387606933712959290e-02 1.764964461326599121e-01 2.020008265972137451e-01 8.116117864847183228e-02 1.237272322177886963e-01 -2.457942627370357513e-02 -2.473339624702930450e-02 2.914380747824907303e-03 3.322302922606468201e-02 2.409144304692745209e-03 2.298245392739772797e-02 -2.706025354564189911e-02 5.160619970411062241e-03 -1.725615374743938446e-02 2.182175591588020325e-02 1.472289264202117920e-01 2.163581401109695435e-01 2.491962909698486328e-01 1.878797262907028198e-01 1.258656382560729980e-01 1.589405685663223267e-01 -4.258425161242485046e-02 -2.077183686196804047e-02 -4.397305846214294434e-01 -6.685531139373779297e-01 -6.040633320808410645e-01 -3.055012226104736328e-01 -3.559691831469535828e-02 2.495552748441696167e-01 3.677636981010437012e-01 3.432013094425201416e-01 2.113586515188217163e-01 1.252653151750564575e-01 1.722045838832855225e-01 3.554440662264823914e-02 5.084517598152160645e-02 -9.155105799436569214e-03 1.778675615787506104e-02 -4.286881448933854699e-05 2.419414930045604706e-02 2.503744326531887054e-02 -5.762071162462234497e-02 -3.280963003635406494e-02 9.659913182258605957e-02 2.669834494590759277e-01 2.682805657386779785e-01 1.416413336992263794e-01 3.301345407962799072e-01 1.420548409223556519e-01 -2.062718570232391357e-02 1.562235057353973389e-01 -2.297932207584381104e-01 -6.459988951683044434e-01 -7.230281233787536621e-01 -3.694030344486236572e-01 3.833453729748725891e-02 1.913482248783111572e-01 5.941755771636962891e-01 5.662282705307006836e-01 3.788880705833435059e-01 -1.216765269637107849e-01 -2.157415002584457397e-01 -3.464555367827415466e-02 9.202534332871437073e-03 -4.877165425568819046e-03 2.095363289117813110e-02 -3.121043369174003601e-02 -2.194765023887157440e-02 -2.237311191856861115e-02 2.530063875019550323e-02 6.459690630435943604e-02 9.235829114913940430e-02 1.417267471551895142e-01 4.407027363777160645e-02 -7.518240250647068024e-03 -6.190874427556991577e-02 -1.046718582510948181e-01 3.486682195216417313e-03 5.026375502347946167e-02 -3.571503460407257080e-01 -7.543806433677673340e-01 -8.267372846603393555e-01 -4.217629730701446533e-01 4.031754434108734131e-01 5.422766804695129395e-01 7.286882996559143066e-01 5.477427840232849121e-01 3.220982849597930908e-01 -1.238362416625022888e-01 -1.865882426500320435e-01 -1.888945251703262329e-01 -9.257316589355468750e-02 1.647565513849258423e-02 1.136673800647258759e-02 2.151008881628513336e-02 -5.886429455131292343e-03 1.536561921238899231e-02 4.224558547139167786e-02 1.019102707505226135e-01 1.594955325126647949e-01 -6.767968088388442993e-02 3.099251352250576019e-02 -9.639047831296920776e-02 -6.029883399605751038e-02 -1.562247425317764282e-02 8.124421536922454834e-02 2.425731420516967773e-01 -2.900047004222869873e-01 -8.520077466964721680e-01 -9.194997549057006836e-01 -1.790280491113662720e-01 7.690452337265014648e-01 6.477837562561035156e-01 4.481173157691955566e-01 3.715574741363525391e-01 8.204562216997146606e-02 -4.022993519902229309e-02 -3.801321089267730713e-01 -4.208467006683349609e-01 -2.083105146884918213e-01 -2.135296352207660675e-02 1.125596649944782257e-02 -3.125331178307533264e-02 -2.970219776034355164e-02 9.691035374999046326e-03 6.906153261661529541e-02 1.668381541967391968e-01 8.630483597517013550e-02 -4.920331388711929321e-02 -1.349215582013130188e-02 2.213836759328842163e-01 2.013065814971923828e-01 -1.127816811203956604e-01 1.565548628568649292e-01 1.542227119207382202e-01 -4.137392342090606689e-01 -6.163666844367980957e-01 -8.053689599037170410e-01 1.117798686027526855e-01 8.265731334686279297e-01 5.688793659210205078e-01 3.585828244686126709e-01 2.472522556781768799e-01 7.615885138511657715e-02 -1.011980976909399033e-02 -1.692830771207809448e-01 -2.417010962963104248e-01 -9.643186628818511963e-02 5.634198896586894989e-03 3.297331184148788452e-02 -1.333433785475790501e-03 -8.936235099099576473e-05 -4.499261267483234406e-03 8.133502304553985596e-02 6.496747583150863647e-02 -2.461514621973037720e-02 -3.544008731842041016e-01 -2.312339246273040771e-01 2.944663166999816895e-01 7.921933382749557495e-02 -2.653795294463634491e-03 -7.350223138928413391e-03 -2.105268239974975586e-01 -5.714539885520935059e-01 -4.615900814533233643e-01 -4.486507773399353027e-01 3.089129626750946045e-01 1.044824361801147461e+00 7.444636821746826172e-01 3.732043206691741943e-01 1.298788934946060181e-01 -1.005778908729553223e-01 -1.263276040554046631e-01 -1.902725398540496826e-01 -1.372943222522735596e-01 -9.803798049688339233e-02 1.053870469331741333e-02 5.340965464711189270e-03 -3.171459957957267761e-02 -1.527552027255296707e-02 6.760938465595245361e-02 5.073266569525003433e-03 -1.898708194494247437e-02 -6.755550205707550049e-02 -3.134922087192535400e-01 -2.785825431346893311e-01 1.077794190496206284e-02 -4.648305848240852356e-02 8.726683259010314941e-02 -1.895747929811477661e-01 -4.199347198009490967e-01 -3.421826660633087158e-01 -2.304295152425765991e-01 -2.931444048881530762e-01 4.269098043441772461e-01 5.353405475616455078e-01 4.941650331020355225e-01 5.737266689538955688e-02 -5.038986355066299438e-02 -1.485507041215896606e-01 -2.074198126792907715e-01 -1.007512509822845459e-01 -6.277392059564590454e-02 -7.029480487108230591e-02 -4.141268506646156311e-02 -3.589046001434326172e-02 -3.538417071104049683e-02 -2.617846988141536713e-02 2.621339168399572372e-03 -1.029191538691520691e-02 -1.447349190711975098e-01 -3.152930736541748047e-02 -1.087133735418319702e-01 -2.232060432434082031e-01 -2.657672762870788574e-01 -2.285593748092651367e-01 1.406170707195997238e-02 8.163321018218994141e-02 2.527912259101867676e-01 1.238123998045921326e-01 -1.187039655633270741e-03 1.002147197723388672e-01 3.729877769947052002e-01 1.817426532506942749e-01 1.044391617178916931e-01 -5.112901926040649414e-01 -3.446847200393676758e-01 -1.428662836551666260e-01 -1.709389090538024902e-01 -6.144600734114646912e-02 7.479202002286911011e-02 -1.948320306837558746e-02 -1.293355971574783325e-02 2.102207206189632416e-02 1.537803746759891510e-02 -1.207112893462181091e-02 -9.770432370714843273e-06 -1.124777179211378098e-02 -5.422068387269973755e-02 -1.261966079473495483e-01 -7.638002932071685791e-02 -2.614925503730773926e-01 7.588701695203781128e-02 -1.624713391065597534e-01 -1.599105149507522583e-01 2.717697620391845703e-01 6.922783702611923218e-02 -5.325162783265113831e-02 -6.917802244424819946e-02 -1.174257695674896240e-01 -1.031581535935401917e-01 2.035018056631088257e-01 4.398997873067855835e-02 -5.876262187957763672e-01 -4.157416522502899170e-01 -8.512125164270401001e-02 -1.037330999970436096e-01 -1.177832707762718201e-01 2.879868075251579285e-02 -3.181323781609535217e-02 -1.199119351804256439e-02 -2.849682234227657318e-02 -2.610799390822649002e-03 -1.325548067688941956e-02 1.087245065718889236e-02 3.280088305473327637e-02 -2.076044678688049316e-02 5.529282614588737488e-02 -1.634618788957595825e-01 -1.865545064210891724e-01 1.848770305514335632e-02 2.396537810564041138e-01 1.264296919107437134e-01 1.517200022935867310e-01 -1.315638571977615356e-01 -2.376658618450164795e-01 -5.735750868916511536e-02 -4.634553566575050354e-02 -1.034013852477073669e-01 3.663832545280456543e-01 -1.606463044881820679e-01 2.278281450271606445e-01 -8.624305576086044312e-02 -9.819667786359786987e-03 -1.524155884981155396e-01 -5.134968832135200500e-02 7.946825586259365082e-03 -6.015121936798095703e-03 3.830572217702865601e-02 2.195695973932743073e-02 2.510044537484645844e-02 -1.948886923491954803e-02 3.831376507878303528e-02 2.769072353839874268e-02 1.001037210226058960e-01 7.449348270893096924e-02 -1.504478454589843750e-01 -1.029887935146689415e-03 -4.118755459785461426e-02 -3.313871920108795166e-01 -6.900667678564786911e-03 1.458482593297958374e-01 -3.518875837326049805e-01 7.863784581422805786e-02 2.173681855201721191e-01 1.340081840753555298e-01 -1.989632397890090942e-01 -1.617016494274139404e-01 1.366636306047439575e-01 2.421773672103881836e-01 1.703893989324569702e-01 2.998754382133483887e-02 3.954753279685974121e-02 -3.995578736066818237e-02 -7.528834044933319092e-02 3.286414593458175659e-02 6.805109977722167969e-02 1.566051132977008820e-02 -3.569983690977096558e-02 3.067073971033096313e-02 9.216805920004844666e-03 8.744188398122787476e-02 -4.150922468397766352e-04 -4.917453229427337646e-02 -4.275079071521759033e-02 5.403310991823673248e-03 -1.244306638836860657e-01 -2.175752371549606323e-01 -1.176446974277496338e-01 -4.151458293199539185e-02 -1.168113015592098236e-02 1.273811608552932739e-01 1.949062794446945190e-01 3.214278519153594971e-01 -1.252111196517944336e-01 -5.377545952796936035e-02 3.293269872665405273e-01 3.942907452583312988e-01 8.762639015913009644e-02 1.265700310468673706e-01 -9.911227971315383911e-02 -2.531933970749378204e-02 8.173848688602447510e-02 -2.511918079107999802e-03 5.043854191899299622e-02 2.473130449652671814e-02 -8.562345057725906372e-03 2.754181623458862305e-02 4.282843694090843201e-02 1.109431013464927673e-01 9.197378903627395630e-02 -8.293576538562774658e-02 -7.858394831418991089e-02 6.730137765407562256e-02 -1.670882403850555420e-01 -2.877419590950012207e-01 -1.578160822391510010e-01 1.997722089290618896e-01 4.577274248003959656e-02 -1.343607008457183838e-01 2.978874444961547852e-01 -1.257497537881135941e-02 -1.040788739919662476e-01 2.121290862560272217e-01 3.456552326679229736e-01 2.118594646453857422e-01 -4.387332883197814226e-04 1.728710681200027466e-01 -1.116201281547546387e-01 1.585921458899974823e-02 9.139620512723922729e-02 3.818880766630172729e-02 2.175173722207546234e-02 1.342443004250526428e-02 1.312028244137763977e-02 3.182275593280792236e-02 2.890315279364585876e-02 1.818114966154098511e-01 2.893134951591491699e-02 -4.485408961772918701e-02 -2.205280810594558716e-01 -8.636401593685150146e-02 -6.853020936250686646e-02 -6.735959649085998535e-02 -1.387332230806350708e-01 5.362502485513687134e-02 -6.227347627282142639e-02 9.270673245191574097e-02 8.577650785446166992e-02 1.184077337384223938e-01 1.327861398458480835e-01 4.322698414325714111e-01 1.214177384972572327e-01 2.447833307087421417e-02 -8.241321146488189697e-02 7.826359570026397705e-02 -7.195478677749633789e-02 -8.255830407142639160e-02 6.718898192048072815e-03 2.303000353276729584e-02 -6.968584842979907990e-03 2.609905414283275604e-02 2.193431742489337921e-02 7.795535493642091751e-03 3.848765417933464050e-02 2.076680511236190796e-01 5.284325405955314636e-02 5.367077514529228210e-02 5.069377645850181580e-02 5.038878694176673889e-02 -4.676848277449607849e-02 -6.724032759666442871e-02 -2.022381126880645752e-01 -9.652011841535568237e-02 -4.267404973506927490e-01 -9.857393801212310791e-02 2.596962265670299530e-02 1.836719959974288940e-01 3.655653893947601318e-01 1.461946368217468262e-01 -2.792036533355712891e-01 1.644439995288848877e-02 1.821627318859100342e-01 1.223338171839714050e-01 -8.594650775194168091e-03 -5.677337571978569031e-02 -5.212952941656112671e-02 -3.105201944708824158e-02 1.816452946513891220e-03 -8.195025846362113953e-03 9.042286314070224762e-03 -1.346156932413578033e-02 1.706180348992347717e-02 1.279453635215759277e-01 7.261838018894195557e-02 -8.238677680492401123e-02 -1.487571001052856445e-02 1.593210697174072266e-01 -3.393231704831123352e-02 -2.603677213191986084e-01 -2.248203307390213013e-01 -2.248661518096923828e-01 -1.686068922281265259e-01 -6.952874362468719482e-02 5.351532623171806335e-02 6.849754601716995239e-02 1.329796761274337769e-01 2.856661006808280945e-02 -5.388459563255310059e-02 1.930557489395141602e-01 1.511194109916687012e-01 2.479986995458602905e-01 -3.264456242322921753e-02 6.040419917553663254e-03 -6.520050019025802612e-02 5.284515646053478122e-05 -1.183056365698575974e-02 8.950335904955863953e-03 -3.450628370046615601e-03 1.102712936699390411e-02 -2.543495781719684601e-02 6.975131575018167496e-03 6.521666049957275391e-02 4.153764247894287109e-02 8.180177956819534302e-02 2.596107721328735352e-01 2.627993822097778320e-01 -2.237592190504074097e-01 8.485078811645507812e-02 3.164380043745040894e-02 -1.646030545234680176e-01 -7.316149026155471802e-02 5.226957052946090698e-02 -1.319796442985534668e-01 7.095161825418472290e-02 1.916232407093048096e-01 5.542446300387382507e-02 1.217762455344200134e-01 1.623579114675521851e-01 1.261981427669525146e-01 4.869458079338073730e-02 3.978284075856208801e-03 1.637119054794311523e-02 -3.098784573376178741e-02 -8.820961229503154755e-03 1.993790455162525177e-02 3.740459447726607323e-03 7.431366946548223495e-03 2.759417146444320679e-02 8.473610505461692810e-03 1.579814776778221130e-02 1.820191740989685059e-01 1.045551821589469910e-01 -9.267245233058929443e-02 8.784959465265274048e-02 -4.125698655843734741e-02 -6.766239553689956665e-02 2.512191534042358398e-01 -7.811741530895233154e-02 2.109138816595077515e-01 6.142222508788108826e-02 3.929302841424942017e-02 3.482175990939140320e-02 1.919910460710525513e-01 -1.270975265651941299e-02 2.796689867973327637e-01 1.516204178333282471e-01 1.084471791982650757e-01 8.898220956325531006e-03 -1.670129038393497467e-02 -4.381396621465682983e-02 1.262120623141527176e-02 -1.869667507708072662e-02 -3.175598382949829102e-02 -1.135435327887535095e-02 -5.232592113316059113e-03 3.147878497838973999e-02 3.439573571085929871e-02 8.947367221117019653e-02 7.433512061834335327e-02 1.477430313825607300e-01 1.987317204475402832e-01 -1.641655117273330688e-01 -1.166659221053123474e-01 1.157872844487428665e-02 -1.612999476492404938e-02 3.532816097140312195e-02 2.967843115329742432e-01 1.288609057664871216e-01 1.442543417215347290e-01 1.346291154623031616e-01 4.149369150400161743e-02 1.311413049697875977e-01 3.518841788172721863e-02 2.044587023556232452e-02 -4.355233535170555115e-02 -1.126211136579513550e-01 -6.796340644359588623e-02 -2.505687996745109558e-02 1.802620477974414825e-02 3.409095108509063721e-02 -1.295315846800804138e-02 -2.040985785424709320e-02 -3.436676785349845886e-02 7.175364531576633453e-03 9.641676209867000580e-03 8.793069422245025635e-02 7.289559394121170044e-02 7.216390222311019897e-02 9.468910098075866699e-02 -8.120246231555938721e-02 -7.396348565816879272e-02 4.877826943993568420e-02 1.114645898342132568e-01 3.871858492493629456e-02 4.473246634006500244e-01 2.761115729808807373e-01 -8.352088928222656250e-02 1.215938627719879150e-01 -4.402365535497665405e-03 -1.438591778278350830e-01 -2.687332928180694580e-01 -1.245084926486015320e-01 -6.877586245536804199e-02 -4.543901979923248291e-02 -6.058927252888679504e-02 8.070838637650012970e-03 -2.133651264011859894e-02 -3.709802776575088501e-02 -1.495894510298967361e-02 -1.583918556571006775e-02 2.115483768284320831e-02 1.080525945872068405e-02 -2.952043525874614716e-02 1.856257952749729156e-02 9.926883876323699951e-02 2.612943574786186218e-02 4.256017133593559265e-02 8.701655268669128418e-02 1.612167805433273315e-01 3.107603639364242554e-02 -2.716155722737312317e-02 2.676717638969421387e-01 2.903925180435180664e-01 -8.470062166452407837e-02 -2.062422931194305420e-01 -5.385122820734977722e-02 -5.321666970849037170e-02 -9.047956764698028564e-02 -3.174885213375091553e-01 -3.611597418785095215e-01 -1.971352100372314453e-01 -5.177345871925354004e-02 -3.610853478312492371e-02 -8.710440248250961304e-03 -1.043680403381586075e-02 1.407354231923818588e-02 2.962438017129898071e-02 -1.955313049256801605e-02 -2.870974503457546234e-02 1.225656270980834961e-02 -1.689382456243038177e-02 -3.703177347779273987e-02 5.436867475509643555e-03 -2.068168297410011292e-02 -2.420204319059848785e-02 -5.854412168264389038e-02 -1.040490791201591492e-01 -1.903080940246582031e-01 -1.461077928543090820e-01 -8.875626325607299805e-02 -1.669987738132476807e-01 -3.108707964420318604e-01 -1.729349792003631592e-01 -1.650070101022720337e-01 -4.039693623781204224e-02 -1.483613550662994385e-01 -1.779726892709732056e-01 -1.585986167192459106e-01 -1.163606569170951843e-01 3.444592701271176338e-03 -2.591734938323497772e-02 -2.676879055798053741e-02 9.536892175674438477e-03 2.085234783589839935e-02 -2.057176269590854645e-02 8.471004664897918701e-03 1.607935316860675812e-02 2.149987034499645233e-02 2.960846293717622757e-03 3.287212550640106201e-02 -1.751940324902534485e-02 1.150407362729310989e-02 -1.458971854299306870e-02 4.721749108284711838e-03 1.803689077496528625e-02 -7.148861419409513474e-03 -1.597384177148342133e-02 -1.392573211342096329e-02 -1.298208255320787430e-02 8.202296681702136993e-03 7.943404838442802429e-03 3.324193879961967468e-02 1.407526060938835144e-02 6.928270682692527771e-03 9.435522370040416718e-03 -1.180662191472947598e-03 -2.090188115835189819e-02 -1.888504624366760254e-02 -2.580915205180644989e-02 -9.635757887735962868e-04 -8.340783417224884033e-03 2.265779487788677216e-02 1.824929751455783844e-02
