5.368618667125701904e-02 3.778628259897232056e-02 -2.761106006801128387e-03 1.451090723276138306e-02 -1.573239685967564583e-03 1.542298309504985809e-02 -3.355694236233830452e-03 4.154761135578155518e-02 -1.186309941112995148e-02 -2.682234393432736397e-03 -4.671453498303890228e-03 4.548542946577072144e-02 -1.110992580652236938e-02 7.197345141321420670e-03 4.667381197214126587e-02 3.078166395425796509e-02 3.475781995803117752e-03 2.043648622930049896e-03 -7.347273640334606171e-03 4.469507187604904175e-02 2.492395974695682526e-02 1.373436395078897476e-02 6.977249868214130402e-03 6.863099522888660431e-03 -2.675171708688139915e-03 1.214652135968208313e-02 2.909126691520214081e-02 9.145765565335750580e-03 -2.352932235226035118e-03 2.154207788407802582e-02 7.230691146105527878e-03 4.933497868478298187e-03 4.123193770647048950e-02 3.439436852931976318e-02 5.005443468689918518e-02 -6.926280912011861801e-03 1.342211011797189713e-02 2.088585682213306427e-02 -1.882138196378946304e-03 -4.588169045746326447e-03 3.950396552681922913e-02 3.603024408221244812e-02 3.638062998652458191e-02 3.152263909578323364e-02 -8.766883052885532379e-03 3.194789215922355652e-02 -6.800289265811443329e-03 1.615542918443679810e-02 2.850413136184215546e-02 2.013824414461851120e-04 4.387002438306808472e-02 4.265324212610721588e-03 3.988909721374511719e-02 4.773890972137451172e-02 -9.724077768623828888e-03 3.122111968696117401e-02 1.471162121742963791e-02 1.570364274084568024e-02 1.504895649850368500e-02 4.249233007431030273e-02 1.982638146728277206e-03 3.129945835098624229e-03 2.892547659575939178e-02 2.134837023913860321e-02 4.199349787086248398e-03 2.157168462872505188e-02 4.135473072528839111e-02 3.136558830738067627e-02 2.469956316053867340e-02 9.590386413037776947e-03 4.852249845862388611e-02 6.070677936077117920e-02 3.186139464378356934e-02 -3.269312158226966858e-02 -3.818624839186668396e-02 4.403464030474424362e-03 1.515959203243255615e-02 -1.616963744163513184e-02 -5.989481229335069656e-03 -3.805071115493774414e-03 1.627418585121631622e-02 1.033908315002918243e-02 3.662037849426269531e-02 6.061577238142490387e-03 3.102191537618637085e-02 2.355441264808177948e-02 4.565042629837989807e-02 2.123305946588516235e-02 1.996142603456974030e-02 1.477317139506340027e-02 6.397387385368347168e-02 6.414068490266799927e-02 6.721457093954086304e-02 3.479664772748947144e-02 2.086259610950946808e-02 1.165836527943611145e-01 6.739999353885650635e-02 8.385521173477172852e-02 2.139473892748355865e-02 -5.819171667098999023e-02 -1.999928429722785950e-02 -4.256379976868629456e-02 -9.273288398981094360e-02 -6.418116390705108643e-02 1.876719854772090912e-02 -2.888018637895584106e-02 -3.866420593112707138e-03 1.318743918091058731e-02 7.875071838498115540e-03 -1.288150087930262089e-03 3.692203015089035034e-02 2.071976475417613983e-02 1.148266252130270004e-02 3.032427467405796051e-02 3.769781813025474548e-02 6.473022513091564178e-03 6.055204197764396667e-02 8.797902613878250122e-02 1.271904557943344116e-01 1.126372888684272766e-01 1.837614476680755615e-01 7.825544476509094238e-02 1.308512091636657715e-01 7.288965582847595215e-02 1.192239150404930115e-01 1.239127889275550842e-01 -7.194600999355316162e-02 -2.495127320289611816e-01 -2.473846226930618286e-01 -3.253347277641296387e-01 -2.785139679908752441e-01 -1.896868050098419189e-01 -9.892369806766510010e-02 -8.002053201198577881e-02 -6.487454473972320557e-02 -4.035336151719093323e-02 -2.608290128409862518e-02 3.803149983286857605e-02 5.746277747675776482e-04 2.906302548944950104e-02 4.244497418403625488e-02 -6.470054388046264648e-03 1.498062163591384888e-02 5.209204182028770447e-02 8.880686014890670776e-02 1.268439292907714844e-01 1.283050030469894409e-01 1.709086447954177856e-01 1.554846912622451782e-01 7.231945544481277466e-02 1.494412422180175781e-01 1.285004913806915283e-01 1.716650426387786865e-01 6.283701211214065552e-02 8.762068115174770355e-03 4.702429845929145813e-02 -1.446040123701095581e-01 -3.527968525886535645e-01 -3.650007545948028564e-01 -3.625471591949462891e-01 -2.961312234401702881e-01 -1.796149164438247681e-01 -1.383367031812667847e-01 -8.221892267465591431e-02 -6.909430958330631256e-03 2.229538746178150177e-02 4.613211378455162048e-02 1.777743734419345856e-02 -5.223009735345840454e-03 -7.599397562444210052e-03 2.802690491080284119e-02 9.158506989479064941e-02 1.000777930021286011e-01 7.257878035306930542e-02 1.217887103557586670e-01 1.543865352869033813e-01 1.019650921225547791e-01 1.257979422807693481e-01 8.107328414916992188e-02 1.642487198114395142e-02 4.097397252917289734e-02 6.164846569299697876e-02 -1.916155219078063965e-02 7.006056606769561768e-03 5.104729533195495605e-02 -2.008031308650970459e-01 -4.022363126277923584e-01 -5.225273966789245605e-01 -3.638047873973846436e-01 -2.150217443704605103e-01 -1.307896524667739868e-01 -1.305339783430099487e-01 -5.421559885144233704e-02 -2.257041633129119873e-02 1.318291667848825455e-02 1.166245341300964355e-02 3.534686565399169922e-02 1.153800264000892639e-02 4.488588497042655945e-02 8.950972557067871094e-02 1.325406879186630249e-01 4.923227801918983459e-02 8.856173604726791382e-02 3.376676142215728760e-02 1.363272778689861298e-02 -2.785293571650981903e-02 -1.029224619269371033e-01 -2.131839655339717865e-02 1.290445448830723763e-03 1.238688081502914429e-01 1.447536945343017578e-01 2.783891558647155762e-01 1.845807880163192749e-01 -9.786082804203033447e-02 -4.691209793090820312e-01 -5.033283233642578125e-01 -3.532872796058654785e-01 -1.842803806066513062e-01 -2.264421880245208740e-01 -1.303902864456176758e-01 -2.752349898219108582e-02 9.942296892404556274e-03 1.178709883242845535e-02 -1.099558081477880478e-02 1.508234906941652298e-02 -2.134937094524502754e-03 3.331308066844940186e-02 4.384998977184295654e-02 1.695788949728012085e-01 5.694209039211273193e-02 -6.088395044207572937e-02 -1.574573665857315063e-02 -9.448882192373275757e-02 -8.227838575839996338e-02 1.162613257765769958e-01 -5.365740880370140076e-02 5.696569383144378662e-02 2.606877684593200684e-01 4.385294318199157715e-01 4.883328080177307129e-01 1.872210353612899780e-01 -8.063219487667083740e-02 -3.773304224014282227e-01 -3.597839772701263428e-01 -3.176872730255126953e-01 -2.483840584754943848e-01 -1.879930943250656128e-01 -1.249754428863525391e-01 -6.248196214437484741e-02 -3.229644894599914551e-02 1.455612480640411377e-02 1.163438521325588226e-02 8.474775590002536774e-03 4.116112738847732544e-02 -9.297156939283013344e-04 4.818041995167732239e-02 1.431761085987091064e-01 9.778614342212677002e-02 -2.558635175228118896e-02 1.781889982521533966e-02 -1.265734732151031494e-01 -5.793556943535804749e-02 8.210723847150802612e-02 -6.074172444641590118e-03 6.600406765937805176e-02 2.145217955112457275e-01 4.055998921394348145e-01 3.423705101013183594e-01 9.651390463113784790e-02 -2.142074406147003174e-01 -4.306694269180297852e-01 -3.530493378639221191e-01 -2.784549593925476074e-01 -1.947171837091445923e-01 -8.612335473299026489e-02 -1.614447087049484253e-01 -7.499910891056060791e-02 -1.894996501505374908e-03 -2.736079739406704903e-03 2.362365275621414185e-02 4.427423328161239624e-02 3.169679269194602966e-02 6.808923929929733276e-02 4.677715897560119629e-02 4.091522842645645142e-02 8.713933080434799194e-02 7.521630823612213135e-02 -1.096855755895376205e-02 -1.331830918788909912e-01 -4.917111992835998535e-02 7.138817012310028076e-02 9.747973829507827759e-02 6.242262199521064758e-02 2.077179253101348877e-01 1.767227649688720703e-01 6.549704074859619141e-02 -5.443450808525085449e-02 -1.762107461690902710e-01 -3.286745250225067139e-01 -3.055102229118347168e-01 -2.043609619140625000e-01 -8.028887957334518433e-02 -9.624446928501129150e-02 -1.192022114992141724e-01 -1.148786470293998718e-01 -1.150153577327728271e-02 -1.444303337484598160e-02 1.954458467662334442e-02 -2.681169658899307251e-03 4.830557852983474731e-02 2.521820925176143646e-02 7.404763996601104736e-02 3.581813350319862366e-02 8.030015975236892700e-02 -3.877049311995506287e-02 -2.532350365072488785e-03 -6.877121329307556152e-02 3.052652813494205475e-03 7.737878710031509399e-02 1.675297170877456665e-01 8.914961665868759155e-02 7.750777155160903931e-02 8.922165632247924805e-02 -1.525051742792129517e-01 -2.646629512310028076e-01 -1.043138951063156128e-01 -1.351920422166585922e-02 2.746814675629138947e-02 4.559721425175666809e-02 -9.087525308132171631e-02 -1.253890693187713623e-01 -1.236918941140174866e-01 -1.075962558388710022e-01 -8.498277515172958374e-02 -1.394110918045043945e-02 1.809194870293140411e-02 -6.639066268689930439e-04 4.308266099542379379e-03 1.537226978689432144e-02 3.198807686567306519e-02 3.271282836794853210e-02 -5.382356420159339905e-02 -1.006322503089904785e-01 -1.260283589363098145e-01 -6.614612042903900146e-02 2.407058700919151306e-02 7.977934926748275757e-02 1.569094508886337280e-02 -8.347140997648239136e-02 -9.814578294754028320e-02 -1.723596267402172089e-02 1.159038394689559937e-02 6.381057947874069214e-02 1.658228784799575806e-01 2.332605719566345215e-01 1.527479737997055054e-01 5.728322640061378479e-02 -1.082857400178909302e-01 -1.130788251757621765e-01 -7.827251404523849487e-02 -6.904094666242599487e-02 -4.634355660527944565e-03 -1.859422773122787476e-02 5.078743025660514832e-02 -3.433808218687772751e-03 2.254339680075645447e-02 -8.657891885377466679e-04 5.493485182523727417e-02 1.591655425727367401e-02 -4.831363633275032043e-02 -1.241645812988281250e-01 -1.572783887386322021e-01 -1.006970778107643127e-01 -1.477013621479272842e-02 1.220544502139091492e-01 -2.235038205981254578e-03 -1.389426440000534058e-01 -6.450280547142028809e-02 2.510147460270673037e-04 6.802368164062500000e-02 2.024449408054351807e-01 2.744972407817840576e-01 2.767572999000549316e-01 1.545616835355758667e-01 -4.306429997086524963e-02 -5.313367769122123718e-02 -2.567085437476634979e-02 1.311794039793312550e-03 4.324137698858976364e-03 8.473545312881469727e-02 8.979531936347484589e-03 4.333956912159919739e-02 -9.576051495969295502e-03 4.906440898776054382e-02 3.101525641977787018e-02 2.268145233392715454e-02 -2.888048440217971802e-02 -1.010590940713882446e-01 -1.342024058103561401e-01 -2.031073272228240967e-01 -1.769125014543533325e-01 -7.116826623678207397e-02 7.438603043556213379e-02 -1.821663975715637207e-02 -4.898611828684806824e-02 -1.207499299198389053e-02 -9.689442813396453857e-02 3.666415065526962280e-02 1.836943626403808594e-01 8.366769552230834961e-02 1.189027801156044006e-01 1.440637260675430298e-01 1.766345277428627014e-02 -6.989724189043045044e-02 -1.227549463510513306e-02 7.268771529197692871e-02 3.598321229219436646e-02 5.605277419090270996e-02 6.464248150587081909e-02 1.421210821717977524e-03 -8.778434246778488159e-03 5.235407873988151550e-02 5.522968620061874390e-02 4.735323134809732437e-03 -4.926816001534461975e-02 -1.147356703877449036e-01 -1.236121132969856262e-01 -1.584662348031997681e-01 -1.084631681442260742e-01 -1.013977602124214172e-01 7.892114669084548950e-02 6.274626404047012329e-02 -6.489373743534088135e-02 -1.135805994272232056e-02 7.141949236392974854e-02 1.582223325967788696e-01 1.603011488914489746e-01 1.589170396327972412e-01 -3.523768484592437744e-02 1.083289161324501038e-01 1.147304996848106384e-01 -4.591482505202293396e-02 6.690815836191177368e-02 -4.082231968641281128e-02 6.929981708526611328e-02 5.930035561323165894e-02 2.899707667529582977e-02 1.447110902518033981e-02 5.155313014984130859e-02 3.157163038849830627e-02 5.354467779397964478e-02 1.473988406360149384e-02 2.143187075853347778e-02 -1.198254153132438660e-01 -1.539580821990966797e-01 -1.029444634914398193e-01 -4.542287066578865051e-02 -6.541792303323745728e-02 -9.093897417187690735e-03 7.028862833976745605e-02 -4.522721469402313232e-02 -1.324546616524457932e-02 1.803378164768218994e-01 1.416338682174682617e-01 1.202346831560134888e-01 4.473764915019273758e-03 -8.495654910802841187e-03 -2.313169650733470917e-02 4.268741235136985779e-02 5.884940177202224731e-02 4.485386237502098083e-02 2.365790307521820068e-02 9.253458678722381592e-02 5.521200224757194519e-02 4.077458381652832031e-02 2.611203677952289581e-02 4.252896457910537720e-02 -1.834881142713129520e-03 5.145427584648132324e-02 6.466583162546157837e-02 -7.826401852071285248e-03 -1.091955229640007019e-01 -1.148704886436462402e-01 -1.582557559013366699e-01 -1.101211458444595337e-01 -1.921466737985610962e-01 -4.061951115727424622e-02 -2.992344554513692856e-03 3.559531643986701965e-02 7.081212103366851807e-02 1.514473110437393188e-01 4.051231220364570618e-02 6.655094772577285767e-02 -6.770277395844459534e-04 -1.086158379912376404e-01 2.545705996453762054e-02 -4.687782004475593567e-02 8.597873896360397339e-02 2.126348949968814850e-02 1.691369153559207916e-02 7.476061582565307617e-02 8.012648671865463257e-02 2.357228659093379974e-02 2.762695774435997009e-02 -5.899000912904739380e-03 5.325831472873687744e-02 -6.433571688830852509e-03 6.510000675916671753e-02 3.405543044209480286e-02 -8.234607428312301636e-02 -1.175613105297088623e-01 -1.553867906332015991e-01 -2.133928537368774414e-01 -2.654641270637512207e-01 -1.347148418426513672e-01 1.828558184206485748e-02 1.717732846736907959e-01 1.482469886541366577e-01 5.155087262392044067e-02 3.455440700054168701e-02 1.474677491933107376e-02 9.717091917991638184e-02 -1.799912378191947937e-02 2.961931563913822174e-02 -4.492818564176559448e-02 6.585123389959335327e-02 7.959039509296417236e-02 -2.563323825597763062e-02 3.895045071840286255e-02 6.356400996446609497e-02 4.423856735229492188e-02 3.924217075109481812e-02 2.534500509500503540e-02 5.307872220873832703e-02 2.700729295611381531e-02 1.872133463621139526e-02 -3.972880542278289795e-03 3.777208272367715836e-03 -1.082054972648620605e-01 -1.141174882650375366e-01 -1.622137427330017090e-01 -2.173781245946884155e-01 -9.975491464138031006e-02 4.115359485149383545e-02 1.303812563419342041e-01 2.808059006929397583e-02 8.038539439439773560e-02 5.568023398518562317e-02 8.193775266408920288e-02 2.680750377476215363e-02 3.561166673898696899e-02 4.909464716911315918e-02 -4.281720891594886780e-02 -1.050245687365531921e-01 6.640579551458358765e-02 -4.525377228856086731e-02 8.276554755866527557e-03 5.852238833904266357e-02 4.581649228930473328e-02 5.833132192492485046e-02 -6.372597068548202515e-03 1.522489078342914581e-02 -1.082066074013710022e-02 -1.609098725020885468e-02 1.212610397487878799e-02 -3.953402861952781677e-02 -1.153057068586349487e-01 -1.687225699424743652e-02 -9.347461909055709839e-02 -1.403047740459442139e-01 -3.858842328190803528e-02 -3.978353738784790039e-02 7.873757742345333099e-03 -5.849107168614864349e-03 1.460537016391754150e-01 9.995556622743606567e-02 -1.403510919772088528e-03 -5.297391489148139954e-02 -1.088959500193595886e-01 -8.573977649211883545e-02 -4.691821057349443436e-03 -3.979569673538208008e-02 -1.149722374975681305e-02 -4.610761255025863647e-02 -5.293802358210086823e-03 -2.735793963074684143e-02 5.982340872287750244e-02 4.133192449808120728e-02 4.173020273447036743e-02 -1.061605103313922882e-02 -2.527960459701716900e-04 1.066830381751060486e-02 1.647607050836086273e-02 -5.242659151554107666e-02 -1.269475221633911133e-01 -1.252651363611221313e-01 -8.326058834791183472e-02 -1.205272227525711060e-01 -1.622503399848937988e-01 -1.463948786258697510e-01 -9.406013786792755127e-02 -6.139684095978736877e-02 6.276940554380416870e-02 -1.433856319636106491e-02 4.406752530485391617e-03 -1.652656942605972290e-01 -1.142806708812713623e-01 6.353921256959438324e-03 -4.661854822188615799e-03 -7.046424597501754761e-02 -6.371285766363143921e-02 -6.608965992927551270e-02 -4.113429412245750427e-02 -3.561649471521377563e-03 3.269397839903831482e-02 9.317046962678432465e-03 3.493058681488037109e-02 5.162149667739868164e-02 -2.336567733436822891e-03 3.118359111249446869e-02 2.880877628922462463e-02 -3.170929476618766785e-02 -1.316803228110074997e-02 -5.662389472126960754e-02 -5.753049626946449280e-02 -1.525518894195556641e-01 -1.579698324203491211e-01 -1.830125600099563599e-01 -2.375929057598114014e-02 6.403776258230209351e-02 6.416189670562744141e-02 1.599190197885036469e-02 -1.277001798152923584e-01 -1.254079788923263550e-01 -3.532730042934417725e-02 -1.116286218166351318e-02 5.520135164260864258e-02 -4.761088639497756958e-02 -6.939833611249923706e-02 -1.198235452175140381e-01 -3.868844732642173767e-02 -1.759660895913839340e-03 -2.282546833157539368e-02 1.125044655054807663e-02 1.275662519037723541e-02 -8.889161050319671631e-03 1.164686959236860275e-02 1.285235863178968430e-02 2.810808084905147552e-02 4.281252250075340271e-02 1.378713548183441162e-02 1.791815459728240967e-02 -1.064886078238487244e-01 -1.986472606658935547e-01 -1.041466519236564636e-01 -6.775180250406265259e-02 -2.099655754864215851e-02 6.372965127229690552e-02 -5.300477147102355957e-02 -1.137948259711265564e-01 -1.453361958265304565e-01 -3.763313591480255127e-02 1.051047351211309433e-02 7.595690432935953140e-03 3.402647376060485840e-02 -2.205489948391914368e-02 -8.806104771792888641e-03 -5.253727734088897705e-02 -4.630238935351371765e-02 2.097428403794765472e-02 4.278415814042091370e-02 -3.425899427384138107e-03 -1.332348212599754333e-03 -1.233749091625213623e-02 8.148438297212123871e-03 3.314831480383872986e-02 2.015479095280170441e-02 5.221131816506385803e-02 9.731695801019668579e-02 -1.606252044439315796e-02 -6.459157168865203857e-02 -8.021461963653564453e-02 -1.230833604931831360e-01 -2.667785249650478363e-02 -5.108309164643287659e-02 -4.341322183609008789e-02 -3.376116603612899780e-02 -1.199380680918693542e-01 -1.825578510761260986e-01 -2.440888807177543640e-02 -2.573905885219573975e-02 5.894920788705348969e-03 3.969537094235420227e-02 6.140816491097211838e-03 -3.645005077123641968e-02 -1.806074753403663635e-02 3.227342292666435242e-02 3.768023103475570679e-02 -8.248543366789817810e-03 4.703778773546218872e-02 1.394967641681432724e-02 4.456587135791778564e-02 9.487154893577098846e-03 -8.557424880564212799e-03 6.099806353449821472e-02 7.112150639295578003e-02 6.804630160331726074e-02 7.330027967691421509e-02 7.678940147161483765e-02 1.771825365722179413e-02 8.867879398167133331e-03 1.494547538459300995e-02 3.396340832114219666e-02 -1.077058445662260056e-02 7.400337606668472290e-02 8.520961739122867584e-03 6.967167370021343231e-03 -2.275291085243225098e-02 2.337122708559036255e-02 -3.161037340760231018e-02 -7.830188609659671783e-03 -4.207078367471694946e-02 -8.777240663766860962e-02 -3.034305945038795471e-02 3.335505025461316109e-03 2.525232173502445221e-02 2.558102831244468689e-03 2.976099401712417603e-02 4.688597470521926880e-02 2.399750985205173492e-02 5.582507699728012085e-02 -1.222004741430282593e-02 2.634329162538051605e-02 1.034177932888269424e-02 3.699032589793205261e-02 4.368210956454277039e-02 6.745857000350952148e-02 9.089107811450958252e-02 7.261254638433456421e-02 5.343307182192802429e-02 5.289423093199729919e-02 6.269399076700210571e-02 7.366960495710372925e-02 7.905055582523345947e-02 3.829842805862426758e-02 8.808638900518417358e-02 7.940809428691864014e-02 7.974467426538467407e-02 1.598197035491466522e-02 3.275128826498985291e-02 2.067060675472021103e-03 4.900963045656681061e-03 7.622492965310811996e-03 2.875090390443801880e-02 -5.893211811780929565e-03 4.251678287982940674e-02 9.079939685761928558e-03 2.754895761609077454e-02 3.766419738531112671e-02 4.903275519609451294e-02 3.816313669085502625e-02 4.691131412982940674e-02 1.298992522060871124e-02 3.884934633970260620e-02 2.277302183210849762e-02 1.853227615356445312e-02 1.970217190682888031e-02 -4.818732384592294693e-03 5.542154982686042786e-02 -9.277253411710262299e-04 1.940721645951271057e-02 4.554855823516845703e-02 4.865723848342895508e-02 -4.480205010622739792e-03 1.250339206308126450e-02 3.227706998586654663e-02 3.708245605230331421e-02 5.783797428011894226e-02 3.863672912120819092e-02 1.515125669538974762e-02 4.505210556089878082e-03 2.758461609482765198e-02 -8.605351671576499939e-03 1.481288205832242966e-02
3.411661088466644287e-02 3.308207169175148010e-02 -1.812127791345119476e-02 3.864400088787078857e-02 1.986937411129474640e-02 -5.391822196543216705e-03 3.358137235045433044e-02 -7.534297183156013489e-03 -1.948668388649821281e-03 1.067025959491729736e-02 -2.320743724703788757e-02 3.280681744217872620e-02 -2.338665165007114410e-02 2.834200300276279449e-02 2.880837209522724152e-02 4.277698695659637451e-02 3.576169908046722412e-02 3.113925270736217499e-02 -1.932468451559543610e-02 2.846424095332622528e-02 2.205874957144260406e-02 -1.876507326960563660e-02 2.192050032317638397e-02 -2.272491715848445892e-02 1.777404733002185822e-02 2.234854735434055328e-02 3.913222253322601318e-02 9.188158437609672546e-03 1.369441300630569458e-02 -3.354474902153015137e-03 -2.784215845167636871e-02 -7.389466743916273117e-03 1.816703565418720245e-02 1.449147332459688187e-02 1.954911462962627411e-02 2.698786742985248566e-02 -2.590363472700119019e-02 3.370990231633186340e-02 2.125022001564502716e-03 -1.883776299655437469e-02 2.980847842991352081e-02 4.237867519259452820e-02 -1.427104882895946503e-02 4.074064642190933228e-02 -7.508174050599336624e-03 -6.842963397502899170e-03 -1.413157302886247635e-02 3.205595910549163818e-02 3.929890692234039307e-02 -6.552598904818296432e-03 1.503091398626565933e-02 2.439471893012523651e-02 -1.056510489434003830e-02 -2.303672023117542267e-02 -1.170823257416486740e-02 4.091032594442367554e-02 3.540090285241603851e-03 1.903613097965717316e-02 -1.617546379566192627e-02 -8.568806806579232216e-04 -2.754441834986209869e-02 1.158429682254791260e-02 -1.765735074877738953e-02 4.220578819513320923e-02 1.297029107809066772e-02 2.988104335963726044e-02 -1.828435808420181274e-02 1.800087094306945801e-02 8.914169855415821075e-03 -6.955365097383037210e-05 -2.585513517260551453e-02 1.494996435940265656e-02 -5.989627446979284286e-03 -1.040462870150804520e-02 -1.209932472556829453e-02 1.521927863359451294e-02 -1.336931902915239334e-02 -1.096587534993886948e-02 1.037341635674238205e-02 -6.811445578932762146e-03 3.162644430994987488e-02 2.263576723635196686e-02 2.869707066565752029e-03 -1.593697629868984222e-02 2.185519598424434662e-02 -9.167687036097049713e-03 -2.109453827142715454e-02 -2.546471357345581055e-02 3.870038688182830811e-02 -2.706138230860233307e-02 1.895141042768955231e-02 4.251123964786529541e-02 2.691301889717578888e-02 2.900492772459983826e-02 2.298357337713241577e-02 8.074026554822921753e-03 6.297642365097999573e-03 1.915774866938591003e-02 8.764876984059810638e-03 6.698320503346621990e-04 6.629803101532161236e-04 -1.609931699931621552e-02 2.075623255223035812e-03 7.535645738244056702e-03 2.960832789540290833e-02 3.824787586927413940e-02 1.821778528392314911e-02 -7.726861629635095596e-03 2.785243652760982513e-02 1.102947816252708435e-02 -2.384702675044536591e-02 1.201405376195907593e-02 1.302399439737200737e-03 -1.661837333813309669e-03 9.334759786725044250e-03 2.862476743757724762e-02 3.734263591468334198e-03 -1.409712713211774826e-02 2.868847362697124481e-02 2.300181804457679391e-04 3.101366758346557617e-02 4.326800256967544556e-02 -2.200357615947723389e-02 2.636517584323883057e-02 1.660400442779064178e-02 -1.740070804953575134e-02 2.602089382708072662e-02 -1.591903343796730042e-02 -2.578091621398925781e-02 -1.795978844165802002e-02 -7.961478084325790405e-03 2.761932276189327240e-02 3.488058224320411682e-02 2.583576738834381104e-02 -1.854769885540008545e-02 -2.767910016700625420e-03 1.093905884772539139e-02 1.093627884984016418e-03 2.202823571860790253e-02 1.688822917640209198e-02 2.282865112647414207e-03 2.019865624606609344e-02 2.340837381780147552e-02 2.755937539041042328e-02 2.809389494359493256e-02 -1.469540875405073166e-02 4.160770680755376816e-03 1.003073342144489288e-02 3.895507752895355225e-02 1.083724107593297958e-02 9.392910636961460114e-03 1.003997121006250381e-02 7.709230761975049973e-03 -1.880609989166259766e-02 -2.436341717839241028e-02 4.207922518253326416e-02 -1.498764567077159882e-02 4.085844382643699646e-02 2.906831353902816772e-02 -1.050818525254726410e-02 2.430884540081024170e-02 2.647140063345432281e-02 2.698376402258872986e-02 -1.062927860766649246e-02 -3.906505182385444641e-03 1.576328277587890625e-02 -9.679793380200862885e-03 2.337129600346088409e-02 -2.676633186638355255e-02 4.221508651971817017e-02 1.720790937542915344e-02 -2.064069174230098724e-02 -1.508144009858369827e-02 3.827261552214622498e-02 -2.987924031913280487e-03 1.028876192867755890e-02 4.568879376165568829e-04 -1.014413870871067047e-02 -2.497837133705615997e-02 -4.233424260746687651e-04 2.629521861672401428e-02 -2.365459222346544266e-03 3.835275769233703613e-02 3.717679157853126526e-02 -1.964754983782768250e-02 3.047663904726505280e-02 -9.682039730250835419e-03 1.247183186933398247e-03 6.726226769387722015e-03 3.319913987070322037e-03 1.370807550847530365e-02 3.669072315096855164e-02 1.165030989795923233e-02 5.754982586950063705e-03 2.098941989243030548e-02 -2.369988476857542992e-03 -1.100506726652383804e-02 3.712850622832775116e-03 1.121896505355834961e-02 -1.867486536502838135e-02 8.477516472339630127e-03 -2.777118643280118704e-04 1.027814485132694244e-02 -8.202817407436668873e-04 -3.031291812658309937e-02 5.470660049468278885e-03 2.309577353298664093e-02 -2.848386764526367188e-02 2.242534607648849487e-02 -3.483807668089866638e-03 2.155203185975551605e-02 1.498828176409006119e-02 -4.063608124852180481e-03 8.874500170350074768e-03 2.728356420993804932e-02 1.187829673290252686e-02 -1.436345092952251434e-02 -2.187674678862094879e-02 2.593630924820899963e-02 2.457099780440330505e-02 -1.331526041030883789e-02 -1.320107840001583099e-02 -1.191617827862501144e-02 -2.819561585783958435e-02 2.255056239664554596e-02 1.777656190097332001e-02 3.583006560802459717e-02 3.108632937073707581e-02 -1.155972387641668320e-02 -2.319410629570484161e-02 1.506933942437171936e-02 -2.825982682406902313e-02 -2.642651461064815521e-02 -5.156053230166435242e-03 -1.191849075257778168e-02 1.444353163242340088e-02 -1.368214469403028488e-02 -3.762418776750564575e-02 1.474170014262199402e-02 2.057973109185695648e-02 1.326381415128707886e-02 -3.727610781788825989e-02 -2.839746326208114624e-02 4.040133673697710037e-03 1.288658939301967621e-02 6.416521035134792328e-03 4.055545665323734283e-03 -2.857143431901931763e-02 -2.508684433996677399e-02 1.288755983114242554e-02 -2.164229191839694977e-02 3.122266568243503571e-02 6.657640449702739716e-03 3.963184356689453125e-02 4.166026785969734192e-02 4.200371354818344116e-02 3.397380560636520386e-02 -2.806841861456632614e-03 -3.328220173716545105e-02 1.512415334582328796e-02 1.460407208651304245e-02 -3.389154747128486633e-02 5.218758247792720795e-03 -2.298653684556484222e-02 4.055593162775039673e-03 1.565359905362129211e-02 -3.209077566862106323e-02 2.008077688515186310e-02 -7.935045287013053894e-04 1.830343529582023621e-02 -9.277460165321826935e-03 -1.144369598478078842e-02 -2.620626986026763916e-02 1.938403584063053131e-03 1.176374405622482300e-02 -2.780417911708354950e-03 2.823008783161640167e-02 8.636141195893287659e-03 -1.424492243677377701e-02 -1.991439983248710632e-02 4.105085134506225586e-02 -8.956150151789188385e-03 4.071369022130966187e-02 -1.918948255479335785e-02 -2.030773460865020752e-02 -3.971718717366456985e-03 1.676776260137557983e-02 1.878228969871997833e-02 -2.713135071098804474e-02 1.928137429058551788e-02 1.207380276173353195e-02 1.856223121285438538e-02 -2.697923034429550171e-02 -3.053622692823410034e-02 -3.272245638072490692e-03 -8.764938451349735260e-03 1.065061148256063461e-02 5.948580801486968994e-03 3.095162473618984222e-02 1.608027517795562744e-02 2.455900982022285461e-02 -3.175948187708854675e-02 -6.263355724513530731e-03 3.381637856364250183e-02 -4.497262183576822281e-03 2.929730154573917389e-02 1.402760297060012817e-02 2.902129106223583221e-02 -5.483544431626796722e-03 -1.202313695102930069e-02 3.232979774475097656e-02 -2.045270986855030060e-02 -2.190604992210865021e-02 -2.629442885518074036e-02 -1.754724420607089996e-02 2.756133489310741425e-02 1.078682951629161835e-02 1.695132465101778507e-03 -1.062160544097423553e-02 2.349810302257537842e-02 -2.040610834956169128e-02 4.043678939342498779e-02 3.661542013287544250e-02 1.053472794592380524e-02 -2.477121725678443909e-02 -9.744185023009777069e-03 -1.609408645890653133e-03 1.508065965026617050e-02 -2.574900910258293152e-02 -3.233128786087036133e-02 -1.913997577503323555e-03 3.215565579012036324e-03 4.765869118273258209e-03 2.129513956606388092e-02 1.630151993595063686e-03 -2.529805339872837067e-02 3.951054811477661133e-02 1.776030845940113068e-02 1.123283337801694870e-02 -2.099278196692466736e-02 2.583833783864974976e-02 -2.772226557135581970e-02 9.449983015656471252e-03 -3.296617045998573303e-02 6.323340348899364471e-03 -2.884387783706188202e-02 5.798771977424621582e-03 -3.165040537714958191e-02 -9.389576502144336700e-03 4.161824472248554230e-03 2.289052307605743408e-02 2.518964000046253204e-02 -1.072106603533029556e-02 -2.223786432296037674e-03 -3.427860885858535767e-02 2.318049781024456024e-02 -1.740525476634502411e-02 -2.301268465816974640e-02 3.265191987156867981e-02 -4.563661757856607437e-03 -1.436266396194696426e-02 2.784204483032226562e-02 8.303022477775812149e-04 3.216418996453285217e-02 -2.717410773038864136e-02 -1.204032357782125473e-02 1.681293733417987823e-02 1.904098130762577057e-02 1.027329266071319580e-02 -3.463651984930038452e-02 -5.250087939202785492e-03 -3.185785561800003052e-02 -6.182823330163955688e-03 -9.202172979712486267e-03 -2.037163823843002319e-02 3.430658252909779549e-03 -1.206368091516196728e-03 -2.411715686321258545e-02 -4.798849578946828842e-03 -1.720930077135562897e-02 -6.089812610298395157e-03 -4.835933912545442581e-03 -3.776020929217338562e-02 2.110216021537780762e-02 -2.304646931588649750e-02 -1.367467269301414490e-02 2.822642680257558823e-03 -5.806275643408298492e-03 -2.536115003749728203e-03 2.921709418296813965e-02 2.020764164626598358e-02 3.417740389704704285e-02 -2.688427828252315521e-02 2.955997828394174576e-03 3.934834897518157959e-02 -1.581807993352413177e-02 4.005982354283332825e-02 1.844677957706153393e-03 -2.538062259554862976e-02 -2.920892089605331421e-02 4.437077790498733521e-03 -1.520537864416837692e-02 -1.944629848003387451e-02 4.556301049888134003e-03 1.063999533653259277e-02 2.438146155327558517e-03 1.620379835367202759e-02 -8.770699612796306610e-03 -1.536552980542182922e-02 1.506112236529588699e-02 -2.118374221026897430e-02 7.684486918151378632e-03 1.981383375823497772e-02 -2.124494686722755432e-02 1.032508793286979198e-03 -1.887386664748191833e-02 1.579150930047035217e-02 1.360502839088439941e-02 -2.993761445395648479e-04 3.802495077252388000e-02 1.737533509731292725e-02 -1.961142010986804962e-02 4.189573228359222412e-02 1.387624815106391907e-02 -2.721810899674892426e-02 -2.851162338629364967e-03 -1.463210862129926682e-02 -3.852219507098197937e-02 -2.485542185604572296e-02 1.994780823588371277e-02 2.130973339080810547e-02 -4.392265807837247849e-03 1.460455544292926788e-02 -2.234694920480251312e-02 -1.762049272656440735e-02 -1.884886622428894043e-02 1.671872846782207489e-02 1.949078030884265900e-02 -1.579315587878227234e-02 -9.052140638232231140e-03 -8.183695375919342041e-03 -3.006436862051486969e-02 1.331890653818845749e-02 3.271045535802841187e-02 -2.636026591062545776e-02 -6.455078255385160446e-03 -2.163035422563552856e-02 5.733169615268707275e-03 2.080983715131878853e-03 -2.450283430516719818e-02 1.719410344958305359e-02 2.048368938267230988e-02 -2.636047452688217163e-02 9.141008486039936543e-04 -1.814114488661289215e-02 -1.267781946808099747e-02 3.158719837665557861e-02 2.623261883854866028e-02 -2.475765720009803772e-02 3.597809001803398132e-02 1.872441545128822327e-02 3.333940729498863220e-02 5.147381220012903214e-03 1.442522555589675903e-02 -1.633314788341522217e-02 -1.292174588888883591e-02 -4.231701046228408813e-02 -1.226399652659893036e-02 4.338085185736417770e-03 1.312275417149066925e-02 8.844017982482910156e-03 1.662079989910125732e-02 -1.200833357870578766e-02 -1.620999723672866821e-02 -5.539170466363430023e-03 1.379567198455333710e-02 2.771322242915630341e-02 -1.823495328426361084e-02 2.644142834469676018e-03 -1.015827897936105728e-02 4.022839292883872986e-02 -2.590310014784336090e-02 -1.348432432860136032e-02 1.142215542495250702e-02 1.986815035343170166e-02 1.297477167099714279e-02 4.741002991795539856e-02 4.399560019373893738e-02 2.444423502311110497e-03 3.613526001572608948e-02 4.687124118208885193e-02 4.506191238760948181e-03 -3.265045210719108582e-02 2.143519558012485504e-02 -1.014345884323120117e-02 -7.576808799058198929e-03 8.161200210452079773e-03 1.284801773726940155e-02 -1.882939971983432770e-02 -2.391082048416137695e-02 9.575867094099521637e-03 -1.993881538510322571e-02 3.357634693384170532e-02 2.053599618375301361e-02 -2.756780944764614105e-02 7.348398678004741669e-03 -2.358828112483024597e-02 -1.134868245571851730e-02 3.518355637788772583e-02 2.810142934322357178e-02 3.011051937937736511e-02 2.834229497238993645e-03 1.755471341311931610e-02 3.066389635205268860e-02 4.591158125549554825e-03 -1.291816821321845055e-03 8.381060324609279633e-03 2.986043691635131836e-02 2.934340387582778931e-02 -2.039676904678344727e-02 -2.111590094864368439e-02 -3.664499521255493164e-02 2.364432252943515778e-02 -3.191135078668594360e-02 -2.978795021772384644e-02 -2.053350768983364105e-02 -2.118887379765510559e-02 -3.075582534074783325e-02 3.522017225623130798e-02 -1.713491976261138916e-02 6.812044419348239899e-03 2.088801935315132141e-02 -1.211970392614603043e-02 -2.281847037374973297e-02 1.360844820737838745e-02 -1.176433078944683075e-02 -1.803941838443279266e-02 4.537493921816349030e-03 -1.855146884918212891e-02 2.776055783033370972e-02 -5.751115735620260239e-03 -1.054006069898605347e-02 4.308841750025749207e-02 -1.903259940445423126e-02 3.506194800138473511e-02 -1.784488931298255920e-02 -2.657032338902354240e-03 1.127648074179887772e-02 1.923165097832679749e-02 1.943614706397056580e-02 1.683200971456244588e-04 2.558168582618236542e-02 2.819900866597890854e-03 3.271499648690223694e-02 2.689389511942863464e-02 -1.079754345118999481e-02 2.205506339669227600e-02 2.821978181600570679e-02 3.262291476130485535e-02 -2.679291553795337677e-02 -2.125827595591545105e-02 -1.312136277556419373e-02 2.294527925550937653e-02 -1.082417741417884827e-02 3.666619211435317993e-02 -2.140531502664089203e-02 -3.163533983752131462e-03 2.111799316480755806e-03 -5.207022652029991150e-03 -2.563873119652271271e-02 3.444883972406387329e-02 -2.599783800542354584e-02 -4.771945532411336899e-03 4.796668945346027613e-04 -2.199585549533367157e-02 -1.423592772334814072e-02 -2.440060302615165710e-02 -2.447021380066871643e-02 -2.485909499228000641e-02 2.881966903805732727e-02 -2.705937251448631287e-02 3.321542590856552124e-02 2.451790682971477509e-02 2.266691252589225769e-02 -6.893994286656379700e-03 -1.369448564946651459e-02 4.193779081106185913e-02 2.533539570868015289e-02 2.221586741507053375e-02 1.389272883534431458e-02 -6.891696248203516006e-03 -2.476182207465171814e-02 6.096857134252786636e-03 4.287478979676961899e-03 2.830718085169792175e-02 -1.629584468901157379e-02 6.359088700264692307e-03 -1.281260512769222260e-02 -1.475434284657239914e-02 -2.114874124526977539e-02 -5.722465924918651581e-03 -3.357555344700813293e-02 -3.368264064192771912e-02 -2.046549320220947266e-02 1.244678162038326263e-02 -1.661421381868422031e-03 2.931400574743747711e-02 8.936817757785320282e-03 3.251020610332489014e-02 1.027775090187788010e-02 -2.329700626432895660e-02 -1.634148135781288147e-02 -2.542898803949356079e-02 2.750438451766967773e-02 2.860343270003795624e-02 1.930852420628070831e-02 7.161601446568965912e-03 1.135910302400588989e-02 1.511334720999002457e-02 -3.909746650606393814e-03 -1.708088628947734833e-02 -1.575443707406520844e-02 2.650479320436716080e-03 8.054265752434730530e-03 1.025088713504374027e-04 -1.948660425841808319e-02 -5.475325975567102432e-03 -9.879892691969871521e-03 2.412689290940761566e-02 -3.230156749486923218e-02 -8.557531982660293579e-03 -1.689947023987770081e-02 -3.769005462527275085e-02 2.443460561335086823e-02 -5.928103346377611160e-03 3.621562570333480835e-02 -2.751254290342330933e-02 -7.384139578789472580e-03 3.714253380894660950e-02 2.761430293321609497e-02 4.226127266883850098e-02 2.235570363700389862e-02 -2.210553921759128571e-02 2.257450483739376068e-02 2.503666467964649200e-02 3.647840023040771484e-02 2.856503985822200775e-02 -2.024676837027072906e-02 2.004726044833660126e-02 3.734996914863586426e-02 1.466070488095283508e-02 2.218272536993026733e-02 3.779547661542892456e-02 -2.371759340167045593e-02 -1.870139874517917633e-02 -9.690227918326854706e-03 -1.728848554193973541e-02 -4.002097621560096741e-02 -1.013351231813430786e-02 -1.443522144109010696e-02 -4.778401460498571396e-03 1.408362761139869690e-02 -2.203395031392574310e-02 9.566120803356170654e-03 -1.968004740774631500e-02 -7.958816364407539368e-03 3.542383015155792236e-02 6.472694076364859939e-05 7.502393331378698349e-03 7.830527611076831818e-03 1.879784278571605682e-02 3.014351008459925652e-03 -1.029192283749580383e-02 -8.911590091884136200e-03 -8.491599000990390778e-03 7.018450647592544556e-03 1.885803602635860443e-02 6.748034153133630753e-03 3.968372475355863571e-03 -2.165811322629451752e-02 -6.331741344183683395e-03 2.738647349178791046e-02 -1.311419438570737839e-02 -2.615266852080821991e-02 1.291057560592889786e-02 -4.087089374661445618e-02 2.897983975708484650e-02 2.061015740036964417e-02 -9.890269488096237183e-03 3.475574404001235962e-02 2.426786534488201141e-02 -1.399556454271078110e-02 -1.123072393238544464e-02 2.514516562223434448e-02 2.093916013836860657e-02 -2.515421248972415924e-02 1.166312722489237785e-03 -1.832959614694118500e-02 2.943612821400165558e-02 7.140855304896831512e-03 -1.277854572981595993e-02 -2.032213844358921051e-02 3.286409005522727966e-02 1.560811419039964676e-02 -6.871582940220832825e-03 -1.793828420341014862e-02 -6.798493210226297379e-03 -1.007291302084922791e-02 -7.627589162439107895e-03 -1.810127310454845428e-02 9.573866613209247589e-03 -2.748535946011543274e-02 -2.234741300344467163e-02 8.148133754730224609e-03 -9.405381046235561371e-03 -1.183552760630846024e-02 2.072863513603806496e-03 5.839808727614581585e-04 -3.746082773432135582e-03 -2.494603395462036133e-02 -2.397465519607067108e-02 3.450669348239898682e-03 2.363648451864719391e-02 -2.387272380292415619e-02 -6.252781022340059280e-03 1.026160921901464462e-02 -1.870240829885005951e-02 -9.051082888618111610e-04 1.717399060726165771e-02 -2.392393164336681366e-02 9.239977225661277771e-03 1.919518224895000458e-02 2.786163426935672760e-02 -2.134417928755283356e-02 -1.639845781028270721e-02 3.290058113634586334e-03 5.052526015788316727e-03 9.438856504857540131e-03 -1.027271337807178497e-02 -2.333004400134086609e-02 -1.102224458009004593e-02 1.935005746781826019e-02 -3.086449950933456421e-02 2.799696102738380432e-02 -8.782595396041870117e-04 -3.604772966355085373e-03 -1.950537040829658508e-02 2.209415473043918610e-02 1.834875904023647308e-02 6.963519379496574402e-03 1.395173370838165283e-02 3.653638437390327454e-02 -2.274503372609615326e-02 2.531745098531246185e-02 -1.547089125961065292e-02 1.917470432817935944e-02 -2.285917662084102631e-02 3.884981572628021240e-02 -1.855987124145030975e-02 -9.814254939556121826e-03 1.435072813183069229e-02 -1.973240077495574951e-02 3.614687919616699219e-02 2.300266362726688385e-02 -1.291941199451684952e-02 3.065556846559047699e-02 3.569512814283370972e-02 -2.551624923944473267e-02 2.174686826765537262e-02 3.899287432432174683e-02 3.882448375225067139e-02 1.466206461191177368e-02 3.709389269351959229e-02 9.961043251678347588e-04 2.262008003890514374e-02 2.348585240542888641e-02 -2.208687923848628998e-02 3.940148651599884033e-02 4.137098044157028198e-02 2.870499156415462494e-02 3.099434264004230499e-02 1.213666051626205444e-02 1.658568903803825378e-02 -1.916769333183765411e-02
-2.524839481338858604e-03 2.298610471189022064e-02 -2.990019693970680237e-02 2.819056389853358269e-03 3.757923096418380737e-02 -1.272972091101109982e-03 -8.978270925581455231e-03 -6.403756327927112579e-03 -1.405531913042068481e-02 -8.917820639908313751e-03 -1.573250629007816315e-02 3.909879177808761597e-02 -2.520393766462802887e-02 2.439191378653049469e-02 2.607197500765323639e-02 1.552392379380762577e-03 -1.473406981676816940e-02 1.613488607108592987e-02 -2.183257974684238434e-02 1.965187303721904755e-02 -5.029489286243915558e-03 -4.930783994495868683e-03 3.030361980199813843e-02 -2.078543417155742645e-02 2.858844352886080742e-03 -1.084311772137880325e-02 2.921427227556705475e-02 3.334970772266387939e-02 2.082404680550098419e-02 1.033523585647344589e-02 3.880431503057479858e-02 -5.404846742749214172e-03 3.360744798555970192e-03 8.228197693824768066e-03 -8.833794854581356049e-03 -2.938637696206569672e-02 8.301605470478534698e-03 -1.118700485676527023e-03 -2.901063486933708191e-02 -1.564699597656726837e-02 2.746608108282089233e-03 -3.942482173442840576e-03 6.238403730094432831e-03 -1.747731585055589676e-03 3.797996789216995239e-02 1.383321639150381088e-02 2.883675135672092438e-02 -1.218862924724817276e-02 3.879432007670402527e-02 -2.817319519817829132e-02 3.353335335850715637e-02 -8.254331536591053009e-03 2.175548486411571503e-02 6.717975251376628876e-03 3.083150461316108704e-02 3.499939292669296265e-02 -6.116700358688831329e-03 2.876044623553752899e-02 2.277169562876224518e-02 3.466724231839179993e-02 1.072677597403526306e-02 -2.467160858213901520e-02 1.406249031424522400e-02 1.345543283969163895e-02 -3.440760774537920952e-04 2.159950695931911469e-02 -9.182052686810493469e-03 2.367939427495002747e-02 2.512213960289955139e-02 2.184109762310981750e-02 1.812935620546340942e-02 4.809665959328413010e-03 -1.722397468984127045e-02 -2.676152996718883514e-02 -4.465539474040269852e-03 3.603872656822204590e-02 2.149897441267967224e-02 -2.088115178048610687e-02 -2.328323666006326675e-03 -8.869852870702743530e-03 2.308695390820503235e-02 -2.123825065791606903e-02 -2.169646508991718292e-02 2.749568037688732147e-02 -6.698478944599628448e-03 3.133682534098625183e-02 -1.151153165847063065e-02 2.382032573223114014e-02 1.475162617862224579e-02 3.343619406223297119e-02 -5.090279038995504379e-03 -2.190279029309749603e-02 1.216935692355036736e-03 -2.781949378550052643e-02 -2.564830146729946136e-02 -7.963208854198455811e-02 -5.505795404314994812e-02 -7.247669994831085205e-02 -4.901104047894477844e-02 -6.456557661294937134e-02 -6.412713229656219482e-02 -6.835739128291606903e-03 -2.864391542971134186e-02 -3.940407186746597290e-02 -2.458754181861877441e-02 5.393411964178085327e-03 3.349556121975183487e-03 -6.484838668256998062e-03 4.009990394115447998e-02 -2.591628395020961761e-02 3.890946879982948303e-02 8.503125980496406555e-03 5.630316212773323059e-03 3.000948205590248108e-02 3.772460669279098511e-02 -9.260183200240135193e-03 2.924944832921028137e-02 -1.615423895418643951e-02 9.126684628427028656e-03 -4.061799123883247375e-02 -8.524907380342483521e-02 -7.788326591253280640e-02 -8.657274395227432251e-02 -1.430588364601135254e-01 -8.132285624742507935e-02 -5.269252136349678040e-02 -3.041012398898601532e-02 -6.449821591377258301e-02 -6.545457988977432251e-02 -1.894509606063365936e-02 -4.905337840318679810e-02 -4.418848827481269836e-02 2.631622552871704102e-02 3.183498978614807129e-02 7.973513565957546234e-03 1.936923339962959290e-02 4.119044914841651917e-02 -3.076073946431279182e-03 -2.321714349091053009e-02 3.013963811099529266e-02 -7.235925644636154175e-03 -1.988183893263339996e-02 -2.234800346195697784e-02 3.383151814341545105e-02 -2.221011556684970856e-02 -2.859817445278167725e-02 -2.617380209267139435e-02 -8.418791741132736206e-02 -1.477659940719604492e-01 -1.292591392993927002e-01 -1.092307716608047485e-01 2.037312090396881104e-02 -1.116634719073772430e-02 -4.719138145446777344e-02 -5.005742982029914856e-02 1.265175547450780869e-02 -7.390934228897094727e-02 6.828371435403823853e-02 -1.226309500634670258e-02 7.273234426975250244e-02 7.405467331409454346e-02 7.767661660909652710e-02 -2.760686539113521576e-02 2.828528813552111387e-04 6.656262557953596115e-03 -6.156530696898698807e-03 1.869922131299972534e-02 1.092722639441490173e-02 -2.053773589432239532e-02 -3.178279614076018333e-03 5.751008167862892151e-03 1.254998706281185150e-02 -2.532083727419376373e-02 -6.410001218318939209e-02 -9.273137897253036499e-02 -9.764229506254196167e-02 -1.273837238550186157e-01 -1.879031956195831299e-01 -1.228168979287147522e-01 -7.017470151185989380e-02 -7.515095174312591553e-02 -7.781027257442474365e-02 -5.726466700434684753e-02 -8.936362341046333313e-03 2.120972238481044769e-02 1.016072481870651245e-01 1.801958233118057251e-01 1.262510418891906738e-01 1.488928198814392090e-01 5.883060023188591003e-02 -1.045136712491512299e-02 -1.342182396911084652e-03 4.327867645770311356e-03 8.146328851580619812e-03 2.166769932955503464e-03 3.385601937770843506e-02 -2.304138056933879852e-02 2.363767661154270172e-02 -2.555476501584053040e-02 2.006561309099197388e-02 -6.711652129888534546e-02 -5.568185076117515564e-02 -1.372290402650833130e-01 -1.518526077270507812e-01 -2.305049896240234375e-01 -1.932504028081893921e-01 -6.128749996423721313e-02 1.323883887380361557e-02 1.446963101625442505e-01 1.054329127073287964e-01 -6.451744586229324341e-02 1.792958825826644897e-01 1.163556203246116638e-01 1.123093068599700928e-01 2.063034176826477051e-01 1.527315527200698853e-01 1.113290861248970032e-01 9.459715336561203003e-02 -1.055623777210712433e-02 3.647702932357788086e-02 2.982075139880180359e-02 -9.561276994645595551e-03 1.632901281118392944e-02 -2.284102700650691986e-02 -2.387299388647079468e-02 -2.819741331040859222e-02 -2.388418093323707581e-02 -2.254827879369258881e-02 -7.291687279939651489e-02 -1.116236373782157898e-01 -3.742989897727966309e-02 -1.335520744323730469e-01 -1.902588754892349243e-01 -1.278154104948043823e-01 5.267870426177978516e-02 2.049719840288162231e-01 2.544319331645965576e-01 2.167936265468597412e-01 1.188516318798065186e-01 8.441616594791412354e-02 1.705929189920425415e-01 1.571697592735290527e-01 1.147731617093086243e-01 2.004570327699184418e-02 -8.899698033928871155e-03 2.852925658226013184e-02 -2.333379536867141724e-02 7.981668226420879364e-03 4.792043939232826233e-02 -1.015071105211973190e-02 -1.863897219300270081e-02 2.237935923039913177e-02 3.420693427324295044e-02 -2.181193418800830841e-02 -3.307551518082618713e-02 -5.401898920536041260e-02 -8.253980427980422974e-02 -1.028970256447792053e-01 -9.971658885478973389e-02 -1.055260524153709412e-01 -1.647130250930786133e-01 -2.799219079315662384e-02 1.623184680938720703e-01 1.783686727285385132e-01 7.549270987510681152e-02 1.548918783664703369e-01 4.175655171275138855e-02 -2.641065046191215515e-02 -1.794376410543918610e-02 4.984806850552558899e-02 5.561354011297225952e-02 2.081015845760703087e-03 -5.752109363675117493e-02 -3.032360598444938660e-02 -1.076436936855316162e-01 6.755644828081130981e-02 9.438945353031158447e-02 2.716683968901634216e-02 -1.552693173289299011e-02 1.981830038130283356e-02 6.571277044713497162e-03 -1.731902128085494041e-03 3.791718278080224991e-03 -5.516538023948669434e-02 -7.996950298547744751e-02 -7.997555285692214966e-02 7.787044742144644260e-04 -3.973149135708808899e-02 1.161284837871789932e-02 6.080654263496398926e-02 7.008585333824157715e-02 1.995255425572395325e-02 9.239557385444641113e-02 5.737235769629478455e-02 1.254695206880569458e-01 3.366293385624885559e-02 3.348300606012344360e-02 -3.354587405920028687e-02 5.449403449892997742e-02 -2.592176757752895355e-02 -9.002234786748886108e-02 1.023833989165723324e-03 -5.422163289040327072e-03 1.408099979162216187e-01 5.982503667473793030e-02 -1.502227503806352615e-02 2.483487501740455627e-02 -2.585557103157043457e-02 3.357542678713798523e-02 5.306188017129898071e-03 -4.608988761901855469e-02 -1.944945566356182098e-02 -4.054154455661773682e-02 -7.679731585085391998e-03 6.701572984457015991e-02 1.076573878526687622e-01 2.066607587039470673e-02 -3.045320324599742889e-02 -2.790592610836029053e-02 -4.769484698772430420e-02 3.978008404374122620e-02 7.524414360523223877e-02 1.247881352901458740e-01 7.541054487228393555e-02 6.211873516440391541e-02 3.941696137189865112e-02 1.127272844314575195e-01 -3.496670350432395935e-02 -2.336463658139109612e-03 5.429043620824813843e-02 7.906179130077362061e-02 1.821355819702148438e-01 1.684649288654327393e-01 4.770227894186973572e-02 3.764249011874198914e-02 1.259366422891616821e-02 3.773192316293716431e-02 2.645337022840976715e-02 -2.026937715709209442e-02 -4.005156829953193665e-02 3.111767955124378204e-02 1.030831132084131241e-02 7.365717738866806030e-02 8.470637351274490356e-02 -2.787578292191028595e-02 2.654291689395904541e-02 -1.111971661448478699e-01 -3.602081909775733948e-02 -5.067490041255950928e-02 8.075021207332611084e-02 4.197572544217109680e-02 2.680023200809955597e-02 -3.507964313030242920e-02 1.253373473882675171e-01 8.820876479148864746e-02 1.108132824301719666e-01 3.910105302929878235e-02 1.387315690517425537e-01 1.055270284414291382e-01 2.244186252355575562e-01 9.589056670665740967e-02 -2.535706385970115662e-02 -4.885966423898935318e-03 -2.663334086537361145e-02 1.095521962270140648e-03 -2.374416030943393707e-02 -6.324120331555604935e-03 4.423522856086492538e-03 -8.382021042052656412e-05 1.492970529943704605e-02 -2.173501253128051758e-02 7.227987796068191528e-02 4.888867028057575226e-03 9.711014479398727417e-02 4.644314944744110107e-02 -3.839194402098655701e-02 1.405922472476959229e-01 1.318789273500442505e-01 7.995413988828659058e-02 1.439467966556549072e-01 4.658249393105506897e-02 2.937660925090312958e-02 3.321432322263717651e-02 8.157764375209808350e-02 -9.104949422180652618e-03 1.196056400658562779e-04 1.280869543552398682e-01 5.810223147273063660e-02 3.966706339269876480e-03 -1.148720085620880127e-02 -1.118197687901556492e-04 3.338920325040817261e-02 -2.189632738009095192e-03 2.028054930269718170e-02 4.009889671579003334e-04 -1.384247094392776489e-02 4.562110453844070435e-02 2.416608855128288269e-02 -2.504033595323562622e-02 -2.262768335640430450e-02 -2.193924598395824432e-02 8.863009512424468994e-02 1.047859936952590942e-01 9.240026772022247314e-02 3.696693107485771179e-02 1.786937564611434937e-01 -8.999003330245614052e-04 -1.544503122568130493e-02 6.599124521017074585e-02 8.132735639810562134e-02 6.000588461756706238e-02 -8.026771247386932373e-02 -1.000097692012786865e-01 -1.613654755055904388e-02 -2.516529988497495651e-03 -7.036454044282436371e-03 -2.621016278862953186e-02 -4.041179269552230835e-02 4.362895269878208637e-04 2.554237656295299530e-02 2.593832276761531830e-02 -2.269802801311016083e-02 -5.007285624742507935e-03 3.327793674543499947e-03 -1.796766370534896851e-02 2.868699282407760620e-02 7.499086204916238785e-03 3.846262814477086067e-03 1.021037325263023376e-01 6.032832711935043335e-02 1.262672692537307739e-01 9.599179774522781372e-02 1.223774924874305725e-01 6.583630293607711792e-02 -1.633996963500976562e-01 -1.551128476858139038e-01 6.814729422330856323e-02 3.139067441225051880e-02 -4.404490813612937927e-02 -1.112622767686843872e-01 -1.467914581298828125e-01 -8.349686861038208008e-02 -7.533880323171615601e-02 -3.496515750885009766e-02 6.798086687922477722e-03 2.816264145076274872e-02 -2.753406763076782227e-02 -7.017710246145725250e-03 2.720573358237743378e-02 2.548138797283172607e-02 -3.928246721625328064e-02 -2.250846475362777710e-02 -2.185399271547794342e-02 -7.198190316557884216e-03 -2.716735936701297760e-03 -2.791705541312694550e-02 9.858468174934387207e-02 2.858728868886828423e-03 8.066836744546890259e-02 1.645467430353164673e-01 1.189747527241706848e-01 -1.660127788782119751e-01 -2.827615141868591309e-01 -2.578284442424774170e-01 -1.148862987756729126e-01 -8.217539638280868530e-02 -1.179627999663352966e-01 -2.482830882072448730e-01 -1.521431952714920044e-01 -1.609486043453216553e-01 -8.620234578847885132e-02 -1.195509079843759537e-02 -5.845042690634727478e-02 1.999437808990478516e-02 2.311965450644493103e-02 -9.184781461954116821e-03 -2.786296792328357697e-02 -1.599134691059589386e-02 -2.703048475086688995e-02 -3.519116342067718506e-02 -1.636888273060321808e-02 1.095583476126194000e-02 5.106463655829429626e-02 2.197220176458358765e-02 9.018518775701522827e-02 1.237311735749244690e-01 1.463828086853027344e-01 1.867423355579376221e-01 1.247061938047409058e-01 -2.100866883993148804e-01 -2.388870418071746826e-01 -1.120867207646369934e-01 -5.319689400494098663e-03 -1.242135465145111084e-01 -2.046452015638351440e-01 -1.909316629171371460e-01 -7.444738596677780151e-02 -8.735108375549316406e-02 -6.108273938298225403e-02 -5.437237396836280823e-02 -4.669564217329025269e-02 -2.303150715306401253e-03 2.541667222976684570e-02 3.779397904872894287e-02 3.584410995244979858e-02 -1.772218011319637299e-02 2.801719307899475098e-02 -9.015773981809616089e-02 4.627543967217206955e-03 3.516339138150215149e-02 1.052398309111595154e-01 8.264498412609100342e-02 1.079092919826507568e-01 9.456281363964080811e-02 1.460672318935394287e-01 1.497756391763687134e-01 -4.046175256371498108e-02 -1.975144445896148682e-01 -1.659247279167175293e-01 -1.603323519229888916e-01 -8.645016700029373169e-02 -6.479005515575408936e-02 -1.864618062973022461e-01 -8.038315176963806152e-02 -3.235306218266487122e-02 -8.411214500665664673e-02 -8.944654464721679688e-02 -6.206499040126800537e-02 -5.795373395085334778e-02 -2.756193839013576508e-02 -1.101704873144626617e-02 2.897499315440654755e-02 1.699779997579753399e-03 -1.460901740938425064e-02 -3.708801791071891785e-02 -7.889336347579956055e-02 -5.029730871319770813e-02 4.663335159420967102e-02 1.031573191285133362e-01 2.816687896847724915e-02 9.465455263853073120e-02 -5.851796828210353851e-03 1.266410201787948608e-01 4.329764470458030701e-02 3.026611637324094772e-03 -2.155953198671340942e-01 -2.635449469089508057e-01 -1.467704921960830688e-01 -1.182621046900749207e-01 -7.542417943477630615e-02 -5.900292843580245972e-02 2.197545953094959259e-02 -7.453811168670654297e-02 -1.027155295014381409e-01 -4.707537591457366943e-02 -6.298366189002990723e-02 1.309004984796047211e-02 -4.124912992119789124e-02 2.344307489693164825e-02 -9.498119354248046875e-03 1.792967878282070160e-02 3.320256993174552917e-02 9.241527877748012543e-03 -6.163666397333145142e-02 -6.822677701711654663e-02 8.819992095232009888e-02 3.532045334577560425e-02 -3.699134569615125656e-03 3.540655225515365601e-02 3.222849592566490173e-02 7.808016985654830933e-02 2.615313569549471140e-04 -5.286452919244766235e-02 -1.284377574920654297e-01 -2.215169370174407959e-01 -1.105975881218910217e-01 -7.751914858818054199e-02 -5.044995341449975967e-03 -6.883683055639266968e-02 -5.380523949861526489e-02 -2.202038094401359558e-02 -3.926483541727066040e-02 4.963939078152179718e-03 -8.485393226146697998e-02 1.878487877547740936e-02 -9.618735872209072113e-03 1.277974992990493774e-02 1.844735257327556610e-02 -2.816926501691341400e-02 3.269117791205644608e-03 -1.559462305158376694e-02 -5.942994728684425354e-03 -9.357219561934471130e-03 7.844766229391098022e-02 1.226132586598396301e-01 9.040360897779464722e-02 4.109000787138938904e-02 1.395136415958404541e-01 2.042886801064014435e-02 1.154217123985290527e-01 -6.995663046836853027e-02 -1.411948949098587036e-01 -1.589185446500778198e-01 -2.080498822033405304e-02 -1.353557705879211426e-01 -1.257683336734771729e-01 -4.908893257379531860e-02 -1.892186328768730164e-02 -4.044959321618080139e-02 -1.334780901670455933e-01 -6.743629276752471924e-02 -2.760355174541473389e-02 -3.968450054526329041e-02 -1.890517771244049072e-02 -2.912046015262603760e-02 -1.348680630326271057e-02 -2.850527875125408173e-02 -1.311005372554063797e-02 -2.876754105091094971e-02 2.011888101696968079e-02 -2.320223115384578705e-02 -3.368238359689712524e-02 9.240315854549407959e-02 6.482534110546112061e-02 4.249732941389083862e-02 8.337079733610153198e-02 8.157180249691009521e-02 2.199688181281089783e-02 4.498572275042533875e-02 3.708874434232711792e-02 3.353589028120040894e-02 2.887453883886337280e-02 -8.502589166164398193e-02 -1.009818241000175476e-01 -4.781768471002578735e-02 -8.631063252687454224e-02 -1.155171543359756470e-01 -1.368104815483093262e-01 -1.965656317770481110e-02 -1.730933599174022675e-02 2.264580130577087402e-02 4.016805905848741531e-03 -2.957634814083576202e-02 5.501465871930122375e-03 -2.046479098498821259e-02 -1.681322604417800903e-02 2.642075531184673309e-02 -1.523561030626296997e-02 -6.366410106420516968e-02 -1.525930856587365270e-04 -8.321577310562133789e-02 -3.399325907230377197e-02 9.465232491493225098e-02 7.054548710584640503e-02 2.428126707673072815e-02 -2.007251977920532227e-02 7.573495805263519287e-02 1.283063590526580811e-01 9.890011698007583618e-02 3.081791661679744720e-02 6.311890482902526855e-02 -5.754330381751060486e-02 -4.764111712574958801e-02 -7.955399900674819946e-02 -8.798342198133468628e-02 -2.166094444692134857e-02 4.271377623081207275e-02 4.503160715103149414e-02 1.435443572700023651e-02 -2.155494131147861481e-02 1.840560138225555420e-02 2.898517064750194550e-02 2.625640295445919037e-02 1.247165817767381668e-02 -9.886177722364664078e-04 -4.115438088774681091e-03 -5.640716105699539185e-02 -6.852065771818161011e-02 -6.578020751476287842e-02 -5.524739250540733337e-02 -1.631464436650276184e-02 -1.955805579200387001e-03 3.851550072431564331e-02 4.432749748229980469e-02 1.147261187434196472e-01 1.093872711062431335e-01 4.097467288374900818e-02 6.284157186746597290e-02 3.623723983764648438e-02 -4.205440729856491089e-02 5.873495712876319885e-02 8.649368770420551300e-03 1.479333732277154922e-02 4.449486359953880310e-02 -1.562827528687193990e-04 1.855888636782765388e-03 -5.729988683015108109e-03 2.790832519531250000e-02 5.546599277295172215e-05 -7.823932683095335960e-04 1.687126047909259796e-02 2.664615772664546967e-02 1.941879838705062866e-02 -3.073536045849323273e-02 -4.553624987602233887e-02 -7.547160494141280651e-04 -5.783310905098915100e-02 -3.458190709352493286e-02 -6.162318214774131775e-02 -7.545024901628494263e-02 -8.531538397073745728e-02 -2.156111598014831543e-02 -6.030623614788055420e-02 -1.948861218988895416e-02 5.594246834516525269e-02 9.520345181226730347e-02 9.359502047300338745e-02 1.286501437425613403e-01 8.035088330507278442e-02 7.781895995140075684e-02 7.136879861354827881e-02 1.972945220768451691e-02 1.375528809148818254e-04 6.844492745585739613e-04 3.588110953569412231e-02 -2.722952142357826233e-02 -2.429302409291267395e-02 5.158594809472560883e-03 -1.001035328954458237e-02 4.044876992702484131e-02 3.155241161584854126e-02 2.799840876832604408e-03 1.977417804300785065e-02 1.956554874777793884e-02 5.865249037742614746e-02 2.827364020049571991e-02 3.374803066253662109e-02 2.891889587044715881e-02 6.438417732715606689e-02 5.933583900332450867e-02 8.418772369623184204e-02 2.810059860348701477e-02 1.102704331278800964e-01 7.074481248855590820e-02 6.108343601226806641e-02 7.267981767654418945e-02 4.605385661125183105e-02 1.412147469818592072e-02 6.536991894245147705e-02 4.415031522512435913e-02 2.969457022845745087e-02 -1.392357051372528076e-02 6.203116499818861485e-04 2.860560081899166107e-02 2.916198410093784332e-02 3.167073056101799011e-02 2.569902502000331879e-02 -1.013171952217817307e-02 2.182198502123355865e-02 -4.077237390447407961e-04 -8.218373171985149384e-03 1.735897362232208252e-02 2.682506479322910309e-02 1.452196761965751648e-02 1.915723085403442383e-02 2.459978871047496796e-02 3.465569345280528069e-03 1.149468682706356049e-02 2.518447488546371460e-02 -2.705810964107513428e-02 4.993108659982681274e-02 4.051865637302398682e-02 -1.865558326244354248e-02 -3.057514503598213196e-02 1.684112474322319031e-02 -1.054050121456384659e-02 4.985778592526912689e-03 3.793924301862716675e-02 1.241566613316535950e-02 1.752314157783985138e-02 -7.598311174660921097e-03 -8.363009430468082428e-03 6.014959886670112610e-03 9.953999891877174377e-03
5.572296213358640671e-03 -3.400484332814812660e-03 -3.265340998768806458e-02 -3.882749006152153015e-02 1.341400947421789169e-02 1.221391651779413223e-02 1.694458164274692535e-02 6.356436293572187424e-03 -2.346597053110599518e-02 -4.151998553425073624e-03 1.385667268186807632e-02 1.178174559026956558e-02 1.743213040754199028e-03 -2.266799844801425934e-02 1.042415667325258255e-02 9.091152809560298920e-03 -1.355960313230752945e-02 -3.785865381360054016e-02 -3.020526096224784851e-02 -4.525316879153251648e-02 -2.370868436992168427e-02 -3.867794200778007507e-02 2.524518780410289764e-02 2.628147369250655174e-03 1.644742488861083984e-02 2.401232533156871796e-02 2.197284810245037079e-02 1.382384542375802994e-02 2.094612829387187958e-02 1.718213409185409546e-02 -4.287777468562126160e-02 -7.308274973183870316e-03 -3.452173992991447449e-02 1.297781895846128464e-02 -1.654832437634468079e-02 -1.864307001233100891e-02 -1.807562634348869324e-02 -4.026524722576141357e-02 8.024440146982669830e-03 1.869293302297592163e-02 -4.163977876305580139e-02 1.223126705735921860e-02 -1.813889294862747192e-02 -4.439180344343185425e-02 -2.930224873125553131e-02 -1.823193952441215515e-02 -1.017643325030803680e-02 -4.283570498228073120e-02 -4.131110012531280518e-02 -3.756527602672576904e-02 -1.456042937934398651e-02 1.080620754510164261e-02 -7.213041651993989944e-03 9.440186433494091034e-03 -3.436588123440742493e-02 8.906197734177112579e-03 2.133041061460971832e-02 -1.187688950449228287e-02 -2.399450726807117462e-02 -8.364984765648841858e-03 -2.584582008421421051e-02 -4.123096354305744171e-03 2.996707567945122719e-03 -2.043368853628635406e-02 -3.123099543154239655e-02 1.164819113910198212e-02 9.665764868259429932e-03 -3.288645762950181961e-03 4.546984098851680756e-03 -2.116651087999343872e-02 -6.114507094025611877e-02 -5.739456415176391602e-02 -4.642510786652565002e-02 -3.322339802980422974e-02 -1.231660041958093643e-02 -3.119800239801406860e-02 -9.267563000321388245e-03 -3.646920993924140930e-02 -2.919306978583335876e-02 -1.786780916154384613e-02 1.899097301065921783e-02 -2.002852596342563629e-02 -1.425888482481241226e-02 9.264583699405193329e-03 2.246444486081600189e-02 -1.230774726718664169e-02 -6.359439343214035034e-03 -2.526546828448772430e-02 -4.439585655927658081e-02 -8.367900736629962921e-03 -4.147784784436225891e-02 -3.570197848603129387e-03 4.485893994569778442e-02 1.104298792779445648e-02 4.908225312829017639e-02 7.626951485872268677e-02 2.647530101239681244e-02 -3.573398804292082787e-03 -3.147137910127639771e-02 6.731632165610790253e-03 -6.411392986774444580e-02 4.261945374310016632e-03 2.644881024025380611e-04 -2.322291210293769836e-02 5.281120538711547852e-03 -2.876527048647403717e-02 8.290528319776058197e-03 -1.047113258391618729e-02 -8.644621819257736206e-03 -2.723546698689460754e-02 2.790868282318115234e-02 -2.653096430003643036e-02 -2.530242316424846649e-02 3.812785958871245384e-03 1.677138917148113251e-02 -1.616266742348670959e-02 -1.777682453393936157e-02 -2.147103473544120789e-02 2.526354789733886719e-02 2.190885506570339203e-02 1.073481440544128418e-01 1.247267648577690125e-01 1.202969700098037720e-01 1.179342493414878845e-01 1.231245994567871094e-01 -1.727343350648880005e-02 -7.037976384162902832e-02 1.738470792770385742e-02 5.410269275307655334e-02 1.473968029022216797e-01 1.575504392385482788e-01 5.637632310390472412e-02 2.577264234423637390e-02 1.092557143419981003e-02 2.302974648773670197e-02 -4.897952452301979065e-02 -2.184061519801616669e-02 -1.617749780416488647e-02 9.057524730451405048e-04 2.319453284144401550e-02 -3.631713613867759705e-02 5.270505789667367935e-03 7.660301402211189270e-03 -4.156726598739624023e-02 -7.559219375252723694e-03 4.379084706306457520e-02 8.383615314960479736e-02 8.467077463865280151e-02 1.099233552813529968e-01 1.457130908966064453e-01 1.453549861907958984e-01 5.168781802058219910e-02 6.865327060222625732e-02 5.507614836096763611e-02 1.992541179060935974e-02 -4.230489209294319153e-02 8.851430378854274750e-03 1.049837842583656311e-02 -5.509797856211662292e-02 -6.746350228786468506e-02 2.331703901290893555e-02 -3.545716404914855957e-02 1.488719880580902100e-02 2.253087237477302551e-02 1.678370684385299683e-02 1.042129471898078918e-02 -3.287398070096969604e-02 3.247493412345647812e-03 -1.603699661791324615e-02 -2.658663876354694366e-02 1.389395445585250854e-03 -2.056025713682174683e-02 2.909445762634277344e-02 2.779495716094970703e-02 7.572257518768310547e-02 9.457555413246154785e-02 7.932393997907638550e-02 1.962151974439620972e-01 1.957115232944488525e-01 1.694196015596389771e-01 2.168911248445510864e-01 2.292910367250442505e-01 1.070895940065383911e-01 -9.018524736166000366e-02 -2.559855282306671143e-01 -2.306084632873535156e-01 -2.283862680196762085e-01 6.264788098633289337e-03 -2.474596351385116577e-02 1.076649427413940430e-01 1.497509777545928955e-01 7.932922244071960449e-02 9.946655482053756714e-03 5.666345823556184769e-04 1.852445490658283234e-02 6.501189898699522018e-03 -1.466079521924257278e-02 2.524520643055438995e-02 7.384045980870723724e-03 9.120632894337177277e-03 -3.237050259485840797e-03 3.048777393996715546e-02 9.428548812866210938e-02 8.025528490543365479e-02 7.106335461139678955e-02 9.259527176618576050e-02 1.067083179950714111e-01 1.442903131246566772e-01 2.163981795310974121e-01 4.372627735137939453e-01 2.892029881477355957e-01 -9.817965328693389893e-02 -3.474254608154296875e-01 -3.583160042762756348e-01 -1.965017318725585938e-01 9.545721858739852905e-02 1.230827942490577698e-01 1.446477025747299194e-01 1.829566508531570435e-01 5.815317854285240173e-02 -1.144656213000416756e-03 -1.173203904181718826e-02 -9.329899214208126068e-03 1.180757675319910049e-02 -3.308093175292015076e-02 2.233204059302806854e-02 -3.434902057051658630e-02 -7.080420851707458496e-03 2.322893217206001282e-02 3.014986217021942139e-02 -3.605113551020622253e-02 -8.531560190021991730e-03 -4.487821459770202637e-02 2.044449932873249054e-02 3.385857120156288147e-02 7.766547799110412598e-02 4.323361217975616455e-01 4.277305901050567627e-01 3.321188986301422119e-01 2.040906399488449097e-01 -4.214162006974220276e-02 -7.482431828975677490e-02 4.946461319923400879e-02 1.801569461822509766e-01 2.216371595859527588e-01 1.597136855125427246e-01 2.120693325996398926e-01 8.761142939329147339e-02 4.702176898717880249e-02 -3.297899849712848663e-03 -1.182316616177558899e-02 -2.298497594892978668e-02 -4.316769167780876160e-02 -3.664883226156234741e-02 6.837046239525079727e-03 3.805761039257049561e-02 2.006582682952284813e-03 -1.790181733667850494e-02 -7.759395986795425415e-02 -6.682386249303817749e-02 -1.347642391920089722e-01 -8.911021798849105835e-02 -2.043966203927993774e-01 5.090172216296195984e-02 3.231486976146697998e-01 3.949216902256011963e-01 3.561928570270538330e-01 1.836775541305541992e-01 6.700646597892045975e-03 1.269424557685852051e-01 2.891375720500946045e-01 2.006423920392990112e-01 2.382196038961410522e-01 2.042994052171707153e-01 1.796544641256332397e-01 7.865164428949356079e-02 -9.850242175161838531e-03 2.425329759716987610e-03 8.769582957029342651e-03 1.253265142440795898e-02 -4.066375270485877991e-02 1.306275930255651474e-02 1.637129671871662140e-02 1.605978421866893768e-02 -1.468653976917266846e-02 -2.461764030158519745e-02 -7.251209020614624023e-02 -7.452844083309173584e-02 -1.561810076236724854e-01 -2.066855430603027344e-01 -1.036420911550521851e-01 2.330163959413766861e-03 1.903394758701324463e-01 3.605349063873291016e-01 1.062957495450973511e-01 -9.719851613044738770e-02 -1.589781343936920166e-01 1.880906522274017334e-01 3.172254860401153564e-01 2.050716876983642578e-01 2.399844527244567871e-01 1.700669080018997192e-01 9.630180895328521729e-02 -7.094855606555938721e-02 -4.108742624521255493e-02 -3.665784373879432678e-02 -1.994051411747932434e-02 -8.361408486962318420e-03 -3.061290830373764038e-03 2.617237530648708344e-02 -3.434034436941146851e-02 -3.129255771636962891e-02 -8.081805706024169922e-02 -9.434542059898376465e-02 -1.012665703892707825e-01 -1.030308082699775696e-01 -1.537221968173980713e-01 -1.088308319449424744e-01 -1.819094419479370117e-01 3.012661077082157135e-02 2.933439910411834717e-01 2.024762630462646484e-01 -1.518794298171997070e-01 -2.679857909679412842e-01 -2.229708731174468994e-01 2.703713178634643555e-01 2.896061241626739502e-01 1.468394100666046143e-01 2.831760980188846588e-02 -6.080740317702293396e-02 -9.268016368150711060e-02 -1.046572625637054443e-01 -4.075960814952850342e-02 3.070010431110858917e-02 -2.814056910574436188e-02 -3.111348301172256470e-02 1.584887132048606873e-02 -1.223139278590679169e-02 -1.037723943591117859e-02 -1.492249500006437302e-02 -7.642036676406860352e-02 -1.059684157371520996e-01 -1.095694899559020996e-01 -8.096608519554138184e-02 -4.499292373657226562e-02 -9.098255634307861328e-02 -1.288566887378692627e-01 3.113228268921375275e-02 2.896358668804168701e-01 6.918726861476898193e-02 -2.733975946903228760e-01 -4.230909049510955811e-01 -7.457029074430465698e-02 2.077750414609909058e-01 3.475603163242340088e-01 4.520294070243835449e-02 -1.438071727752685547e-01 -1.213910058140754700e-01 -1.350629329681396484e-01 -6.275571137666702271e-02 4.765586927533149719e-03 2.540155686438083649e-02 -3.923996165394783020e-02 -2.490850165486335754e-02 -3.661739453673362732e-02 1.317235268652439117e-02 -1.006085984408855438e-02 1.407835865393280983e-03 -1.047372221946716309e-01 -1.002828329801559448e-01 -1.170425489544868469e-01 -4.849431663751602173e-02 3.621568158268928528e-02 -1.857318542897701263e-02 9.638101607561111450e-02 1.892763823270797729e-01 7.279121875762939453e-02 -1.522481888532638550e-01 -2.834198772907257080e-01 -3.653455674648284912e-01 -2.328648464754223824e-03 1.739697903394699097e-01 1.775275021791458130e-01 -1.692290753126144409e-01 -2.670572102069854736e-01 -2.659001052379608154e-01 -1.574187278747558594e-01 -1.046133115887641907e-01 1.279896963387727737e-02 1.869155839085578918e-02 -7.970246486365795135e-03 -2.658645436167716980e-02 -1.795766316354274750e-02 5.691513884812593460e-03 9.959505870938301086e-03 1.600130693987011909e-03 -2.418310032226145267e-05 -1.953499577939510345e-02 -5.083143338561058044e-02 4.171435162425041199e-02 -5.309578403830528259e-02 -7.691338658332824707e-02 9.359192103147506714e-02 8.227372169494628906e-02 3.622573614120483398e-02 -2.135154455900192261e-01 -1.480181962251663208e-01 -1.982227712869644165e-01 -1.240179315209388733e-01 4.006154090166091919e-02 -2.886311337351799011e-02 -1.397052705287933350e-01 -3.340770602226257324e-01 -1.231707334518432617e-01 -9.020080417394638062e-02 1.373387686908245087e-02 1.380128972232341766e-02 1.634128950536251068e-02 -3.364982083439826965e-02 6.097674835473299026e-03 -2.329916320741176605e-02 -4.509858042001724243e-02 -8.060935884714126587e-03 -2.420377358794212341e-02 2.976480871438980103e-02 -5.330065265297889709e-02 -1.117686275392770767e-02 -2.582570165395736694e-02 -1.057633459568023682e-01 -5.067352205514907837e-02 7.269942667335271835e-03 -1.248975619673728943e-01 -1.407956033945083618e-01 -2.509877085685729980e-01 -1.699167191982269287e-01 -7.156771421432495117e-02 -2.385833114385604858e-01 -1.478658318519592285e-01 -1.664223074913024902e-01 -2.026946842670440674e-01 -1.422047168016433716e-01 4.652154073119163513e-02 6.272540241479873657e-02 3.758667781949043274e-02 4.526355117559432983e-02 3.575639799237251282e-02 -1.252660900354385376e-02 -3.031620942056179047e-02 -1.524602342396974564e-02 -5.112141836434602737e-03 -3.444008901715278625e-02 -2.349917776882648468e-02 -4.254505038261413574e-03 -1.272792927920818329e-02 -4.123701155185699463e-02 -2.674096636474132538e-02 -4.997717961668968201e-02 -9.748338907957077026e-02 -9.971439093351364136e-02 -1.314148902893066406e-01 -1.105868518352508545e-01 -5.309251323342323303e-02 -6.674149632453918457e-02 -1.168948933482170105e-01 -1.848019510507583618e-01 -1.332561820745468140e-01 -1.282720863819122314e-01 -4.872924461960792542e-02 2.583660185337066650e-02 1.863860785961151123e-01 1.307018697261810303e-01 7.976827770471572876e-02 2.205814607441425323e-02 2.923500724136829376e-02 -1.837902329862117767e-02 -3.267168626189231873e-02 -2.922889031469821930e-02 -8.768876083195209503e-03 -3.211988136172294617e-02 -3.811040893197059631e-02 2.609770372509956360e-02 4.434510134160518646e-03 2.032465673983097076e-02 -3.556740656495094299e-02 -1.530160754919052124e-02 -7.518538087606430054e-02 -6.354833394289016724e-02 1.189842671155929565e-01 5.519875884056091309e-02 6.947401165962219238e-02 -6.016276404261589050e-02 -4.815358296036720276e-02 2.879857271909713745e-02 -6.367495656013488770e-02 -1.033971682190895081e-01 3.147913143038749695e-02 6.157542765140533447e-02 1.301852017641067505e-01 1.012571081519126892e-01 5.045108869671821594e-02 3.254819661378860474e-02 3.124968707561492920e-02 -1.716420985758304596e-02 -6.037757731974124908e-03 1.421919837594032288e-02 1.496662851423025131e-02 -2.689102478325366974e-02 4.072580859065055847e-02 7.767792791128158569e-02 1.540990322828292847e-01 5.743394047021865845e-02 6.223353371024131775e-02 3.862355276942253113e-02 -2.969923056662082672e-02 3.832393512129783630e-02 2.087814509868621826e-01 1.648168116807937622e-01 -1.318595372140407562e-02 -4.399415105581283569e-02 1.563881486654281616e-01 1.100960448384284973e-01 -1.826640963554382324e-02 -2.333867177367210388e-02 5.017172172665596008e-02 6.872504949569702148e-02 1.272035688161849976e-01 9.683738648891448975e-02 1.018182933330535889e-02 -5.863443017005920410e-03 4.835594072937965393e-02 -3.707995265722274780e-02 1.664980873465538025e-02 1.334480475634336472e-02 -2.943376824259757996e-02 1.328274607658386230e-02 5.240768194198608398e-02 7.205175608396530151e-02 1.407774090766906738e-01 1.001982167363166809e-01 1.016431301832199097e-01 1.671091914176940918e-01 7.049836963415145874e-02 -4.110503941774368286e-02 5.552889406681060791e-02 7.904291898012161255e-02 1.650119721889495850e-01 1.515243798494338989e-01 2.338346242904663086e-01 6.386944651603698730e-02 -3.486889600753784180e-02 -5.397989228367805481e-02 -8.170845918357372284e-03 2.171010896563529968e-02 3.758142888545989990e-02 3.803494945168495178e-02 -5.261932499706745148e-03 -1.332653127610683441e-02 3.431105986237525940e-02 -1.896100677549839020e-02 2.390113472938537598e-02 -1.426474843174219131e-02 -2.024496532976627350e-02 2.025745250284671783e-02 4.393352940678596497e-02 1.122161224484443665e-01 1.354760676622390747e-01 1.086490601301193237e-01 7.378063350915908813e-02 1.983291655778884888e-01 6.115748733282089233e-02 4.142211750149726868e-03 2.864662930369377136e-02 1.742193251848220825e-01 1.834801137447357178e-01 1.004072278738021851e-01 9.670472145080566406e-02 -2.279898524284362793e-02 -1.352853775024414062e-01 -1.299082636833190918e-01 -3.234216198325157166e-02 -3.443777933716773987e-02 -3.061094135046005249e-02 -5.019355565309524536e-02 2.800178481265902519e-03 -3.946000710129737854e-02 -1.740187965333461761e-02 -3.112314268946647644e-02 -6.669952068477869034e-03 1.698630861937999725e-02 -1.297011692076921463e-02 2.062061987817287445e-02 -7.385876495391130447e-03 5.262705683708190918e-02 3.031600732356309891e-03 -6.978292018175125122e-03 5.375082138925790787e-03 6.515877693891525269e-02 8.631987869739532471e-02 6.151924026198685169e-04 1.643503159284591675e-01 1.950094699859619141e-01 1.166486591100692749e-01 -4.506837949156761169e-02 -8.090574294328689575e-02 -1.097961068153381348e-01 -6.948431581258773804e-02 -1.623339951038360596e-02 -3.288156166672706604e-02 -1.552401483058929443e-02 -3.569404408335685730e-02 2.206568978726863861e-02 4.985485970973968506e-02 6.670717848464846611e-04 -1.769091188907623291e-02 2.070575580000877380e-02 -2.068248204886913300e-02 2.333585731685161591e-02 -1.789532043039798737e-02 8.866747841238975525e-03 8.377862162888050079e-03 -2.207420207560062408e-02 -2.285792119801044464e-02 2.729195170104503632e-02 9.247650206089019775e-02 1.129570677876472473e-01 6.250529736280441284e-02 1.693151593208312988e-01 2.404878139495849609e-01 1.459835171699523926e-01 2.586071565747261047e-02 -1.181509867310523987e-01 -4.109860211610794067e-02 -3.663647547364234924e-02 8.764263242483139038e-03 4.331050813198089600e-02 4.459019750356674194e-02 -1.102056633681058884e-02 -2.099811285734176636e-02 6.293545663356781006e-02 3.480855375528335571e-02 -2.677880227565765381e-02 -5.748703842982649803e-04 -1.930036023259162903e-02 -6.495855282992124557e-03 -9.784364141523838043e-03 -1.617786660790443420e-02 -2.262638136744499207e-02 2.145541599020361900e-03 6.009861454367637634e-02 2.613820135593414307e-02 1.619714498519897461e-01 1.531359851360321045e-01 5.755043402314186096e-02 9.058769047260284424e-02 1.866092234849929810e-01 2.389127165079116821e-01 -2.759357541799545288e-02 -1.366229504346847534e-01 -3.274597600102424622e-02 -2.204581163823604584e-02 -4.668763279914855957e-02 -3.217184916138648987e-03 -1.610395498573780060e-02 -4.403947666287422180e-02 -8.918169885873794556e-03 -2.176532149314880371e-02 2.318471856415271759e-02 2.238493785262107849e-02 -6.493836175650358200e-03 -2.148598432540893555e-02 4.718675743788480759e-03 -2.172532491385936737e-02 1.815814524888992310e-02 -6.557426881045103073e-03 -2.864563837647438049e-02 3.212982090190052986e-03 1.758143119513988495e-02 8.561266958713531494e-02 1.475396901369094849e-01 9.641604125499725342e-02 1.630852348171174526e-03 1.353091839700937271e-02 -2.115853130817413330e-03 -3.376666456460952759e-02 -8.688444644212722778e-02 3.069894388318061829e-02 1.130152046680450439e-01 5.639149248600006104e-02 -4.914309084415435791e-02 -4.561758041381835938e-02 -8.685389161109924316e-02 -5.962884053587913513e-02 -1.068859696388244629e-01 2.063091378659009933e-03 1.387469004839658737e-02 2.096170559525489807e-02 2.236745506525039673e-02 -1.166555564850568771e-02 -3.708185628056526184e-02 2.441945113241672516e-02 -6.116158794611692429e-03 1.181505713611841202e-02 -3.886549547314643860e-02 9.070694446563720703e-03 2.789527177810668945e-03 4.265234246850013733e-02 4.798119142651557922e-02 2.754950337111949921e-02 4.041586536914110184e-03 -5.716526415199041367e-03 1.152039971202611923e-02 -8.749777451157569885e-03 6.767668575048446655e-02 5.804720520973205566e-02 5.751877278089523315e-02 5.614490061998367310e-02 2.740729786455631256e-02 -4.586448147892951965e-02 -6.996545195579528809e-02 -4.789040237665176392e-02 -5.887996405363082886e-02 -1.429509278386831284e-02 6.973072420805692673e-03 -4.310606420040130615e-02 -2.009040676057338715e-03 6.733634043484926224e-03 -3.538132086396217346e-02 1.454191375523805618e-02 -1.000009756535291672e-02 3.195935161784291267e-03 -3.593913093209266663e-02 -2.414382807910442352e-02 -1.567789167165756226e-02 -6.653041392564773560e-02 -5.500783771276473999e-02 -4.997349530458450317e-02 -6.139383465051651001e-02 -8.423925936222076416e-02 -1.029496043920516968e-01 -9.869966655969619751e-02 -4.980796948075294495e-02 -2.848701179027557373e-02 -5.122383683919906616e-02 1.408247556537389755e-02 5.344507470726966858e-02 -3.195383772253990173e-02 1.617197133600711823e-02 -4.370730742812156677e-02 -7.105418294668197632e-02 -5.657895654439926147e-02 -3.528546169400215149e-02 -2.342118136584758759e-02 7.442376110702753067e-03 -7.253014948219060898e-03 2.437894977629184723e-02 2.246119640767574310e-02 2.273760037496685982e-03 6.938966456800699234e-03 -2.915686229243874550e-03 -1.207652222365140915e-02 -3.644786076620221138e-03 -2.514617517590522766e-04 -2.056325785815715790e-02 -1.188168209046125412e-02 -2.049483917653560638e-02 1.990458928048610687e-02 7.518524304032325745e-03 -1.813750714063644409e-02 -5.050894245505332947e-02 8.312715217471122742e-03 -1.283439993858337402e-02 1.642022095620632172e-02 1.066606724634766579e-03 -1.630489714443683624e-02 -2.596206218004226685e-02 3.060042858123779297e-03 -1.804091781377792358e-02 1.661454909481108189e-03 -7.034188602119684219e-03 -4.432925954461097717e-02 8.824202232062816620e-03 -1.727446168661117554e-02 -8.736166171729564667e-03 -3.830373985692858696e-03
3.127121180295944214e-02 4.355728626251220703e-02 -1.275244168937206268e-02 1.055073225870728493e-03 -2.184596657752990723e-02 -2.739149611443281174e-03 8.965635206550359726e-04 4.066087305545806885e-02 -2.292507141828536987e-02 -1.285629346966743469e-02 2.222244068980216980e-02 2.386957779526710510e-02 3.099371679127216339e-03 1.443536765873432159e-02 6.118025165051221848e-03 -2.707784809172153473e-02 2.927508577704429626e-02 2.785795554518699646e-02 1.500408165156841278e-02 1.356980018317699432e-02 1.081796362996101379e-02 2.413806691765785217e-02 7.459349930286407471e-03 1.815052516758441925e-02 1.140284538269042969e-02 2.213910222053527832e-02 1.448834314942359924e-03 1.974930800497531891e-02 -4.173157270997762680e-03 1.888346485793590546e-02 1.060920953750610352e-02 3.455690667033195496e-02 -1.973382569849491119e-02 7.472213357686996460e-03 -1.462800428271293640e-02 8.789459243416786194e-03 3.693031147122383118e-02 2.016171067953109741e-02 2.131864428520202637e-02 -1.141475886106491089e-02 -1.743312552571296692e-02 -2.223431691527366638e-02 3.475238755345344543e-02 8.167353458702564240e-03 4.204088449478149414e-02 -2.266087755560874939e-02 -1.104125985875725746e-03 2.234658598899841309e-02 4.786757344845682383e-04 -1.935793273150920868e-02 -2.050013281404972076e-02 2.030797675251960754e-02 1.270803436636924744e-02 2.581523358821868896e-02 -2.062170970020815730e-04 -9.815676603466272354e-04 4.165687412023544312e-02 1.278925314545631409e-02 -1.714497804641723633e-02 -4.653987474739551544e-03 -2.500657550990581512e-02 1.508328504860401154e-02 -1.177511736750602722e-02 -1.910535804927349091e-02 3.812392428517341614e-02 4.338959697633981705e-03 3.598637133836746216e-02 1.784898340702056885e-03 3.791022463701665401e-04 1.310173142701387405e-02 3.001874079927802086e-03 2.421079576015472412e-02 9.056108072400093079e-03 -1.798306941054761410e-03 -2.475540339946746826e-02 9.327125735580921173e-03 -6.058924831449985504e-03 2.967997267842292786e-02 -2.035157382488250732e-02 -1.297897845506668091e-02 3.241230547428131104e-02 2.217257395386695862e-02 2.623634785413742065e-02 9.778203442692756653e-03 -2.128128521144390106e-02 1.123106107115745544e-02 3.741750493645668030e-02 -3.150417702272534370e-03 2.003272762522101402e-03 2.542373165488243103e-02 -1.181839033961296082e-02 7.098816568031907082e-04 1.420201547443866730e-02 4.129418730735778809e-02 2.293860539793968201e-02 -1.703166402876377106e-02 4.330617189407348633e-02 5.517968442291021347e-03 -2.513790316879749298e-02 -6.651607807725667953e-03 4.152536857873201370e-03 -3.388477722182869911e-03 1.066450262442231178e-03 2.019760664552450180e-03 3.472902253270149231e-02 5.244893021881580353e-03 -1.647046650759875774e-03 -1.107281073927879333e-02 2.483101934194564819e-02 5.534207914024591446e-03 3.410730138421058655e-02 -1.095588319003582001e-02 1.802915707230567932e-03 -1.809643581509590149e-02 -1.171512529253959656e-02 2.185984328389167786e-02 2.611318603157997131e-02 5.989569239318370819e-03 4.231973737478256226e-02 6.219680886715650558e-03 2.545050159096717834e-02 3.429086133837699890e-02 2.839179011061787605e-03 1.291989069432020187e-02 -1.045086141675710678e-02 -4.265192896127700806e-03 -1.169448439031839371e-02 1.640544389374554157e-03 2.752513438463211060e-02 3.295085951685905457e-02 1.197932474315166473e-02 -2.137032710015773773e-02 3.701161220669746399e-02 6.735674571245908737e-03 5.225130822509527206e-03 3.543290123343467712e-02 2.471669018268585205e-02 2.815600857138633728e-02 1.424472220242023468e-02 9.458397980779409409e-04 -2.392194583080708981e-04 1.396365277469158173e-02 1.648405939340591431e-02 -1.739485934376716614e-02 -2.354281023144721985e-02 9.687332436442375183e-03 3.913386166095733643e-02 -1.303515955805778503e-02 8.031929843127727509e-03 -3.351605264469981194e-03 -1.537964679300785065e-02 1.646294258534908295e-02 -8.864938281476497650e-03 -3.903733193874359131e-02 -3.695558011531829834e-02 1.947250030934810638e-02 3.389963507652282715e-02 3.031918220221996307e-02 2.394370362162590027e-02 -1.720722205936908722e-02 9.748967364430427551e-03 -2.017160691320896149e-02 -1.743596978485584259e-03 -1.389893330633640289e-02 -1.498313737101852894e-03 2.925464510917663574e-02 2.255936712026596069e-02 -1.487618125975131989e-02 -2.599669247865676880e-02 3.607635572552680969e-02 -2.323930710554122925e-02 9.127957746386528015e-03 2.311273664236068726e-02 3.479887731373310089e-03 -5.441001150757074356e-03 -3.893109969794750214e-03 -1.567762903869152069e-02 1.509279198944568634e-02 -1.668366417288780212e-02 2.049785852432250977e-02 -1.735610701143741608e-02 6.911817006766796112e-03 -5.412258207798004150e-03 -3.664622083306312561e-02 -3.585196565836668015e-03 2.294215839356184006e-03 -3.666457161307334900e-02 3.870478644967079163e-02 4.033644869923591614e-02 -5.653248634189367294e-03 2.045756205916404724e-02 -1.567333936691284180e-02 3.821420297026634216e-02 3.942476585507392883e-03 -1.611617207527160645e-02 2.801065891981124878e-02 -2.308469265699386597e-02 3.574690595269203186e-02 3.435693308711051941e-02 2.386570349335670471e-02 3.129805624485015869e-02 -1.412621699273586273e-02 -1.652667857706546783e-02 3.031436167657375336e-02 1.796251349151134491e-02 1.235233806073665619e-02 -5.036230199038982391e-03 -1.283244043588638306e-02 -5.168764851987361908e-03 -1.455180626362562180e-02 -3.732098266482353210e-02 -2.807952277362346649e-02 -2.670457400381565094e-02 1.715597324073314667e-02 -2.742282114923000336e-02 -3.491400927305221558e-02 3.084464929997920990e-02 1.335316058248281479e-02 -1.026238664053380489e-03 -2.502674236893653870e-02 -2.605756558477878571e-02 -1.827248930931091309e-02 1.956308493390679359e-03 -6.826839875429868698e-03 -1.884954422712326050e-02 3.478742018342018127e-02 -2.368303388357162476e-02 -7.200476713478565216e-03 7.201772183179855347e-03 2.496910281479358673e-02 -2.004282176494598389e-02 3.084935247898101807e-03 -3.154434496536850929e-03 1.973252184689044952e-02 1.896443893201649189e-03 2.744534052908420563e-02 -2.235192246735095978e-02 -3.955418244004249573e-02 -3.005175665020942688e-02 -3.950092196464538574e-02 1.615811511874198914e-02 -1.293659303337335587e-02 -6.782096810638904572e-03 3.602830320596694946e-02 1.252870261669158936e-02 3.132892027497291565e-02 9.726772259455174208e-05 -1.652052439749240875e-02 -2.854507789015769958e-02 -2.420140989124774933e-02 4.173292219638824463e-02 1.818109862506389618e-02 1.608264632523059845e-02 2.902974933385848999e-02 -7.814522832632064819e-03 2.018040046095848083e-02 -2.394064143300056458e-02 -3.360874718055129051e-03 -2.961845695972442627e-02 1.315486151725053787e-02 -3.863962739706039429e-02 -3.283410891890525818e-02 -2.463811263442039490e-02 1.273449975997209549e-02 -7.337606512010097504e-03 1.665988564491271973e-02 1.486875955015420914e-02 -1.230212021619081497e-02 3.803028911352157593e-02 2.184196561574935913e-02 -7.668365724384784698e-03 9.494512341916561127e-03 8.859369554556906223e-04 -1.554748043417930603e-02 -6.550263147801160812e-03 3.088022209703922272e-02 -1.103333290666341782e-02 3.139970451593399048e-02 3.408239781856536865e-02 2.797628566622734070e-02 -9.498056024312973022e-03 3.813399747014045715e-02 1.734951511025428772e-02 2.850148128345608711e-03 6.613215431571006775e-03 -7.771809585392475128e-03 1.213831268250942230e-02 -3.220433369278907776e-02 -2.751381695270538330e-02 2.940311655402183533e-02 -2.080913446843624115e-02 2.044375753030180931e-03 -2.329389192163944244e-02 2.946546860039234161e-02 -7.768664043396711349e-03 -1.546336244791746140e-02 2.403984777629375458e-02 -2.321586199104785919e-02 8.864388801157474518e-03 2.059736847877502441e-02 2.065746113657951355e-02 -2.767099440097808838e-02 2.799970470368862152e-02 -9.499729640083387494e-05 3.689214959740638733e-02 1.030491292476654053e-02 -6.243614479899406433e-03 3.940472006797790527e-02 -1.771531440317630768e-02 -2.690458856523036957e-02 -2.087151631712913513e-02 7.349390536546707153e-03 1.468310132622718811e-02 1.772499270737171173e-02 -2.464712224900722504e-02 5.744091235101222992e-03 -2.137877233326435089e-02 -2.866634866222739220e-03 -2.191665396094322205e-02 -2.507060416974127293e-04 7.889812812209129333e-03 2.668220363557338715e-02 -4.000633023679256439e-03 3.821318224072456360e-02 7.580048870295286179e-03 2.942405454814434052e-02 2.820807509124279022e-02 1.416502241045236588e-02 -2.707076817750930786e-02 1.604590564966201782e-02 4.347858577966690063e-02 -1.640067994594573975e-02 -1.393080130219459534e-02 -1.053054817020893097e-02 -2.639642357826232910e-02 -7.946103811264038086e-03 2.318026870489120483e-02 -2.076365426182746887e-02 3.842442855238914490e-02 -2.978564472869038582e-03 3.036001510918140411e-02 3.479853272438049316e-02 -1.887059956789016724e-02 -1.660538022406399250e-03 -8.508267812430858612e-03 1.164138689637184143e-02 4.895758349448442459e-03 1.445883139967918396e-02 1.534394733607769012e-02 2.841275930404663086e-02 2.238239906728267670e-02 -9.959641844034194946e-03 8.185652084648609161e-03 -2.089906483888626099e-02 1.247764844447374344e-02 -3.350140294060111046e-03 3.155667707324028015e-02 -1.484376005828380585e-02 -1.098672859370708466e-02 8.536385372281074524e-03 -1.063827052712440491e-02 -1.370284892618656158e-02 8.278554305434226990e-03 -1.437137834727764130e-02 -2.250385284423828125e-02 1.320401579141616821e-02 -2.040919288992881775e-02 -5.779288709163665771e-03 2.886040508747100830e-02 2.206619083881378174e-02 1.082718931138515472e-02 1.650338806211948395e-02 -3.712431713938713074e-02 3.072483930736780167e-03 2.771592512726783752e-02 -2.914874814450740814e-02 2.810750342905521393e-02 3.430454805493354797e-02 2.595840208232402802e-02 9.289615787565708160e-03 4.931845236569643021e-03 9.479270316660404205e-03 -2.279515750706195831e-02 -2.466165460646152496e-03 3.602357208728790283e-02 -2.327194996178150177e-02 3.939887881278991699e-02 -1.348357927054166794e-02 -6.558963097631931305e-03 2.307900041341781616e-02 -1.416430808603763580e-02 3.691499307751655579e-02 3.316181525588035583e-02 -2.712880726903676987e-03 3.368776291608810425e-02 2.261807769536972046e-02 3.224701620638370514e-03 1.345957349985837936e-02 2.165145799517631531e-02 -3.670313581824302673e-02 9.107242338359355927e-03 1.572737284004688263e-02 -2.741327136754989624e-02 -3.830914944410324097e-02 -1.704960316419601440e-02 -1.088892668485641479e-02 2.745296061038970947e-02 2.303834445774555206e-02 -1.275498652830719948e-03 2.045306935906410217e-02 -2.079319395124912262e-02 -1.172642782330513000e-02 -7.018033415079116821e-03 1.361595559865236282e-02 -2.329628355801105499e-02 -2.394919283688068390e-02 9.461713489145040512e-04 4.167350381612777710e-02 -1.533995568752288818e-02 8.253252133727073669e-03 1.951549202203750610e-03 1.922241039574146271e-02 9.401967748999595642e-03 4.030927811982110143e-06 6.918751168996095657e-03 -2.560851909220218658e-02 1.078666467219591141e-02 2.336224727332592010e-02 -1.916075125336647034e-02 2.138157933950424194e-02 -3.316155343782156706e-04 2.372274175286293030e-02 1.378391776233911514e-02 1.102181058377027512e-02 -2.571289800107479095e-02 -2.764387987554073334e-02 -3.512835246510803699e-04 -8.437064825557172298e-04 -1.062356773763895035e-02 -2.767097763717174530e-02 2.920018136501312256e-02 -1.153335440903902054e-02 2.902274020016193390e-03 1.686664647422730923e-03 -3.246980253607034683e-03 3.414223715662956238e-02 3.413874655961990356e-02 9.936196729540824890e-03 2.835173159837722778e-02 -2.720328979194164276e-02 -3.016012953594326973e-03 2.069931477308273315e-02 3.519009426236152649e-02 3.079312480986118317e-02 -2.932457625865936279e-02 -2.278024516999721527e-02 -1.123688463121652603e-02 -2.134683309122920036e-03 1.377611327916383743e-02 5.011294037103652954e-03 2.036710083484649658e-02 2.884314209222793579e-02 2.207841910421848297e-02 1.391011849045753479e-02 1.232766197063028812e-03 1.902913302183151245e-02 -1.649254001677036285e-03 -3.561786934733390808e-02 -1.242775563150644302e-02 4.812456667423248291e-03 2.428207173943519592e-02 2.056434750556945801e-02 1.109703443944454193e-02 1.334177888929843903e-02 -5.367625039070844650e-03 3.859804570674896240e-02 -3.732759796548634768e-04 6.261027883738279343e-03 -2.570831030607223511e-02 -1.171600818634033203e-02 4.168093577027320862e-02 2.477320469915866852e-02 2.322951890528202057e-02 8.604888535046484321e-06 8.384020067751407623e-03 3.014205396175384521e-02 1.465876214206218719e-02 -1.954189874231815338e-02 -1.338751893490552902e-02 -2.493062801659107208e-02 8.112368523143231869e-04 7.289430126547813416e-03 -3.588159009814262390e-02 2.041802369058132172e-02 -1.816126704216003418e-02 9.693843312561511993e-03 1.237256638705730438e-02 2.625582972541451454e-03 3.487743064761161804e-02 -1.893363893032073975e-02 1.731548830866813660e-02 1.850722916424274445e-02 1.823247224092483521e-02 2.836962463334202766e-03 -2.424295805394649506e-02 1.199530065059661865e-02 2.437158674001693726e-02 1.153401378542184830e-02 7.716274820268154144e-03 3.924957290291786194e-02 -3.088584868237376213e-03 -3.033011779189109802e-02 -3.163490444421768188e-02 -7.907394901849329472e-04 -1.825951971113681793e-02 2.587382681667804718e-02 -2.248034626245498657e-02 2.291175909340381622e-02 -7.423395290970802307e-03 -2.135011926293373108e-02 -3.717153519392013550e-02 -1.883363910019397736e-02 1.177413202822208405e-02 -2.883001789450645447e-02 1.834707451052963734e-03 -2.654006890952587128e-02 2.185950428247451782e-02 -3.023090306669473648e-03 -1.604854129254817963e-03 3.612212091684341431e-02 1.590404473245143890e-02 -4.793082363903522491e-03 -7.408960722386837006e-03 -1.829051971435546875e-02 -2.456145174801349640e-02 3.306315839290618896e-02 -7.839255034923553467e-03 -1.622249558568000793e-02 -1.117234770208597183e-02 -2.399581298232078552e-02 1.550518441945314407e-02 2.546892687678337097e-02 -4.423764068633317947e-03 2.528340928256511688e-02 -1.659319549798965454e-02 3.823420777916908264e-02 3.771783038973808289e-02 -1.742375269532203674e-02 2.623029798269271851e-02 -3.137155994772911072e-02 9.474308229982852936e-03 1.157339196652173996e-02 -1.950634457170963287e-02 1.242538169026374817e-02 3.986860066652297974e-02 1.563626341521739960e-02 7.951944135129451752e-03 2.633337117731571198e-02 6.621193140745162964e-03 3.155017644166946411e-02 4.234597086906433105e-02 4.058866947889328003e-02 4.315557330846786499e-02 1.529195718467235565e-02 -1.114741805940866470e-02 -7.433966267853975296e-03 3.114099428057670593e-02 -1.118376501835882664e-03 2.743734233081340790e-02 5.894608329981565475e-03 -2.589209564030170441e-02 2.100958116352558136e-02 3.491894342005252838e-03 3.425102215260267258e-03 -2.171622216701507568e-02 -6.731529720127582550e-03 2.528713084757328033e-02 -3.986233472824096680e-02 -1.157254446297883987e-02 -1.857800595462322235e-02 -1.267651002854108810e-02 -2.529723756015300751e-02 3.274706657975912094e-03 -1.749791018664836884e-02 -2.105592936277389526e-02 1.408015377819538116e-02 -7.841156795620918274e-03 3.665562346577644348e-02 1.031223684549331665e-02 5.688792560249567032e-03 1.693545840680599213e-02 2.385067194700241089e-02 2.957272110506892204e-03 3.267467394471168518e-02 -1.395009085536003113e-02 1.696236245334148407e-02 9.231576696038246155e-03 2.556267194449901581e-02 -2.822202630341053009e-02 3.608424216508865356e-02 1.309200562536716461e-02 -1.359723042696714401e-02 4.300989676266908646e-03 1.148770470172166824e-02 -2.629110123962163925e-03 -2.018677629530429840e-02 -2.949797734618186951e-02 -8.849029429256916046e-03 -1.275585778057575226e-02 2.804853580892086029e-02 1.784476451575756073e-02 2.317426539957523346e-02 4.337324202060699463e-02 9.624937549233436584e-03 9.033011272549629211e-03 4.192248731851577759e-02 1.169754192233085632e-02 -1.227370649576187134e-02 -3.620208241045475006e-03 2.726814523339271545e-02 3.451289236545562744e-02 3.652330487966537476e-03 3.463964164257049561e-02 3.182419762015342712e-02 1.322375610470771790e-03 -7.371692452579736710e-03 1.705920509994029999e-02 1.933459192514419556e-03 -1.632449589669704437e-02 -2.372443489730358124e-02 -2.345620840787887573e-02 -1.971657574176788330e-02 2.174070803448557854e-03 -6.363117136061191559e-03 -3.530256450176239014e-02 -3.753428906202316284e-02 -3.488651663064956665e-02 3.497910499572753906e-02 7.323797792196273804e-03 3.665856784209609032e-03 -2.070026285946369171e-02 -2.063441835343837738e-02 -1.365750096738338470e-02 1.043775677680969238e-02 -4.352613352239131927e-03 -2.114567160606384277e-02 -6.615686230361461639e-03 -1.782266609370708466e-02 -7.115207146853208542e-03 7.323889527469873428e-03 1.046100445091724396e-02 3.915644250810146332e-03 -5.603558383882045746e-03 1.658056862652301788e-02 5.105412565171718597e-03 1.925753988325595856e-02 1.565471291542053223e-02 1.889327168464660645e-02 9.730952791869640350e-03 4.286432638764381409e-02 -1.578560657799243927e-02 -2.306521870195865631e-02 2.617332339286804199e-02 1.364589086733758450e-03 1.684622280299663544e-02 3.985990583896636963e-02 1.070971786975860596e-02 -1.978292129933834076e-02 8.761479519307613373e-03 4.161720722913742065e-02 3.798303380608558655e-02 -1.522200927138328552e-02 3.073713928461074829e-02 3.752452507615089417e-02 -2.589796483516693115e-02 1.885025389492511749e-02 2.937954664230346680e-02 1.757832244038581848e-02 -7.746064569801092148e-03 9.106921963393688202e-03 -2.656534314155578613e-02 1.994869112968444824e-02 -1.702030003070831299e-02 -1.483852881938219070e-02 1.084964908659458160e-02 1.910576969385147095e-02 -2.805423690006136894e-03 2.553072758018970490e-02 -1.436645537614822388e-02 -1.924755051732063293e-02 1.553430315107107162e-02 1.199543010443449020e-02 -3.065768629312515259e-02 3.387671429663896561e-03 3.693175688385963440e-02 3.636800870299339294e-02 1.677817851305007935e-02 1.193656399846076965e-02 -2.535208500921726227e-02 -1.729670166969299316e-02 -1.133615896105766296e-02 -1.625230908393859863e-02 -1.610833802260458469e-03 -1.044678315520286560e-02 4.180125892162322998e-02 2.530732378363609314e-02 2.957698144018650055e-02 -3.254955168813467026e-03 6.793279200792312622e-03 9.233905933797359467e-03 5.648948717862367630e-03 -1.452094875276088715e-02 9.225555695593357086e-03 -4.234535619616508484e-03 3.973782062530517578e-02 5.279768258333206177e-03 -1.399068627506494522e-02 -3.999724518507719040e-03 2.016161009669303894e-02 -8.746896870434284210e-03 3.589105093851685524e-03 1.199881918728351593e-02 5.035827402025461197e-03 6.512160325655713677e-05 -3.347643883898854256e-03 -2.117286436259746552e-02 -1.815779879689216614e-02 1.411056704819202423e-02 3.624898567795753479e-02 3.293956816196441650e-02 3.939177258871495724e-04 -2.020028233528137207e-02 2.035494148731231689e-02 1.021685823798179626e-02 1.166356354951858521e-02 -7.538816891610622406e-03 -8.726891130208969116e-03 2.326428657397627831e-03 -6.293385755270719528e-03 4.388624057173728943e-02 3.983356431126594543e-02 3.698788583278656006e-02 -1.590224169194698334e-02 2.651871182024478912e-02 -1.437577605247497559e-02 4.839493427425622940e-03 3.849789127707481384e-02 -2.089417725801467896e-02 -3.833853988908231258e-04 3.277080878615379333e-02 3.020630776882171631e-02 3.406696766614913940e-02 4.332238435745239258e-02 4.192876070737838745e-02 -2.181495167315006256e-02 3.609353676438331604e-02 1.152761513367295265e-03 -1.382455346174538136e-03 3.356055915355682373e-02 2.209328860044479370e-02 -1.835250854492187500e-02 -1.814147457480430603e-02 -1.922500506043434143e-02 1.545107923448085785e-02 3.598822280764579773e-02 9.137531742453575134e-03 -1.358271762728691101e-02 1.920416764914989471e-02 3.786280378699302673e-02 1.945622265338897705e-03 2.615640684962272644e-02 3.153804689645767212e-02 4.116061329841613770e-02 1.331306248903274536e-02 2.715156972408294678e-02 9.863952174782752991e-03 3.366302698850631714e-02 3.720005229115486145e-02 1.658791303634643555e-02 -7.618627045303583145e-03 7.062256336212158203e-03 3.741342201828956604e-02 1.694802194833755493e-03 -1.084962859749794006e-02
