-4.962498322129249573e-02
5.272033624351024628e-03
-3.626085445284843445e-02
2.393294498324394226e-02
-1.362417079508304596e-02
-5.147532746195793152e-02
-1.302119810134172440e-02
2.019060030579566956e-02
1.002582721412181854e-02
-1.019109319895505905e-02
-3.786274418234825134e-02
-1.795507967472076416e-02
1.436107675544917583e-03
-3.032723255455493927e-02
-5.382597912102937698e-03
-3.129336982965469360e-02
-5.298800766468048096e-02
2.215139940381050110e-02
-1.878108642995357513e-02
8.722459897398948669e-03
2.410577610135078430e-02
-2.132548578083515167e-02
-2.982166223227977753e-02
-6.818032357841730118e-03
4.089723806828260422e-03
-3.612157702445983887e-02
-3.507278487086296082e-02
-3.118768893182277679e-02
-1.830577850341796875e-02
-1.806158199906349182e-02
2.928256057202816010e-03
2.664601616561412811e-02
-1.651524193584918976e-02
-5.894783884286880493e-02
3.306791931390762329e-02
-2.933194860816001892e-02
1.729391887784004211e-02
-1.271522371098399162e-03
-1.340466924011707306e-02
2.907861955463886261e-02
-2.677364461123943329e-02
-4.103109240531921387e-02
-3.716256842017173767e-02
-5.157853662967681885e-02
1.531541533768177032e-02
-5.459329113364219666e-03
-2.515757828950881958e-02
1.979082450270652771e-02
7.264345884323120117e-03
-2.207105606794357300e-02
3.979461267590522766e-03
-3.835581475868821144e-03
-6.453631445765495300e-03
-3.004610538482666016e-02
1.247406005859375000e-03
3.067620098590850830e-02
-1.879869587719440460e-02
-1.909711584448814392e-02
1.859890762716531754e-03
2.051547542214393616e-02
2.830056240782141685e-03
-4.053951706737279892e-03
-1.150077767670154572e-02
-1.125404052436351776e-02
-2.698873169720172882e-02
1.416857261210680008e-02
3.505537658929824829e-02
-2.014798298478126526e-02
2.569379657506942749e-02
2.868535742163658142e-02
-9.744146838784217834e-03
1.340411230921745300e-02
-5.092713236808776855e-02
-2.903335355222225189e-02
-3.890215605497360229e-02
-4.540218040347099304e-03
-1.563471555709838867e-02
3.809970803558826447e-03
-2.521578967571258545e-02
-1.012918073683977127e-02
1.316535286605358124e-03
-2.459189668297767639e-02
-1.378856040537357330e-02
3.791559487581253052e-02
1.014435384422540665e-02
4.419310949742794037e-03
-1.886031217873096466e-02
2.936835214495658875e-02
2.807517303153872490e-03
4.577006213366985321e-03
-6.537688430398702621e-03
1.504651270806789398e-03
-3.683415427803993225e-02
-3.843342512845993042e-02
8.701067417860031128e-03
1.663600094616413116e-02
2.562638185918331146e-02
-2.531517483294010162e-02
-3.273416310548782349e-02
-4.311428405344486237e-03
-3.468047827482223511e-02
-8.427332155406475067e-03
-6.129072979092597961e-03
1.936810277402400970e-02
8.421680890023708344e-03
2.792736049741506577e-03
-3.844797238707542419e-02
2.454972639679908752e-02
-2.614204585552215576e-02
2.545934915542602539e-02
-3.868241235613822937e-02
-4.073153063654899597e-02
-1.055350061506032944e-02
-5.296606570482254028e-02
-4.006539657711982727e-02
-1.380241382867097855e-02
2.805544994771480560e-02
-1.093202456831932068e-02
1.743944175541400909e-02
-3.712177649140357971e-02
4.775325581431388855e-02
2.563575282692909241e-02
-3.637009859085083008e-02
9.873013943433761597e-03
-2.046184800565242767e-02
-3.462897986173629761e-02
4.597704391926527023e-03
1.859340257942676544e-02
