-6.415737420320510864e-02 -6.315850466489791870e-02 -3.908212855458259583e-02 -2.331987395882606506e-02 -1.477011200040578842e-02 -2.619581297039985657e-02 -1.338986679911613464e-02 -7.311920821666717529e-02 -4.881900176405906677e-02 -6.023117154836654663e-02 -5.603959783911705017e-02 -2.874034643173217773e-02 -1.684128306806087494e-02 -4.534878209233283997e-02 -8.226394653320312500e-03 -4.313469678163528442e-02 -4.562563821673393250e-02 -4.319918528199195862e-02 -2.360708639025688171e-02 -2.323635667562484741e-02 -5.880183726549148560e-02 -7.014705240726470947e-02 -1.218592748045921326e-02 -3.342515230178833008e-02 -2.698982134461402893e-02 -6.806933879852294922e-02 -4.203583672642707825e-02 -9.539499878883361816e-03 -6.897872686386108398e-02 -5.815163254737854004e-02 -7.163384556770324707e-02 -4.481672868132591248e-02 -3.653191775083541870e-02 -4.767572507262229919e-02 -4.077019169926643372e-02 -2.417362853884696960e-02 -4.976769164204597473e-02 -3.471940755844116211e-02 -6.730049848556518555e-02 -6.152638047933578491e-02 -4.654813930392265320e-02 -3.330054134130477905e-02 -3.273017331957817078e-02 -1.398382987827062607e-02 -1.711956970393657684e-02 -3.708667680621147156e-02 -2.022030949592590332e-02 -4.959813086315989494e-04 -6.778734177350997925e-02 -2.950323978438973427e-03 -5.462899804115295410e-02 -3.208655118942260742e-02 -1.688666082918643951e-02 -6.141490861773490906e-02 -7.659076154232025146e-02 -6.924998760223388672e-02 -5.419835075736045837e-02 -3.540631756186485291e-02 -4.848906770348548889e-02 -8.243508636951446533e-03 -7.523017376661300659e-02 -6.216267868876457214e-02 -4.815603792667388916e-02 -3.836310282349586487e-02 -4.744122922420501709e-02 -1.288499217480421066e-02 -2.964276587590575218e-03 -2.001103572547435760e-02 -7.320211734622716904e-03 -6.055139750242233276e-02 -3.494530916213989258e-02 -3.707051277160644531e-02 -4.030231013894081116e-02 -3.196808695793151855e-02 2.934110816568136215e-03 -4.422137886285781860e-02 -4.095186293125152588e-02 -3.979592397809028625e-02 -1.942859962582588196e-02 -2.866082265973091125e-02 -4.310313612222671509e-02 -1.693542115390300751e-02 -2.130930870771408081e-02 -5.958929285407066345e-02 -5.930098518729209900e-02 -3.842902556061744690e-02 -3.569630905985832214e-02 -5.346329137682914734e-02 -3.966925293207168579e-02 7.026897743344306946e-03 -5.073896143585443497e-03 -4.302087798714637756e-02 1.840201579034328461e-02 -5.091460421681404114e-02 3.770267590880393982e-03 4.326834529638290405e-02 1.245300918817520142e-01 9.613218158483505249e-02 1.492730528116226196e-01 8.192452788352966309e-02 1.193019002676010132e-02 7.045745849609375000e-02 5.924448743462562561e-02 6.083361431956291199e-02 1.105611100792884827e-01 1.607553334906697273e-03 -1.916369609534740448e-02 -4.576605930924415588e-02 -4.828963428735733032e-02 -6.360812485218048096e-02 -8.827525191009044647e-03 -6.767095625400543213e-02 -3.637253120541572571e-02 -3.978446498513221741e-02 -6.455397605895996094e-02 -3.169596940279006958e-02 -3.620037436485290527e-02 -2.042191848158836365e-02 -2.216504514217376709e-02 6.730760633945465088e-02 8.183410018682479858e-02 8.821152895689010620e-02 9.155423194169998169e-02 8.851081132888793945e-02 8.953218162059783936e-02 -3.815756179392337799e-03 1.570521504618227482e-03 5.229107290506362915e-02 5.819485336542129517e-02 9.164603427052497864e-03 1.936190761625766754e-02 3.018196113407611847e-02 3.653017804026603699e-02 4.801636189222335815e-02 1.543571893125772476e-02 -2.797480486333370209e-02 -6.042967736721038818e-02 -4.933149321004748344e-04 -5.306130275130271912e-02 -5.329550057649612427e-02 -2.109737321734428406e-02 -1.793592795729637146e-02 -5.000561475753784180e-02 -3.704050928354263306e-02 -1.533731911331415176e-02 1.212455611675977707e-02 5.401363596320152283e-02 1.054497212171554565e-01 6.564842909574508667e-02 -2.838682150468230247e-03 -1.540417317301034927e-02 -6.046531721949577332e-02 -1.114366799592971802e-01 -8.603693544864654541e-02 3.822408616542816162e-02 -1.763479411602020264e-02 -2.609053812921047211e-02 -2.786592394113540649e-02 -3.487769886851310730e-02 6.754175573587417603e-02 9.439004957675933838e-02 -3.934968635439872742e-02 -4.999866336584091187e-02 -7.523281127214431763e-02 -5.987383425235748291e-02 -4.854404181241989136e-02 -6.954060494899749756e-02 -6.122627481818199158e-02 -4.476706311106681824e-02 -4.122624918818473816e-02 -4.222018644213676453e-02 -1.053645089268684387e-02 4.284529387950897217e-02 7.688133418560028076e-02 1.009417697787284851e-01 1.219984591007232666e-01 4.602678865194320679e-02 8.012354373931884766e-02 -9.110596962273120880e-03 -7.325217127799987793e-02 -7.525701820850372314e-02 -1.050401572138071060e-02 -1.297251582145690918e-01 -5.002245306968688965e-02 -4.147327318787574768e-02 -7.872538268566131592e-02 -1.224568635225296021e-01 -1.979836076498031616e-02 1.681184396147727966e-02 -3.862494602799415588e-03 2.226317999884486198e-03 3.870743140578269958e-02 3.089064732193946838e-03 -3.305186331272125244e-02 -2.173935808241367340e-02 -3.336136788129806519e-02 -5.382655188441276550e-02 -3.696532920002937317e-02 -5.659168586134910583e-02 -9.684363612905144691e-04 6.580186635255813599e-02 6.965517252683639526e-02 9.115655720233917236e-02 1.241379231214523315e-01 2.663150988519191742e-02 3.204467706382274628e-03 3.172662854194641113e-02 -3.836563974618911743e-02 -7.013283669948577881e-02 8.581130765378475189e-03 -6.603530608117580414e-03 8.664826303720474243e-02 -1.012533381581306458e-01 4.353608563542366028e-02 4.949638992547988892e-02 1.293843518942594528e-02 -5.631721392273902893e-02 -1.793425679206848145e-01 -5.999877676367759705e-02 5.912165716290473938e-02 4.051629826426506042e-02 -7.432130724191665649e-02 -4.534377902746200562e-02 -6.782554090023040771e-02 -3.769439086318016052e-02 -7.352071255445480347e-02 -7.976573891937732697e-03 -1.065061078406870365e-03 7.806717604398727417e-02 1.524032931774854660e-02 9.471002966165542603e-03 8.507965505123138428e-02 1.644908823072910309e-02 3.834575414657592773e-02 -2.817232534289360046e-02 -1.046994179487228394e-01 1.605389416217803955e-01 2.184499949216842651e-01 1.917397975921630859e-01 1.779693663120269775e-01 2.750583291053771973e-01 1.263433843851089478e-01 1.916801780462265015e-01 5.946196615695953369e-02 7.204272598028182983e-02 -1.957860309630632401e-03 7.564592361450195312e-02 6.554625928401947021e-02 1.662728958763182163e-03 -2.587926015257835388e-02 -5.892821587622165680e-03 -5.004301667213439941e-02 -4.066906496882438660e-02 -5.373572558164596558e-02 -6.612014770507812500e-02 -2.558599784970283508e-02 5.680302157998085022e-02 2.115707285702228546e-02 4.224962368607521057e-02 8.256537467241287231e-02 8.196838945150375366e-02 4.676684364676475525e-02 -2.427005954086780548e-02 -6.551473587751388550e-02 7.380258291959762573e-02 2.354934662580490112e-01 2.609693408012390137e-01 1.134986355900764465e-01 1.367382556200027466e-01 1.853214949369430542e-01 6.715217232704162598e-02 2.742064893245697021e-01 3.129880130290985107e-01 8.958689868450164795e-02 6.276981532573699951e-02 1.416945606470108032e-01 5.993169918656349182e-02 -1.801561005413532257e-02 -4.663595929741859436e-02 -3.827822953462600708e-02 -9.503928013145923615e-03 -7.251697778701782227e-02 -7.214134931564331055e-02 2.087867446243762970e-02 1.766436360776424408e-02 -3.462580963969230652e-02 -3.422307223081588745e-02 -3.894851729273796082e-02 4.256559535861015320e-03 -2.030659280717372894e-02 2.907411754131317139e-02 -4.452797118574380875e-03 4.533282294869422913e-02 1.873405426740646362e-01 1.506655812263488770e-01 -7.517202198505401611e-02 -1.093313004821538925e-02 1.733455210924148560e-01 1.678388714790344238e-01 1.143464967608451843e-01 1.680450439453125000e-01 5.133132264018058777e-02 1.712710410356521606e-01 1.908266842365264893e-01 6.785093992948532104e-02 -8.802716434001922607e-02 -2.797704562544822693e-02 -7.589332014322280884e-02 -9.624493308365345001e-03 -6.457286328077316284e-02 -3.344776853919029236e-02 -1.357613224536180496e-02 3.224336355924606323e-02 -3.341686725616455078e-02 -1.094490944524295628e-04 -1.718409731984138489e-02 -7.754841446876525879e-02 -6.313956109806895256e-04 8.868651464581489563e-03 6.422062218189239502e-02 1.077275052666664124e-01 1.019244045019149780e-01 2.789938449859619141e-02 -6.042537838220596313e-02 -1.087142825126647949e-01 2.446685135364532471e-01 1.295565515756607056e-01 2.331904880702495575e-02 4.457642883062362671e-02 -6.404849700629711151e-03 1.063217818737030029e-01 2.040166556835174561e-01 1.124362200498580933e-01 -1.482950244098901749e-02 -6.777419149875640869e-02 -2.820718474686145782e-02 -7.298883795738220215e-02 -6.924974918365478516e-02 -7.238930463790893555e-02 9.326911531388759613e-03 -4.058260470628738403e-02 2.727469615638256073e-02 6.951601803302764893e-02 -1.371849142014980316e-02 -1.368061602115631104e-01 4.691612347960472107e-02 4.291173070669174194e-02 9.601273387670516968e-02 1.812812238931655884e-01 1.720415651798248291e-01 1.037065312266349792e-01 -5.286490544676780701e-02 2.496532723307609558e-02 8.601436018943786621e-02 5.726541578769683838e-02 3.135335864499211311e-03 -5.216800048947334290e-02 -4.515260923653841019e-03 8.554547280073165894e-02 1.600830256938934326e-01 7.106734067201614380e-02 -5.659952759742736816e-02 -9.035961329936981201e-02 -8.018985390663146973e-02 -5.394586920738220215e-02 -3.557230159640312195e-02 -7.179749757051467896e-02 -5.098892748355865479e-02 -7.915594615042209625e-03 5.503054708242416382e-02 1.090923473238945007e-01 -3.808166086673736572e-02 -3.688619285821914673e-02 1.147289201617240906e-01 1.015597730875015259e-01 1.685755401849746704e-01 9.581337124109268188e-02 5.672739073634147644e-02 -4.461637511849403381e-02 -7.249798625707626343e-02 -1.187184080481529236e-02 1.419744361191987991e-02 1.558341085910797119e-01 9.623895585536956787e-02 -4.488939419388771057e-02 3.581079095602035522e-02 2.498489245772361755e-02 7.607409358024597168e-02 3.528916509822010994e-03 -5.761869996786117554e-02 -3.539603948593139648e-02 -2.445552498102188110e-02 -3.661790862679481506e-02 -2.676185220479965210e-02 -7.237175852060317993e-02 -4.058339819312095642e-02 -7.889883220195770264e-02 3.235831111669540405e-02 1.677693240344524384e-02 4.981418605893850327e-03 7.337065041065216064e-02 1.308400928974151611e-01 1.509821116924285889e-01 1.206382215023040771e-01 8.335767686367034912e-02 6.704625487327575684e-02 -4.075562208890914917e-02 -2.205810137093067169e-02 -1.713727414608001709e-01 1.103923395276069641e-01 1.213091313838958740e-01 1.734041124582290649e-01 9.811697900295257568e-02 1.113716438412666321e-01 6.801486015319824219e-04 -9.917888790369033813e-03 -2.209824696183204651e-02 -6.583839654922485352e-02 -6.171610578894615173e-02 -7.085826247930526733e-02 -6.784712523221969604e-02 -1.509128604084253311e-02 -3.040210809558629990e-03 -6.325093656778335571e-02 -3.237255290150642395e-02 4.548147693276405334e-02 5.182299762964248657e-02 7.825542241334915161e-02 6.998946517705917358e-02 3.090957365930080414e-02 1.034985389560461044e-02 2.074682712554931641e-02 4.988465458154678345e-03 -4.962064325809478760e-02 -4.028176143765449524e-02 -8.853490650653839111e-02 -7.526291906833648682e-02 1.149255409836769104e-01 2.425308227539062500e-01 2.276533693075180054e-01 2.028041630983352661e-01 7.702495157718658447e-02 1.351812332868576050e-01 8.907183259725570679e-02 1.675058342516422272e-02 -6.926856935024261475e-02 -5.905385315418243408e-02 -7.440979778766632080e-02 -5.297919735312461853e-02 -2.633278444409370422e-02 -4.940648749470710754e-02 -1.623593084514141083e-02 1.510502956807613373e-02 7.136372476816177368e-02 3.665510565042495728e-02 1.037451773881912231e-01 3.196433186531066895e-02 1.349790487438440323e-02 1.902035437524318695e-02 3.924264572560787201e-03 -1.927682012319564819e-02 -5.418669059872627258e-02 -1.741825342178344727e-01 -1.850501745939254761e-01 -1.753616929054260254e-01 1.315709501504898071e-01 2.941515147686004639e-01 2.235493361949920654e-01 2.087433040142059326e-01 -2.263322472572326660e-02 6.617813557386398315e-02 1.027470156550407410e-01 -2.553112246096134186e-02 -1.242797896265983582e-01 -7.305385172367095947e-02 -6.192185729742050171e-02 -1.417956314980983734e-02 -6.842599064111709595e-02 -4.908326640725135803e-02 3.236698452383279800e-03 5.118513479828834534e-02 2.443409524857997894e-02 -1.269678957760334015e-02 1.179146841168403625e-01 4.583260044455528259e-02 -7.982805371284484863e-02 -1.020489484071731567e-01 -6.156007200479507446e-02 -2.109678089618682861e-02 -4.744666628539562225e-03 -1.816957890987396240e-01 -2.818830311298370361e-01 5.181848630309104919e-02 3.021426200866699219e-01 1.211508437991142273e-01 2.508396506309509277e-01 8.771836757659912109e-02 8.000186085700988770e-02 8.243417739868164062e-02 4.469956830143928528e-02 -6.787857413291931152e-02 -1.763024479150772095e-01 -9.772541373968124390e-02 -1.773646101355552673e-02 -6.722701340913772583e-02 -3.948476910591125488e-02 -1.789090223610401154e-02 3.389628231525421143e-02 -6.446710973978042603e-02 2.903290651738643646e-02 9.727381914854049683e-02 1.546434126794338226e-03 -1.250916067510843277e-02 -5.466453358530998230e-02 -4.689712822437286377e-02 1.325727440416812897e-02 -9.201930463314056396e-02 -3.238828107714653015e-02 -1.687538474798202515e-01 3.584810346364974976e-02 2.318803071975708008e-01 1.494448333978652954e-01 7.025113701820373535e-02 8.747015893459320068e-02 9.964599460363388062e-02 6.847258657217025757e-02 9.042325615882873535e-02 -2.469239570200443268e-02 -1.865023076534271240e-01 -1.275267899036407471e-01 -6.040819734334945679e-02 -8.198685944080352783e-02 -6.943666934967041016e-02 -1.378021109849214554e-02 -3.230850771069526672e-02 -3.216508775949478149e-02 -2.865311503410339355e-02 1.472379714250564575e-01 9.008695185184478760e-02 6.402197480201721191e-02 7.993341237306594849e-02 4.368113726377487183e-02 -2.690577134490013123e-02 -2.238682657480239868e-01 -5.070349946618080139e-02 -1.619905233383178711e-01 -1.894932612776756287e-02 1.810735650360584259e-02 8.200555294752120972e-02 1.336715668439865112e-01 1.216864585876464844e-01 9.034200757741928101e-02 5.266515910625457764e-02 1.170477345585823059e-01 3.212532773613929749e-02 -1.288460344076156616e-01 -1.533321887254714966e-01 -1.437173336744308472e-01 -4.617000371217727661e-02 -3.179595246911048889e-02 -6.951136887073516846e-02 -2.886444330215454102e-02 -5.355434492230415344e-02 -7.221546024084091187e-02 -8.673292398452758789e-02 2.561002410948276520e-02 3.438553959131240845e-02 9.288457036018371582e-02 9.297271817922592163e-02 9.096015989780426025e-02 7.294293493032455444e-02 -3.298925608396530151e-02 -1.040550619363784790e-01 3.233990073204040527e-02 1.821164190769195557e-01 1.169649064540863037e-01 -3.702633827924728394e-02 3.192868782207369804e-03 7.745792623609304428e-03 3.924610093235969543e-02 4.917579516768455505e-02 -6.723044207319617271e-04 -6.177302077412605286e-02 -1.789508163928985596e-01 -1.579911112785339355e-01 -8.726716786623001099e-02 -2.814568951725959778e-02 -2.471544966101646423e-02 -3.577220812439918518e-02 -2.742921188473701477e-02 -6.353943794965744019e-02 -1.013157293200492859e-01 -1.452517509460449219e-01 -1.673280000686645508e-01 -4.319321736693382263e-02 5.345907807350158691e-02 -3.016456030309200287e-02 -6.413506716489791870e-02 -2.254859777167439461e-03 9.749243408441543579e-02 5.498953908681869507e-02 1.309226602315902710e-01 6.385347247123718262e-02 7.518120110034942627e-02 -2.526531927287578583e-02 -5.250404402613639832e-02 -3.714009001851081848e-02 -9.903918951749801636e-03 -9.773445874452590942e-02 -9.761981666088104248e-02 -8.071343600749969482e-02 -1.845137625932693481e-01 -1.439253687858581543e-01 -9.624707698822021484e-02 -5.300530046224594116e-02 -7.430230081081390381e-02 -3.240948542952537537e-02 -2.203487604856491089e-02 -3.785887733101844788e-02 -4.056286811828613281e-02 -8.615951985120773315e-02 -9.437386691570281982e-02 -3.943025693297386169e-02 -3.695089370012283325e-02 -1.647060513496398926e-01 -1.094342768192291260e-01 -1.993345655500888824e-02 1.124002411961555481e-01 1.505599021911621094e-01 1.289650052785873413e-01 8.382695168256759644e-02 1.507416367530822754e-01 7.338642328977584839e-02 7.507798820734024048e-02 -3.220603801310062408e-03 -6.190514191985130310e-03 -1.294373124837875366e-01 -1.811427772045135498e-01 -1.256854683160781860e-01 -1.115777418017387390e-01 -8.447612076997756958e-02 -5.764612555503845215e-02 -5.526454374194145203e-02 -7.414638996124267578e-02 -5.407671257853507996e-02 -4.619658365845680237e-02 -6.785551458597183228e-02 2.099548466503620148e-02 2.400802820920944214e-02 -4.155442118644714355e-02 -4.409069195389747620e-02 -6.846637930721044540e-03 -2.826261892914772034e-02 -4.371232166886329651e-02 3.872634097933769226e-02 8.589367568492889404e-02 1.662059873342514038e-02 2.257393151521682739e-01 1.063700839877128601e-01 2.138829976320266724e-01 1.347577869892120361e-01 8.305545896291732788e-02 8.706404268741607666e-02 -5.243977904319763184e-02 -5.195816978812217712e-02 -1.425568312406539917e-01 -8.855482190847396851e-02 -5.063656345009803772e-02 -4.313469678163528442e-02 -7.901767641305923462e-02 -7.155679166316986084e-02 -5.971087887883186340e-02 -5.861205607652664185e-02 -5.921062082052230835e-02 -3.935142233967781067e-02 -5.509652663022279739e-03 4.749095812439918518e-02 4.497563466429710388e-03 5.516965314745903015e-02 4.539823159575462341e-02 3.227881342172622681e-02 3.660709783434867859e-02 1.166995391249656677e-01 1.448228657245635986e-01 1.746704280376434326e-01 2.676784694194793701e-01 2.577500641345977783e-01 1.726858615875244141e-01 2.011927068233489990e-01 6.966816261410713196e-03 -7.209883630275726318e-02 -7.314657419919967651e-02 -7.753457874059677124e-02 -1.126058995723724365e-01 -6.368294358253479004e-02 -8.676277101039886475e-02 -6.290240585803985596e-02 -4.988776147365570068e-02 -5.478801578283309937e-02 -5.554531142115592957e-02 -2.448029071092605591e-02 -6.074913591146469116e-02 -4.117687419056892395e-02 -1.824659667909145355e-02 -1.135605107992887497e-02 -3.688528016209602356e-02 6.498705595731735229e-03 4.892931878566741943e-02 4.654667526483535767e-02 8.164132386445999146e-02 8.519808948040008545e-02 9.290489554405212402e-02 1.079125776886940002e-01 1.332060247659683228e-01 4.009481891989707947e-02 7.427141815423965454e-02 4.278305545449256897e-02 3.626287728548049927e-02 -2.132201381027698517e-02 2.350047603249549866e-02 -5.618600919842720032e-02 -7.488302886486053467e-02 -5.620829761028289795e-02 -7.125613838434219360e-02 -6.524642556905746460e-02 -1.050205342471599579e-02 -3.832706436514854431e-02 -8.293880149722099304e-03 -5.068004503846168518e-02 -2.352581173181533813e-02 -7.528902590274810791e-02 -1.263387035578489304e-02 -1.701536215841770172e-02 -5.937137082219123840e-02 -5.887317284941673279e-02 -5.831166356801986694e-02 -5.945320427417755127e-02 -3.735796734690666199e-02 -4.453035816550254822e-02 -1.403273083269596100e-02 -4.450231790542602539e-02 -3.784118220210075378e-02 -7.717153429985046387e-02 -5.099786818027496338e-02 -4.931128770112991333e-02 -3.016269765794277191e-02 -1.707378402352333069e-02 -7.162174582481384277e-02 -3.139790147542953491e-02 -7.982058078050613403e-02 -7.445856928825378418e-02 -1.162877399474382401e-02 -4.081111028790473938e-02 -5.091525614261627197e-02 -5.836560577154159546e-02 -2.591815218329429626e-02 -6.574997305870056152e-02 -5.594327673316001892e-02 -1.061142608523368835e-02 -5.273504927754402161e-02 -1.893951371312141418e-02 -6.260350346565246582e-02 -7.016837596893310547e-02 -4.054566100239753723e-02 -7.539578527212142944e-02 -1.685784943401813507e-02 -1.398802641779184341e-02 -6.454236805438995361e-02 -7.873702794313430786e-03 -3.880764916539192200e-02 -3.765580803155899048e-02 -6.650622934103012085e-02 -3.298000618815422058e-02 -7.501941174268722534e-02 -2.409245818853378296e-02 -5.513302981853485107e-02 -7.796367257833480835e-02 -4.509167373180389404e-02 -6.011863052845001221e-02 -4.534311220049858093e-02 -9.611917659640312195e-03 -3.315903618931770325e-02 -5.860872939229011536e-02 -5.502497032284736633e-02
1.916316337883472443e-02 2.477087825536727905e-02 -2.485347166657447815e-02 4.106598906219005585e-03 5.982119590044021606e-03 -8.937041275203227997e-03 -8.974787779152393341e-03 1.131052803248167038e-02 -2.997261704877018929e-03 3.286565467715263367e-02 6.556446896865963936e-04 -1.542519312351942062e-03 3.373676165938377380e-02 -1.592905173311010003e-04 -1.449157949537038803e-03 3.230578824877738953e-02 2.847395837306976318e-02 3.255763277411460876e-02 -8.069952018558979034e-03 1.965132541954517365e-02 -3.272171830758452415e-03 4.151767492294311523e-02 3.922145068645477295e-02 8.011654019355773926e-03 1.970880664885044098e-02 -7.494267541915178299e-03 -1.369650661945343018e-02 1.816676370799541473e-02 -2.990612061694264412e-03 1.348011475056409836e-02 4.229407291859388351e-03 6.249462603591382504e-05 3.679908066987991333e-02 2.317862957715988159e-02 -1.443042606115341187e-02 3.391803056001663208e-02 6.126839667558670044e-03 2.555472403764724731e-02 2.097894437611103058e-02 1.989098964259028435e-03 -7.045309524983167648e-03 -2.191945910453796387e-02 1.827509887516498566e-02 1.837003044784069061e-02 -2.242484316229820251e-02 1.769637688994407654e-02 2.628150954842567444e-02 2.434061840176582336e-02 2.942211693152785301e-03 3.343828395009040833e-02 1.549205463379621506e-02 -1.137929316610097885e-02 -2.570128254592418671e-02 -1.112624909728765488e-02 -1.353940926492214203e-02 5.711000412702560425e-03 -1.935137063264846802e-02 -4.289076663553714752e-03 1.360681559890508652e-02 4.381291102617979050e-03 3.209734335541725159e-02 -2.787887491285800934e-02 -8.057150058448314667e-03 -2.113740891218185425e-02 -1.906302571296691895e-02 1.421983074396848679e-02 9.977760724723339081e-03 -1.852304488420486450e-02 -1.332497596740722656e-02 -2.069802768528461456e-02 2.557139843702316284e-02 -2.264535799622535706e-02 2.058295346796512604e-02 7.044900208711624146e-03 2.136202342808246613e-02 1.898836903274059296e-02 -2.220382913947105408e-02 -5.899177864193916321e-03 1.081311237066984177e-02 -1.061709504574537277e-02 -9.121683426201343536e-03 3.720735758543014526e-02 7.997687207534909248e-04 8.198291063308715820e-03 6.864435272291302681e-04 2.363802120089530945e-02 3.328371420502662659e-02 -1.571127027273178101e-02 1.361850928515195847e-02 -2.807112410664558411e-02 2.836619317531585693e-02 5.925536155700683594e-03 3.672510385513305664e-02 -2.856615930795669556e-02 -1.736447587609291077e-02 3.440681612119078636e-03 -2.637722762301564217e-03 1.614913530647754669e-02 -4.974560812115669250e-03 -2.216748334467411041e-02 6.570778787136077881e-03 4.621811211109161377e-03 3.030822798609733582e-02 -2.554999478161334991e-02 8.182274177670478821e-03 3.631624951958656311e-02 -1.621994562447071075e-02 -1.475099660456180573e-02 -1.437797676771879196e-03 -2.260492555797100067e-02 -2.556822961196303368e-03 -2.571638859808444977e-02 -3.540618636179715395e-04 2.975458279252052307e-02 3.854002803564071655e-02 1.477123331278562546e-02 -2.129800803959369659e-02 3.259659186005592346e-02 -8.304112590849399567e-03 -6.791490130126476288e-03 2.783198282122612000e-02 1.930757425725460052e-02 -1.792702451348304749e-02 2.820676192641258240e-02 3.775290213525295258e-03 -1.497702673077583313e-02 3.712212666869163513e-02 -2.069938555359840393e-02 3.754853457212448120e-02 -1.151579432189464569e-02 1.510265469551086426e-02 -9.044216945767402649e-03 3.036663867533206940e-02 2.177705522626638412e-03 -1.084401179105043411e-02 -5.534575786441564560e-03 4.238154273480176926e-03 -2.843162789940834045e-02 7.736776024103164673e-03 -1.981670036911964417e-02 3.418343514204025269e-02 1.142537407577037811e-02 2.113455208018422127e-03 3.461555391550064087e-02 -1.647525280714035034e-02 -2.793676964938640594e-02 2.458924241364002228e-02 1.828221045434474945e-02 4.436403047293424606e-03 3.520713001489639282e-02 3.054590523242950439e-02 -2.209581620991230011e-02 1.252455450594425201e-02 3.410479426383972168e-02 -1.454084832221269608e-02 -3.543754667043685913e-02 -2.773453481495380402e-03 -3.297849744558334351e-02 2.476922236382961273e-03 2.001461014151573181e-02 -3.409376740455627441e-02 2.686026878654956818e-02 2.737316302955150604e-03 4.181718826293945312e-02 -2.061355486512184143e-02 -1.995785720646381378e-02 1.310611050575971603e-02 3.954710811376571655e-02 -1.285374630242586136e-02 6.172426044940948486e-03 -8.859935216605663300e-03 -1.377576589584350586e-02 3.055566176772117615e-02 7.935980334877967834e-03 2.880840934813022614e-02 2.072676317766308784e-03 4.142139479517936707e-02 -1.463847327977418900e-02 -3.840662073343992233e-03 -1.609687879681587219e-02 -5.537873134016990662e-03 -3.886587917804718018e-02 -3.615914285182952881e-02 -3.527131676673889160e-02 4.433138296008110046e-03 2.123998850584030151e-02 -3.517786785960197449e-02 -4.141262173652648926e-02 1.737828180193901062e-02 6.605491973459720612e-03 3.183140978217124939e-02 8.884577080607414246e-03 -2.438906207680702209e-02 6.316836224868893623e-04 8.953042328357696533e-03 1.446104329079389572e-02 8.899536915123462677e-03 -2.533631771802902222e-02 -1.128353457897901535e-02 -1.063023786991834641e-02 -2.962477039545774460e-03 5.605158861726522446e-03 1.229332946240901947e-02 -9.291792288422584534e-03 -5.884086247533559799e-03 -1.647046767175197601e-02 2.448255941271781921e-02 1.716963388025760651e-02 7.822114042937755585e-03 -3.258414566516876221e-02 1.393125671893358231e-02 5.886743310838937759e-03 -3.708631265908479691e-04 1.568198949098587036e-02 -2.072254009544849396e-02 -1.015140768140554428e-02 -1.533142663538455963e-02 -8.900955319404602051e-03 2.283331751823425293e-02 3.613631054759025574e-02 8.774147368967533112e-03 -1.228192448616027832e-02 -4.265979863703250885e-03 6.880771368741989136e-03 7.164020091295242310e-03 3.273793309926986694e-02 -9.620225988328456879e-03 1.048302929848432541e-02 -9.738327004015445709e-03 -8.054084144532680511e-03 -1.202954072505235672e-02 3.524567466229200363e-03 -1.247804053127765656e-02 -3.817927837371826172e-02 2.199303545057773590e-02 -1.148977410048246384e-02 2.017859555780887604e-02 -3.893020004034042358e-02 -6.809093523770570755e-03 -7.758014835417270660e-03 -3.479288518428802490e-02 -2.776338532567024231e-02 -2.036408986896276474e-03 -2.908414788544178009e-02 1.039177924394607544e-02 -6.232831161469221115e-03 3.004680760204792023e-02 2.016862481832504272e-02 5.029434338212013245e-03 4.235737398266792297e-02 3.172974660992622375e-02 2.782550081610679626e-02 -8.611069060862064362e-03 -1.577155478298664093e-02 1.891380362212657928e-02 3.867670148611068726e-02 4.164575075265020132e-04 -2.654907293617725372e-02 1.170679274946451187e-02 -2.423963695764541626e-02 2.448217011988162994e-02 2.809462882578372955e-02 2.129414491355419159e-02 -2.542413398623466492e-02 2.860063873231410980e-02 -2.021571435034275055e-02 -7.279342389665544033e-04 3.163650259375572205e-02 -1.402403973042964935e-02 1.340328715741634369e-02 6.830479018390178680e-03 -3.969239071011543274e-02 1.008296199142932892e-02 2.705464139580726624e-02 1.269135065376758575e-02 2.588335797190666199e-02 5.812390591017901897e-04 1.616447232663631439e-02 3.005772083997726440e-02 4.041407257318496704e-02 3.710713237524032593e-02 4.074505716562271118e-02 3.357536345720291138e-02 3.780630230903625488e-02 8.093000389635562897e-03 -2.304786583408713341e-03 -1.008072309195995331e-02 -2.276659943163394928e-02 -3.262946009635925293e-02 1.578455994604155421e-04 -3.566111996769905090e-02 -2.157331071794033051e-02 -1.805991306900978088e-02 -3.341609612107276917e-02 -2.910579787567257881e-03 8.258950896561145782e-03 1.441094465553760529e-02 2.810616977512836456e-03 3.116062842309474945e-03 -1.488104229792952538e-03 -2.856419596355408430e-04 1.625959947705268860e-02 -4.111725091934204102e-02 -2.256672829389572144e-03 -2.683679200708866119e-02 5.575421731919050217e-03 2.828509360551834106e-02 -2.794325537979602814e-02 1.418727915734052658e-02 4.092192649841308594e-02 1.504888664931058884e-02 -1.142944674938917160e-02 -4.447578918188810349e-03 -4.493946675211191177e-03 1.763047464191913605e-02 -3.088505193591117859e-02 -2.344004577025771141e-03 -3.544851019978523254e-02 -3.367168083786964417e-02 7.022778503596782684e-03 4.387776553630828857e-02 -1.888639293611049652e-02 1.146539580076932907e-03 3.033776767551898956e-02 5.239825230091810226e-03 2.884365618228912354e-02 2.847186662256717682e-02 1.800227793864905834e-03 1.009389571845531464e-02 2.558606863021850586e-02 -3.328698873519897461e-02 -3.486309945583343506e-02 2.282803691923618317e-02 -1.354816555976867676e-02 -1.211678609251976013e-02 -1.331829652190208435e-02 -2.114973729476332664e-03 -2.047272166237235069e-03 -2.716802619397640228e-02 4.303577821701765060e-03 1.789583079516887665e-02 3.785004839301109314e-02 2.095683850347995758e-02 -7.201771251857280731e-03 -3.484627231955528259e-02 2.099792100489139557e-02 -1.071494258940219879e-02 5.166480317711830139e-03 1.006487477570772171e-02 5.973562132567167282e-03 1.467489730566740036e-02 2.892901562154293060e-02 -2.216635644435882568e-02 3.621396049857139587e-02 -7.889169268310070038e-03 -2.604868263006210327e-02 -2.519869059324264526e-02 2.375341765582561493e-02 2.398023754358291626e-02 -1.574337366037070751e-04 2.288474142551422119e-02 1.314275618642568588e-02 -1.017843745648860931e-02 -7.568270666524767876e-04 2.687053009867668152e-02 2.944702282547950745e-02 -2.786260284483432770e-02 4.056835174560546875e-02 2.420377545058727264e-02 2.932659909129142761e-02 -9.691229090094566345e-03 -6.857196800410747528e-03 -2.227788232266902924e-02 4.009882360696792603e-02 2.010857500135898590e-02 6.289011333137750626e-03 2.832072414457798004e-02 2.597688511013984680e-02 2.816748060286045074e-02 -7.830840535461902618e-03 -6.557670421898365021e-03 2.551024034619331360e-02 3.357572946697473526e-03 1.983445137739181519e-02 2.058977819979190826e-02 -6.989140063524246216e-03 -3.300996124744415283e-02 2.878576889634132385e-02 1.384957320988178253e-02 -2.421835064888000488e-02 2.270077541470527649e-02 1.619900576770305634e-02 -9.306523017585277557e-03 -4.176267422735691071e-03 1.905755512416362762e-02 3.950524330139160156e-02 1.607731357216835022e-02 2.294042060384526849e-04 -2.451109699904918671e-02 9.891031309962272644e-03 -2.051131986081600189e-02 3.807302936911582947e-02 1.885378547012805939e-02 1.965168863534927368e-02 -2.105664089322090149e-02 -1.967404410243034363e-02 1.875532045960426331e-02 2.717128582298755646e-02 -5.812547635287046432e-03 -1.154237892478704453e-02 1.273328717797994614e-02 -4.057229496538639069e-03 -9.391666390001773834e-03 2.128045260906219482e-02 1.949887350201606750e-02 -2.419383078813552856e-02 -6.548990029841661453e-03 1.789905130863189697e-02 -2.519803494215011597e-02 -1.010944508016109467e-02 -1.426601130515336990e-02 4.214081913232803345e-02 3.111199662089347839e-02 -8.708675741218030453e-04 3.919680137187242508e-03 3.990090638399124146e-02 5.327051971107721329e-03 1.888068020343780518e-02 7.423394359648227692e-03 -5.280424957163631916e-04 -1.426658313721418381e-02 -2.453503385186195374e-02 2.521490678191184998e-02 -3.942111216019839048e-04 1.727339345961809158e-03 3.891232982277870178e-02 3.906077891588211060e-02 2.524493262171745300e-02 1.156122703105211258e-02 1.176094519905745983e-03 9.347831830382347107e-03 1.387869939208030701e-02 -3.783905506134033203e-02 -9.210440330207347870e-03 -2.870785817503929138e-02 7.968347519636154175e-03 -3.467770293354988098e-04 -2.619101665914058685e-02 5.377392750233411789e-03 3.804774582386016846e-02 1.030997093766927719e-02 8.761820383369922638e-03 3.635562956333160400e-02 -4.723625257611274719e-03 2.542253211140632629e-02 -2.480665966868400574e-02 -1.170948985964059830e-02 1.965843886137008667e-02 -7.969462312757968903e-03 1.514772232621908188e-02 -1.837336644530296326e-02 1.302163861691951752e-02 1.176169957034289837e-03 -1.276916451752185822e-02 3.687623888254165649e-02 -1.276721712201833725e-02 1.448055356740951538e-02 -1.836076751351356506e-02 1.308862492442131042e-02 -3.645341098308563232e-02 1.462081726640462875e-02 3.034533187747001648e-02 3.463081270456314087e-02 3.528991341590881348e-02 -5.164146423339843750e-03 -1.534836366772651672e-02 6.892662495374679565e-03 3.984670341014862061e-02 -5.849241744726896286e-03 -1.283457502722740173e-03 2.308993786573410034e-02 3.334909677505493164e-02 1.301203574985265732e-02 -1.397309917956590652e-02 -3.943313285708427429e-02 -1.440388243645429611e-02 -1.983694732189178467e-02 6.352995056658983231e-03 -1.289781299419701099e-03 3.137324750423431396e-02 8.701353333890438080e-03 -3.991145640611648560e-03 2.425593882799148560e-02 2.231901278719305992e-03 2.159968018531799316e-03 1.456443779170513153e-02 -1.676486991345882416e-02 2.821634057909250259e-03 1.609744131565093994e-02 1.595287583768367767e-02 -2.476620860397815704e-02 2.637788280844688416e-02 -2.895641373470425606e-03 -2.177157625555992126e-02 -2.469902113080024719e-02 -1.406132057309150696e-02 7.346354424953460693e-03 3.850115090608596802e-02 -2.486457861959934235e-02 1.380318868905305862e-02 2.113361284136772156e-02 2.072105556726455688e-02 -2.146533317863941193e-02 -2.187065966427326202e-02 1.642956025898456573e-02 -2.017136663198471069e-02 3.301836550235748291e-02 -5.611846689134836197e-03 3.672121092677116394e-02 2.614528872072696686e-02 -3.169091418385505676e-02 -1.171642870758660138e-04 -4.050897061824798584e-02 -1.202418701723217964e-03 2.633134648203849792e-02 -1.390158943831920624e-02 3.221248043701052666e-03 1.989398524165153503e-02 1.622916082851588726e-03 -9.381015785038471222e-03 3.353014215826988220e-02 -1.716636866331100464e-02 3.435029834508895874e-02 7.566995918750762939e-03 -2.645998261868953705e-02 -2.725798077881336212e-02 3.392450138926506042e-02 2.304579690098762512e-02 -3.667655587196350098e-02 -1.398461218923330307e-02 4.827703814953565598e-03 8.794398978352546692e-03 -2.479793876409530640e-02 2.003054134547710419e-03 -4.997600335627794266e-03 1.292044669389724731e-02 3.112709708511829376e-02 -1.446539442986249924e-02 -6.490577477961778641e-03 1.859615929424762726e-02 2.570106089115142822e-02 6.011168938130140305e-03 2.173575200140476227e-02 3.595237433910369873e-02 -8.213905966840684414e-04 -4.619694780558347702e-03 1.357180438935756683e-02 1.753672113409265876e-04 3.438940644264221191e-02 -1.756051555275917053e-02 -1.460254751145839691e-02 1.631699688732624054e-02 3.779101371765136719e-02 4.102658480405807495e-02 -1.993197947740554810e-03 3.252535685896873474e-02 -2.332060970366001129e-02 2.398816123604774475e-02 9.545319713652133942e-03 8.966229856014251709e-03 -5.357988644391298294e-03 -1.381370704621076584e-02 -4.284563008695840836e-03 4.671722650527954102e-03 2.679011039435863495e-02 -3.203776141162961721e-04 -4.066083580255508423e-02 -2.583518065512180328e-02 -4.178950563073158264e-03 1.305503770709037781e-02 2.671361714601516724e-02 3.740206733345985413e-02 -2.455657906830310822e-02 -1.187173463404178619e-02 3.943453729152679443e-02 -5.968086421489715576e-03 1.556971203535795212e-02 3.546143323183059692e-02 -8.278052322566509247e-03 1.662965118885040283e-02 -1.691439375281333923e-02 -7.634172681719064713e-03 -1.035976409912109375e-02 -1.667060889303684235e-02 1.143131311982870102e-02 1.604913733899593353e-02 1.917542144656181335e-02 8.001442998647689819e-03 -2.596723474562168121e-02 9.908290579915046692e-03 -9.915478527545928955e-03 -7.103922776877880096e-03 -2.247988618910312653e-02 3.379070665687322617e-03 -1.973116211593151093e-02 -2.805881388485431671e-02 -2.188087254762649536e-02 2.914874069392681122e-02 3.092493489384651184e-02 1.287118904292583466e-02 -2.598189935088157654e-02 -3.890119493007659912e-03 2.043951861560344696e-02 -1.598745584487915039e-02 9.727253578603267670e-03 -2.001598104834556580e-02 2.112245745956897736e-02 2.892015501856803894e-02 -2.328532189130783081e-02 -2.095764357363805175e-04 -1.174859516322612762e-02 -5.755423335358500481e-04 -2.021688222885131836e-02 -3.072264418005943298e-02 -2.333820983767509460e-02 2.698891423642635345e-02 2.832980640232563019e-02 -2.351303846808150411e-04 -2.725720591843128204e-02 3.216514596715569496e-03 1.465419889427721500e-03 -4.137625452131032944e-03 -3.902645781636238098e-03 2.011216944083571434e-03 -2.752112038433551788e-02 3.895564377307891846e-02 1.607625372707843781e-02 -2.176737599074840546e-02 -1.277682930231094360e-02 2.340084314346313477e-02 6.790973246097564697e-03 2.434637397527694702e-02 -1.363465748727321625e-02 1.511880662292242050e-02 -2.701205434277653694e-03 2.453862130641937256e-02 1.655041053891181946e-02 -1.082001347094774246e-02 -1.038837805390357971e-02 -2.319744229316711426e-02 3.907584398984909058e-02 9.066646918654441833e-03 1.901295781135559082e-02 -1.549951499328017235e-03 5.820301361382007599e-03 2.156418561935424805e-02 -2.858416177332401276e-02 2.760715596377849579e-02 -3.265592083334922791e-02 1.077069062739610672e-02 1.797340251505374908e-02 -1.332855876535177231e-02 -2.620829828083515167e-02 3.643163293600082397e-02 1.676622033119201660e-02 7.002557395026087761e-04 2.517324686050415039e-02 1.521633844822645187e-02 1.899245195090770721e-02 2.728374674916267395e-02 -1.244366075843572617e-02 -2.421220391988754272e-02 -2.480271458625793457e-02 2.497056499123573303e-02 3.093658760190010071e-02 -8.330020122230052948e-03 3.315232321619987488e-02 3.932466357946395874e-02 1.988692767918109894e-02 -9.166700765490531921e-03 6.909306626766920090e-03 -1.156944036483764648e-02 -2.951807156205177307e-02 1.896611414849758148e-02 8.356813341379165649e-03 2.569631859660148621e-02 2.154738456010818481e-02 -4.275039769709110260e-03 1.798749342560768127e-02 1.882891915738582611e-02 -5.312605062499642372e-04 -6.324447691440582275e-03 3.124936670064926147e-02 1.463238894939422607e-02 -1.897143200039863586e-02 1.364237349480390549e-02 -3.899530856870114803e-04 3.805378824472427368e-02 3.167889267206192017e-02 -9.268979541957378387e-03 -2.271035313606262207e-02 -1.810803264379501343e-02 3.706860542297363281e-02 -1.691545359790325165e-02 -2.572708390653133392e-02 3.734864061698317528e-03 4.149043560028076172e-02 2.258568257093429565e-02 3.757545351982116699e-02 1.812688820064067841e-02 -9.341740049421787262e-03 -1.464700698852539062e-02 3.120042756199836731e-02 3.574318066239356995e-02 3.462704271078109741e-02 1.723679900169372559e-02 4.240360110998153687e-02 3.149586170911788940e-02 2.408020943403244019e-02 2.745645120739936829e-02 -4.252395592629909515e-03 -2.269719354808330536e-02 7.043115794658660889e-03 -1.137540582567453384e-02 8.235279470682144165e-03 -1.361695583909749985e-03 3.214035555720329285e-02 2.989865466952323914e-02 3.529325127601623535e-02 -1.213541626930236816e-02 3.030300512909889221e-02 -1.497394684702157974e-02 3.861475735902786255e-02 1.137583982199430466e-02 2.583761885762214661e-02 -1.958000287413597107e-02 2.982447296380996704e-02 3.989107906818389893e-03 -1.829178817570209503e-02 -2.762459777295589447e-02 8.161935955286026001e-03 -2.528168633580207825e-02 -7.829888723790645599e-03 2.199359983205795288e-02 3.376457467675209045e-02 2.601738553494215012e-03 9.247414767742156982e-03 3.062339127063751221e-02 2.728893607854843140e-02 -3.338418435305356979e-03 -1.692724227905273438e-02 9.678932838141918182e-03 3.096773475408554077e-02 2.515063807368278503e-02 1.714251935482025146e-02 5.905780941247940063e-03 3.779973601922392845e-03 1.211167778819799423e-02 -1.803555712103843689e-02 8.718066848814487457e-03 -2.027725800871849060e-02 2.217883989214897156e-02 3.029214218258857727e-02 2.103706263005733490e-02 3.291495516896247864e-02 1.746933721005916595e-02 -2.155581256374716759e-03 -1.500777341425418854e-02 -1.306441053748130798e-02 1.294295024126768112e-02 1.669399067759513855e-02 3.276506811380386353e-02 -1.891465671360492706e-02 4.056630283594131470e-02 -2.107867971062660217e-02 -2.203542366623878479e-02 2.046176604926586151e-02 -2.338084159418940544e-03 -1.167286746203899384e-02 -2.443220093846321106e-02 2.839158102869987488e-02 1.817860268056392670e-02 -1.919708400964736938e-02 1.363348867744207382e-02
1.453123427927494049e-02 1.933053880929946899e-02 5.035621579736471176e-03 5.660787597298622131e-02 5.113770440220832825e-02 2.626956906169652939e-03 1.919843256473541260e-03 4.653947427868843079e-02 1.033859793096780777e-02 5.222905054688453674e-02 -5.833889357745647430e-03 3.979642316699028015e-02 5.903295800089836121e-02 2.756927162408828735e-02 -2.604616107419133186e-03 2.249833941459655762e-02 1.173132914118468761e-04 1.564173400402069092e-02 2.502444386482238770e-02 9.122415445744991302e-03 4.416212812066078186e-02 2.577826008200645447e-02 6.067318469285964966e-02 -1.197525765746831894e-03 5.040324106812477112e-02 -7.197090890258550644e-03 3.426278010010719299e-02 4.729712847620248795e-03 5.404078587889671326e-02 4.607824608683586121e-02 4.269902035593986511e-02 2.195056155323982239e-02 4.030195251107215881e-02 2.840170636773109436e-02 2.055357396602630615e-02 9.812449105083942413e-03 -1.142666488885879517e-02 2.133406326174736023e-02 -4.346417728811502457e-03 -2.679658588021993637e-03 3.126726672053337097e-02 -1.393455918878316879e-02 1.768338307738304138e-02 4.462348669767379761e-02 9.956927970051765442e-03 4.504484124481678009e-03 -5.711072590202093124e-03 5.259122699499130249e-03 -6.531180813908576965e-03 5.104389786720275879e-02 2.517938986420631409e-02 5.582429002970457077e-03 4.136605933308601379e-02 2.749823220074176788e-02 4.452168568968772888e-02 7.250845432281494141e-03 5.509620066732168198e-03 2.363473176956176758e-02 5.620663985610008240e-02 1.379832997918128967e-02 4.914022609591484070e-02 4.223661031574010849e-03 4.787854850292205811e-02 5.346377566456794739e-02 4.600575566291809082e-02 7.315029855817556381e-03 2.001383341848850250e-02 3.119687549769878387e-02 2.652534842491149902e-02 3.717210888862609863e-02 2.419391274452209473e-02 2.105552889406681061e-02 5.356614664196968079e-02 4.890541359782218933e-02 -1.914667151868343353e-02 1.690407469868659973e-02 -4.697628028225153685e-04 3.921621665358543396e-02 3.002435527741909027e-02 1.520874095149338245e-03 5.710377544164657593e-02 1.404631417244672775e-02 4.906927421689033508e-02 4.087568446993827820e-02 7.893304340541362762e-03 8.677409030497074127e-03 3.354422375559806824e-02 6.180241703987121582e-02 3.661283850669860840e-02 3.660682961344718933e-02 2.493916079401969910e-02 5.688588321208953857e-02 -5.249915644526481628e-03 -7.785538677126169205e-03 3.569881245493888855e-02 1.316383574157953262e-02 4.333356395363807678e-02 4.232192039489746094e-02 -3.489244030788540840e-03 1.783937960863113403e-02 3.718920797109603882e-02 -1.312507223337888718e-02 -8.536544442176818848e-02 -7.231855392456054688e-02 -5.498831346631050110e-02 -3.724000975489616394e-02 4.639035032596439123e-04 2.934067323803901672e-02 -1.536913868039846420e-02 4.269623663276433945e-03 3.524855524301528931e-02 3.172943368554115295e-02 3.616535803303122520e-03 5.716228112578392029e-02 3.823120146989822388e-02 4.445292428135871887e-02 -1.296464237384498119e-03 3.725080564618110657e-02 2.607403136789798737e-02 5.560817196965217590e-02 4.454707354307174683e-02 -3.233130648732185364e-02 -3.538783267140388489e-02 -2.924085035920143127e-02 -3.015575464814901352e-03 1.127723306417465210e-01 -6.615608930587768555e-02 1.279397634789347649e-03 2.107214927673339844e-02 -4.006892070174217224e-02 -7.996256463229656219e-03 -6.357472389936447144e-02 -1.259389221668243408e-01 -1.002878546714782715e-01 -1.138990595936775208e-01 -9.072186052799224854e-02 -5.225450173020362854e-02 -1.685310713946819305e-02 2.936432696878910065e-02 1.168464776128530502e-02 3.986373171210289001e-02 6.126653775572776794e-02 5.649514961987733841e-03 3.219632431864738464e-02 4.607573151588439941e-02 8.328215777873992920e-02 1.156139597296714783e-01 5.632318928837776184e-02 -1.015805173665285110e-02 -1.363619118928909302e-01 -1.706416010856628418e-01 -1.827044785022735596e-01 -8.088551461696624756e-02 1.564024388790130615e-02 1.719588041305541992e-01 3.109534084796905518e-01 2.272843122482299805e-01 8.876686915755271912e-03 -3.726232796907424927e-02 -1.132454872131347656e-01 -2.583318948745727539e-01 -1.798277348279953003e-01 -1.533492952585220337e-01 -1.065118461847305298e-01 -6.480985879898071289e-02 -1.732653006911277771e-02 -1.154987793415784836e-02 5.191087350249290466e-02 5.139007791876792908e-02 4.029409214854240417e-02 4.304100200533866882e-02 1.817636191844940186e-02 9.801449626684188843e-02 1.080386564135551453e-01 1.063899546861648560e-01 -1.962555339559912682e-03 1.812044903635978699e-02 1.056486461311578751e-02 1.610988378524780273e-02 2.945295721292495728e-02 -7.792412303388118744e-03 8.515959978103637695e-02 2.059073448181152344e-01 1.623088568449020386e-01 3.402625322341918945e-01 3.142513334751129150e-01 1.570865958929061890e-01 -1.030997633934020996e-01 -1.347918063402175903e-01 -2.027064412832260132e-01 -2.333321422338485718e-01 -1.407184302806854248e-01 -1.046318486332893372e-01 -6.080622784793376923e-03 -7.224718108773231506e-03 3.028546646237373352e-02 3.182617481797933578e-03 6.482616811990737915e-02 4.365211352705955505e-03 9.436150640249252319e-02 1.483075022697448730e-01 1.215908080339431763e-01 1.193738505244255066e-01 7.083214819431304932e-02 -2.797644026577472687e-02 1.888260394334793091e-01 8.167790621519088745e-02 6.936948001384735107e-02 -2.100320905447006226e-02 -4.737284407019615173e-02 -4.819988459348678589e-02 -2.905817516148090363e-02 2.469002008438110352e-01 3.753292262554168701e-01 8.835567533969879150e-02 1.027072872966527939e-02 -1.366962790489196777e-01 -2.889710068702697754e-01 -3.348285853862762451e-01 -2.658045887947082520e-01 -1.723032891750335693e-01 -6.407271325588226318e-02 1.887034438550472260e-02 -5.873325280845165253e-03 8.423312567174434662e-03 2.302326634526252747e-02 3.004102036356925964e-02 7.049848139286041260e-02 1.916382312774658203e-01 1.243570968508720398e-01 5.428050830960273743e-02 2.431443333625793457e-02 1.127473786473274231e-01 1.641805917024612427e-01 5.151037126779556274e-02 -6.480077654123306274e-02 -1.892274916172027588e-01 -2.803650796413421631e-01 -1.454291790723800659e-01 1.843492686748504639e-01 2.261410206556320190e-01 4.039738476276397705e-01 9.620527923107147217e-02 -7.081323862075805664e-02 -2.450489848852157593e-01 -3.546540439128875732e-01 -3.577392101287841797e-01 -3.465481400489807129e-01 -2.234532386064529419e-01 -6.010254099965095520e-02 4.514373373240232468e-03 1.448409631848335266e-03 2.303017303347587585e-02 5.526303872466087341e-02 3.327065845951437950e-03 4.506305232644081116e-02 1.624175012111663818e-01 4.341984540224075317e-02 1.030512712895870209e-02 9.207242727279663086e-02 8.938880264759063721e-02 -3.824510797858238220e-02 -2.064256668090820312e-01 -2.193110734224319458e-01 -1.955510973930358887e-01 -2.565281689167022705e-01 -5.887105595320463181e-03 5.087789893150329590e-01 6.816323995590209961e-01 5.362849235534667969e-01 1.404270082712173462e-01 -1.329529881477355957e-01 -2.690868973731994629e-01 -3.455397784709930420e-01 -2.822073996067047119e-01 -2.368256002664566040e-01 -1.656756699085235596e-01 -2.994164265692234039e-02 4.726783838123083115e-03 4.845814779400825500e-02 3.829566761851310730e-02 3.370727226138114929e-02 7.225637137889862061e-02 4.595390707254409790e-02 8.392614871263504028e-02 -3.108618315309286118e-03 -1.003135889768600464e-01 -8.386478573083877563e-02 -1.239245980978012085e-01 -2.005718201398849487e-01 -3.435649871826171875e-01 -2.333942055702209473e-01 -2.163790762424468994e-01 -1.914119571447372437e-01 1.226989924907684326e-01 6.167259216308593750e-01 6.392155885696411133e-01 4.046460390090942383e-01 -4.576322808861732483e-02 -2.417726516723632812e-01 -3.745380938053131104e-01 -3.118283450603485107e-01 -2.394145876169204712e-01 -1.789697408676147461e-01 -1.363144516944885254e-01 -6.214070320129394531e-02 -6.214107386767864227e-03 5.219339206814765930e-02 8.765972219407558441e-03 5.866023898124694824e-02 6.117240339517593384e-02 2.031049877405166626e-02 2.474298933520913124e-03 -1.157138645648956299e-01 -1.571031063795089722e-01 -1.826273947954177856e-01 -2.582628130912780762e-01 -2.295148968696594238e-01 -1.133060902357101440e-01 -1.035803481936454773e-01 -6.189151108264923096e-02 -1.090032607316970825e-01 2.660894095897674561e-01 5.607804059982299805e-01 3.791385889053344727e-01 3.159927949309349060e-02 -2.274629324674606323e-01 -3.490256071090698242e-01 -2.787682712078094482e-01 -2.254041135311126709e-01 -1.645779460668563843e-01 -1.487604379653930664e-01 -9.013716876506805420e-02 9.313735179603099823e-03 -1.247876137495040894e-02 5.870209261775016785e-02 1.353418081998825073e-02 3.021442331373691559e-02 5.653661116957664490e-02 5.636011436581611633e-02 -2.232315717265009880e-03 -1.292316168546676636e-01 -1.121619939804077148e-01 -1.144702360033988953e-01 -1.047618091106414795e-01 -5.446107685565948486e-02 1.146501153707504272e-01 -1.046213507652282715e-02 5.384300369769334793e-03 2.006994560360908508e-02 2.532398104667663574e-01 4.213937520980834961e-01 2.545030415058135986e-01 -1.974009424448013306e-01 -2.270983755588531494e-01 -2.474111914634704590e-01 -8.758547902107238770e-02 -9.896292537450790405e-02 -7.794825732707977295e-02 -2.600351907312870026e-02 4.489228129386901855e-02 4.589189589023590088e-02 5.091557651758193970e-02 5.406063795089721680e-02 -6.714835297316312790e-03 1.663867942988872528e-02 4.468311369419097900e-02 6.437119841575622559e-02 -4.118013754487037659e-02 -1.646922826766967773e-01 -9.428436309099197388e-02 -8.320958167314529419e-02 -3.631869331002235413e-02 -6.287071853876113892e-02 7.592932879924774170e-02 4.047379642724990845e-02 3.286031074821949005e-03 5.248123407363891602e-02 1.873609125614166260e-01 2.798067033290863037e-01 1.041864156723022461e-01 -1.216268241405487061e-01 -7.324232906103134155e-02 -1.451960653066635132e-01 7.708436250686645508e-02 1.157859414815902710e-01 1.543485000729560852e-02 2.273832820355892181e-02 5.027385428547859192e-02 5.771860107779502869e-02 7.096502184867858887e-02 -4.619800485670566559e-03 5.419297888875007629e-02 1.368419453501701355e-02 1.423837430775165558e-02 6.695738434791564941e-02 2.460828796029090881e-02 -1.085285767912864685e-01 -1.380548477172851562e-01 -6.949193775653839111e-02 1.220885850489139557e-02 -2.468335069715976715e-02 -6.265157461166381836e-02 -6.099866703152656555e-02 6.573747843503952026e-02 6.271849572658538818e-02 1.602706760168075562e-01 2.261981368064880371e-01 1.390274018049240112e-01 6.027546711266040802e-03 -1.483237277716398239e-02 9.678033739328384399e-02 1.363849937915802002e-01 1.714040040969848633e-01 1.240588799118995667e-01 4.615376517176628113e-02 4.247983917593955994e-02 6.244891136884689331e-02 4.554304480552673340e-02 1.265567447990179062e-02 5.917252227663993835e-02 -3.617377020418643951e-03 2.517822198569774628e-02 2.944572456181049347e-02 2.515512146055698395e-02 -5.207687616348266602e-02 -1.557246297597885132e-01 -7.962831854820251465e-02 -6.402127444744110107e-03 -1.015725284814834595e-01 -5.298572778701782227e-02 1.092715412378311157e-01 1.305560320615768433e-01 2.526894398033618927e-02 1.071631684899330139e-01 3.293375670909881592e-01 1.939047127962112427e-01 5.862212926149368286e-02 5.688257515430450439e-02 4.756754264235496521e-02 1.235307753086090088e-01 2.007728219032287598e-01 2.303402870893478394e-01 1.149688139557838440e-01 8.998210728168487549e-02 6.555625051259994507e-02 7.790254056453704834e-02 3.639774769544601440e-02 5.068819597363471985e-02 2.285328134894371033e-02 1.370602753013372421e-02 6.299405544996261597e-02 -1.696228049695491791e-02 -1.209241077303886414e-01 -1.040822267532348633e-01 -2.495884662494063377e-03 2.991882339119911194e-02 8.355312794446945190e-02 -1.291187200695276260e-02 2.995413169264793396e-02 1.749599426984786987e-01 1.675065159797668457e-01 2.503962516784667969e-01 2.027124464511871338e-01 1.113717183470726013e-01 3.499009460210800171e-02 1.325700432062149048e-01 1.821747422218322754e-01 6.294131278991699219e-03 6.972312927246093750e-02 1.378637254238128662e-01 1.823714822530746460e-01 1.102026253938674927e-01 5.573990941047668457e-02 8.041597902774810791e-03 -5.721449386328458786e-03 9.916163049638271332e-03 4.852839931845664978e-02 4.259198158979415894e-02 4.188171774148941040e-02 -4.018662497401237488e-02 -1.122212782502174377e-01 -1.341502517461776733e-01 -3.918336704373359680e-03 1.271031703799962997e-02 -9.766317158937454224e-02 -1.502627134323120117e-01 -8.725908398628234863e-02 7.032026350498199463e-02 2.740371823310852051e-01 2.066917270421981812e-01 5.821556970477104187e-02 1.504340115934610367e-02 2.709890343248844147e-02 7.173688709735870361e-02 8.542210794985294342e-03 -1.351947635412216187e-01 5.768589675426483154e-03 2.071874961256980896e-02 1.026782765984535217e-01 9.786058962345123291e-02 9.051573276519775391e-02 3.206435218453407288e-02 -6.153010763227939606e-03 -7.101365365087985992e-03 3.469145670533180237e-02 2.630346640944480896e-02 4.835945740342140198e-02 -6.103028357028961182e-02 -7.959372550249099731e-02 -8.179657906293869019e-02 -4.882585257291793823e-02 -7.117350399494171143e-02 -1.085957437753677368e-01 -1.657654941082000732e-01 -1.496243029832839966e-01 -7.522765547037124634e-02 8.936027437448501587e-02 -3.884426876902580261e-02 -5.383343622088432312e-02 -4.142614547163248062e-03 6.720299832522869110e-03 -1.269448176026344299e-02 -6.594153493642807007e-02 -1.553654819726943970e-01 -3.827446699142456055e-02 3.095757216215133667e-02 1.887774211354553699e-03 1.637596450746059418e-02 6.514381617307662964e-02 2.898220159113407135e-02 6.936938036233186722e-03 1.940463297069072723e-02 2.035151701420545578e-03 6.283111404627561569e-03 1.004421487450599670e-01 -1.741649582982063293e-03 -1.141842603683471680e-01 -9.068302065134048462e-02 -4.653486981987953186e-02 -1.366929262876510620e-01 -1.033216565847396851e-01 -2.297335416078567505e-01 -2.631394565105438232e-01 -2.680548429489135742e-01 -1.022647693753242493e-01 -1.256344616413116455e-01 -9.501209855079650879e-02 -2.892869058996438980e-03 -4.086819663643836975e-02 -9.966497868299484253e-02 -1.236512362957000732e-01 -1.076840236783027649e-01 -4.582567140460014343e-02 -6.871969252824783325e-02 -7.891883701086044312e-02 -5.378733202815055847e-02 4.893152415752410889e-02 1.802381314337253571e-02 3.608946129679679871e-02 4.140338394790887833e-03 3.664753213524818420e-02 4.325246438384056091e-02 1.047889217734336853e-01 5.336969345808029175e-02 -1.462174952030181885e-01 -8.632201701402664185e-02 -7.720926403999328613e-02 -1.709540337324142456e-01 -1.127266660332679749e-01 -2.201139032840728760e-01 -1.497521549463272095e-01 -1.862035244703292847e-01 -2.530794143676757812e-01 -6.212388351559638977e-02 -7.989992946386337280e-02 -3.098631091415882111e-02 -1.166704967617988586e-01 -1.057056058198213577e-02 -8.065595477819442749e-02 -7.109433412551879883e-02 -2.006838843226432800e-02 -9.668368101119995117e-02 -9.634754061698913574e-02 2.800993435084819794e-02 1.891742646694183350e-02 9.503032080829143524e-03 4.033900331705808640e-03 2.409273386001586914e-02 5.727824941277503967e-02 6.671941280364990234e-02 3.749538585543632507e-02 5.047045275568962097e-02 2.610736899077892303e-02 -5.496368184685707092e-02 -1.359464973211288452e-01 -7.476386427879333496e-02 -1.539303809404373169e-01 3.136674687266349792e-02 -8.117832988500595093e-02 -5.061837658286094666e-02 -3.487574681639671326e-02 8.882179856300354004e-02 1.307478398084640503e-01 2.823981828987598419e-02 -4.066048189997673035e-02 2.315053343772888184e-02 1.369506958872079849e-02 -7.044474035501480103e-02 -5.570034682750701904e-02 -1.621406227350234985e-01 -7.892052084207534790e-02 2.652050182223320007e-02 2.642958983778953552e-02 5.811054632067680359e-02 6.118532642722129822e-02 1.160227973014116287e-02 3.858683630824089050e-02 -8.653383119963109493e-04 3.974359855055809021e-02 3.427528217434883118e-02 1.013254225254058838e-01 9.468646347522735596e-02 8.473215624690055847e-03 2.247981465188786387e-04 -6.180486828088760376e-02 -1.642140559852123260e-02 -6.370215117931365967e-02 -1.137113943696022034e-01 9.232841432094573975e-03 5.071719363331794739e-02 1.438850071281194687e-02 -9.379278868436813354e-02 -9.026951342821121216e-02 2.077654190361499786e-02 3.875601664185523987e-02 -3.391439840197563171e-02 -7.237418740987777710e-02 -1.238933801651000977e-01 -6.483371555805206299e-02 2.282960154116153717e-02 2.708913385868072510e-02 3.927982971072196960e-02 2.935231849551200867e-02 3.466699644923210144e-02 4.694599285721778870e-02 2.039388194680213928e-02 3.224528580904006958e-02 5.055327340960502625e-02 1.236712560057640076e-01 7.050284743309020996e-02 9.819334000349044800e-02 1.128380186855792999e-02 2.052533626556396484e-02 1.091566216200590134e-02 3.847368434071540833e-02 3.977057710289955139e-02 8.988033235073089600e-02 8.559979498386383057e-03 -1.283109933137893677e-01 -2.369301468133926392e-01 -6.785410642623901367e-02 1.578311808407306671e-02 -9.461909066885709763e-04 -6.040251255035400391e-02 -6.297325342893600464e-02 -1.086497977375984192e-01 -3.140902519226074219e-02 1.738861389458179474e-02 5.531358718872070312e-02 3.474631905555725098e-02 5.400754883885383606e-02 5.484410747885704041e-02 4.250427708029747009e-02 3.715007752180099487e-02 4.615312442183494568e-02 8.328926563262939453e-02 9.735069423913955688e-02 1.180125027894973755e-01 1.122270226478576660e-01 1.693702116608619690e-02 3.659000247716903687e-02 1.377453189343214035e-02 4.075670614838600159e-03 -8.837188780307769775e-02 -6.528122466988861561e-04 2.936398424208164215e-02 -1.383972764015197754e-01 -8.039041608572006226e-02 3.688836097717285156e-02 1.039353106170892715e-02 -5.701476335525512695e-02 -1.951993256807327271e-02 1.429979037493467331e-02 1.513576507568359375e-02 1.050930004566907883e-02 2.564458176493644714e-03 4.729972407221794128e-02 1.210767775774002075e-03 5.103373154997825623e-02 3.851557150483131409e-02 2.971642650663852692e-03 1.771986670792102814e-02 1.454496756196022034e-02 7.268404960632324219e-02 5.405182018876075745e-02 1.043822541832923889e-01 1.075183302164077759e-01 1.449945569038391113e-01 9.860885143280029297e-02 6.543686240911483765e-02 2.888855710625648499e-02 3.836264833807945251e-02 4.800467565655708313e-02 -3.952819854021072388e-02 -1.044018492102622986e-01 -1.375620961189270020e-01 -1.222603768110275269e-01 -2.878652652725577354e-03 -5.410134419798851013e-02 -2.491798717528581619e-03 -1.855902187526226044e-02 -1.881801523268222809e-02 -4.056761413812637329e-02 -1.105017680674791336e-02 1.750608906149864197e-02 5.498932301998138428e-02 3.490593517199158669e-03 2.927194908261299133e-02 1.709540374577045441e-02 2.897882089018821716e-02 1.390986610203981400e-02 1.883260905742645264e-02 5.303305760025978088e-02 -1.861209282651543617e-03 4.067649319767951965e-02 3.217062354087829590e-02 -1.745630800724029541e-02 -6.497357506304979324e-03 2.747740969061851501e-02 -2.568725124001502991e-02 1.418384816497564316e-02 1.820003241300582886e-02 5.017292685806751251e-03 1.544325612485408783e-02 7.941687479615211487e-03 4.043376445770263672e-02 2.527703065425157547e-03 4.993765056133270264e-02 7.847153581678867340e-03 2.509985677897930145e-02 4.867758974432945251e-02 4.470926895737648010e-02 5.316094681620597839e-02 1.197207253426313400e-03 5.229230597615242004e-02 3.095878846943378448e-02 3.118733130395412445e-02 2.440064772963523865e-02 2.808816358447074890e-02 3.471875563263893127e-02 2.871653251349925995e-02 5.706971138715744019e-02 -6.165300495922565460e-03 3.202774748206138611e-02 2.321202680468559265e-02 3.159060841426253319e-03 5.454679206013679504e-02 8.672465919516980648e-04 6.473191827535629272e-02 3.318380191922187805e-02 2.474727295339107513e-02 4.684695973992347717e-02 3.482593223452568054e-02 5.396366864442825317e-02 2.203867770731449127e-02 -4.844828508794307709e-03 4.836735501885414124e-02 3.823776170611381531e-02 -5.697127431631088257e-03 3.373647108674049377e-02 1.975695416331291199e-02 -6.879534572362899780e-03 1.207737252116203308e-02
3.948820754885673523e-02 -6.441879551857709885e-03 2.604973688721656799e-02 2.424187213182449341e-02 -3.742829430848360062e-03 2.270970493555068970e-02 1.749008707702159882e-02 -6.002630107104778290e-03 -6.175532005727291107e-03 9.156526066362857819e-03 -7.401505019515752792e-03 3.338098153471946716e-02 3.179779276251792908e-02 -1.658144779503345490e-02 -2.714128047227859497e-02 2.234735339879989624e-02 2.792355418205261230e-02 -1.642226055264472961e-02 -2.978733368217945099e-02 -2.800451824441552162e-03 3.194446489214897156e-02 1.675724238157272339e-02 -3.487059148028492928e-03 -1.588947325944900513e-02 4.706186708062887192e-03 4.024177417159080505e-02 3.164158388972282410e-02 1.781724952161312103e-02 3.197994083166122437e-02 3.230823436751961708e-03 9.731594473123550415e-03 -9.409668855369091034e-03 -2.125740237534046173e-02 -1.512758154422044754e-02 1.515853125602006912e-02 3.359413519501686096e-02 -1.625553518533706665e-02 -1.179233565926551819e-02 -2.018519490957260132e-02 -1.464186608791351318e-02 -2.294037118554115295e-02 -2.896915562450885773e-02 2.963560260832309723e-02 3.083830326795578003e-02 1.893175579607486725e-02 -1.839871704578399658e-02 3.306285664439201355e-02 -1.021593809127807617e-02 -1.764784008264541626e-02 -1.772780716419219971e-02 2.724181860685348511e-02 3.536221385002136230e-02 -9.911924600601196289e-03 5.646405275911092758e-03 -1.849178224802017212e-02 -2.874531410634517670e-02 7.708573713898658752e-03 1.129916217178106308e-02 -1.303356327116489410e-02 -2.738572284579277039e-02 -2.685660123825073242e-02 -2.805037051439285278e-02 -2.924827300012111664e-02 -1.703348942101001740e-02 -1.337360031902790070e-02 8.137569762766361237e-03 -2.259222604334354401e-02 -2.983052097260951996e-02 -9.134992957115173340e-03 3.350465372204780579e-02 -9.419503621757030487e-03 1.039141695946455002e-02 -1.597114279866218567e-02 1.109294313937425613e-02 6.958967423997819424e-04 3.029862605035305023e-02 -1.732243597507476807e-02 2.132800407707691193e-02 1.763824746012687683e-02 2.590201050043106079e-02 -4.204911645501852036e-03 -2.645649202167987823e-02 -3.008952923119068146e-02 1.744255609810352325e-02 -1.493118517100811005e-02 3.632600605487823486e-02 1.777218468487262726e-02 -2.935966709628701210e-03 3.474309295415878296e-02 1.655927486717700958e-02 5.430926568806171417e-03 -8.172888308763504028e-03 -5.473177880048751831e-04 -2.598281204700469971e-02 4.218442738056182861e-02 3.395514935255050659e-02 2.201793342828750610e-02 1.951295882463455200e-02 7.955646142363548279e-03 1.833230815827846527e-02 6.163170561194419861e-03 3.155370056629180908e-02 -1.157320290803909302e-02 3.780648857355117798e-02 3.179351612925529480e-02 2.841824851930141449e-02 2.650874294340610504e-02 8.260131813585758209e-03 -7.564737461507320404e-03 3.439638763666152954e-02 3.306957706809043884e-02 3.214246034622192383e-02 -9.615755639970302582e-03 9.312462061643600464e-03 1.386274117976427078e-02 1.699761487543582916e-02 2.807947993278503418e-02 3.562460094690322876e-02 -2.481829933822154999e-02 4.148087278008460999e-02 3.008809685707092285e-02 5.931910127401351929e-03 3.857173025608062744e-02 1.566961966454982758e-02 -1.818458735942840576e-02 2.976756729185581207e-02 1.423584390431642532e-02 3.236104547977447510e-02 -7.280031568370759487e-04 1.799166202545166016e-02 6.925128865987062454e-03 1.413573138415813446e-02 1.939732208847999573e-02 1.961131952702999115e-02 8.024143055081367493e-03 2.101068384945392609e-02 -1.271550543606281281e-02 3.289754316210746765e-02 -1.344456337392330170e-02 -5.440779495984315872e-03 2.789524197578430176e-02 2.529513835906982422e-02 -2.595777809619903564e-02 -2.092718891799449921e-02 3.734881803393363953e-02 3.700133413076400757e-02 -5.030095111578702927e-03 -1.170081365853548050e-02 3.126174211502075195e-02 -2.251399215310811996e-03 2.160265110433101654e-02 -1.532489620149135590e-02 2.563489601016044617e-02 -2.115489169955253601e-02 2.427894435822963715e-02 -2.038206905126571655e-02 -5.127724725753068924e-03 3.761477023363113403e-02 -1.282709650695323944e-02 1.383547903969883919e-03 3.425852209329605103e-02 1.516801584511995316e-02 1.903818547725677490e-02 2.839985862374305725e-02 1.089489739388227463e-02 -1.202442590147256851e-02 -3.629256738349795341e-03 1.007461082190275192e-02 2.518000453710556030e-02 2.548417821526527405e-02 1.367414090782403946e-02 2.527463063597679138e-02 -1.490681339055299759e-02 2.961543388664722443e-02 -1.424525631591677666e-03 2.338176593184471130e-02 -5.016470095142722130e-04 2.686486952006816864e-02 3.101569414138793945e-02 -2.994503453373908997e-02 -9.315333329141139984e-03 -4.319405183196067810e-03 -2.620976045727729797e-02 3.269788622856140137e-02 -2.355013415217399597e-02 2.770877815783023834e-02 1.405996177345514297e-02 2.871579118072986603e-02 -2.153431624174118042e-02 8.371457457542419434e-03 8.996183052659034729e-03 -5.783961620181798935e-03 3.474966809153556824e-02 4.243137314915657043e-03 1.657316461205482483e-02 -7.767669390887022018e-03 5.137128289788961411e-03 2.892728522419929504e-02 1.722681522369384766e-02 -1.657940819859504700e-02 -2.881849743425846100e-02 -2.261864207684993744e-02 2.228190004825592041e-02 7.166532333940267563e-03 -1.194074191153049469e-02 -7.055523339658975601e-03 2.639150992035865784e-02 -1.453574281185865402e-02 -2.744599618017673492e-02 -3.386392071843147278e-02 -1.624218374490737915e-02 -3.355793422088027000e-03 -9.702261537313461304e-03 1.462091226130723953e-02 -1.389464177191257477e-02 -6.770597246941179037e-05 -2.471351623535156250e-02 3.816920518875122070e-02 1.804141141474246979e-02 -1.904291845858097076e-02 3.850946947932243347e-02 -9.908498264849185944e-03 1.662296056747436523e-02 1.511225197464227676e-02 1.398604828864336014e-02 2.775451401248574257e-03 -7.164364214986562729e-04 1.776588149368762970e-02 2.575104311108589172e-02 -1.773669011890888214e-02 2.479341067373752594e-02 -5.570796784013509750e-03 -1.516886521130800247e-02 -3.303905948996543884e-02 2.407162077724933624e-02 3.679908579215407372e-03 2.846949733793735504e-02 -4.008335247635841370e-02 7.904880680143833160e-03 -2.548891678452491760e-02 -9.765011258423328400e-03 5.683764349669218063e-03 8.902112022042274475e-03 -2.350233122706413269e-02 1.935511454939842224e-02 -1.321539282798767090e-02 1.485617272555828094e-02 7.371567189693450928e-03 -2.574127167463302612e-02 4.064566642045974731e-02 -2.059973590075969696e-02 -2.471856772899627686e-02 2.980845049023628235e-02 -1.355032809078693390e-02 2.595507726073265076e-02 1.555618736892938614e-02 1.893931068480014801e-02 -1.102789305150508881e-02 -5.997717846184968948e-03 3.969131782650947571e-02 3.849649801850318909e-02 1.012642495334148407e-02 -1.474248711019754410e-02 -2.087267674505710602e-02 1.389938965439796448e-02 -1.373521331697702408e-02 -2.531079202890396118e-02 -2.606421150267124176e-02 -1.064199768006801605e-02 9.622368961572647095e-03 -6.339211249724030495e-04 -2.189906127750873566e-02 -2.917977049946784973e-03 -1.047715428285300732e-03 4.185356944799423218e-02 -2.121330238878726959e-03 -2.993183955550193787e-02 3.439531475305557251e-02 -4.752159584313631058e-03 -1.594257168471813202e-02 -2.661827951669692993e-02 1.335418969392776489e-02 -1.610146462917327881e-02 8.504379540681838989e-03 1.358647737652063370e-02 -5.507466383278369904e-03 -6.456419825553894043e-03 1.504171919077634811e-02 1.391980145126581192e-02 4.069688729941844940e-03 -6.785118021070957184e-03 -2.501222491264343262e-02 -4.297444969415664673e-02 -1.839887350797653198e-02 2.275192551314830780e-02 3.142426908016204834e-02 1.407747250050306320e-02 4.607711359858512878e-02 -1.011716015636920929e-02 -1.133104693144559860e-02 -1.701661013066768646e-02 2.163972146809101105e-02 1.215481758117675781e-02 9.608341497369110584e-04 -1.655556075274944305e-02 7.087072357535362244e-03 -2.825086005032062531e-02 -2.921749465167522430e-02 -5.283432547003030777e-03 1.189958117902278900e-02 -1.392162684351205826e-02 -4.809489939361810684e-03 3.560685738921165466e-02 3.498456254601478577e-02 -1.859041489660739899e-02 2.018282935023307800e-02 -3.144222870469093323e-02 2.158618345856666565e-02 -4.418412223458290100e-02 2.664461173117160797e-02 -3.171823173761367798e-02 5.589192151091992855e-04 -1.535000838339328766e-02 -7.765071000903844833e-03 1.992390677332878113e-02 -1.595154032111167908e-02 2.911563217639923096e-02 -2.198551956098526716e-04 8.221324533224105835e-03 2.715742774307727814e-02 -2.241738699376583099e-02 2.689083665609359741e-02 3.037032112479209900e-02 -2.323985844850540161e-02 -1.134338416159152985e-02 -2.120424062013626099e-02 2.004424110054969788e-02 2.303756028413772583e-02 1.404627878218889236e-02 -8.474336005747318268e-03 3.807377442717552185e-02 3.703404217958450317e-02 -6.004052702337503433e-03 3.402373567223548889e-02 1.139076147228479385e-02 2.298424579203128815e-02 -4.469903651624917984e-03 -4.441299010068178177e-03 1.185244135558605194e-02 3.335048258304595947e-02 3.051492571830749512e-02 1.319559011608362198e-02 1.446442585438489914e-02 1.898624189198017120e-02 -5.208575632423162460e-03 -2.908272668719291687e-02 -1.948840916156768799e-02 3.626522794365882874e-02 3.867118386551737785e-03 2.893180586397647858e-03 2.232321910560131073e-02 7.871466223150491714e-04 2.333976700901985168e-02 7.897869683802127838e-03 2.758045867085456848e-02 -2.756782993674278259e-02 2.569096907973289490e-02 6.848438351880759001e-05 1.253045629709959030e-02 -2.281709015369415283e-02 -2.274945378303527832e-02 -3.150345385074615479e-02 3.304772078990936279e-03 -3.873143345117568970e-02 -1.297941431403160095e-02 2.894672797992825508e-03 -1.622819900512695312e-02 1.747922785580158234e-02 -1.792453229427337646e-02 4.583651898428797722e-04 5.114870418765349314e-06 1.143502630293369293e-02 -2.011612290516495705e-03 1.129742991179227829e-02 1.855475269258022308e-02 -3.050556406378746033e-02 -2.390109375119209290e-02 1.691843569278717041e-02 -1.192228682339191437e-02 3.908680006861686707e-02 1.287035271525382996e-02 1.590665057301521301e-02 1.057062670588493347e-02 1.504805032163858414e-02 -1.866084150969982147e-02 -5.054517183452844620e-03 3.116434440016746521e-02 -2.804749272763729095e-02 -1.489725802093744278e-02 -3.073528781533241272e-02 3.650166559964418411e-03 -1.881647855043411255e-02 2.242681197822093964e-02 2.536982297897338867e-02 -2.352418191730976105e-02 3.542850911617279053e-02 4.009438306093215942e-02 -4.965036176145076752e-03 1.585383666679263115e-03 9.091231040656566620e-03 -1.024344842880964279e-02 5.012680310755968094e-03 -3.897229582071304321e-02 1.607508026063442230e-02 -2.127526514232158661e-02 -8.363734930753707886e-03 -8.649642579257488251e-03 1.978031545877456665e-02 2.201547473669052124e-02 1.997900754213333130e-02 -2.327190712094306946e-02 1.038607489317655563e-02 -1.061567943543195724e-02 1.342469477094709873e-03 1.920438744127750397e-02 1.290967594832181931e-02 1.565674319863319397e-02 3.753390535712242126e-02 3.908684477210044861e-02 -1.240639109164476395e-02 1.164519041776657104e-02 9.072460670722648501e-05 2.122478000819683075e-02 -2.647959440946578979e-02 -8.085359004326164722e-04 1.577133685350418091e-02 3.016438707709312439e-02 -1.053622178733348846e-02 1.446427591145038605e-02 2.577897161245346069e-02 -1.944936811923980713e-02 2.641097828745841980e-02 -3.807064611464738846e-03 3.036345727741718292e-02 9.468956850469112396e-03 -1.457948517054319382e-02 2.145916782319545746e-02 -1.893222145736217499e-02 -6.154005415737628937e-03 6.877107545733451843e-03 -8.818225003778934479e-03 3.892496600747108459e-02 2.477986551821231842e-02 -2.449914813041687012e-02 -2.029868029057979584e-02 1.921731792390346527e-02 1.581246778368949890e-02 -1.661244034767150879e-02 3.029617667198181152e-02 -7.241280283778905869e-03 -8.637670427560806274e-03 5.128457676619291306e-03 5.813126452267169952e-03 -1.697014831006526947e-02 9.666524827480316162e-03 1.949795708060264587e-02 3.342412039637565613e-02 -3.228078037500381470e-02 -3.931134124286472797e-04 1.218132395297288895e-02 -5.249730776995420456e-03 2.919198479503393173e-03 -4.012160061392933130e-04 -1.485183276236057281e-02 -5.117766559123992920e-03 2.298835664987564087e-02 9.154827333986759186e-03 -6.353029515594244003e-03 -1.143727451562881470e-02 2.406730502843856812e-02 -1.865470036864280701e-02 -1.179117336869239807e-02 -1.106498111039400101e-02 -9.720277041196823120e-03 2.154363505542278290e-02 1.825546287000179291e-02 -3.564573079347610474e-02 2.622070349752902985e-02 4.588952288031578064e-03 -1.388691551983356476e-02 -1.975984126329421997e-02 -1.285449508577585220e-02 2.336278744041919708e-02 -1.770985126495361328e-02 2.123836986720561981e-02 -1.736267097294330597e-02 -2.426214888691902161e-02 -8.374885655939579010e-03 -1.228739321231842041e-02 -1.922820881009101868e-02 -1.400814624503254890e-03 3.140296041965484619e-02 -2.298316918313503265e-02 2.035641297698020935e-02 -1.507289893925189972e-02 -1.003398187458515167e-02 -5.423106718808412552e-03 3.647638857364654541e-02 2.231636829674243927e-02 3.166963532567024231e-02 1.132570765912532806e-02 1.037705969065427780e-02 -2.930822782218456268e-03 2.495464636012911797e-03 1.062263175845146179e-02 3.355815634131431580e-02 2.071743644773960114e-02 1.434176694601774216e-02 -2.793633379042148590e-02 2.642817236483097076e-02 -2.267900109291076660e-02 2.816411852836608887e-02 1.255751214921474457e-02 -2.005910314619541168e-02 6.062490865588188171e-03 3.447715565562248230e-02 2.703966386616230011e-02 3.027918003499507904e-02 5.429888144135475159e-03 -2.378716133534908295e-03 3.973238542675971985e-02 2.221126481890678406e-02 -2.531985938549041748e-02 3.491021692752838135e-02 1.552437338978052139e-02 -2.488716877996921539e-02 4.112861305475234985e-02 2.984273992478847504e-02 4.894395169685594738e-05 -4.718959331512451172e-03 3.815152496099472046e-02 -1.389400102198123932e-02 1.602088101208209991e-02 -1.715479232370853424e-02 3.437609598040580750e-02 4.840460140258073807e-03 4.378526005893945694e-03 8.280849433504045010e-04 3.502616658806800842e-02 -2.316518686711788177e-02 -2.599285217002034187e-03 -6.507578305900096893e-03 7.137596607208251953e-03 1.857010647654533386e-02 3.870491683483123779e-02 9.413586929440498352e-03 1.213047187775373459e-02 -1.531410962343215942e-02 -2.369575574994087219e-02 3.035163879394531250e-02 3.017915645614266396e-03 1.460700575262308121e-02 -2.527694404125213623e-02 -1.118556782603263855e-02 4.391131177544593811e-02 -1.635044440627098083e-02 -2.634541876614093781e-02 5.602874327450990677e-03 8.247945457696914673e-03 -3.454144811257719994e-03 1.972684636712074280e-02 -2.241663075983524323e-02 -1.030555088073015213e-02 2.447052113711833954e-02 3.508246317505836487e-02 -2.267005853354930878e-02 -2.148772776126861572e-02 4.030949901789426804e-03 2.379729412496089935e-02 7.119703106582164764e-03 -2.983012236654758453e-03 9.031344205141067505e-03 4.229245334863662720e-02 -2.510512992739677429e-02 2.975458279252052307e-02 -2.237786352634429932e-02 -6.543860305100679398e-03 1.364068686962127686e-02 3.504525870084762573e-02 9.672988206148147583e-03 1.853927783668041229e-02 2.815890498459339142e-02 2.392406389117240906e-02 -8.808490820229053497e-03 7.494030054658651352e-03 3.779454901814460754e-02 2.118847146630287170e-02 -2.298582345247268677e-02 4.122933000326156616e-02 1.657547615468502045e-02 3.436881303787231445e-02 -2.497413568198680878e-02 2.646336518228054047e-02 -7.361182477325201035e-03 -2.200292609632015228e-02 2.390130795538425446e-02 1.944090798497200012e-02 2.590109035372734070e-02 -2.591336891055107117e-02 2.697295323014259338e-02 3.117202781140804291e-02 3.966355323791503906e-02 2.550899237394332886e-02 3.085760399699211121e-02 -2.288096584379673004e-02 1.781327836215496063e-02 1.461495179682970047e-02 -2.679989859461784363e-02 2.105905301868915558e-02 1.725752651691436768e-02 -9.990728460252285004e-03 3.094431199133396149e-02 1.635568588972091675e-02 -5.597283132374286652e-03 -2.315797097980976105e-02 -2.937099337577819824e-02 -1.808593422174453735e-02 2.888031536713242531e-03 -2.089592441916465759e-02 1.697558350861072540e-02 -1.275955233722925186e-02 1.250358414836227894e-03 9.308978915214538574e-03 -3.315094113349914551e-02 1.059726905077695847e-02 5.863255821168422699e-03 2.754445187747478485e-02 -2.006620168685913086e-02 1.829757913947105408e-02 3.661419078707695007e-02 3.869259357452392578e-02 4.116138815879821777e-02 1.027715485543012619e-02 -2.350801974534988403e-02 -1.406206004321575165e-02 -2.766412496566772461e-02 -1.664994657039642334e-02 1.219230797141790390e-02 4.883250221610069275e-03 2.919007558375597000e-03 3.189291432499885559e-02 -9.761887602508068085e-03 -3.723298432305455208e-03 3.207780420780181885e-02 1.979828253388404846e-02 8.289492689073085785e-03 -1.428569015115499496e-02 -2.885865233838558197e-02 1.839850284159183502e-02 2.139972150325775146e-02 -2.704002521932125092e-02 3.231456503272056580e-02 -5.714783445000648499e-03 7.803392596542835236e-03 1.078145229257643223e-03 -1.957337744534015656e-02 3.021648153662681580e-02 -1.605119183659553528e-02 3.819784894585609436e-02 1.143263839185237885e-02 1.602450758218765259e-02 2.879606559872627258e-02 -2.678613364696502686e-02 5.947111174464225769e-03 -8.996115066111087799e-03 8.771087974309921265e-03 -2.808740735054016113e-02 4.021567478775978088e-02 -6.153895519673824310e-03 -2.671835385262966156e-02 -3.180995956063270569e-02 -1.302134990692138672e-02 1.803706213831901550e-02 -1.772358641028404236e-02 -4.387799650430679321e-03 -5.891475360840559006e-03 -1.361435465514659882e-02 2.910154312849044800e-02 2.238511294126510620e-02 2.125299070030450821e-03 3.216451406478881836e-02 -1.604696619324386120e-03 -1.111569069325923920e-02 -2.585997246205806732e-02 -5.548998247832059860e-03 8.090498857200145721e-03 3.873645886778831482e-02 -2.037812024354934692e-02 2.007056400179862976e-02 3.954361751675605774e-02 -7.221260573714971542e-03 -3.225240856409072876e-03 5.457830615341663361e-03 -1.796976849436759949e-02 -1.019433140754699707e-02 3.474182635545730591e-02 6.491744890809059143e-03 3.558380901813507080e-02 7.990185171365737915e-03 2.642795629799365997e-02 1.518903858959674835e-02 -2.238545380532741547e-02 -4.705652594566345215e-03 1.647260971367359161e-02 -2.181179122999310493e-03 2.525749802589416504e-02 3.336297231726348400e-04 2.012413181364536285e-02 5.669285543262958527e-03 -2.673787239473313093e-04 1.819050870835781097e-02 6.480006966739892960e-03 -2.761378884315490723e-02 -2.619314752519130707e-02 -1.480290549807250500e-03 -9.899977594614028931e-03 -1.158108375966548920e-02 2.989730611443519592e-02 -1.211102493107318878e-02 -8.228341466747224331e-04 -2.255317755043506622e-02 -1.036802190355956554e-03 -2.905854210257530212e-02 2.930089086294174194e-02 1.239829044789075851e-02 3.542564064264297485e-02 4.055685922503471375e-02 3.915937617421150208e-03 3.538525477051734924e-02 -1.563508994877338409e-02 -8.171900175511837006e-03 8.714809082448482513e-03 2.835640497505664825e-02 2.360713109374046326e-02 1.115724071860313416e-02 -6.268681026995182037e-03 -1.367815397679805756e-02 -3.886272432282567024e-03 -2.969895116984844208e-02 -7.725218776613473892e-03 -1.646465249359607697e-02 -1.281636394560337067e-02 2.165560051798820496e-02 3.484985977411270142e-02 3.182382881641387939e-02 -5.691545549780130386e-03 4.025978967547416687e-03 1.073780655860900879e-02 -2.768046408891677856e-02 9.778037667274475098e-03 -2.261096984148025513e-02 3.231045603752136230e-02 7.131940219551324844e-04 -4.376500844955444336e-03 4.048883542418479919e-02 3.027274087071418762e-02 -1.024394296109676361e-02 3.867374733090400696e-02 -1.817423291504383087e-02 3.693455457687377930e-02 -3.017187304794788361e-02 2.740928903222084045e-02 2.930158749222755432e-02 -1.504637952893972397e-02 -2.618855051696300507e-02 3.300708904862403870e-02 2.453571930527687073e-02 -2.394472435116767883e-02 -3.022165736183524132e-03 -2.087252587080001831e-02 3.750621899962425232e-02 3.578249737620353699e-02 3.861251100897789001e-02 -2.509790100157260895e-02
5.634113028645515442e-02 -1.193119678646326065e-03 9.202269837260246277e-03 5.128632113337516785e-02 1.667609438300132751e-02 3.959252312779426575e-02 1.640543714165687561e-02 2.967734448611736298e-02 7.472540251910686493e-03 1.900054048746824265e-03 5.498367920517921448e-02 2.555301971733570099e-02 -4.829476587474346161e-03 4.410748183727264404e-02 5.209626629948616028e-02 2.206942625343799591e-02 2.048249728977680206e-02 2.519381232559680939e-02 -3.263020887970924377e-03 3.574969992041587830e-02 2.479273639619350433e-02 -5.820964463055133820e-03 -5.905864760279655457e-03 5.791949853301048279e-02 5.147046223282814026e-02 4.733935371041297913e-02 -1.222820766270160675e-02 1.880974136292934418e-02 2.189609222114086151e-03 4.170026164501905441e-03 8.452916517853736877e-03 1.882645301520824432e-02 -3.010718617588281631e-03 1.950232125818729401e-02 -9.249650873243808746e-03 -8.863412775099277496e-03 2.397792181000113487e-03 5.109784007072448730e-02 4.269966110587120056e-02 3.405544906854629517e-02 6.186666712164878845e-02 4.013381153345108032e-02 5.950730293989181519e-02 6.659416854381561279e-02 4.587126523256301880e-02 2.460880577564239502e-02 4.120107740163803101e-02 2.112749591469764709e-02 -3.809840185567736626e-03 3.542695567011833191e-02 3.700092434883117676e-02 2.332481555640697479e-02 1.785079203546047211e-02 3.850140795111656189e-02 5.360305681824684143e-02 4.658109042793512344e-03 4.196558520197868347e-02 -3.634923370555043221e-03 2.020568214356899261e-02 1.190675236284732819e-02 2.266519702970981598e-02 5.786636471748352051e-02 5.728867277503013611e-02 2.777415327727794647e-02 5.363796651363372803e-02 8.643315173685550690e-03 4.966614767909049988e-02 3.018012642860412598e-02 1.706363819539546967e-02 8.563233911991119385e-02 8.782249689102172852e-02 7.202383130788803101e-02 4.095445945858955383e-02 5.366335622966289520e-03 5.216995254158973694e-03 6.169380247592926025e-02 -2.596859994810074568e-04 5.945124477148056030e-02 -7.319414056837558746e-03 3.955824300646781921e-02 4.959878325462341309e-02 2.389698289334774017e-02 5.036474391818046570e-02 3.758582100272178650e-02 4.910616949200630188e-02 2.397078834474086761e-02 -2.554938546381890774e-04 5.636458843946456909e-02 -1.738550839945673943e-03 3.731211647391319275e-02 -1.292092259973287582e-02 1.305781188420951366e-04 3.838004916906356812e-02 2.042715903371572495e-03 -2.156251110136508942e-02 -5.370907858014106750e-02 -5.553476512432098389e-02 -2.692202664911746979e-02 -8.022883534431457520e-02 -2.760216034948825836e-02 3.642679378390312195e-02 2.787716127932071686e-02 1.720390096306800842e-02 -2.419429086148738861e-02 -3.119628876447677612e-02 -5.125940777361392975e-03 2.459313906729221344e-02 4.054992645978927612e-02 -1.814354956150054932e-02 -1.748376293107867241e-03 5.443226918578147888e-02 1.602840609848499298e-02 -1.064285822212696075e-02 1.236315071582794189e-02 2.951673418283462524e-02 2.976247482001781464e-02 7.499985862523317337e-03 -2.082077786326408386e-02 1.322386960964649916e-04 -2.830119803547859192e-02 -2.322524227201938629e-02 -3.110576048493385315e-02 -7.163406163454055786e-02 -1.739212423563003540e-01 -8.380277454853057861e-02 -8.235471695661544800e-02 -4.654780402779579163e-02 -6.723425537347793579e-02 2.938930690288543701e-02 3.464511036872863770e-02 5.385532602667808533e-02 -2.945054322481155396e-02 -5.014711245894432068e-02 -6.791599094867706299e-02 -7.764268666505813599e-02 -9.210798144340515137e-02 -7.454182952642440796e-02 2.627099119126796722e-02 2.173039875924587250e-02 5.517653375864028931e-02 3.269167989492416382e-02 9.217619895935058594e-03 1.555004436522722244e-02 -5.663020070642232895e-03 2.967375330626964569e-02 -6.311030685901641846e-02 -5.133569240570068359e-02 5.036039743572473526e-03 7.917647808790206909e-02 -3.278876841068267822e-02 -8.321307599544525146e-02 -9.816133975982666016e-02 6.179673969745635986e-02 4.957601055502891541e-02 2.274755015969276428e-02 8.163131028413772583e-02 1.147149875760078430e-01 1.575619727373123169e-02 3.625594452023506165e-02 -1.778710633516311646e-02 -1.024320945143699646e-01 -2.245905250310897827e-02 -4.173284396529197693e-02 4.673702176660299301e-03 -8.849190548062324524e-03 -6.652512587606906891e-03 -7.074364461004734039e-03 3.063464909791946411e-02 -6.439015851356089115e-05 -1.010334119200706482e-02 -1.774527318775653839e-02 1.962243579328060150e-02 9.260845370590686798e-03 -5.235871300101280212e-02 -2.420423552393913269e-03 2.003311552107334137e-02 2.210829034447669983e-02 -8.834268897771835327e-02 -1.165579557418823242e-01 -1.036289986222982407e-02 1.598782092332839966e-01 6.149629130959510803e-02 -7.949909567832946777e-02 -3.616809099912643433e-02 -1.420757453888654709e-02 -9.434798732399940491e-03 -1.776410788297653198e-01 -7.350770384073257446e-02 -1.073254942893981934e-01 -5.599297583103179932e-02 -8.483661338686943054e-03 1.704334281384944916e-02 -4.620432388037443161e-03 -7.042293436825275421e-03 5.713157821446657181e-03 -3.222413826733827591e-03 4.882476106286048889e-02 2.408942580223083496e-02 3.124616667628288269e-02 1.591314747929573059e-02 -2.997588925063610077e-02 -3.452093526721000671e-02 4.555578343570232391e-03 -3.811120754107832909e-03 -1.516696661710739136e-01 -9.140690416097640991e-02 -4.841755330562591553e-02 1.027761213481426239e-02 2.156526315957307816e-03 5.467699840664863586e-02 -1.434950977563858032e-01 -1.211541742086410522e-01 -1.328958719968795776e-01 -2.810850739479064941e-02 2.592180389910936356e-03 -3.373163193464279175e-02 1.223349571228027344e-02 1.544454507529735565e-02 4.202171415090560913e-02 2.728496864438056946e-02 -3.139715641736984253e-02 -5.904357135295867920e-02 2.347083389759063721e-02 3.158811107277870178e-02 1.456910278648138046e-03 6.262913346290588379e-03 5.192718282341957092e-02 2.864135801792144775e-02 2.668667025864124298e-02 8.324112743139266968e-02 7.957317680120468140e-02 1.318919360637664795e-01 -5.459868535399436951e-02 9.920625947415828705e-03 7.571309059858322144e-02 -3.980328142642974854e-02 1.426684558391571045e-01 1.210426315665245056e-01 1.102087050676345825e-01 -2.560452930629253387e-02 -1.028166413307189941e-01 -5.180059466511011124e-03 -9.946438670158386230e-02 -1.644067582674324512e-03 4.202551022171974182e-02 -6.611580401659011841e-02 -7.068564742803573608e-02 -1.299289986491203308e-02 -1.098308339715003967e-01 -2.635179786011576653e-03 -1.000769063830375671e-02 2.039923891425132751e-02 5.606444552540779114e-03 -3.679739776998758316e-03 4.447779431939125061e-02 1.995616964995861053e-02 7.840489968657493591e-03 5.374667793512344360e-02 5.718515813350677490e-02 1.694928854703903198e-02 -2.580679580569267273e-02 4.512159153819084167e-02 -7.963606715202331543e-02 -1.800839453935623169e-01 1.907667145133018494e-02 2.221005223691463470e-02 1.104480773210525513e-01 -8.056256175041198730e-02 -1.165271773934364319e-01 -6.230534985661506653e-02 -1.204340159893035889e-01 -7.169490307569503784e-02 -9.439995139837265015e-02 -3.628781810402870178e-02 -3.209418058395385742e-02 -5.158629268407821655e-02 -7.800099253654479980e-02 -4.042155295610427856e-02 5.190420523285865784e-02 4.417702928185462952e-02 3.129167482256889343e-02 -3.770755371078848839e-03 8.938697166740894318e-03 8.789952844381332397e-03 -7.191556971520185471e-03 5.156327411532402039e-02 7.595512270927429199e-02 1.019492596387863159e-01 2.032455615699291229e-02 -2.455835929140448570e-04 5.473196506500244141e-03 -1.444903761148452759e-01 -2.252158820629119873e-01 4.424972459673881531e-02 6.711902469396591187e-02 3.646107017993927002e-02 -8.496600389480590820e-02 -2.223929204046726227e-02 -2.018833905458450317e-02 -4.541778564453125000e-02 -7.231342047452926636e-02 1.832900452427566051e-03 -8.630533516407012939e-02 -1.086061224341392517e-01 -3.665331378579139709e-02 -7.283344399183988571e-03 1.303180586546659470e-03 2.514990791678428650e-02 5.193702504038810730e-02 2.934350632131099701e-02 4.944783076643943787e-02 -7.632524240761995316e-03 -7.283976301550865173e-03 4.364515468478202820e-02 6.913773715496063232e-02 1.794226765632629395e-01 1.171746850013732910e-01 1.675609648227691650e-01 -3.871547803282737732e-02 -8.054724335670471191e-02 -2.003790289163589478e-01 1.257530506700277328e-02 1.653616130352020264e-01 5.150349065661430359e-02 -3.219920769333839417e-02 -1.422513574361801147e-01 -9.566105157136917114e-02 -2.021395787596702576e-02 2.405505068600177765e-02 -4.774014931172132492e-03 -7.206432521343231201e-02 -5.371828749775886536e-02 -1.839771308004856110e-02 -2.225315943360328674e-02 -3.076143004000186920e-02 5.656666681170463562e-02 2.026234008371829987e-02 4.960461333394050598e-02 -5.544749088585376740e-03 3.540221601724624634e-02 1.471090503036975861e-02 6.980892270803451538e-02 1.552302576601505280e-02 1.265302449464797974e-01 1.799090355634689331e-01 1.293596476316452026e-01 -1.326179802417755127e-01 -2.005833089351654053e-01 -1.983505487442016602e-01 -9.433172643184661865e-02 7.419769465923309326e-02 7.700544595718383789e-02 -4.504529386758804321e-02 -1.982545256614685059e-01 8.879272267222404480e-03 -3.691805154085159302e-02 3.373271599411964417e-02 -5.900337360799312592e-03 -8.000329881906509399e-02 -9.895537048578262329e-02 2.871601656079292297e-02 3.700457140803337097e-02 1.937915571033954620e-02 3.353158757090568542e-02 -1.216494943946599960e-02 6.789233535528182983e-03 1.536865904927253723e-02 6.206577271223068237e-02 5.186391994357109070e-02 1.200984138995409012e-02 -2.264433167874813080e-02 -9.857266396284103394e-02 -9.856112301349639893e-02 -1.114071682095527649e-01 -2.090089619159698486e-01 -3.067802190780639648e-01 -2.651027143001556396e-01 -9.268131107091903687e-02 1.609752476215362549e-01 9.056461602449417114e-02 6.701853126287460327e-03 -4.741241037845611572e-02 1.204737275838851929e-01 2.211999148130416870e-02 4.391160607337951660e-02 2.304137311875820160e-02 2.357603050768375397e-02 7.075915485620498657e-02 8.629874140024185181e-02 9.322755783796310425e-02 6.364204734563827515e-02 5.717616900801658630e-02 2.642544545233249664e-02 3.241035714745521545e-02 4.578319191932678223e-02 1.159311388619244099e-03 1.931511610746383667e-02 -4.122283682227134705e-02 -6.211081892251968384e-02 -1.141748651862144470e-01 -2.445175051689147949e-01 -3.576665222644805908e-01 -3.595612943172454834e-01 -2.039506435394287109e-01 -9.986723214387893677e-02 1.095870584249496460e-01 2.785319983959197998e-01 4.618507809937000275e-03 -9.840579330921173096e-02 -7.908678054809570312e-02 6.182470172643661499e-02 1.077363044023513794e-01 1.035299804061651230e-02 7.759185880422592163e-02 1.397509574890136719e-01 5.329119041562080383e-02 1.297367066144943237e-01 6.236374005675315857e-02 2.878055721521377563e-02 -1.112172659486532211e-02 1.830030791461467743e-02 3.798308223485946655e-02 -5.702793598175048828e-03 2.190723828971385956e-02 2.751258201897144318e-02 -2.838334627449512482e-02 -1.097506135702133179e-01 -1.819206923246383667e-01 -3.030540347099304199e-01 -4.183638691902160645e-01 -3.610566258430480957e-01 1.911102049052715302e-02 1.755041182041168213e-01 3.836466968059539795e-01 3.205204904079437256e-01 -1.935473456978797913e-02 -1.920678466558456421e-01 -1.286830008029937744e-01 5.288990214467048645e-02 -8.217997103929519653e-02 -5.170555785298347473e-02 -7.231321185827255249e-02 4.137286450713872910e-03 5.712721124291419983e-02 6.439624726772308350e-02 7.740339636802673340e-02 6.842909753322601318e-02 3.474032506346702576e-02 3.818846866488456726e-02 8.535471279174089432e-04 2.560706995427608490e-02 4.751288145780563354e-02 3.644462674856185913e-02 -6.534693390130996704e-02 -1.783164292573928833e-01 -2.795658111572265625e-01 -4.215983450412750244e-01 -4.185495078563690186e-01 -2.086711972951889038e-01 2.892910838127136230e-01 4.594700336456298828e-01 4.510980546474456787e-01 2.290067374706268311e-01 -1.443097740411758423e-01 -1.184716820716857910e-02 -6.360407918691635132e-02 -2.909285947680473328e-02 -5.952094867825508118e-02 -1.054717898368835449e-01 -1.677737385034561157e-01 -6.945120543241500854e-02 1.270871702581644058e-02 8.408457040786743164e-02 8.215826004743576050e-02 1.003418490290641785e-02 -5.158891435712575912e-03 2.154229767620563507e-02 -2.966932253912091255e-03 1.958921784535050392e-04 1.862181723117828369e-02 -2.527469396591186523e-02 -1.084686219692230225e-01 -2.415875941514968872e-01 -4.181801080703735352e-01 -5.422975420951843262e-01 -3.703384399414062500e-01 1.266432702541351318e-01 5.264192223548889160e-01 4.821236133575439453e-01 3.570631444454193115e-01 2.052340507507324219e-01 -2.605525255203247070e-01 -8.957841992378234863e-02 -2.001099660992622375e-02 9.325574152171611786e-03 3.152865916490554810e-02 3.643452003598213196e-02 -1.071443036198616028e-01 -7.456944882869720459e-02 9.325429052114486694e-02 8.739063143730163574e-02 9.932801872491836548e-02 6.258504092693328857e-02 5.923770740628242493e-02 7.884887978434562683e-03 3.844049200415611267e-02 -3.064245975110679865e-04 1.591155119240283966e-02 9.035136550664901733e-03 -1.754370629787445068e-01 -2.713831663131713867e-01 -3.157451152801513672e-01 -3.812160193920135498e-01 -7.448688149452209473e-02 2.780857086181640625e-01 4.085138142108917236e-01 4.878783226013183594e-01 4.013311266899108887e-01 6.447380036115646362e-02 -9.375707060098648071e-02 -2.041952162981033325e-01 -2.372363954782485962e-02 2.193401940166950226e-02 2.138052321970462799e-02 3.296050801873207092e-02 -6.939250975847244263e-02 -5.182269215583801270e-02 7.839817553758621216e-02 8.572156727313995361e-02 5.138269066810607910e-02 5.541110411286354065e-02 2.928340993821620941e-02 1.353837433271110058e-05 2.374138310551643372e-02 -1.477796304970979691e-02 -3.755977004766464233e-02 -1.033308822661638260e-02 -1.908105313777923584e-01 -2.746185660362243652e-01 -2.180410474538803101e-01 -2.733063399791717529e-01 3.579447790980339050e-02 3.907764554023742676e-01 5.863058567047119141e-01 5.117794871330261230e-01 3.718125820159912109e-01 1.135458275675773621e-01 -1.549095381051301956e-02 -6.041306629776954651e-02 -1.200598571449518204e-02 -5.684009194374084473e-02 -8.015117794275283813e-02 2.124318666756153107e-02 -1.642824560403823853e-01 -6.191131845116615295e-02 4.129971936345100403e-02 1.081850379705429077e-02 3.679521754384040833e-02 3.636788204312324524e-02 1.004905812442302704e-02 1.749321259558200836e-02 4.175214469432830811e-02 3.654944151639938354e-02 -2.541523799300193787e-02 -4.245784878730773926e-02 -1.552052050828933716e-01 -1.632265150547027588e-01 -1.575371474027633667e-01 -1.401014924049377441e-01 -4.845338687300682068e-02 2.360185235738754272e-01 4.517705440521240234e-01 5.215115547180175781e-01 2.198937684297561646e-01 1.498336493968963623e-01 1.396916210651397705e-01 -2.975508011877536774e-02 -6.114453077316284180e-02 -2.206679433584213257e-02 -2.279915474355220795e-02 -3.297273814678192139e-02 -1.148904860019683838e-01 -9.705497324466705322e-02 -3.039630688726902008e-02 4.388445988297462463e-03 4.099497199058532715e-02 4.393079876899719238e-02 -2.896720834542065859e-04 1.011876948177814484e-02 2.745374478399753571e-02 3.554225713014602661e-02 2.297641150653362274e-02 -4.436630755662918091e-02 -1.358158588409423828e-01 -1.425472050905227661e-01 -1.625102013349533081e-01 -1.650295108556747437e-01 -8.515504002571105957e-02 -1.678348332643508911e-02 2.777202241122722626e-02 2.065311819314956665e-01 2.176744043827056885e-01 2.837600708007812500e-01 1.654508262872695923e-01 3.389777988195419312e-02 -6.636909395456314087e-02 -6.018994376063346863e-02 5.281052738428115845e-02 -3.934230282902717590e-02 -6.138267740607261658e-02 -7.611299306154251099e-02 -1.738807931542396545e-02 3.743054578080773354e-03 -9.954821318387985229e-03 -8.326050825417041779e-03 1.866876892745494843e-02 5.471717566251754761e-03 9.792258962988853455e-03 -1.175704598426818848e-02 2.289601252414286137e-05 -6.185288727283477783e-02 2.085906639695167542e-02 -6.615655869245529175e-02 -1.264775395393371582e-01 -3.777300566434860229e-02 -3.135089203715324402e-02 -1.267188191413879395e-01 -9.842599183320999146e-02 3.614391759037971497e-02 9.993517398834228516e-02 2.713832855224609375e-01 2.328802198171615601e-01 1.980896741151809692e-01 -2.877384237945079803e-02 -2.240960858762264252e-02 2.390073984861373901e-02 -8.601298183202743530e-02 8.522089570760726929e-03 -5.440380424261093140e-02 5.214320030063390732e-03 -3.101607225835323334e-02 4.066966846585273743e-02 -3.933222964406013489e-03 4.932709410786628723e-02 2.785227261483669281e-02 3.901979699730873108e-02 3.493041498586535454e-03 -5.642448738217353821e-02 2.969323657453060150e-03 -2.326987870037555695e-02 -6.274538487195968628e-02 -1.095106154680252075e-01 -1.884442716836929321e-01 5.250244587659835815e-02 -4.795061424374580383e-02 1.131332516670227051e-01 3.054620027542114258e-01 2.842526435852050781e-01 2.351285517215728760e-01 2.395792454481124878e-01 3.061252534389495850e-01 6.456454843282699585e-02 1.934305950999259949e-02 2.071572281420230865e-02 -3.054125607013702393e-02 -5.319780111312866211e-02 -3.571690060198307037e-03 -5.519309546798467636e-03 -2.441916614770889282e-03 3.371382504701614380e-02 3.929982334375381470e-02 2.318898774683475494e-02 -2.390117617323994637e-03 1.232156995683908463e-03 5.077363178133964539e-02 5.322468932718038559e-03 -1.855975016951560974e-02 -9.596146643161773682e-03 -8.576478809118270874e-02 -1.998918354511260986e-01 -1.876778453588485718e-01 -1.071248725056648254e-01 -1.245076060295104980e-01 1.483074855059385300e-02 1.451884657144546509e-01 1.722897589206695557e-02 5.707788839936256409e-02 1.715171150863170624e-02 -2.012661844491958618e-02 -3.413864597678184509e-02 1.425657421350479126e-02 -6.219686940312385559e-03 -1.456362940371036530e-02 -6.137239187955856323e-02 -4.057944193482398987e-02 8.161973208189010620e-03 1.920776255428791046e-02 5.776271596550941467e-02 7.779263425618410110e-03 5.610189959406852722e-02 4.914923384785652161e-02 4.294443875551223755e-03 5.403428524732589722e-02 -4.401434271130710840e-04 4.706750437617301941e-02 -6.610357202589511871e-03 2.516938559710979462e-02 -1.766693964600563049e-02 -1.210129484534263611e-01 -1.458095461130142212e-01 -1.307406723499298096e-01 -7.885357737541198730e-02 -1.882287412881851196e-01 -2.431558817625045776e-01 -1.152228116989135742e-01 -7.408857345581054688e-02 -1.367262601852416992e-01 -4.727296158671379089e-02 -5.459157004952430725e-02 -7.352320849895477295e-02 -1.007251664996147156e-01 -4.918668419122695923e-03 1.317325979471206665e-02 -2.278394252061843872e-02 4.495939612388610840e-02 4.083225876092910767e-02 9.354276582598686218e-03 4.340264014899730682e-03 2.762278355658054352e-02 -1.136370375752449036e-02 2.173567377030849457e-02 3.828391060233116150e-02 -6.784815341234207153e-03 1.850688084959983826e-02 1.738345250487327576e-02 -4.366957116872072220e-03 -7.931209984235465527e-05 -1.663260348141193390e-02 -5.622301623225212097e-02 -3.626181185245513916e-02 -1.052460670471191406e-01 -2.356671728193759918e-02 -1.856667548418045044e-02 2.225727401673793793e-02 -8.224256336688995361e-02 -4.528639838099479675e-02 -1.776441000401973724e-02 1.294599194079637527e-02 1.834353245794773102e-02 3.361930698156356812e-02 4.492917656898498535e-02 4.826041683554649353e-02 4.757749661803245544e-02 8.272398263216018677e-03 4.379307851195335388e-02 -1.960017834790050983e-05 2.158362604677677155e-02 4.127482697367668152e-02 3.911618515849113464e-02 3.387442231178283691e-02 -3.755269106477499008e-03 2.800198085606098175e-02 4.730574786663055420e-02 -3.247673856094479561e-03 -2.344232052564620972e-03 -1.958698499947786331e-03 6.221175193786621094e-02 4.671234264969825745e-02 1.668103784322738647e-02 5.450354143977165222e-02 5.372708663344383240e-02 5.858207121491432190e-02 5.663842707872390747e-02 5.544631555676460266e-02 4.544936865568161011e-02 -2.148659667000174522e-03 1.606023497879505157e-02 4.022151604294776917e-02 -9.530406445264816284e-03 2.571220509707927704e-02 -6.334428209811449051e-03 3.818433359265327454e-02 4.728997871279716492e-02 4.145914688706398010e-02
