3.915333002805709839e-02 -6.843662261962890625e-02 5.517118796706199646e-02 -1.619218103587627411e-02 -6.935643404722213745e-02 -3.568250834941864014e-01 1.346368044614791870e-01 -5.194890312850475311e-03 -2.413360625505447388e-01 -4.927545040845870972e-02 -2.093514241278171539e-02 3.750877827405929565e-02 -2.867865376174449921e-02 5.363627150654792786e-02 7.589187473058700562e-02 -3.949300572276115417e-02 1.460236907005310059e-01 1.228595897555351257e-01 1.370339244604110718e-01 -6.569184362888336182e-02 -4.449254646897315979e-02 -1.815302222967147827e-01 2.918302826583385468e-02 -6.553361564874649048e-02 -6.984034925699234009e-02 1.124925166368484497e-01 1.457369178533554077e-01 -1.330789774656295776e-01 1.201427206397056580e-01 -1.109198406338691711e-01 8.847735077142715454e-02 -1.558146029710769653e-01 -3.546610176563262939e-01 -2.311331778764724731e-01 -1.540078967809677124e-01 -1.640715301036834717e-01 3.458263725042343140e-02 -3.563559427857398987e-02 8.227165788412094116e-02 -2.594261243939399719e-02 7.976686954498291016e-02 1.725728362798690796e-01 -6.091428175568580627e-02 1.021462827920913696e-01 -9.500321000814437866e-02 -7.061482965946197510e-02 7.615479826927185059e-02 -5.428839940577745438e-03 -2.317155301570892334e-01 5.480263009667396545e-02 7.012970000505447388e-02 -1.537257730960845947e-01 -2.211733609437942505e-01 -5.157974958419799805e-01 -1.069573312997817993e-02 -8.908458985388278961e-03 7.424249500036239624e-02 7.617008686065673828e-02 3.255988284945487976e-02 -4.210334420204162598e-01 4.853741079568862915e-02 1.531325578689575195e-01 -5.950004234910011292e-02 -1.166071556508541107e-02 -2.882507033064030111e-05 1.014839038252830505e-01 -1.744357645511627197e-01 -5.716501921415328979e-02 6.789537519216537476e-02 -2.672262787818908691e-01 3.562249615788459778e-02 -5.100179910659790039e-01 -2.124002426862716675e-01 1.681744009256362915e-01 2.462472952902317047e-02 9.238550812005996704e-02 -8.200771175324916840e-03 -3.914680331945419312e-02 -9.215418994426727295e-02 2.607448101043701172e-01 1.672227233648300171e-01 5.947674065828323364e-02 5.416364222764968872e-02 -1.925227791070938110e-01 -7.791385799646377563e-02 1.692015379667282104e-01 1.638923585414886475e-01 -5.067877173423767090e-01 -1.876687556505203247e-01 2.599113807082176208e-02 8.059041947126388550e-02 -6.836915016174316406e-02 -6.891591101884841919e-02 -1.585136353969573975e-01 1.524952650070190430e-01 -5.040537193417549133e-02 1.905103623867034912e-01 -1.193317919969558716e-01 -1.070885732769966125e-01 -4.599137231707572937e-02 -7.899025827646255493e-02 1.821228414773941040e-01 -1.086564362049102783e-01 -4.817017912864685059e-02 5.924298614263534546e-02 -3.329585790634155273e-01 -6.871824711561203003e-02 7.284986227750778198e-02 -4.818252846598625183e-02 -5.164933204650878906e-02 -3.472875803709030151e-02 -1.073343530297279358e-01 -2.839944064617156982e-01 7.425613701343536377e-02 -9.897291893139481544e-04 1.470987405627965927e-02 -3.183190152049064636e-02 1.893692910671234131e-01 3.584379702806472778e-02 -4.877290874719619751e-02 9.629513323307037354e-02 -1.588930375874042511e-02 -8.231971412897109985e-03 1.802171468734741211e-01 -1.195120364427566528e-01 -3.055935539305210114e-02 4.277887195348739624e-02 -7.249850034713745117e-02
8.109641075134277344e-02 -2.545815892517566681e-02 -2.406369661912322044e-03 -2.529145590960979462e-02 5.508103594183921814e-02 8.813522011041641235e-02 -1.410443186759948730e-01 -3.063705563545227051e-02 6.689617037773132324e-02 -3.551470115780830383e-02 2.368846535682678223e-02 -6.189436186105012894e-03 4.741895198822021484e-02 1.632004231214523315e-02 -1.102284714579582214e-01 4.153121262788772583e-02 3.253460526466369629e-01 -2.774111330509185791e-01 -1.443834900856018066e-01 6.108299642801284790e-02 7.436138391494750977e-02 2.048795521259307861e-01 2.035568840801715851e-02 -7.000741083174943924e-03 4.701315239071846008e-02 -1.766101829707622528e-02 -3.963703289628028870e-02 -8.527239412069320679e-02 8.293551951646804810e-02 -1.554973870515823364e-01 8.008268475532531738e-02 -3.113663792610168457e-01 -8.435477316379547119e-02 9.746420197188854218e-03 -1.404421627521514893e-01 6.957264244556427002e-02 -1.004867926239967346e-01 -1.521154190413653851e-03 -3.296495601534843445e-02 -1.042393594980239868e-01 -8.138295263051986694e-02 -1.429124772548675537e-01 -2.488452382385730743e-02 1.938497871160507202e-01 -3.953715041279792786e-02 1.196050867438316345e-01 -1.423784941434860229e-01 -2.376107499003410339e-02 1.927941143512725830e-01 -3.279155790805816650e-01 5.254124104976654053e-02 -4.272593185305595398e-02 3.031816780567169189e-01 -1.138107329607009888e-01 4.199617356061935425e-02 7.637085020542144775e-02 1.403552740812301636e-01 8.337881416082382202e-02 5.082152318209409714e-03 1.414105743169784546e-01 -3.290356369689106941e-03 3.296710550785064697e-02 1.212455611675977707e-02 1.635203883051872253e-02 -3.878449276089668274e-02 -2.834854125976562500e-01 1.209862437099218369e-02 2.284630537033081055e-01 -2.042909152805805206e-02 -1.472618132829666138e-01 5.262322723865509033e-02 1.633260846138000488e-01 1.593725830316543579e-01 -7.271282374858856201e-02 9.314353018999099731e-02 -2.529551982879638672e-01 -9.303488582372665405e-02 2.219971269369125366e-03 3.206620812416076660e-01 -4.412883818149566650e-01 2.960500419139862061e-01 -3.884745761752128601e-02 4.224796220660209656e-02 -4.914541915059089661e-02 4.868078976869583130e-02 -1.439618617296218872e-01 1.398720405995845795e-02 1.302039325237274170e-01 -8.751384168863296509e-02 -2.454037666320800781e-01 5.217954516410827637e-02 -2.650604955852031708e-02 7.728558848612010479e-04 -1.381391137838363647e-01 1.164840981364250183e-01 -4.387288819998502731e-03 -8.395858854055404663e-02 1.913594305515289307e-01 1.801967918872833252e-01 -7.275218516588211060e-02 -4.500503465533256531e-02 1.900397390127182007e-01 -1.868588849902153015e-02 -8.347875624895095825e-02 -3.584305346012115479e-01 1.179993152618408203e-01 7.550230622291564941e-02 5.531581863760948181e-02 -4.396589100360870361e-02 -7.581396400928497314e-02 -1.968096569180488586e-02 3.613895922899246216e-02 -2.075045406818389893e-01 -1.250862032175064087e-01 1.805299147963523865e-02 -1.370646618306636810e-02 -4.821491613984107971e-02 -1.720138937234878540e-01 -3.206596672534942627e-01 3.197098970413208008e-01 -2.745955586433410645e-01 -5.859395023435354233e-04 -5.001785233616828918e-02 9.466585516929626465e-02 9.761290252208709717e-02 -5.792506039142608643e-02 -3.207455202937126160e-02 -1.863472047261893749e-03
1.473009884357452393e-01 9.105085395276546478e-03 -5.171018093824386597e-02 1.048722490668296814e-01 -3.941050171852111816e-02 1.426623910665512085e-01 7.592383027076721191e-02 -2.480671554803848267e-02 1.378699690103530884e-01 1.779136806726455688e-02 -6.312020868062973022e-02 -6.140036135911941528e-02 -6.649077869951725006e-03 6.672254763543605804e-03 -1.365618705749511719e-01 -8.191300183534622192e-02 9.942010045051574707e-02 1.408473849296569824e-01 2.551275119185447693e-02 3.539041802287101746e-02 -3.280340135097503662e-02 -4.104366302490234375e-01 -4.249316081404685974e-02 9.283672273159027100e-02 1.751773618161678314e-02 -3.026642501354217529e-01 4.328966885805130005e-02 -7.076024264097213745e-02 -4.683745279908180237e-02 -1.358306854963302612e-01 1.339286565780639648e-01 4.028903692960739136e-02 1.058376729488372803e-01 -1.566086858510971069e-01 8.887814730405807495e-02 -2.338973283767700195e-01 7.653065025806427002e-02 2.661477029323577881e-02 3.476835414767265320e-02 5.894258990883827209e-02 -8.824807405471801758e-02 1.121428906917572021e-01 -5.806717649102210999e-02 -2.880853414535522461e-01 8.284277468919754028e-02 4.076066985726356506e-02 -1.270060390233993530e-01 6.039782240986824036e-02 3.037060201168060303e-01 -3.212194889783859253e-02 -3.236151486635208130e-02 1.529720574617385864e-01 1.487955916672945023e-03 -1.923765689134597778e-01 -4.547848179936408997e-02 3.051632642745971680e-02 3.673883620649576187e-03 -5.454836785793304443e-02 8.056157827377319336e-02 1.852633953094482422e-01 3.738730773329734802e-02 1.690099239349365234e-01 -1.309644430875778198e-02 4.576367884874343872e-02 -2.916637808084487915e-02 -1.861563324928283691e-01 6.479176133871078491e-02 -2.844320535659790039e-01 5.469220224767923355e-03 -1.757927387952804565e-01 9.053522348403930664e-02 1.209707856178283691e-01 1.714944392442703247e-01 1.103656813502311707e-01 1.580876410007476807e-01 6.643535941839218140e-02 8.095035701990127563e-02 6.495793908834457397e-02 -3.331787884235382080e-02 -1.509925872087478638e-01 -3.503247499465942383e-01 -6.914705038070678711e-02 -4.435530304908752441e-02 -1.260682940483093262e-01 7.968030869960784912e-02 1.900630742311477661e-01 1.718343943357467651e-01 -3.999368846416473389e-02 2.380151301622390747e-01 -1.786146908998489380e-01 -2.297959476709365845e-02 2.624170109629631042e-02 5.643948912620544434e-02 -4.517203941941261292e-02 1.431194990873336792e-01 -7.913862168788909912e-02 1.442913115024566650e-01 2.258545607328414917e-01 5.832957476377487183e-02 -9.902328252792358398e-03 9.047105908393859863e-03 2.011956572532653809e-01 1.829395145177841187e-01 -2.129873493686318398e-03 -5.022311583161354065e-02 -1.292194128036499023e-01 1.811449974775314331e-02 -2.202278189361095428e-02 1.552665140479803085e-02 -8.895595371723175049e-02 7.504716515541076660e-02 -4.186474680900573730e-01 -2.555086314678192139e-01 -1.740355193614959717e-01 5.417010933160781860e-02 6.700834631919860840e-02 3.933710604906082153e-02 8.756189793348312378e-02 -1.017180364578962326e-02 3.854568302631378174e-02 -8.774841576814651489e-02 5.940025672316551208e-03 -6.462170183658599854e-02 3.053227439522743225e-02 -2.460934966802597046e-01 -5.997861549258232117e-02 1.378651410341262817e-01 3.523204475641250610e-02
1.173806488513946533e-01 -4.999193176627159119e-02 -8.583436906337738037e-02 6.210558488965034485e-02 1.603118143975734711e-02 -1.415163874626159668e-01 -1.788650304079055786e-01 -2.085593901574611664e-02 8.263805508613586426e-02 1.007361803203821182e-02 2.148261852562427521e-02 1.169285625219345093e-01 -8.018705062568187714e-03 -7.804527133703231812e-02 1.835989356040954590e-01 8.085536956787109375e-02 2.143519371747970581e-01 1.164318248629570007e-01 -1.334999948740005493e-01 -4.177112132310867310e-02 -1.511770114302635193e-02 -3.419720232486724854e-01 -6.076198816299438477e-02 1.630845852196216583e-02 4.228958860039710999e-02 6.570501625537872314e-02 6.904644519090652466e-02 5.798764526844024658e-02 1.295034140348434448e-01 9.270823746919631958e-02 -2.007142007350921631e-01 2.148463279008865356e-01 -7.638682425022125244e-02 -1.952013932168483734e-02 1.684177070856094360e-01 9.225644171237945557e-02 4.663469642400741577e-02 3.825306147336959839e-02 -8.581744506955146790e-03 -1.989264488220214844e-01 -6.399664282798767090e-02 -5.862250924110412598e-02 -4.663331061601638794e-02 -1.773772388696670532e-01 1.596303880214691162e-01 5.235978402197360992e-03 -3.640156239271163940e-02 7.223124057054519653e-02 3.952603414654731750e-02 1.579248309135437012e-01 1.790080219507217407e-02 -1.322699338197708130e-01 1.733555197715759277e-01 1.035589426755905151e-01 -1.890487223863601685e-02 3.805907815694808960e-02 -1.386261582374572754e-01 1.646299846470355988e-02 6.695707887411117554e-02 5.213636904954910278e-02 1.128412559628486633e-01 -2.775480151176452637e-01 5.382724106311798096e-03 7.111836224794387817e-02 3.846138715744018555e-02 -2.927925437688827515e-02 7.512255758047103882e-02 4.718159139156341553e-02 7.419908791780471802e-02 1.674670130014419556e-01 -2.271337956190109253e-01 1.425914466381072998e-01 -3.818682730197906494e-01 -3.884007036685943604e-02 -5.968453362584114075e-02 3.032028442248702049e-03 -7.087643444538116455e-02 -3.385461121797561646e-02 1.476104706525802612e-01 -1.476211706176400185e-03 -4.409329593181610107e-02 -7.770539075136184692e-02 4.274974390864372253e-02 -5.518283322453498840e-02 4.357484355568885803e-02 7.717981934547424316e-02 1.749063134193420410e-01 1.947190016508102417e-01 3.175299847498536110e-03 9.171909093856811523e-02 3.046032786369323730e-02 6.268278509378433228e-02 6.389838457107543945e-02 -1.490724086761474609e-01 3.732752054929733276e-02 -1.476766541600227356e-02 -2.142294496297836304e-01 -6.209179013967514038e-02 -4.657014012336730957e-01 -2.705691754817962646e-02 6.798429042100906372e-02 1.176853701472282410e-01 -2.028366923332214355e-01 5.223070830106735229e-02 -3.591434955596923828e-01 -3.611985146999359131e-01 -5.221641063690185547e-02 7.426388561725616455e-02 -7.271290570497512817e-02 4.423329606652259827e-02 -5.786471441388130188e-02 -2.518909238278865814e-02 1.267442852258682251e-01 5.011633411049842834e-02 -6.278396397829055786e-02 4.146260768175125122e-02 3.940408676862716675e-02 5.524823069572448730e-02 -2.872278392314910889e-01 -7.590471208095550537e-02 -9.148257784545421600e-03 8.101822435855865479e-02 1.335960160940885544e-02 -3.352331221103668213e-01 1.181113943457603455e-01 3.148694336414337158e-02 6.020513921976089478e-02 -5.326099693775177002e-02
1.188466511666774750e-02 8.019023574888706207e-03 -4.150438681244850159e-02 2.811625599861145020e-01 -4.072484746575355530e-02 7.867389172315597534e-02 1.163854673504829407e-01 -2.549880556762218475e-02 -8.837921917438507080e-02 5.802611261606216431e-02 6.922039203345775604e-03 -3.622741401195526123e-01 -3.991441428661346436e-02 7.381713483482599258e-03 -4.189904779195785522e-02 -4.446143284440040588e-02 -1.619719117879867554e-01 -8.869148492813110352e-01 1.237778961658477783e-01 8.376745134592056274e-02 6.414846051484346390e-03 7.453835755586624146e-02 -6.802202016115188599e-02 -6.700466573238372803e-02 -7.826065272092819214e-02 -3.680844008922576904e-01 -1.185144409537315369e-01 1.524336356669664383e-02 -1.131412666290998459e-02 -2.486086450517177582e-02 1.983520388603210449e-01 -6.742515414953231812e-02 5.754481628537178040e-02 3.894036635756492615e-02 2.344095893204212189e-02 1.013561934232711792e-01 -1.173902489244937897e-02 -4.674752429127693176e-02 6.569081544876098633e-02 -3.247530162334442139e-01 -4.259610921144485474e-02 1.296403408050537109e-01 1.251931022852659225e-02 -1.653034612536430359e-02 -2.677147984504699707e-01 2.146812900900840759e-02 5.821477994322776794e-02 -2.316316775977611542e-02 6.674377620220184326e-02 2.576559968292713165e-02 4.698655381798744202e-02 -2.011115476489067078e-02 2.430136352777481079e-01 2.125946134328842163e-01 -7.060365378856658936e-02 -1.800799667835235596e-01 6.623811274766921997e-02 4.593237861990928650e-02 -4.532846063375473022e-02 -3.211754858493804932e-01 1.616829484701156616e-01 9.957703948020935059e-02 -7.104850374162197113e-03 6.071720272302627563e-02 4.718320816755294800e-02 1.508305370807647705e-01 -3.643436357378959656e-03 2.144019454717636108e-01 -2.677189558744430542e-02 -3.101722002029418945e-01 6.796131283044815063e-02 -5.599441528320312500e-01 8.762431144714355469e-02 -5.322914719581604004e-01 -3.610760672017931938e-03 -2.045275717973709106e-01 -3.324399143457412720e-02 -3.764235973358154297e-02 -2.191657572984695435e-01 -5.944665893912315369e-02 5.408702045679092407e-02 7.871258258819580078e-02 -2.460990101099014282e-03 -1.333814300596714020e-02 -6.189331412315368652e-02 -3.964426815509796143e-01 -5.399280190467834473e-01 2.284459024667739868e-01 7.662801444530487061e-02 -9.079411625862121582e-02 1.976907067000865936e-02 -4.188647121191024780e-02 8.585634827613830566e-02 1.818626970052719116e-01 1.691723763942718506e-01 7.539412379264831543e-02 -1.845821291208267212e-01 -2.926646173000335693e-01 1.943949759006500244e-01 -1.704126712866127491e-03 3.167964145541191101e-02 -2.762616574764251709e-01 -1.674299240112304688e-01 3.364383429288864136e-02 1.299564242362976074e-01 4.041428864002227783e-02 -3.762115538120269775e-02 -1.952585577964782715e-02 -8.406444638967514038e-02 6.918059289455413818e-02 -5.974953249096870422e-02 8.281094580888748169e-02 8.178351819515228271e-02 2.142352424561977386e-02 5.920661240816116333e-02 4.846573993563652039e-02 -7.544084638357162476e-02 -5.521555542945861816e-01 1.340135559439659119e-02 1.798284053802490234e-01 1.914870552718639374e-02 -5.762386135756969452e-03 -4.228812758810818195e-04 -1.959648728370666504e-01 -3.630987927317619324e-02 3.132084012031555176e-02 -3.019481599330902100e-01 5.749351903796195984e-02
-5.306107997894287109e-01 -8.172404021024703979e-02 4.895072802901268005e-02 6.486462801694869995e-02 7.939325273036956787e-02 1.064390689134597778e-01 -5.618071928620338440e-02 3.755834698677062988e-02 -1.178934201598167419e-01 -5.770285055041313171e-02 -2.657321467995643616e-02 1.430711895227432251e-02 -5.899309646338224411e-03 -4.725543409585952759e-02 7.758481800556182861e-02 -2.952511049807071686e-02 -2.735023014247417450e-02 1.379537284374237061e-01 -5.030708014965057373e-02 -1.422234997153282166e-02 -7.522172480821609497e-02 2.290763556957244873e-01 -1.564583182334899902e-02 7.641495019197463989e-02 -2.989002875983715057e-02 2.390344440937042236e-01 1.941411644220352173e-01 6.544241309165954590e-02 9.329361468553543091e-02 7.283606100827455521e-03 -8.722224831581115723e-02 -1.057445723563432693e-02 1.926544308662414551e-01 1.303934119641780853e-02 -4.810228049755096436e-01 -4.941745102405548096e-02 -3.970135003328323364e-02 6.440957635641098022e-02 2.186068566516041756e-03 2.732133865356445312e-01 -2.929281815886497498e-02 -1.401775330305099487e-01 6.314686685800552368e-02 -1.324532777070999146e-01 -3.487416356801986694e-02 2.677519246935844421e-02 1.205321103334426880e-01 3.506858600303530693e-03 -1.535465419292449951e-01 -4.685426503419876099e-02 6.584825459867715836e-03 3.187550231814384460e-02 -5.160394310951232910e-01 1.292176246643066406e-01 -3.162416070699691772e-02 2.745156176388263702e-02 -3.454885631799697876e-02 9.179510176181793213e-03 3.732109069824218750e-02 1.375368684530258179e-01 -5.491552948951721191e-01 -4.042938817292451859e-03 -7.836550474166870117e-02 3.177270293235778809e-02 -1.624474301934242249e-02 2.386345341801643372e-02 4.283513873815536499e-02 -3.868246078491210938e-01 -1.827391423285007477e-02 2.489854842424392700e-01 6.955966353416442871e-02 2.390103787183761597e-01 -1.896726042032241821e-01 1.099073886871337891e-01 -4.478065371513366699e-01 1.912646442651748657e-01 3.179617226123809814e-02 -1.126655004918575287e-02 2.107699215412139893e-01 -3.696908429265022278e-02 -1.029259562492370605e-01 4.896783456206321716e-02 -3.313802182674407959e-02 -3.904002532362937927e-02 1.890256442129611969e-02 -2.653008699417114258e-01 1.410149633884429932e-01 1.983733475208282471e-01 6.965720653533935547e-02 1.970448717474937439e-02 7.176504284143447876e-02 -8.251227438449859619e-02 5.415807664394378662e-02 1.177580058574676514e-01 -4.055434763431549072e-01 -1.897032558917999268e-02 -6.648035347461700439e-02 -3.214027583599090576e-01 -1.283266246318817139e-01 -1.673213951289653778e-02 3.667196631431579590e-02 -2.976117134094238281e-01 -6.477925926446914673e-03 4.641674458980560303e-02 -2.688112109899520874e-02 9.662216156721115112e-02 -5.701221898198127747e-02 7.016743719577789307e-02 -2.530487254261970520e-02 7.848422229290008545e-02 7.182404398918151855e-03 8.759444206953048706e-02 1.848703026771545410e-01 1.838380843400955200e-01 -5.074990168213844299e-02 -3.193614259362220764e-02 -3.921040892601013184e-02 8.144751191139221191e-02 -5.629342980682849884e-03 7.088356465101242065e-02 3.647910431027412415e-02 -1.131417974829673767e-02 -6.424802541732788086e-02 -1.539202481508255005e-01 1.769669800996780396e-01 7.131299376487731934e-02 -1.410020738840103149e-01 8.592902868986129761e-02
9.308992326259613037e-02 -5.375671759247779846e-02 3.553509712219238281e-02 -2.291606217622756958e-01 -5.794591270387172699e-03 -8.740044385194778442e-02 -2.190505620092153549e-03 -6.704688817262649536e-02 4.293466359376907349e-02 -4.163098707795143127e-02 6.923560053110122681e-02 9.699915349483489990e-02 -3.502202779054641724e-02 1.468713278882205486e-03 1.585123240947723389e-01 4.115094989538192749e-02 -3.676319122314453125e-01 -1.245269849896430969e-01 5.848696082830429077e-02 4.301866143941879272e-02 5.968346446752548218e-02 -2.579205930233001709e-01 -8.976927399635314941e-02 4.931693151593208313e-02 -5.340818688273429871e-02 3.209520876407623291e-02 1.587454676628112793e-01 -2.377915531396865845e-01 -9.343928098678588867e-02 -1.409544795751571655e-01 5.368642136454582214e-02 -4.628536701202392578e-01 1.471264213323593140e-01 5.176484957337379456e-02 1.545964032411575317e-01 -3.709706962108612061e-01 -4.471383690834045410e-01 6.263132207095623016e-03 -2.167544793337583542e-03 1.192118227481842041e-01 1.590293459594249725e-02 1.919346116483211517e-02 6.877415627241134644e-02 1.848981678485870361e-01 -4.741705358028411865e-01 1.058070338331162930e-03 -3.983596563339233398e-01 -4.368313774466514587e-02 1.079247295856475830e-01 1.127558350563049316e-01 3.315336257219314575e-02 9.411660581827163696e-02 -3.682985901832580566e-01 -5.420043468475341797e-01 4.264614731073379517e-02 -1.037918254733085632e-01 -3.247684538364410400e-01 6.883645057678222656e-02 6.044528260827064514e-02 5.800220370292663574e-02 -1.693804711103439331e-01 -8.131650835275650024e-02 7.720502465963363647e-02 -7.176885381340980530e-03 4.596496000885963440e-02 9.666606038808822632e-02 6.201522774063050747e-04 -6.940499693155288696e-02 -5.946095660328865051e-02 1.089099794626235962e-01 9.027285873889923096e-02 -4.520959854125976562e-01 1.280454099178314209e-01 3.014211356639862061e-01 -2.769339084625244141e-01 -1.973304003477096558e-01 2.890986762940883636e-02 -1.590144634246826172e-02 -3.872754871845245361e-01 1.609113961458206177e-01 2.059085369110107422e-01 7.529628276824951172e-02 -7.656064629554748535e-02 -2.400240674614906311e-02 3.479343652725219727e-02 -4.413118958473205566e-01 -2.291291207075119019e-01 -6.162431836128234863e-01 4.636048153042793274e-02 -2.718199193477630615e-01 -5.254890024662017822e-02 -6.611092388629913330e-02 -6.830594688653945923e-02 -1.429641395807266235e-01 -3.708359971642494202e-02 -4.180702194571495056e-02 -6.284182518720626831e-02 -9.702393412590026855e-02 1.636325847357511520e-03 -2.455922402441501617e-02 -6.978727877140045166e-02 -2.775059342384338379e-01 9.239458292722702026e-02 -6.039026752114295959e-02 -4.921932891011238098e-02 1.500659435987472534e-01 -6.516050547361373901e-02 2.864325605332851410e-02 -7.746657729148864746e-02 -6.006630882620811462e-02 -6.066977977752685547e-02 -6.818401068449020386e-02 2.523390948772430420e-02 1.499158591032028198e-01 3.971120715141296387e-02 -5.692281294614076614e-03 -8.617978543043136597e-02 9.151625633239746094e-02 3.527569770812988281e-02 -1.390533000230789185e-01 -1.745697297155857086e-02 -8.536165207624435425e-02 -4.820051044225692749e-02 6.211580708622932434e-02 4.930403083562850952e-02 -2.124407142400741577e-02 2.932065129280090332e-01 5.808862671256065369e-02
8.982075750827789307e-02 -8.410313725471496582e-02 -1.061932817101478577e-01 1.872458755970001221e-01 1.230031368322670460e-03 9.437398612499237061e-02 -1.340781897306442261e-01 -6.410399079322814941e-02 2.506027519702911377e-01 -1.409977674484252930e-01 3.019902296364307404e-02 -4.246482551097869873e-01 -8.310228586196899414e-03 -3.563303127884864807e-02 -1.373931914567947388e-01 8.594012260437011719e-02 -6.034292746335268021e-03 1.093805059790611267e-01 -1.498555839061737061e-01 5.887038540095090866e-03 -8.014930784702301025e-02 1.859962195158004761e-01 -3.578123822808265686e-02 4.420321434736251831e-03 1.052595768123865128e-02 5.384603887796401978e-02 -5.388857126235961914e-01 3.436719626188278198e-02 -2.628027200698852539e-01 6.788004189729690552e-02 -1.612832248210906982e-01 1.041878610849380493e-01 -1.430757492780685425e-01 9.329551458358764648e-02 -3.450107946991920471e-02 5.307742208242416382e-02 7.435651123523712158e-02 1.279987115412950516e-02 -3.048312850296497345e-03 -1.184920072555541992e-01 -5.679223313927650452e-02 1.599257141351699829e-01 -4.246761277318000793e-02 4.370109736919403076e-02 1.844725906848907471e-01 -9.663802385330200195e-02 7.561424374580383301e-02 5.139314010739326477e-02 1.709068715572357178e-01 8.144021034240722656e-02 7.826522737741470337e-02 -2.429272830486297607e-01 6.631550937891006470e-02 1.637110300362110138e-02 -6.792341917753219604e-02 -3.795273303985595703e-01 7.323741167783737183e-02 8.648394793272018433e-02 8.002457022666931152e-02 8.646254241466522217e-02 5.693597253412008286e-03 1.044949591159820557e-01 6.660321354866027832e-02 3.448015078902244568e-02 -4.531811922788619995e-02 -2.352528423070907593e-01 -1.603888273239135742e-01 1.527300924062728882e-01 6.941900402307510376e-02 4.145963862538337708e-02 -2.241877019405364990e-01 3.603837490081787109e-01 -1.298109814524650574e-02 8.975253999233245850e-02 -6.262919306755065918e-02 1.806983500719070435e-01 8.632509410381317139e-02 2.171356603503227234e-02 -1.083869338035583496e-01 -1.641123145818710327e-01 2.697253227233886719e-01 -8.380831778049468994e-02 2.993272244930267334e-02 -1.114659085869789124e-01 -1.770768687129020691e-02 9.830664098262786865e-02 1.072748005390167236e-01 -1.232928857207298279e-01 -1.488644033670425415e-01 7.147937268018722534e-02 6.058995053172111511e-02 -7.034184038639068604e-02 1.145494822412729263e-02 1.626896560192108154e-01 1.804243624210357666e-01 6.436740607023239136e-02 -1.796950846910476685e-01 1.925870776176452637e-01 2.201462239027023315e-01 -3.678654879331588745e-02 1.125572249293327332e-02 1.298127770423889160e-01 -1.099519655108451843e-01 4.392813891172409058e-02 1.914862543344497681e-01 -1.128548234701156616e-01 7.310072332620620728e-02 -5.583600327372550964e-02 -6.847993284463882446e-02 1.227828115224838257e-02 -3.729743510484695435e-02 -2.571728266775608063e-02 -8.451502770185470581e-02 -2.266708165407180786e-01 -7.060594856739044189e-02 6.707458943128585815e-02 -7.172908633947372437e-02 -1.910164803266525269e-01 4.095962643623352051e-02 -8.874586969614028931e-02 -5.123884417116641998e-03 6.346506625413894653e-02 1.905161701142787933e-02 1.114714965224266052e-01 -1.007571071386337280e-01 3.567065298557281494e-02 4.409068077802658081e-02 -6.586487591266632080e-02
-1.252095252275466919e-01 7.765559852123260498e-02 6.642730534076690674e-02 -4.084969684481620789e-02 -2.884499495849013329e-03 -2.159393019974231720e-02 1.594545133411884308e-02 -1.830972544848918915e-02 -1.862438581883907318e-02 1.960422471165657043e-02 7.145524770021438599e-02 1.310340911149978638e-01 5.255527794361114502e-02 -3.359376639127731323e-02 -1.904848814010620117e-01 1.189389824867248535e-02 -2.814946472644805908e-01 6.365809589624404907e-02 6.646081805229187012e-02 -3.696409240365028381e-02 -9.012150019407272339e-02 -2.027769237756729126e-01 -4.387758672237396240e-02 -6.853092461824417114e-02 -9.410369396209716797e-02 5.071896314620971680e-02 -1.264636963605880737e-01 -7.923262566328048706e-02 7.855023443698883057e-02 1.138342730700969696e-02 -1.871146261692047119e-02 -1.237011477351188660e-01 2.058454789221286774e-02 -1.696626543998718262e-01 1.092537716031074524e-01 -1.786189898848533630e-02 3.658693283796310425e-02 1.176756713539361954e-02 -1.934759505093097687e-02 -3.381214663386344910e-02 -2.019476145505905151e-03 -2.621416449546813965e-01 3.296817839145660400e-02 -2.542590796947479248e-01 -5.658783018589019775e-02 1.077342554926872253e-01 3.806394059211015701e-03 -2.328614331781864166e-02 -1.511484533548355103e-01 8.886819332838058472e-02 -1.849024370312690735e-02 1.352116912603378296e-01 -1.002031266689300537e-01 -5.421517789363861084e-02 3.231556713581085205e-02 1.201908662915229797e-01 2.972886897623538971e-02 -1.789746619760990143e-02 -1.962839998304843903e-02 1.149803772568702698e-02 6.479984521865844727e-02 -4.644839465618133545e-01 -5.088501796126365662e-02 2.182757854461669922e-02 -5.578427761793136597e-02 -1.471968293190002441e-01 6.827765703201293945e-02 -4.516703784465789795e-01 -5.686631891876459122e-03 3.705328330397605896e-02 1.102784648537635803e-01 -1.947872340679168701e-01 -2.246326655149459839e-01 -1.804958432912826538e-01 2.236095489934086800e-03 -1.970501840114593506e-01 -6.161280721426010132e-02 7.230619341135025024e-02 -3.121269643306732178e-01 5.834014154970645905e-03 -4.899284839630126953e-01 -2.764216251671314240e-02 -6.858842819929122925e-02 1.747268587350845337e-01 -2.170025371015071869e-02 -9.157294034957885742e-02 -5.422420054674148560e-02 -1.364315301179885864e-01 -3.987009525299072266e-01 8.425769209861755371e-02 -5.666069686412811279e-02 -5.484699830412864685e-02 -2.999371476471424103e-02 8.566369861364364624e-02 2.200002223253250122e-02 -4.802418500185012817e-02 9.359208494424819946e-02 -8.429436385631561279e-02 3.592032194137573242e-02 4.220625013113021851e-02 1.386299729347229004e-02 -3.713616132736206055e-01 4.761040955781936646e-02 -4.989372566342353821e-03 -1.801898926496505737e-01 6.158322840929031372e-02 -1.961016468703746796e-02 -6.176381558179855347e-02 -3.955328091979026794e-02 2.637988328933715820e-02 -7.661098241806030273e-02 1.277873814105987549e-01 1.852715164422988892e-01 1.754231005907058716e-02 7.139994204044342041e-02 -9.209407866001129150e-02 -6.729361414909362793e-02 -1.590908914804458618e-01 1.511443108320236206e-01 -2.367078065872192383e-01 3.580011054873466492e-02 1.973494142293930054e-02 6.204104516655206680e-03 1.270349025726318359e-01 -3.704523444175720215e-01 -6.426049768924713135e-02 -1.626306325197219849e-01 1.847466081380844116e-02
1.366219483315944672e-03 -6.516242772340774536e-02 4.651531204581260681e-02 -3.064203560352325439e-01 -6.701921671628952026e-02 1.544422060251235962e-01 8.044164627790451050e-02 4.981190711259841919e-02 -5.689070224761962891e-01 -8.636323362588882446e-02 -9.052018821239471436e-02 -5.423987284302711487e-03 7.936385273933410645e-02 5.729070678353309631e-02 -3.763825893402099609e-01 -4.240198060870170593e-02 -1.188838779926300049e-01 5.015021935105323792e-02 -3.389611467719078064e-02 8.078093081712722778e-02 1.642683707177639008e-02 1.086445897817611694e-01 -4.655043408274650574e-02 7.629620283842086792e-02 6.637184321880340576e-02 1.461972743272781372e-01 -3.356398940086364746e-01 1.020564511418342590e-01 -1.861541904509067535e-02 1.317848563194274902e-01 -5.841294303536415100e-02 1.049842685461044312e-01 -1.471708267927169800e-01 5.624739080667495728e-02 8.785763382911682129e-02 8.351618796586990356e-02 1.118902340531349182e-01 1.377693377435207367e-02 5.346865579485893250e-02 1.238393932580947876e-01 3.371626511216163635e-02 1.466620527207851410e-02 -1.483093015849590302e-02 -1.028777956962585449e-01 1.519025266170501709e-01 -6.592044234275817871e-02 8.596044778823852539e-02 -8.739656209945678711e-02 -2.689584791660308838e-01 -2.848297655582427979e-01 4.768955707550048828e-02 1.615899614989757538e-02 -1.133854389190673828e-01 1.663068532943725586e-01 5.383049696683883667e-02 8.881717920303344727e-02 -3.169316332787275314e-04 -7.418979704380035400e-02 6.284074485301971436e-02 -3.631128668785095215e-01 4.487743973731994629e-02 1.350516527891159058e-01 -8.185670524835586548e-02 7.830744981765747070e-02 -5.973729863762855530e-02 2.739268243312835693e-01 -5.112793669104576111e-02 1.425772905349731445e-01 -8.565319329500198364e-02 -1.562014520168304443e-01 -3.212285935878753662e-01 -3.880197405815124512e-01 9.283514320850372314e-02 -4.422315061092376709e-01 1.524220705032348633e-01 -1.537630558013916016e-01 -2.302375435829162598e-02 8.199997246265411377e-03 3.920018672943115234e-02 1.803560368716716766e-02 -2.279870361089706421e-01 -3.290032967925071716e-02 3.957834094762802124e-02 1.151784975081682205e-02 5.528187751770019531e-02 6.898336112499237061e-02 -7.198125869035720825e-02 1.677468270063400269e-01 1.048539951443672180e-01 1.791976578533649445e-02 -2.978570386767387390e-02 4.940882325172424316e-02 2.052527107298374176e-02 8.454704284667968750e-02 2.071870863437652588e-02 -2.539769746363162994e-02 -1.714808344841003418e-01 -5.334146618843078613e-01 -9.865824133157730103e-02 -1.360013615339994431e-02 -8.159077167510986328e-02 -2.914392650127410889e-01 -3.013688027858734131e-01 2.839965978637337685e-03 1.653709858655929565e-01 9.431333839893341064e-02 1.584113575518131256e-02 5.802483856678009033e-02 -2.520273067057132721e-02 3.014134243130683899e-02 -7.593928277492523193e-02 1.000915169715881348e-01 2.024392783641815186e-02 -9.792827069759368896e-02 3.764177113771438599e-02 -1.767677441239356995e-02 -4.711253568530082703e-02 -3.386950585991144180e-03 -9.602796286344528198e-02 -2.619256377220153809e-01 4.526660963892936707e-02 -7.399018108844757080e-02 5.556559562683105469e-02 9.342194348573684692e-02 1.320762038230895996e-01 -7.431959360837936401e-02 4.963526874780654907e-02 -2.208051271736621857e-02
