1.366098970174789429e-01 -3.902098396793007851e-03 -2.054483890533447266e-01 -1.301687657833099365e-01 2.374467998743057251e-01 3.286831974983215332e-01 -3.621787577867507935e-02 -1.027844846248626709e-01 3.910747542977333069e-02 9.355459362268447876e-02 -4.079885035753250122e-02 4.209698177874088287e-03 1.063112169504165649e-02 1.471481472253799438e-01 -1.031801849603652954e-01 3.192159906029701233e-02 -9.950987994670867920e-03 1.264407038688659668e-01 2.343658506870269775e-01 -6.620828807353973389e-02 5.889185145497322083e-02 -5.275564193725585938e-01 -1.659250855445861816e-01 1.021596416831016541e-01 4.236156120896339417e-02 -1.051588505506515503e-01 -8.578027039766311646e-02 1.747190207242965698e-01 4.577521979808807373e-02 9.610159695148468018e-02 6.949454545974731445e-02 -2.548414468765258789e-01 1.732569932937622070e-01 -2.693985961377620697e-02 -4.152103662490844727e-01 -2.200183272361755371e-01 1.393207758665084839e-01 -3.674641624093055725e-02 1.613557338714599609e-01 -3.231887519359588623e-02 -1.180983856320381165e-01 -2.281202226877212524e-01 1.493823826313018799e-01 -8.710563182830810547e-02 5.821289494633674622e-03 -3.852243125438690186e-01 -1.856050342321395874e-01 4.969788715243339539e-02 1.517228335142135620e-01 -1.118198689073324203e-02 9.909051470458507538e-03 2.942278981208801270e-01 -5.234348401427268982e-02 -1.229157149791717529e-01 -1.418449264019727707e-02 1.639021784067153931e-01 1.223036926239728928e-02 -2.141802906990051270e-01 -5.876182913780212402e-01 1.266649663448333740e-01 9.491081535816192627e-02 1.193230748176574707e-01 -5.874480009078979492e-01 -1.633725613355636597e-01
-1.976710557937622070e-01 2.200300060212612152e-02 2.333176881074905396e-01 -6.544864922761917114e-02 1.898368895053863525e-01 4.867134392261505127e-01 -2.807309292256832123e-02 -1.180466189980506897e-01 -1.832369528710842133e-02 6.936562806367874146e-02 1.281164586544036865e-01 -4.549929127097129822e-02 1.941327750682830811e-02 7.553453743457794189e-02 3.068122081458568573e-02 -7.861259579658508301e-02 -4.627561569213867188e-01 3.340775892138481140e-02 -9.138093888759613037e-02 -6.462808698415756226e-02 -7.590926438570022583e-02 6.659957766532897949e-02 -1.363513171672821045e-01 -6.986014544963836670e-02 6.907815486192703247e-02 5.051208660006523132e-02 -8.219771087169647217e-02 5.618441104888916016e-01 -8.799409866333007812e-02 1.442868076264858246e-02 1.149410195648670197e-02 -1.808176487684249878e-01 2.706446647644042969e-01 -1.785532385110855103e-01 -3.712629377841949463e-01 -1.408584415912628174e-01 -2.930307090282440186e-01 8.369178324937820435e-02 -6.568085551261901855e-01 -2.929293550550937653e-02 1.289762258529663086e-01 -1.158392801880836487e-02 3.169023394584655762e-01 1.493989378213882446e-01 -7.368969172239303589e-02 1.098254621028900146e-01 5.651112273335456848e-02 -2.333607338368892670e-02 1.462054997682571411e-02 2.379215508699417114e-01 -2.933125942945480347e-02 -1.058489009737968445e-01 1.807540655136108398e-02 -1.788094453513622284e-02 -3.786586597561836243e-02 -3.230746090412139893e-01 -9.034091979265213013e-02 8.862177282571792603e-02 -1.641534268856048584e-01 1.738305240869522095e-01 -5.108189582824707031e-02 -3.516490757465362549e-01 1.688127517700195312e-01 -3.683842346072196960e-02
-2.033792883157730103e-01 8.360957354307174683e-02 -7.754941284656524658e-02 5.270418897271156311e-02 2.346240282058715820e-01 2.411680668592453003e-02 -8.062181621789932251e-02 -5.286364257335662842e-02 8.465839922428131104e-02 7.698848098516464233e-02 -2.940201573073863983e-02 -5.834406614303588867e-02 3.982213884592056274e-02 2.118905186653137207e-01 -8.588774502277374268e-02 1.131204366683959961e-01 1.443487405776977539e-01 -8.723949640989303589e-02 2.215995267033576965e-02 5.501624569296836853e-02 -1.181707084178924561e-01 -4.571537971496582031e-01 2.052194774150848389e-01 -1.129768639802932739e-01 -4.437996447086334229e-02 1.117314677685499191e-04 -7.595190405845642090e-02 -8.758433163166046143e-02 1.223378330469131470e-01 -4.495507478713989258e-02 3.218927234411239624e-02 2.354342862963676453e-02 1.023601666092872620e-01 3.860436677932739258e-01 9.349629282951354980e-02 -1.387988924980163574e-01 1.628163754940032959e-01 6.249459087848663330e-02 -8.148076385259628296e-02 8.657508343458175659e-02 6.232140585780143738e-03 2.961189746856689453e-01 -2.995306849479675293e-01 1.409256607294082642e-01 -5.118398740887641907e-02 -2.144434116780757904e-02 4.063069820404052734e-02 2.684518694877624512e-01 -4.314649403095245361e-01 1.389915347099304199e-01 -1.630018204450607300e-01 1.789071112871170044e-01 -1.144268065690994263e-01 -9.882748126983642578e-02 4.686898738145828247e-02 5.072139203548431396e-02 1.177389398217201233e-01 6.536279618740081787e-02 -2.198888808488845825e-01 7.653621584177017212e-02 -5.838912725448608398e-02 -4.602557122707366943e-01 2.304161787033081055e-01 1.330890059471130371e-01
1.704163849353790283e-01 9.931121021509170532e-02 1.329507529735565186e-01 -9.733793139457702637e-02 -3.107479810714721680e-01 1.628596484661102295e-01 -3.897382318973541260e-02 7.442517578601837158e-02 -1.062293723225593567e-01 2.843439877033233643e-01 3.433926962316036224e-03 6.534589827060699463e-02 -6.842841207981109619e-02 -1.725603640079498291e-01 1.143382936716079712e-01 3.189206123352050781e-01 2.286799252033233643e-01 8.082704991102218628e-02 1.720521040260791779e-02 2.846068516373634338e-02 -8.456874638795852661e-02 -6.836502254009246826e-02 3.363709524273872375e-02 6.972435861825942993e-03 5.150986835360527039e-02 -3.828643262386322021e-02 -1.234939321875572205e-01 -2.292141616344451904e-01 1.444062143564224243e-01 3.457229211926460266e-02 -4.011697322130203247e-02 3.062545359134674072e-01 -2.656577527523040771e-01 2.652940452098846436e-01 -1.064716428518295288e-01 -2.299284562468528748e-02 -2.021658718585968018e-01 9.566060453653335571e-02 -1.231502741575241089e-02 3.337113186717033386e-02 -2.257183194160461426e-02 -1.505082845687866211e-01 6.770971417427062988e-02 3.021295368671417236e-01 -1.032217219471931458e-01 1.886427849531173706e-01 7.360216695815324783e-03 4.852253943681716919e-02 3.094421327114105225e-02 -1.043393462896347046e-01 -1.068788170814514160e-01 -3.440791666507720947e-01 -8.343379199504852295e-02 6.732586026191711426e-02 5.737942829728126526e-02 -3.316248357295989990e-01 -8.032687753438949585e-02 3.318060887977480888e-03 1.257497519254684448e-01 -3.904242217540740967e-01 1.194918826222419739e-01 -1.630543023347854614e-01 1.350315362215042114e-01 5.677895992994308472e-02
-4.893697425723075867e-02 7.981293648481369019e-02 2.927936017513275146e-01 -3.612013533711433411e-02 -1.234960108995437622e-01 -5.610513091087341309e-01 5.506378412246704102e-02 1.283684819936752319e-01 7.546638697385787964e-02 -2.111435979604721069e-01 1.084589585661888123e-01 -1.087607890367507935e-01 -3.638845682144165039e-02 -5.951535701751708984e-01 -2.857013419270515442e-02 -2.457175552845001221e-01 -5.684726834297180176e-01 7.134643197059631348e-02 -2.091320008039474487e-01 -6.586097180843353271e-02 -2.923077717423439026e-02 1.936839669942855835e-01 1.266509741544723511e-01 3.069749474525451660e-02 -1.218039616942405701e-01 7.127146702259778976e-03 -7.231011241674423218e-02 2.164193093776702881e-01 -5.408700928092002869e-02 2.654348313808441162e-02 -3.178715240210294724e-03 -9.306167066097259521e-02 1.535528153181076050e-01 -3.330871462821960449e-01 1.223852857947349548e-02 1.035215705633163452e-01 2.583315074443817139e-01 4.548888280987739563e-02 -3.863996639847755432e-02 -5.470866709947586060e-02 9.241213649511337280e-02 -1.613258123397827148e-01 -8.463770151138305664e-02 -4.635511040687561035e-01 4.691630601882934570e-02 -9.859275817871093750e-02 -2.088168263435363770e-01 -3.704869449138641357e-01 3.175590187311172485e-02 -3.178636077791452408e-03 9.062634408473968506e-02 -1.143079474568367004e-01 -1.245752424001693726e-01 7.637708634138107300e-02 6.900260597467422485e-02 3.069778978824615479e-01 -1.049980998039245605e+00 2.425119653344154358e-02 1.418879181146621704e-01 3.430379331111907959e-01 -2.179497852921485901e-03 9.747563302516937256e-02 -2.977940440177917480e-01 5.327155813574790955e-02
-4.390776902437210083e-02 3.120399825274944305e-02 -5.564546585083007812e-01 -1.106210723519325256e-01 -2.432031780481338501e-01 1.740651726722717285e-01 -8.376659452915191650e-02 7.376606576144695282e-03 -4.052013531327247620e-02 -3.208245337009429932e-01 -9.215730428695678711e-02 1.065087839961051941e-01 1.153837367892265320e-01 1.510158479213714600e-01 -3.825202584266662598e-02 -1.775646395981311798e-02 1.973223239183425903e-01 6.794454902410507202e-02 7.343311607837677002e-02 -3.764606639742851257e-02 9.112641960382461548e-02 1.380669623613357544e-01 -3.204024434089660645e-01 1.092813089489936829e-01 8.836481720209121704e-03 3.605389595031738281e-02 3.845353424549102783e-02 -1.292795501649379730e-02 -3.347602784633636475e-01 2.581899426877498627e-02 1.260197609663009644e-01 -5.980376601219177246e-01 -7.283699512481689453e-02 -1.859338432550430298e-01 1.414341777563095093e-01 6.098677963018417358e-02 -9.044081717729568481e-02 -1.091295182704925537e-01 8.346680551767349243e-02 -1.814114861190319061e-02 -6.020124256610870361e-02 1.634050160646438599e-02 1.810821145772933960e-01 1.180989947170019150e-02 -7.974427193403244019e-02 1.484526097774505615e-01 6.586193293333053589e-02 1.919354647397994995e-01 2.169903069734573364e-01 -6.705021858215332031e-01 -2.489134669303894043e-01 -2.797024548053741455e-01 3.268887996673583984e-01 1.051454693078994751e-01 -8.066999912261962891e-02 3.764016553759574890e-02 2.729005515575408936e-01 9.027978777885437012e-02 1.609600782394409180e-01 -4.065307378768920898e-01 1.859877109527587891e-01 1.540307998657226562e-01 -3.845127299427986145e-02 5.834986269474029541e-02
1.955324970185756683e-02 -5.518524721264839172e-02 -3.942555487155914307e-01 -1.152380704879760742e-01 1.346253752708435059e-01 -4.203241318464279175e-02 7.719735056161880493e-02 -5.856056213378906250e-01 -1.077821776270866394e-01 2.978021278977394104e-02 9.021128714084625244e-02 -5.669919401407241821e-02 1.986837014555931091e-02 2.800014019012451172e-01 3.483704850077629089e-02 -4.289045631885528564e-01 -1.815069764852523804e-01 1.000331863760948181e-01 1.027101874351501465e-01 -4.996603238396346569e-04 -9.384653717279434204e-02 8.701728284358978271e-02 2.853702306747436523e-01 8.641828596591949463e-02 6.211835518479347229e-02 8.155345916748046875e-02 1.144086197018623352e-01 2.259523719549179077e-01 -5.916811823844909668e-01 -6.634918972849845886e-03 -5.401070415973663330e-02 2.397910803556442261e-01 1.680407524108886719e-01 -3.290922939777374268e-01 -3.879582285881042480e-01 -5.718782171607017517e-02 1.416564434766769409e-01 6.828529387712478638e-02 1.756330281496047974e-01 5.625199899077415466e-02 1.802092045545578003e-01 2.002104818820953369e-01 -1.348132491111755371e-01 -8.932007104158401489e-02 -4.392825439572334290e-02 6.438509374856948853e-02 -2.138473093509674072e-01 -2.047551050782203674e-02 1.631245464086532593e-01 -6.499473452568054199e-01 -1.990942507982254028e-01 1.197338402271270752e-01 -5.976409912109375000e-01 2.585884556174278259e-02 -4.089784994721412659e-02 1.642693281173706055e-01 -1.900424249470233917e-02 1.343484669923782349e-01 -5.064840912818908691e-01 -7.754226028919219971e-02 -4.706992208957672119e-01 7.470922917127609253e-02 -4.879010021686553955e-01 -8.462125062942504883e-02
-6.980208307504653931e-02 9.276420623064041138e-02 2.175676375627517700e-01 -2.240189537405967712e-02 1.563420891761779785e-01 -4.208619147539138794e-02 -9.685636498034000397e-03 1.323468685150146484e-01 1.008272171020507812e-01 1.320194303989410400e-01 8.360151201486587524e-02 -3.450398892164230347e-02 7.022910565137863159e-02 -3.438748419284820557e-02 1.207905355840921402e-02 1.290637999773025513e-01 -4.579986631870269775e-01 1.000906080007553101e-01 -1.280580610036849976e-01 -2.062304131686687469e-02 5.654948204755783081e-02 -1.589494794607162476e-01 1.463299989700317383e-02 3.122626245021820068e-02 -2.066497504711151123e-01 -4.021998122334480286e-02 4.031322151422500610e-02 6.500136107206344604e-02 -6.512714922428131104e-02 9.455908089876174927e-02 -8.523529022932052612e-02 7.419547438621520996e-02 3.114578425884246826e-01 3.429211080074310303e-01 1.300226598978042603e-01 6.234589219093322754e-02 -3.026620447635650635e-01 1.111038178205490112e-01 -1.626390367746353149e-01 -8.922256529331207275e-02 -1.337411552667617798e-01 -2.438744008541107178e-01 2.848969399929046631e-01 2.804534137248992920e-01 4.100895952433347702e-03 -1.438799649477005005e-01 -2.291936576366424561e-01 2.332486063241958618e-01 -3.251543641090393066e-01 -5.579638481140136719e-02 1.170438006520271301e-01 -2.159884423017501831e-01 1.320791244506835938e-01 -9.364835172891616821e-02 1.395726762712001801e-02 -1.368576884269714355e-01 1.754230707883834839e-01 -2.283083349466323853e-01 -9.440193325281143188e-02 2.209926098585128784e-01 -1.186378598213195801e-01 2.709809839725494385e-01 2.252978235483169556e-01 -5.484290122985839844e-01
1.205864772200584412e-01 8.201988413929939270e-03 -2.539537847042083740e-01 8.519662916660308838e-02 8.039278537034988403e-02 -5.058199167251586914e-01 -5.877754464745521545e-02 8.751944405958056450e-04 1.493870932608842850e-02 -3.296019732952117920e-01 -5.119799822568893433e-02 8.388882875442504883e-02 2.150956727564334869e-02 8.273049443960189819e-02 -9.345409274101257324e-02 -1.671315878629684448e-01 7.842689752578735352e-02 -9.169915318489074707e-02 1.540078595280647278e-02 -3.823798522353172302e-02 -2.268877997994422913e-02 -7.181335240602493286e-02 1.133134290575981140e-01 -7.935604453086853027e-02 1.425795555114746094e-01 2.698771283030509949e-02 1.676069688983261585e-03 -5.387969613075256348e-01 -1.488865166902542114e-02 5.234754458069801331e-02 -4.371679946780204773e-02 -5.231161415576934814e-02 -4.245029389858245850e-01 -2.300853133201599121e-01 2.486889362335205078e-01 1.972726583480834961e-01 -2.562281489372253418e-01 -1.208985075354576111e-01 1.430023312568664551e-01 -2.519741654396057129e-02 9.075026959180831909e-02 -2.597973942756652832e-01 -1.747302412986755371e-01 4.649906978011131287e-02 -6.922788918018341064e-02 -2.018040120601654053e-01 6.406656932085752487e-03 -2.513943612575531006e-01 2.852287702262401581e-02 -2.254389971494674683e-02 -3.699850663542747498e-02 2.838420569896697998e-01 -1.278209090232849121e-01 5.339148640632629395e-02 -1.127860918641090393e-01 1.187015622854232788e-01 -1.093641817569732666e-01 9.372996538877487183e-02 -4.223023355007171631e-02 -2.325543165206909180e-01 1.147323772311210632e-01 -3.284018039703369141e-01 -6.264806259423494339e-03 5.643949285149574280e-02
-7.133675366640090942e-02 7.105093449354171753e-03 -5.092472210526466370e-02 -1.073281690478324890e-01 -5.230066776275634766e-01 -2.642147243022918701e-01 7.696799002587795258e-03 1.782903224229812622e-01 -2.967564575374126434e-02 9.223175048828125000e-02 -7.279261201620101929e-02 -3.280643746256828308e-02 -1.370971091091632843e-02 -8.357900381088256836e-02 9.072941541671752930e-02 -1.907963603734970093e-01 1.084454804658889771e-01 -4.325430095195770264e-02 1.033021733164787292e-01 5.040876939892768860e-02 1.482624933123588562e-02 8.176876604557037354e-02 -3.327570855617523193e-02 5.145716667175292969e-02 -7.557404041290283203e-02 -9.338471107184886932e-03 -2.980892360210418701e-02 -3.391180038452148438e-01 8.580391854047775269e-02 8.314877748489379883e-03 -7.283706963062286377e-02 1.890920400619506836e-01 -1.056460663676261902e-01 -4.873982667922973633e-01 4.326038435101509094e-02 6.796694546937942505e-02 1.367527097463607788e-01 9.458994492888450623e-03 1.183279901742935181e-01 -1.063363403081893921e-01 -3.161034733057022095e-02 -6.433749794960021973e-01 -3.060906752943992615e-02 -6.457448005676269531e-01 5.378931388258934021e-02 -1.633991152048110962e-01 1.380831748247146606e-01 -5.712596774101257324e-01 9.675979614257812500e-02 2.510393559932708740e-01 1.942160427570343018e-01 -7.044441998004913330e-02 2.350575178861618042e-01 -6.445570290088653564e-02 -3.165709972381591797e-02 -2.650162577629089355e-01 8.436779491603374481e-03 -8.265628665685653687e-02 9.850175678730010986e-02 1.288761198520660400e-01 2.537842094898223877e-02 1.765337437391281128e-01 -1.799030601978302002e-01 -1.378463506698608398e-01
