7.200575619935989380e-02 1.293481588363647461e-01 -6.695719808340072632e-02 -4.046022891998291016e-01 6.189546361565589905e-02 -6.227597594261169434e-02 -1.572062447667121887e-02 1.081635504961013794e-01 4.782352596521377563e-02 3.162981942296028137e-02 -7.924532145261764526e-02 8.698803931474685669e-02 -6.115816533565521240e-02 -8.530206978321075439e-02 -6.530283689498901367e-01 1.930272281169891357e-01 -1.731341145932674408e-02 2.308286279439926147e-01 -5.443884059786796570e-02 2.222206257283687592e-02 -3.939961269497871399e-02 4.243298619985580444e-02 2.003824338316917419e-02 6.262433249503374100e-03 -1.494899690151214600e-01 3.761809691786766052e-02 1.689915955066680908e-01 -6.883738189935684204e-02 -3.951150923967361450e-02 -7.021770477294921875e-01 4.953583329916000366e-02 -3.806420415639877319e-02 -6.842505186796188354e-03 -3.341630473732948303e-02 -5.698660388588905334e-02 -5.099337697029113770e-01 1.300173550844192505e-01 -1.484484672546386719e-01 3.735767677426338196e-02 2.097959667444229126e-01 1.802176237106323242e-01 5.815445259213447571e-02 -1.672221231274306774e-03 -5.932784080505371094e-01 -3.676693513989448547e-02 -5.599470809102058411e-02 -6.760428100824356079e-02 1.151474863290786743e-01 -1.632061041891574860e-02 1.444781273603439331e-01 7.600939273834228516e-02 -6.063927412033081055e-01 3.649157006293535233e-03 -5.144299864768981934e-01 3.348381072282791138e-02 1.955036669969558716e-01 -4.310219362378120422e-02 5.078403279185295105e-02 2.763065099716186523e-01 -8.246680349111557007e-02 -3.612840920686721802e-02 4.970602225512266159e-03 2.043923884630203247e-01 -9.479106217622756958e-02 -3.005621396005153656e-02 -6.440144777297973633e-01 -4.084471240639686584e-02 2.691351249814033508e-02 5.149550735950469971e-03 2.402576245367527008e-02 -2.208220809698104858e-01 1.376248896121978760e-01 -9.551915340125560760e-03 -3.782686963677406311e-02 -9.745716452598571777e-01 5.358197540044784546e-02 -3.549563512206077576e-02 -1.530291587114334106e-01 2.379216402769088745e-01 -1.359202619642019272e-02 8.398611843585968018e-02 1.564277149736881256e-02 -2.089181542396545410e-02 2.106488682329654694e-02 -4.583220481872558594e-01 -2.466890960931777954e-01 1.231645420193672180e-01 -1.733251661062240601e-01 2.429602481424808502e-02 -2.162339538335800171e-01 4.093341529369354248e-02 4.041500017046928406e-02 2.540224604308605194e-02 5.853216722607612610e-02 4.197176173329353333e-02 -3.078345395624637604e-02 -7.239942997694015503e-02 3.324713110923767090e-01 8.834285289049148560e-02 3.071888722479343414e-02 -1.884903311729431152e-01 6.323830038309097290e-02 -6.695789843797683716e-02 -4.262871146202087402e-01 2.872487306594848633e-01 -1.797064021229743958e-02 -5.787312611937522888e-02 2.004009857773780823e-02 -3.253371715545654297e-01 1.080957800149917603e-02 1.970723271369934082e-02 2.048606052994728088e-02 -8.189322054386138916e-02 4.373921453952789307e-02 -5.384252667427062988e-01 3.155858814716339111e-01 -1.381595339626073837e-02 -2.051336020231246948e-01 1.463150680065155029e-01 -9.070345759391784668e-02 -2.153353542089462280e-01 -6.092997789382934570e-01 -2.894175052642822266e-01 2.351681143045425415e-01 5.025405809283256531e-02 -3.242132663726806641e-01 -1.182113960385322571e-02 2.753841876983642578e-01
-3.362615704536437988e-01 -3.595740199089050293e-01 -3.080064803361892700e-02 5.679780989885330200e-02 -1.938112378120422363e-01 9.112982079386711121e-03 3.578228503465652466e-02 -3.161393702030181885e-01 -7.910482585430145264e-02 -1.914049498736858368e-02 -2.507041022181510925e-02 2.445696108043193817e-02 3.216842412948608398e-01 4.457590728998184204e-02 1.910556256771087646e-01 3.987640142440795898e-03 2.310507893562316895e-01 -1.363194882869720459e-01 -3.421037271618843079e-02 6.550014764070510864e-02 6.254557520151138306e-02 3.557088673114776611e-01 -6.118397787213325500e-02 1.861506141722202301e-02 6.243155524134635925e-02 -3.329067677259445190e-02 -4.700753092765808105e-01 1.276339869946241379e-02 -7.646372914314270020e-02 -3.368068039417266846e-01 -4.312583804130554199e-02 -3.545999154448509216e-02 3.340079262852668762e-02 1.988166868686676025e-01 8.014443516731262207e-02 5.304570794105529785e-01 1.870763152837753296e-01 1.366073042154312134e-01 -8.439157903194427490e-02 -2.369023412466049194e-01 -1.941378265619277954e-01 3.852023184299468994e-02 -7.737135142087936401e-02 2.810840904712677002e-01 3.788389638066291809e-02 -1.720813065767288208e-01 7.665161043405532837e-02 -5.066502690315246582e-01 -5.316710472106933594e-02 7.423068583011627197e-02 1.093447133898735046e-01 4.717945680022239685e-02 8.347790688276290894e-02 -1.271881349384784698e-02 4.223627224564552307e-02 8.693605661392211914e-02 -4.980794037692248821e-04 -3.390138223767280579e-02 2.272088825702667236e-01 -3.449096903204917908e-02 -5.696703121066093445e-02 -8.059912174940109253e-02 -3.781841397285461426e-01 1.145123410969972610e-02 7.352760434150695801e-02 -1.966854780912399292e-01 -5.025634169578552246e-02 2.852371335029602051e-02 3.116110712289810181e-02 -5.869837105274200439e-02 -7.598064839839935303e-02 -6.182137727737426758e-01 -5.371613055467605591e-02 -2.489734068512916565e-02 -7.357292622327804565e-02 1.087880581617355347e-01 -7.494352757930755615e-02 8.357554674148559570e-02 -6.088971719145774841e-02 -6.547286640852689743e-03 -7.326861470937728882e-02 -8.962100744247436523e-02 -3.995814919471740723e-02 -2.614505123347043991e-03 1.655981540679931641e-01 9.449531137943267822e-02 2.380899637937545776e-01 -5.998015999794006348e-01 -8.412692695856094360e-02 -5.716690048575401306e-02 -1.988039761781692505e-01 -1.743952333927154541e-01 2.158116996288299561e-01 7.086768746376037598e-02 3.486806992441415787e-03 5.051393061876296997e-02 1.838243007659912109e-02 1.290187239646911621e-01 -1.409312188625335693e-01 -3.374482989311218262e-01 2.349154949188232422e-01 -4.047509282827377319e-02 -2.301548793911933899e-02 -3.797959070652723312e-03 2.435733675956726074e-01 3.390193730592727661e-02 -2.076839655637741089e-02 -2.261137366294860840e-01 1.843581646680831909e-01 -3.380037844181060791e-01 3.489984944462776184e-02 -9.081241488456726074e-02 5.758839473128318787e-02 4.784384369850158691e-02 4.344619438052177429e-02 -1.615185141563415527e-01 -3.870645165443420410e-02 2.507375180721282959e-01 -1.560586392879486084e-01 -3.734346106648445129e-02 3.454738557338714600e-01 3.033341169357299805e-01 -1.194257363677024841e-01 -3.685182631015777588e-01 5.461793020367622375e-02 1.205001920461654663e-01 -1.480924338102340698e-02 1.938646733760833740e-01
1.273432224988937378e-01 5.772484466433525085e-02 4.848438501358032227e-02 -4.129702597856521606e-02 -1.102695688605308533e-01 4.968631640076637268e-02 -9.321273118257522583e-02 1.476609054952859879e-02 8.937145583331584930e-03 7.176316576078534126e-04 -2.912540175020694733e-02 4.860204458236694336e-02 -3.275029063224792480e-01 5.792686343193054199e-02 2.352374345064163208e-01 2.911395579576492310e-02 -4.004071950912475586e-01 1.296324133872985840e-01 -2.799114584922790527e-02 1.195799782872200012e-01 1.276552379131317139e-01 9.341429919004440308e-02 -4.782244190573692322e-02 -3.683127695694565773e-03 -1.279147863388061523e-01 2.462623268365859985e-02 4.875459149479866028e-02 1.982439681887626648e-02 2.813547663390636444e-02 -3.640339374542236328e-01 4.567596316337585449e-02 -5.171696096658706665e-02 3.173131495714187622e-02 1.949992924928665161e-01 4.310571774840354919e-02 -2.435895949602127075e-01 3.804912045598030090e-02 2.204161584377288818e-01 -3.769517317414283752e-02 1.556735485792160034e-01 1.033031046390533447e-01 3.668931499123573303e-02 -2.031926810741424561e-02 -9.011512249708175659e-02 1.802017539739608765e-02 2.268057763576507568e-01 -7.743914425373077393e-02 -7.078326493501663208e-02 -6.056835502386093140e-02 1.299238801002502441e-01 1.179626807570457458e-01 -3.684000670909881592e-01 1.343991309404373169e-01 -4.587389528751373291e-02 -5.108806118369102478e-02 1.242656558752059937e-01 -5.407676100730895996e-01 8.032939583063125610e-02 6.042598560452461243e-02 -5.084647983312606812e-02 -6.942214071750640869e-02 -8.629573881626129150e-02 2.388521656394004822e-02 5.526146292686462402e-02 3.283260017633438110e-02 -3.354480266571044922e-01 5.412111803889274597e-02 -8.199731260538101196e-02 -1.935728080570697784e-02 -3.060629218816757202e-02 -8.044893294572830200e-02 -3.934288620948791504e-01 -6.196486204862594604e-02 6.702274084091186523e-02 -5.835566297173500061e-02 -3.529257476329803467e-01 5.721372086554765701e-03 1.253866404294967651e-01 4.711762070655822754e-02 7.368708495050668716e-03 3.072850219905376434e-02 3.024984709918498993e-02 2.835012227296829224e-02 -9.665960446000099182e-03 1.948890835046768188e-01 -1.956517994403839111e-01 -5.512199401855468750e-01 2.506926059722900391e-01 3.569110035896301270e-01 -4.009786546230316162e-01 4.577903077006340027e-02 -1.035075914114713669e-02 4.548723250627517700e-02 -2.629595436155796051e-02 -3.208620473742485046e-02 7.098800688982009888e-02 -8.216587826609611511e-03 2.780249416828155518e-01 -9.839123487472534180e-02 1.925224065780639648e-01 1.449868548661470413e-02 -5.145322531461715698e-02 -6.877438724040985107e-02 1.955640874803066254e-02 3.286918699741363525e-01 5.627091974020004272e-03 -8.427393436431884766e-02 -3.794213235378265381e-01 8.131717890501022339e-02 -1.993421912193298340e-01 5.665479972958564758e-02 6.241114437580108643e-02 7.344504445791244507e-02 2.265651896595954895e-02 8.670721203088760376e-02 7.953661680221557617e-02 -1.054182648658752441e-02 2.933309413492679596e-02 3.006657958030700684e-01 2.895789407193660736e-02 -4.536878317594528198e-02 7.769361138343811035e-02 2.360668629407882690e-01 -1.727901846170425415e-01 7.411315292119979858e-02 -1.362151117064058781e-03 -2.214882224798202515e-01 -1.720174849033355713e-01
2.715149521827697754e-01 -2.431401759386062622e-01 1.951296254992485046e-02 5.852783471345901489e-02 -5.422126501798629761e-02 2.065432816743850708e-02 7.578212767839431763e-02 -3.533177673816680908e-01 2.400292083621025085e-02 6.224771216511726379e-02 6.049793958663940430e-02 5.826465040445327759e-02 -4.650184512138366699e-01 3.137585893273353577e-02 3.806894272565841675e-02 -1.685989946126937866e-01 -2.085134536027908325e-01 6.888335198163986206e-02 -5.690533667802810669e-02 2.231343183666467667e-03 6.072240695357322693e-02 -4.130329936742782593e-02 2.355677308514714241e-03 -4.517082124948501587e-02 3.212014213204383850e-02 -6.052816286683082581e-02 -1.636646687984466553e-02 -5.594772472977638245e-02 9.185631759464740753e-03 2.470680326223373413e-01 2.498457208275794983e-02 1.342508039670065045e-04 1.926548220217227936e-02 1.273254752159118652e-01 -6.690819561481475830e-02 2.211896628141403198e-01 1.486130952835083008e-01 -3.725127279758453369e-01 1.097963675856590271e-01 3.222905099391937256e-02 5.421926453709602356e-02 -4.743991047143936157e-02 -4.030351340770721436e-02 -4.532686173915863037e-01 5.517342314124107361e-02 2.081269770860671997e-01 -2.321157418191432953e-02 -6.086499094963073730e-01 4.578187316656112671e-02 5.755378305912017822e-02 -4.478110074996948242e-01 -8.292322978377342224e-03 -3.535883128643035889e-01 -3.820654749870300293e-01 -4.275423288345336914e-02 1.232910230755805969e-01 3.302119299769401550e-02 -2.247351408004760742e-02 -8.783326484262943268e-03 -2.547863498330116272e-02 -2.530801296234130859e-02 2.230596728622913361e-02 4.471094533801078796e-02 -2.675031311810016632e-02 4.628228023648262024e-02 1.466767638921737671e-01 4.045910760760307312e-02 2.920649759471416473e-02 -7.646825909614562988e-02 -2.051995322108268738e-02 2.974689304828643799e-01 2.707846462726593018e-01 3.477259725332260132e-02 -8.527132123708724976e-02 2.567582130432128906e-01 1.745019573718309402e-03 5.167546123266220093e-02 5.956321582198143005e-02 -1.536767035722732544e-01 -6.360014528036117554e-02 9.585835039615631104e-02 1.053010672330856323e-02 -1.902033574879169464e-02 7.188898324966430664e-02 2.103361785411834717e-01 9.614395350217819214e-02 -5.032571405172348022e-02 1.207325980067253113e-01 -1.641432344913482666e-01 1.063393875956535339e-01 -1.234354898333549500e-01 -1.700657047331333160e-02 8.759758621454238892e-02 6.961102038621902466e-02 -5.720395594835281372e-03 9.197865426540374756e-02 -1.161029934883117676e-02 -3.199280053377151489e-02 2.027987502515316010e-02 -1.249853074550628662e-01 1.819542944431304932e-01 8.090111659839749336e-04 -5.910706520080566406e-02 7.042581588029861450e-02 -4.975127056241035461e-02 3.179585933685302734e-02 6.414962559938430786e-02 -1.975617855787277222e-01 1.390608102083206177e-01 -2.105529010295867920e-01 -1.585546508431434631e-02 -6.127352640032768250e-02 3.863770514726638794e-02 -6.928898394107818604e-02 -2.017010003328323364e-01 -2.655929028987884521e-01 -5.107940360903739929e-02 2.024603039026260376e-01 1.332457810640335083e-01 1.588174141943454742e-02 1.631524711847305298e-01 2.894611358642578125e-01 -2.355140447616577148e-01 2.432020604610443115e-01 -1.258465927094221115e-02 -3.681148588657379150e-01 -1.106974706053733826e-01 -3.404681980609893799e-01
-5.382393002510070801e-01 1.278783679008483887e-01 6.182339414954185486e-02 -7.921370118856430054e-02 3.285785764455795288e-02 2.041634358465671539e-02 7.476782053709030151e-02 9.381683170795440674e-02 -4.519139975309371948e-02 -3.186027333140373230e-02 1.740143075585365295e-02 7.808577269315719604e-02 7.970824837684631348e-02 -7.898283749818801880e-02 -3.584605455398559570e-01 7.121157646179199219e-02 2.795702815055847168e-01 2.662969194352626801e-02 -5.380116403102874756e-02 4.704654589295387268e-02 -1.487788259983062744e-01 -1.019443720579147339e-01 -1.906869187951087952e-02 -2.900880016386508942e-02 -1.541395783424377441e-01 -8.088242262601852417e-02 3.440420329570770264e-01 4.825710505247116089e-02 -7.000154256820678711e-02 -4.642310366034507751e-02 3.008985519409179688e-02 -6.843011826276779175e-02 8.044586330652236938e-02 -2.057023532688617706e-02 3.916308283805847168e-02 -1.038339138031005859e-01 -4.093653559684753418e-01 -1.588539928197860718e-01 -5.634304285049438477e-01 -4.514174163341522217e-01 -8.426800966262817383e-01 -4.041619226336479187e-02 -1.934368349611759186e-02 1.309517025947570801e-01 5.853460729122161865e-02 -7.065001726150512695e-01 1.820292696356773376e-02 2.268185317516326904e-01 -2.508126012980937958e-02 -6.784479320049285889e-02 1.000569015741348267e-01 1.911715865135192871e-01 2.361376285552978516e-01 1.462972313165664673e-01 -5.179109796881675720e-02 -2.622404992580413818e-01 -3.345388174057006836e-01 5.030514672398567200e-02 -4.341003298759460449e-01 -6.065674498677253723e-02 -7.301174849271774292e-02 -4.365780949592590332e-02 -8.349650353193283081e-02 -7.239063829183578491e-02 5.130341276526451111e-02 2.038824409246444702e-01 8.294630795717239380e-03 -5.639453977346420288e-02 -5.022545903921127319e-02 2.833406068384647369e-02 -1.182000413537025452e-01 -3.670981898903846741e-02 4.889303818345069885e-02 -7.645963132381439209e-02 5.724308639764785767e-02 8.027862757444381714e-02 -1.602429896593093872e-02 6.862061470746994019e-02 -9.625742211937904358e-03 -1.197255682200193405e-02 -2.086066305637359619e-01 8.122263848781585693e-02 -6.302037090063095093e-02 -6.814903765916824341e-02 -7.662549018859863281e-01 7.895426452159881592e-02 1.286348104476928711e-01 -1.658218801021575928e-01 8.184742927551269531e-02 -6.431448739022016525e-03 2.030085921287536621e-01 -5.097367763519287109e-01 3.445956408977508545e-01 2.026122622191905975e-02 5.627585202455520630e-02 3.594116307795047760e-03 -6.943219923414289951e-04 1.060739085078239441e-01 6.451256573200225830e-02 7.270894199609756470e-02 7.807191461324691772e-02 -5.958886817097663879e-03 -2.350498549640178680e-02 1.229053214192390442e-01 -1.267860084772109985e-01 -7.296179234981536865e-02 -7.286430895328521729e-02 -9.075338952243328094e-03 1.851598918437957764e-01 -1.137868538498878479e-01 -4.301145300269126892e-02 -5.462922155857086182e-02 9.277111850678920746e-03 3.658864647150039673e-02 1.860220730304718018e-01 -3.008514046669006348e-01 -9.276940673589706421e-02 -1.728199273347854614e-01 -1.711484603583812714e-02 -2.866767719388008118e-02 4.223173856735229492e-01 1.775916069746017456e-01 2.953100763261318207e-02 -1.953714936971664429e-01 -4.754358902573585510e-02 -8.725855732336640358e-04 5.101080238819122314e-02 -6.132451072335243225e-02
-3.237040340900421143e-02 -1.496946811676025391e-02 -8.087622374296188354e-02 -7.807500660419464111e-02 5.378707870841026306e-02 -5.749250575900077820e-02 3.933081403374671936e-02 1.862112730741500854e-01 6.728779524564743042e-02 -6.741983443498611450e-02 -1.759766228497028351e-02 9.172898530960083008e-02 1.959785819053649902e-01 1.734974421560764313e-02 5.324313044548034668e-02 -5.850550159811973572e-02 -3.600087761878967285e-01 -4.622315466403961182e-01 7.981292903423309326e-02 1.538908947259187698e-02 -1.787043362855911255e-01 4.439597949385643005e-02 -1.962547376751899719e-02 1.011301670223474503e-02 1.388933807611465454e-01 -4.258761405944824219e-01 1.455897539854049683e-01 -6.418367475271224976e-02 -4.809986799955368042e-02 2.081191539764404297e-01 -6.998548656702041626e-02 -5.814708396792411804e-02 2.784462273120880127e-02 2.054733783006668091e-01 3.430910408496856689e-02 3.130713701248168945e-01 1.196304783225059509e-01 -2.457662820816040039e-01 2.151674628257751465e-01 -3.690736591815948486e-01 2.056086994707584381e-02 4.439029842615127563e-02 4.929441213607788086e-02 -5.922164767980575562e-02 -1.005456224083900452e-01 -6.553074810653924942e-03 7.379225641489028931e-02 -2.161362618207931519e-01 -2.952289208769798279e-02 5.662076175212860107e-02 -4.520953446626663208e-02 7.492395490407943726e-02 -5.199040770530700684e-01 2.760926783084869385e-01 -4.679986461997032166e-02 -3.820360898971557617e-01 2.687274515628814697e-01 -3.743827715516090393e-02 1.169549450278282166e-01 -2.518216148018836975e-02 7.769046351313591003e-03 1.146458368748426437e-02 4.540227726101875305e-02 4.824054613709449768e-02 -8.618098497390747070e-02 1.466324329376220703e-01 4.135444387793540955e-02 -9.435579925775527954e-02 -7.509769499301910400e-02 1.841522939503192902e-02 -5.139486789703369141e-01 4.970245808362960815e-02 -4.444150626659393311e-02 -6.718923896551132202e-02 1.545004248619079590e-01 -7.241873443126678467e-02 4.810636490583419800e-02 -1.011750176548957825e-01 -2.358313649892807007e-01 7.712031900882720947e-02 1.640707552433013916e-01 1.122819026932120323e-03 -3.714321926236152649e-02 -6.999973952770233154e-02 1.308570355176925659e-01 1.851937472820281982e-01 8.277718722820281982e-02 6.327141821384429932e-02 2.071423977613449097e-01 2.104649543762207031e-01 -7.475584000349044800e-02 1.851716637611389160e-01 -2.659912109375000000e-01 4.906496033072471619e-02 -7.918708771467208862e-02 2.352366037666797638e-02 4.868634417653083801e-02 -6.380650997161865234e-01 9.540728479623794556e-02 -3.481532214209437370e-03 -4.031759127974510193e-02 -8.933934569358825684e-02 -9.223076701164245605e-02 7.566547393798828125e-02 -1.207333207130432129e-01 3.711795061826705933e-02 -2.282238006591796875e-02 2.068734318017959595e-01 -3.897975683212280273e-01 2.397855818271636963e-01 -4.293261840939521790e-02 -3.588274493813514709e-02 -6.056722626090049744e-02 -5.951479077339172363e-02 1.775836646556854248e-01 4.575144127011299133e-02 -5.730875208973884583e-02 -4.099001362919807434e-02 -6.976777315139770508e-02 -4.572974285110831261e-04 -6.643159389495849609e-01 -4.656281769275665283e-01 8.177367597818374634e-02 2.502966225147247314e-01 3.357594832777976990e-02 -4.484672844409942627e-02 1.020088046789169312e-02 -9.908992797136306763e-02
-4.224431514739990234e-01 1.149328947067260742e-01 4.047456383705139160e-02 -3.538070321083068848e-01 -7.659040391445159912e-02 -6.398213654756546021e-02 7.347967475652694702e-02 1.957275420427322388e-01 -3.928753361105918884e-02 1.026558224111795425e-02 4.490609467029571533e-02 4.868476837873458862e-02 -4.389972686767578125e-01 -7.116328459233045578e-03 4.899401590228080750e-02 7.576090842485427856e-02 -2.323166877031326294e-01 -3.133092522621154785e-01 -9.243313968181610107e-02 -2.330224215984344482e-02 1.597308516502380371e-01 3.452176153659820557e-01 -2.834091521799564362e-02 -6.179946660995483398e-02 5.249006301164627075e-02 1.308450847864151001e-01 -7.878806442022323608e-02 -7.359346747398376465e-02 1.902838051319122314e-02 -4.729574620723724365e-01 -3.059541061520576477e-02 5.856714397668838501e-02 1.320785749703645706e-02 -3.220295011997222900e-01 -7.565864175558090210e-02 -7.196805477142333984e-01 -1.141099035739898682e-01 6.811270862817764282e-02 2.015013545751571655e-01 -2.405960112810134888e-01 1.142481528222560883e-02 2.900126203894615173e-02 9.628009051084518433e-03 7.342027872800827026e-02 3.111578710377216339e-02 -3.727408349514007568e-01 4.236027598381042480e-02 -2.957659661769866943e-01 5.539094097912311554e-03 1.480855643749237061e-01 3.509159013628959656e-02 -4.525848925113677979e-01 -1.379656884819269180e-02 -2.505949139595031738e-01 -5.358701199293136597e-02 3.532132208347320557e-01 1.438687145709991455e-01 1.000839937478303909e-02 1.506913155317306519e-01 -6.601694226264953613e-02 2.770199254155158997e-02 1.153306849300861359e-02 4.357331246137619019e-02 -8.815898001194000244e-02 6.344529986381530762e-02 -4.191127121448516846e-01 -8.038955181837081909e-02 2.987012267112731934e-02 -3.520213067531585693e-02 -7.133981585502624512e-02 3.593487441539764404e-01 1.825184822082519531e-01 -1.459594164043664932e-02 -1.546270959079265594e-02 -3.624554574489593506e-01 2.668217569589614868e-02 2.872384153306484222e-03 1.160814240574836731e-02 1.914302706718444824e-01 1.553437858819961548e-02 8.675988647155463696e-04 -7.272763550281524658e-02 2.996637113392353058e-02 -1.692529767751693726e-02 -7.803695797920227051e-01 -2.731822133064270020e-01 1.799749732017517090e-01 1.060467585921287537e-01 1.135998219251632690e-01 8.907392621040344238e-02 6.773216277360916138e-02 -4.946849942207336426e-01 -6.233915314078330994e-02 7.145533710718154907e-02 7.903649657964706421e-02 -2.256182022392749786e-02 8.715169876813888550e-02 -4.774371981620788574e-01 -5.233410000801086426e-01 2.773481234908103943e-02 -2.512060999870300293e-01 -4.729617759585380554e-02 7.635715603828430176e-02 1.222862973809242249e-01 -1.462146937847137451e-01 6.641437113285064697e-02 -5.181001871824264526e-02 2.347684353590011597e-01 -2.791366577148437500e-01 2.906987667083740234e-01 6.726548820734024048e-02 -6.408397108316421509e-02 3.461102768778800964e-02 -1.412932947278022766e-02 -1.054271459579467773e-01 2.375730574131011963e-01 1.462166756391525269e-02 2.909132046625018120e-03 5.909046158194541931e-03 -3.562929034233093262e-01 -2.291176617145538330e-01 9.518016129732131958e-03 7.036004215478897095e-02 8.450593799352645874e-03 -1.089917216449975967e-02 1.138830035924911499e-01 7.195577770471572876e-02 1.686467826366424561e-01
2.293041497468948364e-01 3.958677873015403748e-02 5.305570736527442932e-02 -1.304099708795547485e-01 -8.820855617523193359e-02 1.769894734025001526e-03 -7.627023756504058838e-02 -2.715609408915042877e-02 3.830567374825477600e-02 -8.326864987611770630e-02 -7.143925130367279053e-02 -6.113429740071296692e-02 2.022768557071685791e-01 -6.215622276067733765e-02 1.091506183147430420e-01 -1.030408367514610291e-01 5.630121752619743347e-02 -6.885243952274322510e-02 1.533143222332000732e-03 2.502765320241451263e-02 3.352636992931365967e-01 2.919187247753143311e-01 2.430045045912265778e-02 -4.218565672636032104e-02 -2.441490143537521362e-01 6.631471961736679077e-02 -6.470300257205963135e-02 3.619594126939773560e-02 2.281739749014377594e-02 -4.714449495077133179e-02 1.093355286866426468e-02 7.711961120367050171e-02 8.591927587985992432e-03 7.611725479364395142e-02 2.230329811573028564e-02 -1.181204691529273987e-01 2.985258586704730988e-02 -6.591120362281799316e-02 -3.171597123146057129e-01 -1.103375926613807678e-01 9.001639485359191895e-02 2.890827320516109467e-02 7.568896561861038208e-02 1.473666429519653320e-01 -4.541001841425895691e-02 1.423511952161788940e-01 -7.727707922458648682e-02 3.869226574897766113e-01 -2.109748311340808868e-02 -3.743822574615478516e-01 -9.137794375419616699e-02 1.168364286422729492e-01 2.012500166893005371e-01 5.976330488920211792e-02 7.986455410718917847e-02 -1.775162965059280396e-01 7.845852524042129517e-02 1.363723259419202805e-02 -1.000296920537948608e-01 -2.279696241021156311e-02 -6.823206692934036255e-02 4.360332712531089783e-02 -2.836238406598567963e-02 -4.349214211106300354e-02 -5.059530958533287048e-02 -1.516953855752944946e-01 -3.649493679404258728e-02 2.470062486827373505e-02 -5.606508255004882812e-02 5.164719745516777039e-02 4.727911949157714844e-02 1.302893757820129395e-01 -3.856203332543373108e-02 -2.845138870179653168e-02 -2.184308767318725586e-01 -1.295321285724639893e-01 -4.846611618995666504e-02 1.373833864927291870e-01 9.165151417255401611e-02 8.010741323232650757e-02 -5.796086788177490234e-01 2.896430343389511108e-02 7.805085182189941406e-02 -9.417791850864887238e-03 3.858014345169067383e-01 1.782147288322448730e-01 1.571617275476455688e-01 3.154056966304779053e-01 -3.916074633598327637e-01 1.383198797702789307e-01 -4.255394935607910156e-01 1.785592138767242432e-01 1.037067696452140808e-01 5.968902260065078735e-02 3.209078311920166016e-02 -1.950734294950962067e-02 5.563822761178016663e-02 1.126996353268623352e-01 8.355479687452316284e-02 1.861847937107086182e-01 2.057667225599288940e-01 -2.356808073818683624e-02 -5.168861150741577148e-02 -1.673475205898284912e-01 1.600369662046432495e-01 7.834039628505706787e-02 -3.748110681772232056e-02 -1.128554865717887878e-01 1.962739601731300354e-02 -2.605598568916320801e-01 5.345629528164863586e-02 -1.196925644762814045e-03 -4.525705054402351379e-02 7.658843416720628738e-03 7.084038108587265015e-02 -5.580550432205200195e-02 -3.293842449784278870e-02 -4.042313247919082642e-02 8.096486330032348633e-02 5.418730899691581726e-02 4.568088427186012268e-02 1.632049307227134705e-02 9.869823604822158813e-02 -6.352576017379760742e-01 2.911127917468547821e-02 -4.770966246724128723e-02 -6.463699042797088623e-02 4.538147151470184326e-02
-1.781308278441429138e-02 -5.277849733829498291e-02 -7.249567657709121704e-02 2.336215525865554810e-01 1.715320199728012085e-01 -5.574969574809074402e-03 -7.539756596088409424e-02 2.098464369773864746e-01 5.774479359388351440e-02 -9.366083890199661255e-02 2.983741834759712219e-02 -3.275045379996299744e-02 -3.779043853282928467e-01 4.723345860838890076e-03 1.743754744529724121e-01 8.798726648092269897e-02 -1.670618504285812378e-01 8.376028563361614943e-05 -5.500338971614837646e-02 -4.389238730072975159e-02 -9.532669186592102051e-02 -5.151823163032531738e-01 6.731528043746948242e-02 2.796163037419319153e-02 2.047273367643356323e-01 1.546301245689392090e-01 -4.278131127357482910e-01 -5.978880822658538818e-02 6.336350459605455399e-03 -3.615474402904510498e-01 -1.516131963580846786e-02 -6.628733535762876272e-05 -5.603526160120964050e-02 -1.248026937246322632e-01 -3.401433676481246948e-02 -4.758444130420684814e-01 -4.233440458774566650e-01 1.950183212757110596e-01 2.143518067896366119e-02 9.080330282449722290e-02 8.056385070085525513e-02 -4.824788868427276611e-02 -8.576198481023311615e-03 6.403983384370803833e-02 5.958423018455505371e-02 -9.244345873594284058e-02 7.143556326627731323e-02 -7.670968770980834961e-02 -8.268833905458450317e-02 1.024713888764381409e-01 1.499657779932022095e-01 -8.378095924854278564e-02 -1.729930341243743896e-01 1.736843287944793701e-01 6.309215724468231201e-02 -7.730092108249664307e-02 5.296080932021141052e-02 2.612334303557872772e-02 -3.048987686634063721e-01 3.989679738879203796e-02 2.340353280305862427e-02 -3.719990327954292297e-02 7.173628360033035278e-02 -7.298959791660308838e-02 -3.765045106410980225e-02 1.218556612730026245e-01 -8.688464015722274780e-02 4.215208813548088074e-03 4.389237612485885620e-03 -9.609389305114746094e-02 6.925586611032485962e-02 -6.050625443458557129e-02 2.304002270102500916e-02 6.263933330774307251e-02 8.172425441443920135e-03 3.148954361677169800e-02 -8.085292577743530273e-02 1.341890692710876465e-01 -5.421702265739440918e-01 5.751749966293573380e-03 1.523822695016860962e-01 -7.726552337408065796e-02 4.054403677582740784e-02 -3.718377649784088135e-02 -2.397046238183975220e-01 -3.331762850284576416e-01 -3.581402599811553955e-01 2.661203406751155853e-02 -3.706457316875457764e-01 5.721250176429748535e-02 -1.075789853930473328e-01 -1.454880367964506149e-02 -9.095351397991180420e-02 5.402584373950958252e-02 -6.685280054807662964e-02 -6.932386755943298340e-02 1.998744904994964600e-03 -1.716190129518508911e-01 1.044318228960037231e-01 -7.726340889930725098e-01 -4.082337617874145508e-01 1.862775534391403198e-02 -7.421651482582092285e-02 2.321184724569320679e-01 -4.801388382911682129e-01 -2.206007018685340881e-02 3.584922850131988525e-02 -8.703825622797012329e-02 1.369622200727462769e-01 -1.235587224364280701e-01 -4.612474516034126282e-02 -5.101715214550495148e-03 4.736352339386940002e-02 -4.518198966979980469e-02 -7.600119709968566895e-02 6.236555799841880798e-02 7.083550095558166504e-03 -2.451610416173934937e-01 -2.453967630863189697e-01 9.833798557519912720e-02 -2.224330902099609375e-01 -1.669479310512542725e-01 3.449604660272598267e-02 1.939716190099716187e-02 -7.929731160402297974e-02 8.139442652463912964e-02 2.657846920192241669e-02 -1.144147068262100220e-01
-6.482309103012084961e-02 1.106343269348144531e-01 -8.368264138698577881e-02 1.139552369713783264e-01 1.026120595633983612e-02 3.185402974486351013e-02 6.252057105302810669e-02 -1.682084798812866211e-01 -2.672575041651725769e-02 -7.486700080335140228e-03 -4.088497534394264221e-02 -8.959511667490005493e-02 1.157450750470161438e-01 6.752210203558206558e-03 -3.682264983654022217e-01 -1.033934578299522400e-01 1.299458444118499756e-01 1.202350854873657227e-01 7.963251322507858276e-02 3.118531405925750732e-02 -6.024215817451477051e-01 -4.846163392066955566e-01 7.150340080261230469e-02 -2.020992897450923920e-02 1.179129406809806824e-01 -5.432349070906639099e-02 3.149947822093963623e-01 -8.420006185770034790e-02 -5.124174430966377258e-02 2.131545245647430420e-01 6.896145641803741455e-02 1.457605231553316116e-02 -2.019978873431682587e-02 -3.420310318470001221e-01 -8.380583673715591431e-02 2.532412111759185791e-01 7.786335889250040054e-03 -3.585720062255859375e-01 -6.190050840377807617e-01 4.559731483459472656e-02 -4.953654855489730835e-02 6.817742437124252319e-02 -1.931990124285221100e-02 -5.957204848527908325e-02 -8.112318813800811768e-02 -1.103455666452646255e-03 7.349935173988342285e-02 -8.533176779747009277e-02 -5.097056180238723755e-02 -2.414035610854625702e-02 -1.710428595542907715e-01 6.337606906890869141e-02 9.293667227029800415e-02 9.670280665159225464e-02 -7.763040810823440552e-02 8.954407274723052979e-02 1.308723837137222290e-01 2.765201218426227570e-02 -3.794387280941009521e-01 2.124053984880447388e-02 2.482046559453010559e-02 5.368205532431602478e-02 7.950216531753540039e-02 5.445999652147293091e-02 -2.595839463174343109e-02 1.775541603565216064e-01 -3.468110039830207825e-02 -9.135869331657886505e-03 -6.108380481600761414e-02 7.345993816852569580e-02 2.385763637721538544e-02 -1.017214730381965637e-01 -7.766894996166229248e-02 5.941189825534820557e-02 1.238377988338470459e-01 2.043376266956329346e-01 2.642598189413547516e-02 -4.525728821754455566e-01 5.074178427457809448e-02 -9.391450881958007812e-02 -1.111121773719787598e-01 -4.673055186867713928e-02 4.776702821254730225e-02 1.512194797396659851e-02 -4.222334921360015869e-01 -1.395519673824310303e-01 -5.009294673800468445e-02 -4.040244221687316895e-01 -6.845515221357345581e-02 -9.415818378329277039e-03 1.547869443893432617e-01 1.557245254516601562e-01 -3.621558547019958496e-01 -4.087204113602638245e-02 2.480238676071166992e-02 4.886653274297714233e-03 7.352007925510406494e-02 1.430561542510986328e-01 1.120523661375045776e-01 1.299290657043457031e-01 1.881150528788566589e-02 -8.411556482315063477e-02 -3.067828342318534851e-02 -3.589766100049018860e-03 -6.682460308074951172e-01 -2.739352732896804810e-02 6.658867001533508301e-02 1.846509426832199097e-01 2.457995899021625519e-02 1.134464666247367859e-01 -6.156945228576660156e-02 5.913212522864341736e-02 -5.034723877906799316e-02 3.262433409690856934e-02 1.674928367137908936e-01 -6.846681982278823853e-02 -1.072961278259754181e-02 1.816997826099395752e-01 -5.912250280380249023e-01 5.224567651748657227e-02 -1.092840582132339478e-01 -2.936779260635375977e-01 -2.008776813745498657e-01 -1.784624345600605011e-02 -3.189098834991455078e-02 2.573888599872589111e-01 3.654270619153976440e-02 -2.430360473226755857e-04
