2.276877760887145996e-01 1.780355572700500488e-01 -1.698227524757385254e-01 2.001784294843673706e-01 -2.101733684539794922e-01 5.094094201922416687e-02 -3.783655539155006409e-02 -5.007222890853881836e-01 -1.899687796831130981e-01 -1.064376309514045715e-01 -6.769524216651916504e-01 1.326335519552230835e-01 4.119945317506790161e-02 -4.577593132853507996e-02 1.010918524116277695e-02 -1.066066510975360870e-02 3.274026885628700256e-02 -2.616669535636901855e-01 -5.689020156860351562e-01 -4.232155904173851013e-02 5.440305545926094055e-02 -5.373184084892272949e-01 -1.275020744651556015e-02 3.147218003869056702e-02 -3.490944579243659973e-02 6.892342865467071533e-02 4.166263714432716370e-02 -5.795488879084587097e-02 -2.055556923151016235e-01 -5.938834324479103088e-02 -5.846907570958137512e-02 -9.088893234729766846e-02 -3.788275718688964844e-01 -8.855858445167541504e-01 -3.054556548595428467e-01 -3.187376260757446289e-02 1.675990670919418335e-01 1.125259101390838623e-01 1.469130627810955048e-02 -7.266779541969299316e-01 8.860788494348526001e-02 -1.822155714035034180e-01 1.596160605549812317e-02 4.960297048091888428e-02 2.360675334930419922e-01 1.903000473976135254e-01 3.534098714590072632e-02 6.128963083028793335e-02 -5.795808881521224976e-02 1.055858209729194641e-01 1.119876354932785034e-01 -6.658440083265304565e-02 2.969632148742675781e-01 -1.532103051431477070e-03 -5.105862021446228027e-01 2.480611950159072876e-02 -4.582788646221160889e-01 1.566308438777923584e-01 1.618588343262672424e-03 -9.161970019340515137e-02 -3.519915044307708740e-01 4.641339927911758423e-02 7.031332701444625854e-02 -4.098322242498397827e-02 7.945363223552703857e-02 2.456352859735488892e-01 -4.888622164726257324e-01 3.517154604196548462e-03 -3.431676030158996582e-01 2.156187742948532104e-01 -6.331841945648193359e-01 3.424550965428352356e-02 1.678965389728546143e-01 2.061024866998195648e-02 -3.576637059450149536e-02 1.179500669240951538e-02 2.863282859325408936e-01 1.724507659673690796e-01 -8.282777667045593262e-02 1.576901823282241821e-01 7.115235179662704468e-02 -4.776277393102645874e-02 8.873911947011947632e-02 1.626196354627609253e-01 -8.375366218388080597e-03 -4.837481677532196045e-01 -3.498322963714599609e-01 2.615000009536743164e-01 9.768357500433921814e-03 2.883166968822479248e-01 1.830707304179668427e-02 1.732662494760006666e-04 4.812955483794212341e-02 -4.834675788879394531e-01 1.380152553319931030e-01 7.345585152506828308e-03 -6.430106163024902344e-01 -3.931098058819770813e-02 -7.710846513509750366e-02 -2.149591445922851562e-01 -6.017171964049339294e-02 7.193720340728759766e-02 4.649978131055831909e-02 -1.247363984584808350e-01 1.217629015445709229e-01 -8.402789384126663208e-02 1.666481494903564453e-01 -3.230476081371307373e-01 1.725612282752990723e-01 8.165603131055831909e-02 -1.907995715737342834e-02 1.255788654088973999e-01 3.155082091689109802e-02 4.517598077654838562e-02 7.274503260850906372e-02 -5.385218560695648193e-02 -4.327677655965089798e-03 -8.203962445259094238e-02 -1.721421070396900177e-02 6.422275304794311523e-02 -1.359593272209167480e-01 -3.812028467655181885e-01 -1.187168881297111511e-01 1.319324672222137451e-01 -8.776997216045856476e-03 1.244714707136154175e-01 -1.168125867843627930e-02 8.634781092405319214e-02
1.375826597213745117e-01 2.277636229991912842e-01 6.590617820620536804e-03 -3.103963434696197510e-01 4.614081680774688721e-01 -2.221591025590896606e-02 -7.952611148357391357e-02 4.970208704471588135e-01 -3.011495172977447510e-01 6.500929594039916992e-02 1.124943569302558899e-01 3.006606400012969971e-01 -4.784594103693962097e-02 -1.336704473942518234e-02 5.127606168389320374e-02 -9.616880863904953003e-02 -4.914417490363121033e-02 1.163027361035346985e-01 -3.796343207359313965e-01 1.796139180660247803e-01 6.186046451330184937e-02 -2.856422215700149536e-03 8.133716136217117310e-02 -6.324163079261779785e-02 -8.152754604816436768e-02 3.217320144176483154e-02 7.072798162698745728e-02 6.602200120687484741e-02 5.863484367728233337e-02 3.921884298324584961e-02 -2.540840581059455872e-02 -4.786405339837074280e-02 1.108264327049255371e-01 -1.849439553916454315e-02 -1.466080546379089355e-01 6.651923060417175293e-02 -2.472902387380599976e-01 2.814890258014202118e-02 3.894400084391236305e-03 -4.778542816638946533e-01 -6.499431282281875610e-02 -2.460686564445495605e-01 -6.326589733362197876e-02 -5.375874042510986328e-02 -6.334540843963623047e-01 -7.889689505100250244e-02 -3.566127037629485130e-03 -6.356207281351089478e-02 -2.745673805475234985e-02 9.493586421012878418e-02 2.620231360197067261e-02 -1.808782253647223115e-04 1.235118061304092407e-01 2.719525247812271118e-02 1.523760706186294556e-01 -4.834224656224250793e-02 -2.175772786140441895e-01 -2.903894186019897461e-01 -3.178857639431953430e-02 -2.637650631368160248e-02 2.724905908107757568e-01 -7.175644487142562866e-02 5.210723727941513062e-02 7.127604633569717407e-02 -7.089518755674362183e-02 -3.203673362731933594e-01 -8.979424834251403809e-03 -1.722805202007293701e-02 1.041170791722834110e-03 2.557180225849151611e-01 -7.852261513471603394e-02 -3.412037193775177002e-01 1.279747486114501953e-01 -2.963089011609554291e-02 -5.067537724971771240e-02 6.778945028781890869e-02 -9.627857804298400879e-02 -4.112614691257476807e-01 -2.162986546754837036e-01 1.335147023200988770e-01 1.902585476636886597e-02 -2.108864337205886841e-01 -6.131480261683464050e-02 2.363707572221755981e-01 -4.109478369355201721e-02 -1.860039979219436646e-01 -2.683175168931484222e-02 -9.307231754064559937e-02 -4.894778877496719360e-02 -6.959320902824401855e-01 7.819809019565582275e-02 -4.714516103267669678e-01 -7.532001286745071411e-02 3.205594718456268311e-01 1.805885732173919678e-01 3.693357482552528381e-02 2.940030097961425781e-01 -6.618954241275787354e-02 8.168379217386245728e-02 2.313200235366821289e-01 2.788016498088836670e-01 -4.184307157993316650e-01 4.057313129305839539e-02 4.697109013795852661e-02 8.438810706138610840e-02 -3.634874820709228516e-01 -1.966701894998550415e-01 1.187363639473915100e-01 -5.840669274330139160e-01 -3.242637813091278076e-01 3.303897976875305176e-01 1.064583584666252136e-01 2.435139715671539307e-01 -3.487276732921600342e-01 1.251642554998397827e-01 -1.500561833381652832e-02 -4.783102497458457947e-02 -4.547369200736284256e-03 -5.538333579897880554e-02 -3.566627204418182373e-02 1.550500933080911636e-02 -2.090288102626800537e-01 -7.502663731575012207e-01 -2.549778819084167480e-01 -3.591180443763732910e-01 -2.982221543788909912e-01 -9.501994587481021881e-03 -4.326964020729064941e-01
1.490413695573806763e-01 -3.629573881626129150e-01 5.764483474195003510e-03 3.580866754055023193e-02 -2.041645646095275879e-01 2.824750728905200958e-02 -2.553821541368961334e-03 -7.305769622325897217e-02 -2.908423244953155518e-01 1.276492923498153687e-01 3.479098379611968994e-01 -2.031018584966659546e-01 2.488672360777854919e-02 -4.379880055785179138e-02 1.734189130365848541e-02 -2.999637834727764130e-02 4.855348542332649231e-02 -1.052966192364692688e-01 -4.959003329277038574e-01 2.346193790435791016e-01 -3.707964345812797546e-02 6.123651564121246338e-02 8.864039927721023560e-02 -4.733283072710037231e-02 5.008925870060920715e-02 -6.870572268962860107e-02 -2.835969440639019012e-02 -2.248705737292766571e-02 1.843669563531875610e-01 -7.262892276048660278e-02 1.685115508735179901e-02 1.790110766887664795e-02 1.781401783227920532e-01 -2.900359332561492920e-01 2.409717589616775513e-01 -4.459214583039283752e-02 -1.192084699869155884e-01 -6.984358429908752441e-01 -5.044920742511749268e-02 -7.906525582075119019e-02 3.638267144560813904e-02 -1.142479404807090759e-01 9.444787283428013325e-04 -7.785391528159379959e-03 2.110219746828079224e-02 -1.251478120684623718e-02 7.139562070369720459e-02 3.512139199301600456e-03 -3.895052894949913025e-02 2.415585815906524658e-01 9.698215126991271973e-02 5.931758880615234375e-02 1.776410341262817383e-01 5.717744678258895874e-02 -4.320735335350036621e-01 -4.308661445975303650e-02 3.680821359157562256e-01 2.301215678453445435e-01 8.037866652011871338e-02 -1.945866644382476807e-01 1.391014903783798218e-01 -4.885677099227905273e-01 -4.948305338621139526e-02 -5.667261779308319092e-03 -7.936147600412368774e-02 2.544745206832885742e-01 1.792882084846496582e-01 1.757244393229484558e-02 2.054160386323928833e-01 1.033099591732025146e-01 -1.610146164894104004e-01 -2.709755301475524902e-01 2.515021339058876038e-02 -8.209159225225448608e-02 -3.525559231638908386e-02 -8.758351951837539673e-02 1.881050020456314087e-01 -2.303291112184524536e-01 -4.798876047134399414e-01 9.125441312789916992e-02 -8.754645474255084991e-03 -2.472376227378845215e-01 -1.177672948688268661e-02 -3.576609194278717041e-01 -2.011791057884693146e-02 -4.554309546947479248e-01 -4.248489439487457275e-02 1.777292340993881226e-01 7.859229808673262596e-04 5.487717315554618835e-02 2.280265539884567261e-01 1.730820387601852417e-01 5.954036861658096313e-02 -1.438490897417068481e-01 -1.027262508869171143e-01 -4.514084383845329285e-02 4.818537458777427673e-02 7.183279097080230713e-02 7.682356983423233032e-02 1.810348480939865112e-01 7.142204046249389648e-02 -4.616004601120948792e-02 -2.150929905474185944e-02 -3.282734379172325134e-02 -5.690614227205514908e-03 3.840250372886657715e-01 1.025187596678733826e-01 4.077381268143653870e-02 2.184069901704788208e-02 -1.524183303117752075e-01 -7.630120962858200073e-02 1.770266592502593994e-01 1.574673652648925781e-01 8.161621540784835815e-02 8.083222061395645142e-02 -1.035465393215417862e-02 -7.720586657524108887e-02 9.806853719055652618e-03 -6.897123157978057861e-02 -5.801123753190040588e-02 9.464582055807113647e-02 -5.982933565974235535e-03 -2.344250082969665527e-01 -4.623275399208068848e-01 4.711899533867835999e-02 -1.001494079828262329e-01 3.592717275023460388e-02 -1.159465089440345764e-01
1.039624512195587158e-01 -4.252111017704010010e-01 2.878495454788208008e-01 -2.300040274858474731e-01 1.657457947731018066e-01 2.271468751132488251e-02 4.478880017995834351e-02 -2.917657196521759033e-01 2.288351394236087799e-02 2.396871745586395264e-01 3.362542483955621719e-03 -2.699398100376129150e-01 -4.736603237688541412e-03 3.335064277052879333e-02 7.503623515367507935e-02 -6.287337839603424072e-02 4.027844220399856567e-02 -5.335775613784790039e-01 2.201549410820007324e-01 -1.521920226514339447e-02 1.049496829509735107e-01 4.883896186947822571e-02 -4.111293852329254150e-01 1.803331077098846436e-02 -7.507161051034927368e-02 4.726172424852848053e-03 -2.401139028370380402e-02 -8.879701793193817139e-02 4.630155116319656372e-02 -4.165656398981809616e-03 -6.892056018114089966e-02 -1.259109470993280411e-02 -2.471411228179931641e-01 4.791654646396636963e-02 -2.691743075847625732e-01 -2.192761749029159546e-02 -2.495511770248413086e-01 5.913204327225685120e-02 -1.016151234507560730e-01 -6.817658245563507080e-02 -2.066862732172012329e-01 -1.194093972444534302e-01 4.579784721136093140e-02 -2.823813818395137787e-02 1.176902726292610168e-01 4.716916382312774658e-02 -2.551045641303062439e-02 -6.370536983013153076e-02 -4.872483387589454651e-02 -3.571494296193122864e-02 4.657363053411245346e-03 -6.003484129905700684e-02 5.007816944271326065e-03 -7.598204910755157471e-02 -6.002304330468177795e-02 5.905106663703918457e-03 3.860408365726470947e-01 2.056842446327209473e-01 3.519345447421073914e-02 1.297584027051925659e-01 -1.063088774681091309e-01 1.960608214139938354e-01 -4.870132356882095337e-02 -3.479885160923004150e-01 6.182147562503814697e-02 -9.275342524051666260e-02 1.723859012126922607e-01 -5.558538064360618591e-02 3.050303161144256592e-01 6.969786435365676880e-02 3.408712148666381836e-01 -1.754310578107833862e-01 -2.613546252250671387e-01 3.779791295528411865e-03 -3.730097413063049316e-02 -3.174238279461860657e-02 6.519867479801177979e-02 1.039462089538574219e-01 5.797196924686431885e-02 -1.555115133523941040e-01 -6.066947430372238159e-02 1.390495449304580688e-01 -5.095075070858001709e-02 6.063838955014944077e-04 2.589314710348844528e-03 3.202095925807952881e-01 4.942794516682624817e-02 2.989642620086669922e-01 3.136480599641799927e-02 1.428858637809753418e-01 2.548977546393871307e-02 -7.061973959207534790e-02 -2.345330826938152313e-02 2.564338743686676025e-01 -2.140687555074691772e-01 -5.736723542213439941e-02 -1.128715723752975464e-01 -2.710069902241230011e-02 5.963673070073127747e-02 1.344305723905563354e-01 -5.288521647453308105e-01 2.209233045578002930e-01 -8.207271248102188110e-02 7.299456000328063965e-02 1.426871400326490402e-02 -5.865048244595527649e-02 -1.166898105293512344e-02 5.351490899920463562e-02 -2.371677458286285400e-01 2.786932699382305145e-02 1.473327726125717163e-01 -2.408437877893447876e-01 -1.771420091390609741e-01 -6.423968672752380371e-01 7.533936202526092529e-02 2.124273777008056641e-02 -1.101442612707614899e-02 4.525611698627471924e-01 3.260475024580955505e-02 -6.209068000316619873e-03 -2.087334096431732178e-01 -2.202202938497066498e-02 -6.520131826400756836e-01 -1.899248808622360229e-01 1.306157708168029785e-01 -1.111272796988487244e-01 1.903746975585818291e-03 5.581326410174369812e-02
-3.793739378452301025e-01 2.863435149192810059e-01 -3.776396438479423523e-02 -2.536926567554473877e-01 3.481561839580535889e-01 -1.757030002772808075e-02 4.027544707059860229e-02 -1.591679453849792480e-01 -1.565851569175720215e-01 -2.828988432884216309e-01 -2.245125323534011841e-01 2.671362757682800293e-01 1.927059516310691833e-02 1.864457502961158752e-02 3.751112520694732666e-02 2.857868187129497528e-02 -5.005308613181114197e-02 1.964310109615325928e-01 -1.807479113340377808e-01 -8.646761178970336914e-01 -2.886950969696044922e-03 -8.028898388147354126e-02 1.800894737243652344e-01 -5.831949040293693542e-02 3.288832306861877441e-02 3.517084941267967224e-02 -8.114895969629287720e-02 -3.783831745386123657e-02 1.655014157295227051e-01 3.295731917023658752e-02 -4.741520062088966370e-02 4.639495909214019775e-02 -2.986470460891723633e-01 2.814001142978668213e-01 7.720175385475158691e-02 -2.508681453764438629e-02 -4.584517478942871094e-01 9.010250866413116455e-02 -9.370777010917663574e-02 8.061510324478149414e-02 -5.470569133758544922e-01 1.141969189047813416e-01 -1.761137321591377258e-02 1.075699925422668457e-02 -3.610637485980987549e-01 -3.546962141990661621e-01 -6.800086796283721924e-02 -7.152053713798522949e-02 -5.402635037899017334e-02 -9.510479122400283813e-02 -6.876980513334274292e-02 -3.844521194696426392e-02 -6.229475140571594238e-01 1.441252417862415314e-02 9.516076743602752686e-02 6.635233014822006226e-02 -7.666871547698974609e-01 -8.733430504798889160e-02 -6.691693514585494995e-02 6.883000582456588745e-02 -2.071147412061691284e-01 -1.678403019905090332e-01 -5.893222242593765259e-02 -4.658779501914978027e-02 -1.285955216735601425e-02 1.333365682512521744e-03 -4.055441915988922119e-01 5.892232432961463928e-02 -4.640837013721466064e-01 4.572647437453269958e-02 -1.084509491920471191e-01 -4.790591001510620117e-01 -3.064331412315368652e-01 -4.111484438180923462e-02 -8.034865558147430420e-02 1.232111826539039612e-02 -6.205005645751953125e-01 -4.246699064970016479e-02 1.658112704753875732e-01 -1.470440030097961426e-01 1.320243068039417267e-02 2.834391891956329346e-01 2.639625594019889832e-02 -4.711972475051879883e-01 2.466018870472908020e-02 1.438596248626708984e-01 -1.855675876140594482e-01 -5.794731378555297852e-01 -1.737095043063163757e-02 -4.768748879432678223e-01 -1.429063547402620316e-02 -4.959990456700325012e-02 6.570038199424743652e-02 -6.061508655548095703e-01 1.783262193202972412e-01 2.815860137343406677e-02 1.374835968017578125e-01 5.426380783319473267e-02 -1.672390662133693695e-02 3.598877787590026855e-01 7.051213085651397705e-02 -1.544865220785140991e-01 7.703252881765365601e-02 -1.847256533801555634e-02 3.060237467288970947e-01 1.415853351354598999e-01 2.929425537586212158e-01 1.189901977777481079e-01 7.763457298278808594e-02 -6.636151578277349472e-03 -4.394002631306648254e-02 7.546465378254652023e-03 1.795742511749267578e-01 1.870048344135284424e-01 -2.477891892194747925e-01 3.159170970320701599e-02 3.530397266149520874e-02 -6.182808876037597656e-01 1.123788882978260517e-03 -1.789777074009180069e-03 7.836700230836868286e-02 -1.152002438902854919e-01 2.715913653373718262e-01 -1.949585825204849243e-01 2.118056826293468475e-02 1.522545218467712402e-01 5.748554319143295288e-02 5.376623570919036865e-02
1.349322777241468430e-02 7.547514047473669052e-03 -7.639473080635070801e-01 -1.876929700374603271e-01 -5.023707747459411621e-01 5.572232976555824280e-02 -7.764673978090286255e-02 -3.234318494796752930e-01 1.897265464067459106e-01 1.638665348291397095e-01 5.069297924637794495e-02 -2.306215092539787292e-02 4.307010769844055176e-02 4.328804090619087219e-02 6.599611137062311172e-03 -6.074038147926330566e-02 1.107165310531854630e-02 1.062497776001691818e-02 2.282769083976745605e-01 3.144006710499525070e-03 5.659820884466171265e-02 -2.389444857835769653e-01 -3.042998313903808594e-01 -7.501623779535293579e-02 6.307215243577957153e-02 -7.855985313653945923e-02 -8.794095367193222046e-02 -2.615868858993053436e-02 -1.128040552139282227e-01 -7.803954929113388062e-02 4.390657320618629456e-02 5.842893570661544800e-02 2.021179199218750000e-01 3.092671558260917664e-02 -3.353992998600006104e-01 -8.022101968526840210e-02 1.482911258935928345e-01 -7.813420146703720093e-03 -5.446031689643859863e-02 2.850591540336608887e-01 2.411546707153320312e-01 -6.327391415834426880e-02 2.614645927678793669e-04 -3.247982589527964592e-03 1.316256076097488403e-01 5.824336409568786621e-02 1.955687068402767181e-02 -5.682025849819183350e-02 -5.650882422924041748e-02 7.732511311769485474e-02 3.748543933033943176e-02 -2.991033531725406647e-02 -3.057570457458496094e-01 3.404341265559196472e-02 1.456057429313659668e-01 -9.260520339012145996e-02 -4.692906886339187622e-02 4.152732342481613159e-02 -5.875115841627120972e-02 1.572570651769638062e-01 -2.614992558956146240e-01 3.251920044422149658e-01 -5.346032604575157166e-02 1.378478854894638062e-01 -3.060136921703815460e-02 -3.429661504924297333e-03 3.563936948776245117e-01 1.328186225146055222e-02 -3.898248374462127686e-01 -7.549727708101272583e-02 3.579130768775939941e-01 3.309066593647003174e-01 -5.156745202839374542e-03 -4.870347678661346436e-02 4.970203619450330734e-03 -4.006513580679893494e-02 -2.705833315849304199e-01 -1.312410552054643631e-02 1.891078501939773560e-01 3.560856729745864868e-02 -3.094458952546119690e-02 1.136541962623596191e-01 -1.706874743103981018e-02 1.395099610090255737e-01 -5.305624753236770630e-02 2.420507669448852539e-01 5.196629092097282410e-02 -2.382641881704330444e-01 -7.588768750429153442e-02 7.426514476537704468e-02 -5.732656121253967285e-01 1.816750466823577881e-01 -6.917659938335418701e-02 4.829504191875457764e-01 -1.155966594815254211e-01 -9.393373131752014160e-02 4.495594650506973267e-02 4.024837166070938110e-02 4.122499376535415649e-02 -8.433834910392761230e-01 -4.107788205146789551e-01 -2.627561092376708984e-01 -4.833054170012474060e-02 -7.199925184249877930e-02 -3.863159567117691040e-02 1.412739008665084839e-01 -4.491109251976013184e-01 -1.580955088138580322e-01 -1.190705001354217529e-01 -5.590603500604629517e-02 7.298363372683525085e-03 -1.230386719107627869e-01 -1.569867432117462158e-01 -2.485009878873825073e-01 2.308932542800903320e-01 1.704774610698223114e-02 4.082294180989265442e-02 -1.178420260548591614e-01 -6.260556727647781372e-02 2.019219286739826202e-02 1.775017008185386658e-02 6.065552681684494019e-02 3.178462088108062744e-01 1.761637330055236816e-01 9.030595421791076660e-02 -3.333585858345031738e-01 7.350828964263200760e-03 4.494240880012512207e-02
-1.775195002555847168e-01 1.619293689727783203e-01 4.524227231740951538e-02 -2.131081223487854004e-01 1.142924129962921143e-01 6.037820875644683838e-02 4.633462056517601013e-02 1.817070096731185913e-01 -5.097324252128601074e-01 -2.604100480675697327e-02 -2.496128082275390625e-01 -2.084762044250965118e-02 2.211455255746841431e-03 1.845381781458854675e-02 9.617672301828861237e-03 1.511446852236986160e-02 -9.288632869720458984e-02 -1.957091502845287323e-02 -1.749809831380844116e-01 -2.386692613363265991e-01 -1.268920600414276123e-01 2.050675451755523682e-03 -3.371312022209167480e-01 5.404524505138397217e-02 -3.368456661701202393e-02 5.364937335252761841e-02 -5.161722004413604736e-02 -8.878775686025619507e-02 2.470030635595321655e-02 5.834428593516349792e-02 -4.352760687470436096e-02 7.973939180374145508e-02 2.042391598224639893e-01 -8.140998482704162598e-01 4.941889345645904541e-01 -9.335090965032577515e-02 3.398613631725311279e-01 3.991974517703056335e-02 -9.290887974202632904e-03 3.190274238586425781e-01 7.385300844907760620e-02 2.131843566894531250e-02 2.561622671782970428e-02 -4.288140311837196350e-02 -1.951897740364074707e-01 1.307877451181411743e-01 -5.771678313612937927e-02 5.836702138185501099e-02 -7.814811915159225464e-02 3.171950876712799072e-01 1.495756208896636963e-01 -8.348581939935684204e-02 -4.814887344837188721e-01 2.887962572276592255e-02 8.467723615467548370e-03 -3.051636740565299988e-02 -2.365389615297317505e-01 1.777698993682861328e-01 6.733254995197057724e-03 -8.204648494720458984e-01 1.044139564037322998e-01 1.726043224334716797e-01 -8.497290313243865967e-03 -4.301087260246276855e-01 -2.866709977388381958e-02 7.404918223619461060e-02 -5.124650597572326660e-01 -7.042903453111648560e-02 -3.719435334205627441e-01 9.402751177549362183e-02 -5.914865136146545410e-01 2.026607841253280640e-02 7.938321679830551147e-02 3.142831614241003990e-03 -1.832394301891326904e-02 4.608415439724922180e-02 -3.430500030517578125e-01 1.196687202900648117e-02 -3.340561091899871826e-01 1.977130621671676636e-01 -3.777898848056793213e-02 6.096206977963447571e-02 8.592296391725540161e-03 -6.996227800846099854e-02 -4.293738678097724915e-02 -9.015887975692749023e-01 1.274888366460800171e-01 -5.879395604133605957e-01 -7.921042293310165405e-02 -5.229838192462921143e-02 -1.771645247936248779e-01 1.228378191590309143e-01 -7.421401888132095337e-02 -3.063380122184753418e-01 4.859311133623123169e-02 -6.195266172289848328e-02 -2.008962035179138184e-01 -9.412630461156368256e-03 1.979848742485046387e-02 -3.451886475086212158e-01 4.054518416523933411e-03 4.015992879867553711e-01 -8.724016696214675903e-02 1.298403590917587280e-01 6.729689240455627441e-02 9.446551650762557983e-02 3.714197874069213867e-02 -5.109401941299438477e-01 1.751289528328925371e-04 3.677304089069366455e-02 -4.244806170463562012e-01 4.466609284281730652e-02 -3.347068130970001221e-01 -1.891424059867858887e-01 -9.403268806636333466e-03 -7.880692183971405029e-02 -5.262066051363945007e-02 -4.641612768173217773e-01 -3.683580458164215088e-02 -4.855883494019508362e-02 -2.641581296920776367e-01 -3.424430191516876221e-01 4.699209332466125488e-02 2.313242703676223755e-01 -3.504842519760131836e-01 2.092027366161346436e-01 -8.209217339754104614e-02 1.013200804591178894e-01
1.211530119180679321e-01 9.930595755577087402e-02 3.989238664507865906e-02 2.466353327035903931e-01 6.707684695720672607e-02 -4.936973378062248230e-02 -2.516827080398797989e-03 1.384662538766860962e-01 1.448462754487991333e-01 -3.370039463043212891e-01 2.223774343729019165e-01 1.310731470584869385e-01 -7.779636234045028687e-02 -3.471640497446060181e-02 1.637691073119640350e-02 -6.597115099430084229e-02 -4.954480007290840149e-02 1.452050916850566864e-02 -2.161657959222793579e-01 2.765341997146606445e-01 -8.782635442912578583e-03 -3.779926002025604248e-01 2.182318419218063354e-01 -1.276921713724732399e-03 -1.087709050625562668e-02 4.998388141393661499e-02 3.589883819222450256e-02 -7.915008068084716797e-02 2.074417322874069214e-01 -8.119280636310577393e-02 -4.616405442357063293e-02 -7.176801562309265137e-02 -4.169838428497314453e-01 1.677690297365188599e-01 1.494592428207397461e-01 3.379972651600837708e-03 -6.624270975589752197e-02 1.183647289872169495e-02 2.030690759420394897e-02 -2.250782698392868042e-01 3.841337934136390686e-02 -1.255795061588287354e-01 -3.162244707345962524e-02 -7.429232355207204819e-04 -2.336175292730331421e-01 -3.602792024612426758e-01 -7.134292274713516235e-02 9.154572337865829468e-02 -2.885289676487445831e-02 -6.038827896118164062e-01 -3.019033074378967285e-01 6.564649194478988647e-02 1.326396167278289795e-01 5.614757165312767029e-02 -1.742173582315444946e-01 6.535048037767410278e-02 4.717828035354614258e-01 6.648464500904083252e-02 -2.351737394928932190e-02 4.986363276839256287e-02 -1.139802932739257812e-01 -7.396974414587020874e-02 -1.892096549272537231e-02 3.806647658348083496e-02 -2.994520962238311768e-02 -3.036339581012725830e-01 1.842810958623886108e-01 1.335278898477554321e-02 3.613379299640655518e-01 2.336221188306808472e-01 -3.062357008457183838e-01 2.798254191875457764e-01 -6.015824154019355774e-02 4.008877649903297424e-02 2.157125249505043030e-02 2.711627446115016937e-02 4.457399994134902954e-02 -8.829684811644256115e-04 -5.500272512435913086e-01 1.603350937366485596e-01 -7.285574823617935181e-02 4.137483537197113037e-01 2.990901842713356018e-02 1.144949272274971008e-01 2.156819030642509460e-02 -3.287062346935272217e-01 1.122481599450111389e-01 1.413521021604537964e-01 -5.656450986862182617e-02 -2.330440729856491089e-01 -2.734759263694286346e-02 -6.011196374893188477e-01 -8.019333332777023315e-02 -3.655978441238403320e-01 1.352768838405609131e-01 7.753051817417144775e-02 -2.352090477943420410e-01 7.771199196577072144e-02 -2.352961152791976929e-02 2.267150282859802246e-01 1.590538024902343750e-01 7.236216962337493896e-02 -8.495500683784484863e-02 -1.625112891197204590e-01 -1.819244772195816040e-01 -1.055287569761276245e-01 -4.729365929961204529e-02 6.098016630858182907e-03 7.230354100465774536e-02 1.366445273160934448e-01 1.695477217435836792e-02 -2.301840335130691528e-01 -1.588930785655975342e-01 2.258628904819488525e-01 4.570361226797103882e-02 4.701473191380500793e-02 6.586220860481262207e-02 8.147644996643066406e-02 6.050584092736244202e-02 1.182785630226135254e-02 4.198648408055305481e-02 1.949725449085235596e-01 1.054195836186408997e-01 -3.500457853078842163e-02 5.967064946889877319e-02 1.018425673246383667e-01 4.416175931692123413e-02 -2.485986202955245972e-01
-3.078314661979675293e-01 -3.875020444393157959e-01 2.345334365963935852e-02 8.602566272020339966e-02 -1.626965552568435669e-01 -6.277740746736526489e-02 8.185110986232757568e-02 2.283772826194763184e-01 -1.603759452700614929e-02 5.156281217932701111e-02 8.092495799064636230e-02 -6.833532452583312988e-01 -3.016072884202003479e-02 4.393545910716056824e-02 -7.015429437160491943e-02 1.513620279729366302e-02 6.618709862232208252e-02 1.877660453319549561e-01 1.313819438219070435e-01 -3.264276087284088135e-01 1.295987237244844437e-02 1.348872184753417969e-01 -2.126736342906951904e-01 4.451552778482437134e-02 -1.093731634318828583e-02 9.112159162759780884e-02 -2.754762955009937286e-02 -8.020713180303573608e-02 -8.583835363388061523e-01 1.465392298996448517e-02 2.291987091302871704e-02 6.171968206763267517e-02 -1.442890614271163940e-01 -2.128961309790611267e-02 -1.340566724538803101e-01 7.312450557947158813e-02 9.454735368490219116e-02 2.207184908911585808e-03 -7.720003277063369751e-02 -1.925901919603347778e-01 5.569893121719360352e-02 2.044366747140884399e-01 -7.045448571443557739e-02 -6.977522373199462891e-02 -1.744904555380344391e-02 8.894352614879608154e-02 -5.163364112377166748e-02 7.418201863765716553e-02 5.133067816495895386e-02 -1.270332634449005127e-01 1.094020828604698181e-01 -1.795613579452037811e-02 -4.503351449966430664e-02 1.661937497556209564e-02 6.788416206836700439e-02 -3.743365034461021423e-02 -2.776690721511840820e-01 -2.123745679855346680e-01 -6.517113745212554932e-02 8.091438561677932739e-03 7.205359172075986862e-03 1.390835493803024292e-01 -5.062513053417205811e-02 -1.285626180469989777e-02 -4.190291743725538254e-03 -4.118463993072509766e-01 -5.410812795162200928e-02 7.842469960451126099e-02 2.386778220534324646e-02 -5.271089076995849609e-01 3.706836327910423279e-02 -2.811687886714935303e-01 -2.732218056917190552e-02 1.770069822669029236e-02 6.698215752840042114e-02 -2.491180598735809326e-02 1.419400572776794434e-01 1.649939715862274170e-01 2.050340473651885986e-01 1.627735793590545654e-01 -7.015408575534820557e-02 -7.010226249694824219e-01 -7.391121238470077515e-02 -2.712517790496349335e-02 6.756953895092010498e-02 -6.638724207878112793e-01 1.493038982152938843e-01 -2.084287106990814209e-01 6.936872005462646484e-02 1.224726438522338867e-01 3.188158199191093445e-02 2.486204802989959717e-01 -5.804702639579772949e-02 -5.375554561614990234e-01 -5.068145394325256348e-01 5.413099005818367004e-02 9.511355310678482056e-02 -1.153776608407497406e-02 -1.087414100766181946e-02 -2.176889330148696899e-01 -4.515380263328552246e-01 -1.643176078796386719e-01 -1.229972764849662781e-02 7.266622036695480347e-02 -4.333150014281272888e-02 -1.992523521184921265e-01 -4.385074377059936523e-01 9.412489831447601318e-02 -5.717679113149642944e-02 1.111907288432121277e-01 -2.594543695449829102e-01 2.520691752433776855e-01 4.100455716252326965e-02 -1.082169339060783386e-01 -2.280384898185729980e-01 7.123932242393493652e-02 2.817310392856597900e-02 7.107865810394287109e-02 2.438717335462570190e-02 -8.870674669742584229e-02 -4.826185852289199829e-02 -9.489233605563640594e-03 4.691195860505104065e-02 -2.460541874170303345e-01 1.286226660013198853e-01 -4.767800122499465942e-02 3.745365142822265625e-02 1.740360707044601440e-01
-4.791551232337951660e-01 -1.665882170200347900e-01 9.580078721046447754e-02 1.589007489383220673e-02 -2.983236014842987061e-01 -4.771043732762336731e-02 1.168626127764582634e-03 -2.172720432281494141e-01 1.412675827741622925e-01 -2.721555233001708984e-01 -6.946676969528198242e-01 1.790143698453903198e-01 2.151923812925815582e-02 1.334703713655471802e-02 2.141899801790714264e-02 1.831651292741298676e-02 -5.523542873561382294e-03 -1.106256246566772461e-01 5.704751983284950256e-02 -2.165740728378295898e-01 -1.516975462436676025e-01 1.837175935506820679e-01 5.204037949442863464e-02 7.461338490247726440e-02 2.424977719783782959e-03 -4.082950204610824585e-02 5.621430277824401855e-02 -5.703499168157577515e-02 1.101968064904212952e-01 -4.349097609519958496e-02 -6.296571344137191772e-02 3.533381223678588867e-02 -1.359585374593734741e-01 2.241917550563812256e-01 2.124495990574359894e-02 6.999839842319488525e-02 -1.443695835769176483e-02 2.043269723653793335e-01 -6.124982610344886780e-02 1.611827015876770020e-01 1.226397231221199036e-03 4.962510243058204651e-02 7.031957805156707764e-02 7.528109848499298096e-02 4.071478545665740967e-02 -1.604815274477005005e-01 4.159347340464591980e-02 9.454254806041717529e-02 6.485527753829956055e-02 -6.248257160186767578e-01 -1.970301009714603424e-02 1.604204997420310974e-02 6.127981469035148621e-03 -2.362777478992938995e-03 5.298069491982460022e-02 -8.957444876432418823e-02 -7.204319834709167480e-01 -5.415278673171997070e-01 4.529654607176780701e-02 1.118165105581283569e-01 7.456402480602264404e-02 1.171847581863403320e-01 -4.299640655517578125e-03 5.846295133233070374e-02 -2.294033952057361603e-02 1.226604953408241272e-01 -4.118240773677825928e-01 -3.760634222999215126e-03 -6.147348284721374512e-01 -2.615938186645507812e-01 2.023638039827346802e-01 9.936404973268508911e-02 -9.955635666847229004e-02 6.517550349235534668e-02 6.832762062549591064e-02 3.868252784013748169e-02 4.992576315999031067e-02 -4.008160158991813660e-02 1.010890305042266846e-01 -5.975434184074401855e-01 2.759848162531852722e-02 -2.005990892648696899e-01 6.949021667242050171e-02 -5.816849321126937866e-02 4.953408986330032349e-02 3.144771158695220947e-01 -3.879985213279724121e-01 1.038547977805137634e-01 6.690184026956558228e-02 8.075271546840667725e-02 1.302700191736221313e-01 -1.724133342504501343e-01 -5.193600058555603027e-02 3.038301132619380951e-02 1.643714495003223419e-02 -5.360598489642143250e-02 1.983585208654403687e-02 -5.159751325845718384e-02 4.209258034825325012e-02 -2.318982481956481934e-01 1.574688591063022614e-02 8.559881150722503662e-02 -9.366166591644287109e-02 -2.201433852314949036e-02 -6.060074567794799805e-01 -4.118098914623260498e-01 2.759860157966613770e-01 1.009089201688766479e-01 1.154051870107650757e-01 -5.183833092451095581e-02 1.626670360565185547e-02 -4.202789068222045898e-01 1.072637140750885010e-01 2.279127836227416992e-01 -2.144541293382644653e-01 7.483197003602981567e-02 -6.601743400096893311e-02 7.215255498886108398e-02 -1.709136925637722015e-02 -4.319943115115165710e-02 2.567239403724670410e-01 9.606632590293884277e-02 -2.159510999917984009e-01 1.389852166175842285e-01 -1.457128487527370453e-02 7.888730615377426147e-02 -8.088722825050354004e-02 -2.640803344547748566e-02
